{"learner":{"attributes":{"scikit_learn":"{\"_estimator_type\": \"regressor\"}"},"feature_names":["lag_1","lag_2","lag_3","temperature_2m_mean","apparent_temperature_mean","dewpoint_2m_mean","precipitation_sum","rain_sum","snowfall_sum","wind_speed_10m_max","wind_direction_10m_dominant","shortwave_radiation_sum","et0_fao_evapotranspiration"],"feature_types":["float","float","float","float","float","float","float","float","float","float","float","float","float"],"gradient_booster":{"model":{"gbtree_model_param":{"num_parallel_tree":"1","num_trees":"905"},"iteration_indptr":[0,1,2,3,4,5,6,7,8,9,10,11,12,13,14,15,16,17,18,19,20,21,22,23,24,25,26,27,28,29,30,31,32,33,34,35,36,37,38,39,40,41,42,43,44,45,46,47,48,49,50,51,52,53,54,55,56,57,58,59,60,61,62,63,64,65,66,67,68,69,70,71,72,73,74,75,76,77,78,79,80,81,82,83,84,85,86,87,88,89,90,91,92,93,94,95,96,97,98,99,100,101,102,103,104,105,106,107,108,109,110,111,112,113,114,115,116,117,118,119,120,121,122,123,124,125,126,127,128,129,130,131,132,133,134,135,136,137,138,139,140,141,142,143,144,145,146,147,148,149,150,151,152,153,154,155,156,157,158,159,160,161,162,163,164,165,166,167,168,169,170,171,172,173,174,175,176,177,178,179,180,181,182,183,184,185,186,187,188,189,190,191,192,193,194,195,196,197,198,199,200,201,202,203,204,205,206,207,208,209,210,211,212,213,214,215,216,217,218,219,220,221,222,223,224,225,226,227,228,229,230,231,232,233,234,235,236,237,238,239,240,241,242,243,244,245,246,247,248,249,250,251,252,253,254,255,256,257,258,259,260,261,262,263,264,265,266,267,268,269,270,271,272,273,274,275,276,277,278,279,280,281,282,283,284,285,286,287,288,289,290,291,292,293,294,295,296,297,298,299,300,301,302,303,304,305,306,307,308,309,310,311,312,313,314,315,316,317,318,319,320,321,322,323,324,325,326,327,328,329,330,331,332,333,334,335,336,337,338,339,340,341,342,343,344,345,346,347,348,349,350,351,352,353,354,355,356,357,358,359,360,361,362,363,364,365,366,367,368,369,370,371,372,373,374,375,376,377,378,379,380,381,382,383,384,385,386,387,388,389,390,391,392,393,394,395,396,397,398,399,400,401,402,403,404,405,406,407,408,409,410,411,412,413,414,415,416,417,418,419,420,421,422,423,424,425,426,427,428,429,430,431,432,433,434,435,436,437,438,439,440,441,442,443,444,445,446,447,448,449,450,451,452,453,454,455,456,457,458,459,460,461,462,463,464,465,466,467,468,469,470,471,472,473,474,475,476,477,478,479,480,481,482,483,484,485,486,487,488,489,490,491,492,493,494,495,496,497,498,499,500,501,502,503,504,505,506,507,508,509,510,511,512,513,514,515,516,517,518,519,520,521,522,523,524,525,526,527,528,529,530,531,532,533,534,535,536,537,538,539,540,541,542,543,544,545,546,547,548,549,550,551,552,553,554,555,556,557,558,559,560,561,562,563,564,565,566,567,568,569,570,571,572,573,574,575,576,577,578,579,580,581,582,583,584,585,586,587,588,589,590,591,592,593,594,595,596,597,598,599,600,601,602,603,604,605,606,607,608,609,610,611,612,613,614,615,616,617,618,619,620,621,622,623,624,625,626,627,628,629,630,631,632,633,634,635,636,637,638,639,640,641,642,643,644,645,646,647,648,649,650,651,652,653,654,655,656,657,658,659,660,661,662,663,664,665,666,667,668,669,670,671,672,673,674,675,676,677,678,679,680,681,682,683,684,685,686,687,688,689,690,691,692,693,694,695,696,697,698,699,700,701,702,703,704,705,706,707,708,709,710,711,712,713,714,715,716,717,718,719,720,721,722,723,724,725,726,727,728,729,730,731,732,733,734,735,736,737,738,739,740,741,742,743,744,745,746,747,748,749,750,751,752,753,754,755,756,757,758,759,760,761,762,763,764,765,766,767,768,769,770,771,772,773,774,775,776,777,778,779,780,781,782,783,784,785,786,787,788,789,790,791,792,793,794,795,796,797,798,799,800,801,802,803,804,805,806,807,808,809,810,811,812,813,814,815,816,817,818,819,820,821,822,823,824,825,826,827,828,829,830,831,832,833,834,835,836,837,838,839,840,841,842,843,844,845,846,847,848,849,850,851,852,853,854,855,856,857,858,859,860,861,862,863,864,865,866,867,868,869,870,871,872,873,874,875,876,877,878,879,880,881,882,883,884,885,886,887,888,889,890,891,892,893,894,895,896,897,898,899,900,901,902,903,904,905],"tree_info":[0,0,0,0,0,0,0,0,0,0,0,0,0,0,0,0,0,0,0,0,0,0,0,0,0,0,0,0,0,0,0,0,0,0,0,0,0,0,0,0,0,0,0,0,0,0,0,0,0,0,0,0,0,0,0,0,0,0,0,0,0,0,0,0,0,0,0,0,0,0,0,0,0,0,0,0,0,0,0,0,0,0,0,0,0,0,0,0,0,0,0,0,0,0,0,0,0,0,0,0,0,0,0,0,0,0,0,0,0,0,0,0,0,0,0,0,0,0,0,0,0,0,0,0,0,0,0,0,0,0,0,0,0,0,0,0,0,0,0,0,0,0,0,0,0,0,0,0,0,0,0,0,0,0,0,0,0,0,0,0,0,0,0,0,0,0,0,0,0,0,0,0,0,0,0,0,0,0,0,0,0,0,0,0,0,0,0,0,0,0,0,0,0,0,0,0,0,0,0,0,0,0,0,0,0,0,0,0,0,0,0,0,0,0,0,0,0,0,0,0,0,0,0,0,0,0,0,0,0,0,0,0,0,0,0,0,0,0,0,0,0,0,0,0,0,0,0,0,0,0,0,0,0,0,0,0,0,0,0,0,0,0,0,0,0,0,0,0,0,0,0,0,0,0,0,0,0,0,0,0,0,0,0,0,0,0,0,0,0,0,0,0,0,0,0,0,0,0,0,0,0,0,0,0,0,0,0,0,0,0,0,0,0,0,0,0,0,0,0,0,0,0,0,0,0,0,0,0,0,0,0,0,0,0,0,0,0,0,0,0,0,0,0,0,0,0,0,0,0,0,0,0,0,0,0,0,0,0,0,0,0,0,0,0,0,0,0,0,0,0,0,0,0,0,0,0,0,0,0,0,0,0,0,0,0,0,0,0,0,0,0,0,0,0,0,0,0,0,0,0,0,0,0,0,0,0,0,0,0,0,0,0,0,0,0,0,0,0,0,0,0,0,0,0,0,0,0,0,0,0,0,0,0,0,0,0,0,0,0,0,0,0,0,0,0,0,0,0,0,0,0,0,0,0,0,0,0,0,0,0,0,0,0,0,0,0,0,0,0,0,0,0,0,0,0,0,0,0,0,0,0,0,0,0,0,0,0,0,0,0,0,0,0,0,0,0,0,0,0,0,0,0,0,0,0,0,0,0,0,0,0,0,0,0,0,0,0,0,0,0,0,0,0,0,0,0,0,0,0,0,0,0,0,0,0,0,0,0,0,0,0,0,0,0,0,0,0,0,0,0,0,0,0,0,0,0,0,0,0,0,0,0,0,0,0,0,0,0,0,0,0,0,0,0,0,0,0,0,0,0,0,0,0,0,0,0,0,0,0,0,0,0,0,0,0,0,0,0,0,0,0,0,0,0,0,0,0,0,0,0,0,0,0,0,0,0,0,0,0,0,0,0,0,0,0,0,0,0,0,0,0,0,0,0,0,0,0,0,0,0,0,0,0,0,0,0,0,0,0,0,0,0,0,0,0,0,0,0,0,0,0,0,0,0,0,0,0,0,0,0,0,0,0,0,0,0,0,0,0,0,0,0,0,0,0,0,0,0,0,0,0,0,0,0,0,0,0,0,0,0,0,0,0,0,0,0,0,0,0,0,0,0,0,0,0,0,0,0,0,0,0,0,0,0,0,0,0,0,0,0,0,0,0,0,0,0,0,0,0,0,0,0,0,0,0,0,0,0,0,0,0,0,0,0,0,0,0,0,0,0,0,0,0,0,0,0,0,0,0,0,0,0,0,0,0,0,0,0,0,0,0,0,0,0,0,0,0,0,0,0,0,0,0,0,0,0,0,0,0,0,0,0,0,0,0,0,0,0,0,0,0,0,0,0,0,0,0,0,0,0,0,0,0,0,0,0,0,0,0,0,0,0,0,0,0,0,0,0,0,0,0,0,0,0,0,0,0,0,0,0,0,0,0,0,0,0,0,0,0,0,0,0,0,0,0,0,0,0,0,0,0,0,0,0,0,0,0,0,0,0,0,0,0,0,0,0,0,0,0,0,0,0,0,0,0,0,0,0,0,0,0,0,0,0,0],"trees":[{"base_weights":[3.02577E-4,3.1873822E0,-1.3797909E0,5.067274E0,-4.7543567E-1,-7.822899E-2,-1.8649094E0,5.908542E0,1.9617156E0,1.5217135E0,-1.0422764E0,1.0698738E0,-2.0117154E0,2.2533855E-1,-2.0994265E0,5.2860836E-3,6.978377E-2,2.7886014E-2,-2.2683851E-2,-1.8009524E-3,3.760543E-2,-1.8948903E-2,1.0573089E-3,2.311966E-2,-6.240636E-3,-3.0645074E-2,-1.2622973E-2,3.3868402E-2,-1.7655747E-2,-2.5516408E-2,-1.23582715E-2],"categories":[],"categories_nodes":[],"categories_segments":[],"categories_sizes":[],"default_left":[0,0,0,0,0,0,0,0,0,0,0,0,0,0,0,0,0,0,0,0,0,0,0,0,0,0,0,0,0,0,0],"id":0,"left_children":[1,3,5,7,9,11,13,15,17,19,21,23,25,27,29,-1,-1,-1,-1,-1,-1,-1,-1,-1,-1,-1,-1,-1,-1,-1,-1],"loss_changes":[6.8704062E3,3.2524604E3,6.88093E2,8.0354297E2,1.838486E2,6.6144507E2,3.8969092E2,5.6664746E2,1.6124048E2,1.1541351E2,9.746776E1,3.162757E2,7.088489E1,4.2708997E2,1.4926123E2,0E0,0E0,0E0,0E0,0E0,0E0,0E0,0E0,0E0,0E0,0E0,0E0,0E0,0E0,0E0,0E0],"parents":[2147483647,0,0,1,1,2,2,3,3,4,4,5,5,6,6,7,7,8,8,9,9,10,10,11,11,12,12,13,13,14,14],"right_children":[2,4,6,8,10,12,14,16,18,20,22,24,26,28,30,-1,-1,-1,-1,-1,-1,-1,-1,-1,-1,-1,-1,-1,-1,-1,-1],"split_conditions":[1.3004922E1,2.308965E0,1.59134655E1,8.000001E-1,1.36825E1,4.040748E0,1.0980443E0,2.838709E0,1.9509563E0,1.2013749E1,2.236952E1,6E-1,2.6206018E1,3.6000001E0,2.8683748E1,5.2860836E-3,6.978377E-2,2.7886014E-2,-2.2683851E-2,-1.8009524E-3,3.760543E-2,-1.8948903E-2,1.0573089E-3,2.311966E-2,-6.240636E-3,-3.0645074E-2,-1.2622973E-2,3.3868402E-2,-1.7655747E-2,-2.5516408E-2,-1.23582715E-2],"split_indices":[9,12,9,6,3,12,12,4,12,3,4,6,4,6,4,0,0,0,0,0,0,0,0,0,0,0,0,0,0,0,0],"split_type":[0,0,0,0,0,0,0,0,0,0,0,0,0,0,0,0,0,0,0,0,0,0,0,0,0,0,0,0,0,0,0],"sum_hessian":[1.56E3,4.71E2,1.089E3,3.11E2,1.6E2,2.96E2,7.93E2,2.44E2,6.7E1,3.5E1,1.25E2,1.86E2,1.1E2,8E1,7.13E2,1.8E1,2.26E2,5.9E1,8E0,1.9E1,1.6E1,7.8E1,4.7E1,1.14E2,7.2E1,5.7E1,5.3E1,3.1E1,4.9E1,5.82E2,1.31E2],"tree_param":{"num_deleted":"0","num_feature":"13","num_nodes":"31","size_leaf_vector":"1"}},{"base_weights":[-8.403082E-2,-1.2911267E0,7.27108E0,-2.350981E0,1.0094107E0,9.521985E0,3.2021499E0,-3.011433E0,-1.4067729E0,2.4883168E0,-3.1956333E-1,6.829246E0,1.2084286E1,1.8760675E0,6.150575E0,-1.5240719E-2,-3.598051E-2,9.818539E-3,-1.8332064E-2,3.4683272E-2,8.673136E-3,3.587007E-3,-1.4612984E-2,7.948005E-2,2.3551682E-2,1.4697523E-1,8.244074E-2,-2.9493073E-2,2.4921048E-2,8.354242E-2,3.7422632E-3],"categories":[],"categories_nodes":[],"categories_segments":[],"categories_sizes":[],"default_left":[0,0,0,0,0,0,0,0,0,0,0,0,0,0,0,0,0,0,0,0,0,0,0,0,0,0,0,0,0,0,0],"id":1,"left_children":[1,3,5,7,9,11,13,15,17,19,21,23,25,27,29,-1,-1,-1,-1,-1,-1,-1,-1,-1,-1,-1,-1,-1,-1,-1,-1],"loss_changes":[1.4232464E4,3.3598228E3,2.0393916E3,5.8382227E2,8.557563E2,9.17917E2,3.090692E2,2.2616895E2,2.326695E2,2.2916492E2,1.4994783E2,1.1746533E2,3.237373E2,1.0827202E2,2.0598376E2,0E0,0E0,0E0,0E0,0E0,0E0,0E0,0E0,0E0,0E0,0E0,0E0,0E0,0E0,0E0,0E0],"parents":[2147483647,0,0,1,1,2,2,3,3,4,4,5,5,6,6,7,7,8,8,9,9,10,10,11,11,12,12,13,13,14,14],"right_children":[2,4,6,8,10,12,14,16,18,20,22,24,26,28,30,-1,-1,-1,-1,-1,-1,-1,-1,-1,-1,-1,-1,-1,-1,-1,-1],"split_conditions":[1.107E1,5.92E0,1.3237038E1,3.92E0,1.4848635E1,1.63E1,2.9358718E0,1.3419701E0,1.0805999E1,3.150252E0,7.0000005E-1,1.5216905E2,4E-1,1.3520541E1,1.9486609E1,-1.5240719E-2,-3.598051E-2,9.818539E-3,-1.8332064E-2,3.4683272E-2,8.673136E-3,3.587007E-3,-1.4612984E-2,7.948005E-2,2.3551682E-2,1.4697523E-1,8.244074E-2,-2.9493073E-2,2.4921048E-2,8.354242E-2,3.7422632E-3],"split_indices":[0,0,9,0,9,0,12,12,9,12,7,10,7,10,9,0,0,0,0,0,0,0,0,0,0,0,0,0,0,0,0],"split_type":[0,0,0,0,0,0,0,0,0,0,0,0,0,0,0,0,0,0,0,0,0,0,0,0,0,0,0,0,0,0,0],"sum_hessian":[1.601E3,1.376E3,2.25E2,9.42E2,4.34E2,1.44E2,8.1E1,5.53E2,3.89E2,2.05E2,2.29E2,7.2E1,7.2E1,5.7E1,2.4E1,7.6E1,4.77E2,3.9E1,3.5E2,1.47E2,5.8E1,1.4E2,8.9E1,6.6E1,6E0,5.5E1,1.7E1,4E0,5.3E1,1.9E1,5E0],"tree_param":{"num_deleted":"0","num_feature":"13","num_nodes":"31","size_leaf_vector":"1"}},{"base_weights":[2.138964E-2,-1.4126861E0,3.6364744E0,-3.579751E-1,-2.0192327E0,2.3572874E0,8.4591055E0,1.5551695E0,-1.4600961E0,-2.7878292E0,-1.1948375E0,3.3535705E0,-3.9062478E-2,3.3848727E0,1.0222977E1,-2.6429627E-2,2.4585517E-2,-3.632081E-3,-2.0066269E-2,-2.837012E-2,-3.6444765E-2,-1.8997736E-2,-6.155453E-3,-3.451934E-2,4.154003E-2,1.5002988E-2,-1.2314237E-2,-3.6899146E-2,5.2438784E-2,1.3600497E-1,3.1543363E-2],"categories":[],"categories_nodes":[],"categories_segments":[],"categories_sizes":[],"default_left":[0,0,0,0,0,0,0,0,0,0,0,0,0,0,0,0,0,0,0,0,0,0,0,0,0,0,0,0,0,0,0],"id":2,"left_children":[1,3,5,7,9,11,13,15,17,19,21,23,25,27,29,-1,-1,-1,-1,-1,-1,-1,-1,-1,-1,-1,-1,-1,-1,-1,-1],"loss_changes":[8.30521E3,7.330491E2,2.786975E3,8.878477E2,4.579497E2,8.619977E2,8.156748E2,4.179469E2,1.0866589E2,3.2978027E1,1.18068726E2,7.0434644E2,1.633487E2,2.5709573E2,1.0603926E3,0E0,0E0,0E0,0E0,0E0,0E0,0E0,0E0,0E0,0E0,0E0,0E0,0E0,0E0,0E0,0E0],"parents":[2147483647,0,0,1,1,2,2,3,3,4,4,5,5,6,6,7,7,8,8,9,9,10,10,11,11,12,12,13,13,14,14],"right_children":[2,4,6,8,10,12,14,16,18,20,22,24,26,28,30,-1,-1,-1,-1,-1,-1,-1,-1,-1,-1,-1,-1,-1,-1,-1,-1],"split_conditions":[7.69E0,1.447E1,1.63E1,3E-1,3.97E0,7.0000005E-1,4.1922516E1,2.6151829E1,1.5E0,2.4048253E2,5.46E0,1.4154383E1,7.25E0,4.1331844E0,1.6389899E2,-2.6429627E-2,2.4585517E-2,-3.632081E-3,-2.0066269E-2,-2.837012E-2,-3.6444765E-2,-1.8997736E-2,-6.155453E-3,-3.451934E-2,4.154003E-2,1.5002988E-2,-1.2314237E-2,-3.6899146E-2,5.2438784E-2,1.3600497E-1,3.1543363E-2],"split_indices":[1,11,1,7,1,7,10,10,7,10,1,10,11,10,10,0,0,0,0,0,0,0,0,0,0,0,0,0,0,0,0],"split_type":[0,0,0,0,0,0,0,0,0,0,0,0,0,0,0,0,0,0,0,0,0,0,0,0,0,0,0,0,0,0,0],"sum_hessian":[1.6E3,1.146E3,4.54E2,4.19E2,7.27E2,3.6E2,9.4E1,1.53E2,2.66E2,3.75E2,3.52E2,2.54E2,1.06E2,2.5E1,6.9E1,2.2E1,1.31E2,6.5E1,2.01E2,2.71E2,1.04E2,1.91E2,1.61E2,1.5E1,2.39E2,4.6E1,6E1,4E0,2.1E1,5.3E1,1.6E1],"tree_param":{"num_deleted":"0","num_feature":"13","num_nodes":"31","size_leaf_vector":"1"}},{"base_weights":[2.6673015E-2,-1.236281E0,7.146921E0,-2.2910883E0,1.0827514E0,4.760006E0,1.0570718E1,-2.8991847E0,-1.4076668E0,1.5909339E0,-3.8745567E-1,5.7415614E0,2.4511812E0,1.2491832E1,6.700913E0,-1.5501409E-2,-3.433318E-2,2.5546497E-3,-1.8320484E-2,2.6400736E-2,-5.747117E-4,-1.6660426E-2,1.660029E-3,5.137768E-2,7.741163E-2,-2.4727583E-2,2.997386E-2,1.4234386E-1,-8.667521E-3,8.613745E-2,2.8558776E-2],"categories":[],"categories_nodes":[],"categories_segments":[],"categories_sizes":[],"default_left":[0,0,0,0,0,0,0,0,0,0,0,0,0,0,0,0,0,0,0,0,0,0,0,0,0,0,0,0,0,0,0],"id":3,"left_children":[1,3,5,7,9,11,13,15,17,19,21,23,25,27,29,-1,-1,-1,-1,-1,-1,-1,-1,-1,-1,-1,-1,-1,-1,-1,-1],"loss_changes":[1.4504821E4,3.3536824E3,1.9355547E3,5.019668E2,3.211367E2,3.1453125E2,6.5229297E2,1.7715771E2,1.6238983E2,4.2283002E2,6.746156E1,1.0718872E2,6.3316895E1,3.8481152E2,1.408761E2,0E0,0E0,0E0,0E0,0E0,0E0,0E0,0E0,0E0,0E0,0E0,0E0,0E0,0E0,0E0,0E0],"parents":[2147483647,0,0,1,1,2,2,3,3,4,4,5,5,6,6,7,7,8,8,9,9,10,10,11,11,12,12,13,13,14,14],"right_children":[2,4,6,8,10,12,14,16,18,20,22,24,26,28,30,-1,-1,-1,-1,-1,-1,-1,-1,-1,-1,-1,-1,-1,-1,-1,-1],"split_conditions":[1.107E1,5.92E0,1.63E1,3.92E0,1.6E0,3E-1,1.2107499E1,1.3419701E0,9.740833E0,3.9243984E0,6.87E0,1.376E1,7.9658318E0,2.2896836E0,1.8000002E0,-1.5501409E-2,-3.433318E-2,2.5546497E-3,-1.8320484E-2,2.6400736E-2,-5.747117E-4,-1.6660426E-2,1.660029E-3,5.137768E-2,7.741163E-2,-2.4727583E-2,2.997386E-2,1.4234386E-1,-8.667521E-3,8.613745E-2,2.8558776E-2],"split_indices":[0,0,0,0,6,6,3,12,3,12,0,0,3,12,6,0,0,0,0,0,0,0,0,0,0,0,0,0,0,0,0],"split_type":[0,0,0,0,0,0,0,0,0,0,0,0,0,0,0,0,0,0,0,0,0,0,0,0,0,0,0,0,0,0,0],"sum_hessian":[1.611E3,1.369E3,2.42E2,9.41E2,4.28E2,1.44E2,9.8E1,5.56E2,3.85E2,3.18E2,1.1E2,1E2,4.4E1,6.4E1,3.4E1,7.2E1,4.84E2,5.2E1,3.33E2,2.13E2,1.05E2,3.5E1,7.5E1,5.7E1,4.3E1,2E0,4.2E1,6.2E1,2E0,2.6E1,8E0],"tree_param":{"num_deleted":"0","num_feature":"13","num_nodes":"31","size_leaf_vector":"1"}},{"base_weights":[-2.8853301E-2,-1.015407E0,5.0455093E0,-2.001919E0,3.3516386E-1,3.9071896E0,9.944258E0,-4.3488625E-1,-2.5207877E0,1.8959837E0,-4.8857042E-1,5.317491E0,3.5206354E-1,2.192244E0,1.0794672E1,1.2686223E-2,-1.9389482E-2,-3.138902E-2,-2.1831049E-2,3.4252282E-2,-1.2687632E-2,-1.360698E-3,-1.5570794E-2,2.0212205E-2,8.2929455E-2,2.7950607E-2,-9.460356E-3,4.6650223E-2,-1.3916918E-2,6.2691845E-2,1.4113036E-1],"categories":[],"categories_nodes":[],"categories_segments":[],"categories_sizes":[],"default_left":[0,0,0,0,0,0,0,0,0,0,0,0,0,0,0,0,0,0,0,0,0,0,0,0,0,0,0,0,0,0,0],"id":4,"left_children":[1,3,5,7,9,11,13,15,17,19,21,23,25,27,29,-1,-1,-1,-1,-1,-1,-1,-1,-1,-1,-1,-1,-1,-1,-1,-1],"loss_changes":[7.9348345E3,1.7687052E3,1.3998413E3,6.2253955E2,7.2220447E2,1.0560396E3,2.9277148E2,4.059836E2,9.6548096E1,7.216864E2,1.2412446E2,1.1498203E3,1.6368466E2,4.7736732E1,3.7040527E2,0E0,0E0,0E0,0E0,0E0,0E0,0E0,0E0,0E0,0E0,0E0,0E0,0E0,0E0,0E0,0E0],"parents":[2147483647,0,0,1,1,2,2,3,3,4,4,5,5,6,6,7,7,8,8,9,9,10,10,11,11,12,12,13,13,14,14],"right_children":[2,4,6,8,10,12,14,16,18,20,22,24,26,28,30,-1,-1,-1,-1,-1,-1,-1,-1,-1,-1,-1,-1,-1,-1,-1,-1],"split_conditions":[1.049E1,5E0,1.913E1,2.0526206E0,1.965393E0,6E-1,7.550334E-1,1.3000001E0,3.67E0,2.6000001E0,6E-1,4.550697E1,1.2028486E0,2.133E1,1.777E1,1.2686223E-2,-1.9389482E-2,-3.138902E-2,-2.1831049E-2,3.4252282E-2,-1.2687632E-2,-1.360698E-3,-1.5570794E-2,2.0212205E-2,8.2929455E-2,2.7950607E-2,-9.460356E-3,4.6650223E-2,-1.3916918E-2,6.2691845E-2,1.4113036E-1],"split_indices":[1,1,1,12,12,7,12,7,1,7,7,10,12,2,2,0,0,0,0,0,0,0,0,0,0,0,0,0,0,0,0],"split_type":[0,0,0,0,0,0,0,0,0,0,0,0,0,0,0,0,0,0,0,0,0,0,0,0,0,0,0,0,0,0,0],"sum_hessian":[1.583E3,1.326E3,2.57E2,7.66E2,5.6E2,2.1E2,4.7E1,1.91E2,5.75E2,1.93E2,3.67E2,1.5E2,6E1,5E0,4.2E1,8.7E1,1.04E2,3.54E2,2.21E2,1.38E2,5.5E1,2.64E2,1.03E2,5.9E1,9.1E1,2.1E1,3.9E1,3E0,2E0,1.3E1,2.9E1],"tree_param":{"num_deleted":"0","num_feature":"13","num_nodes":"31","size_leaf_vector":"1"}},{"base_weights":[-8.623378E-3,-1.439607E0,3.5720065E0,1.8039633E-1,-2.219218E0,6.860294E0,8.613231E-1,2.198626E0,-1.1749939E0,-2.8922057E0,-1.6504022E0,5.0435033E0,1.1975551E1,-1.2490723E0,1.7557454E0,1.1438588E-2,3.8855907E-2,-2.374085E-2,-2.8644549E-3,-3.996194E-2,-3.0396555E-2,-3.926142E-2,-1.644315E-2,8.26112E-2,4.4207525E-2,7.73711E-2,1.476592E-1,3.610368E-3,-3.4802176E-2,1.2086556E-2,6.26309E-2],"categories":[],"categories_nodes":[],"categories_segments":[],"categories_sizes":[],"default_left":[0,0,0,0,0,0,0,0,0,0,0,0,0,0,0,0,0,0,0,0,0,0,0,0,0,0,0,0,0,0,0],"id":5,"left_children":[1,3,5,7,9,11,13,15,17,19,21,23,25,27,29,-1,-1,-1,-1,-1,-1,-1,-1,-1,-1,-1,-1,-1,-1,-1,-1],"loss_changes":[8.1468965E3,1.435137E3,4.0408228E3,1.0147143E3,2.888391E2,1.8447373E3,4.7408923E2,2.2615753E2,1.9865344E2,2.400879E1,1.2053284E2,3.5694824E2,2.817163E2,2.2707462E2,4.4920508E2,0E0,0E0,0E0,0E0,0E0,0E0,0E0,0E0,0E0,0E0,0E0,0E0,0E0,0E0,0E0,0E0],"parents":[2147483647,0,0,1,1,2,2,3,3,4,4,5,5,6,6,7,7,8,8,9,9,10,10,11,11,12,12,13,13,14,14],"right_children":[2,4,6,8,10,12,14,16,18,20,22,24,26,28,30,-1,-1,-1,-1,-1,-1,-1,-1,-1,-1,-1,-1,-1,-1,-1,-1],"split_conditions":[7.65E0,1.4458382E1,1.3004922E1,2.0526206E0,3.83E0,1.725E1,9.798926E1,4.15E0,3.97E0,2.6151829E1,2.056931E1,1.0937136E0,4.1922516E1,1.803237E1,1.63E1,1.1438588E-2,3.8855907E-2,-2.374085E-2,-2.8644549E-3,-3.996194E-2,-3.0396555E-2,-3.926142E-2,-1.644315E-2,8.26112E-2,4.4207525E-2,7.73711E-2,1.476592E-1,3.610368E-3,-3.4802176E-2,1.2086556E-2,6.26309E-2],"split_indices":[1,9,9,12,1,1,10,1,1,10,10,12,10,9,1,0,0,0,0,0,0,0,0,0,0,0,0,0,0,0,0],"split_type":[0,0,0,0,0,0,0,0,0,0,0,0,0,0,0,0,0,0,0,0,0,0,0,0,0,0,0,0,0,0,0],"sum_hessian":[1.588E3,1.135E3,4.53E2,3.69E2,7.66E2,2.04E2,2.49E2,1.48E2,2.21E2,3.49E2,4.17E2,1.52E2,5.2E1,7.4E1,1.75E2,8E1,6.8E1,1.06E2,1.15E2,4.9E1,3E2,3E1,3.87E2,4.3E1,1.09E2,1.3E1,3.9E1,4.1E1,3.3E1,1.51E2,2.4E1],"tree_param":{"num_deleted":"0","num_feature":"13","num_nodes":"31","size_leaf_vector":"1"}},{"base_weights":[4.5618575E-2,3.2561572E0,-1.3378254E0,5.175731E0,-1.7783028E-1,-2.0810418E0,4.1086626E-1,4.3594217E0,1.0345551E1,-1.3165601E0,1.9158676E0,-2.6362634E0,-1.5903755E0,1.7176756E0,-8.984181E-1,5.458619E-2,1.1620401E-2,7.784536E-2,1.4155275E-1,-9.5259794E-4,-1.9219764E-2,3.386632E-2,-8.908697E-3,-1.34882135E-2,-3.0596651E-2,-2.4533598E-3,-1.9664368E-2,2.5136871E-2,-2.2948124E-2,-1.30685E-2,6.4087376E-2],"categories":[],"categories_nodes":[],"categories_segments":[],"categories_sizes":[],"default_left":[0,0,0,0,0,0,0,0,0,0,0,0,0,0,0,0,0,0,0,0,0,0,0,0,0,0,0,0,0,0,0],"id":6,"left_children":[1,3,5,7,9,11,13,15,17,19,21,23,25,27,29,-1,-1,-1,-1,-1,-1,-1,-1,-1,-1,-1,-1,-1,-1,-1,-1],"loss_changes":[7.0354087E3,3.1452065E3,1.4395745E3,1.2462715E3,4.1259723E2,2.0748438E2,5.678793E2,5.1984326E2,2.461289E2,5.891455E1,1.952056E2,6.942212E1,1.10441895E2,3.612639E2,3.284146E2,0E0,0E0,0E0,0E0,0E0,0E0,0E0,0E0,0E0,0E0,0E0,0E0,0E0,0E0,0E0,0E0],"parents":[2147483647,0,0,1,1,2,2,3,3,4,4,5,5,6,6,7,7,8,8,9,9,10,10,11,11,12,12,13,13,14,14],"right_children":[2,4,6,8,10,12,14,16,18,20,22,24,26,28,30,-1,-1,-1,-1,-1,-1,-1,-1,-1,-1,-1,-1,-1,-1,-1,-1],"split_conditions":[1.2864649E1,1.4565833E1,6.63E0,1.688E1,6.7E0,3.75E0,1.8E1,1.503E1,8.857739E0,1.43E1,1.715E1,9.703334E0,1.4255272E1,5.8999996E0,2.133E1,5.458619E-2,1.1620401E-2,7.784536E-2,1.4155275E-1,-9.5259794E-4,-1.9219764E-2,3.386632E-2,-8.908697E-3,-1.34882135E-2,-3.0596651E-2,-2.4533598E-3,-1.9664368E-2,2.5136871E-2,-2.2948124E-2,-1.30685E-2,6.4087376E-2],"split_indices":[9,3,2,2,2,2,9,11,4,11,11,3,9,6,2,0,0,0,0,0,0,0,0,0,0,0,0,0,0,0,0],"split_type":[0,0,0,0,0,0,0,0,0,0,0,0,0,0,0,0,0,0,0,0,0,0,0,0,0,0,0,0,0,0,0],"sum_hessian":[1.582E3,4.76E2,1.106E3,3.05E2,1.71E2,7.76E2,3.3E2,2.65E2,4E1,1.11E2,6E1,3.62E2,4.14E2,1.65E2,1.65E2,2.24E2,4.1E1,1.9E1,2.1E1,2.9E1,8.2E1,4.2E1,1.8E1,3.4E1,3.28E2,5.2E1,3.62E2,1.44E2,2.1E1,1.59E2,6E0],"tree_param":{"num_deleted":"0","num_feature":"13","num_nodes":"31","size_leaf_vector":"1"}},{"base_weights":[-3.293916E-2,-1.2399505E0,7.38248E0,-2.282366E0,8.544574E-1,6.0014586E0,1.3023932E1,-3.116456E0,-1.6399457E0,1.3956888E0,-2.700642E-1,-2.9161882E-1,6.571867E0,1.4321391E1,7.310183E0,-2.3718493E-2,-3.6555428E-2,-8.939517E-4,-2.0602088E-2,2.9750807E-2,6.404675E-3,-1.6255384E-2,3.6963834E-3,-1.5761225E-2,3.8378384E-2,7.86758E-2,1.9455124E-2,3.6446672E-2,1.6028194E-1,8.78382E-2,7.2383196E-3],"categories":[],"categories_nodes":[],"categories_segments":[],"categories_sizes":[],"default_left":[0,0,0,0,0,0,0,0,0,0,0,0,0,0,0,0,0,0,0,0,0,0,0,0,0,0,0,0,0,0,0],"id":7,"left_children":[1,3,5,7,9,11,13,15,17,19,21,23,25,27,29,-1,-1,-1,-1,-1,-1,-1,-1,-1,-1,-1,-1,-1,-1,-1,-1],"loss_changes":[1.4258343E4,2.992993E3,1.6592227E3,4.851797E2,2.7791052E2,6.516382E2,2.1408203E2,7.0448975E1,1.8662769E2,3.2587378E2,1.09344376E2,7.385108E1,4.4402344E2,3.921338E1,3.907721E1,0E0,0E0,0E0,0E0,0E0,0E0,0E0,0E0,0E0,0E0,0E0,0E0,0E0,0E0,0E0,0E0],"parents":[2147483647,0,0,1,1,2,2,3,3,4,4,5,5,6,6,7,7,8,8,9,9,10,10,11,11,12,12,13,13,14,14],"right_children":[2,4,6,8,10,12,14,16,18,20,22,24,26,28,30,-1,-1,-1,-1,-1,-1,-1,-1,-1,-1,-1,-1,-1,-1,-1,-1],"split_conditions":[1.107E1,5.78E0,1.992E1,3.42E0,8E-1,2.3574648E1,1.1824168E1,9.897084E0,9.740833E0,1.336375E1,6.87E0,1.0824166E1,5E0,1.9554167E0,2.41E1,-2.3718493E-2,-3.6555428E-2,-8.939517E-4,-2.0602088E-2,2.9750807E-2,6.404675E-3,-1.6255384E-2,3.6963834E-3,-1.5761225E-2,3.8378384E-2,7.86758E-2,1.9455124E-2,3.6446672E-2,1.6028194E-1,8.78382E-2,7.2383196E-3],"split_indices":[0,0,0,0,6,10,3,3,3,3,0,3,6,5,1,0,0,0,0,0,0,0,0,0,0,0,0,0,0,0,0],"split_type":[0,0,0,0,0,0,0,0,0,0,0,0,0,0,0,0,0,0,0,0,0,0,0,0,0,0,0,0,0,0,0],"sum_hessian":[1.591E3,1.369E3,2.22E2,9.14E2,4.55E2,1.8E2,4.2E1,3.96E2,5.18E2,3.07E2,1.48E2,1.5E1,1.65E2,3.3E1,9E0,7.1E1,3.25E2,6.7E1,4.51E2,1.17E2,1.9E2,4.9E1,9.9E1,1.2E1,3E0,1.47E2,1.8E1,1E0,3.2E1,8E0,1E0],"tree_param":{"num_deleted":"0","num_feature":"13","num_nodes":"31","size_leaf_vector":"1"}},{"base_weights":[-4.2184137E-2,-1.3657404E0,3.3269618E0,1.9309433E-1,-2.0985003E0,6.397909E0,7.6473045E-1,2.1972625E0,-1.1199175E0,-2.742743E0,-1.4488906E0,4.6911798E0,1.1083556E1,2.3984582E0,-2.0365214E-1,3.4386035E-2,-3.6637706E-3,-1.94223E-2,5.198648E-3,-1.4626443E-2,-3.0700997E-2,-8.911873E-3,-2.0255681E-2,6.0384452E-2,2.3900595E-2,5.526266E-2,1.3082772E-1,3.2432836E-2,-2.086682E-2,2.8586745E-2,-1.0117074E-2],"categories":[],"categories_nodes":[],"categories_segments":[],"categories_sizes":[],"default_left":[0,0,0,0,0,0,0,0,0,0,0,0,0,0,0,0,0,0,0,0,0,0,0,0,0,0,0,0,0,0,0],"id":8,"left_children":[1,3,5,7,9,11,13,15,17,19,21,23,25,27,29,-1,-1,-1,-1,-1,-1,-1,-1,-1,-1,-1,-1,-1,-1,-1,-1],"loss_changes":[7.1304316E3,1.31171E3,3.5437915E3,9.708515E2,3.2287988E2,1.587417E3,3.9126062E2,3.428001E2,2.2938077E2,2.1260742E1,9.616699E1,2.9163428E2,2.0127979E2,2.2151276E2,3.1466882E2,0E0,0E0,0E0,0E0,0E0,0E0,0E0,0E0,0E0,0E0,0E0,0E0,0E0,0E0,0E0,0E0],"parents":[2147483647,0,0,1,1,2,2,3,3,4,4,5,5,6,6,7,7,8,8,9,9,10,10,11,11,12,12,13,13,14,14],"right_children":[2,4,6,8,10,12,14,16,18,20,22,24,26,28,30,-1,-1,-1,-1,-1,-1,-1,-1,-1,-1,-1,-1,-1,-1,-1,-1],"split_conditions":[7.69E0,1.4255272E1,1.3004922E1,2.0526206E0,3.97E0,1.63E1,1.609969E1,2.6999998E0,5.38E0,3.9E0,1.7731598E1,1.1592894E1,4.9283333E0,5.8999996E0,1.1365013E0,3.4386035E-2,-3.6637706E-3,-1.94223E-2,5.198648E-3,-1.4626443E-2,-3.0700997E-2,-8.911873E-3,-2.0255681E-2,6.0384452E-2,2.3900595E-2,5.526266E-2,1.3082772E-1,3.2432836E-2,-2.086682E-2,2.8586745E-2,-1.0117074E-2],"split_indices":[1,9,9,12,1,1,9,6,1,11,9,9,5,6,12,0,0,0,0,0,0,0,0,0,0,0,0,0,0,0,0],"split_type":[0,0,0,0,0,0,0,0,0,0,0,0,0,0,0,0,0,0,0,0,0,0,0,0,0,0,0,0,0,0,0],"sum_hessian":[1.597E3,1.147E3,4.5E2,3.67E2,7.8E2,2.04E2,2.46E2,1.45E2,2.22E2,3.9E2,3.9E2,1.51E2,5.3E1,9.1E1,1.55E2,1.06E2,3.9E1,1.58E2,6.4E1,1.3E1,3.77E2,1.49E2,2.41E2,1.14E2,3.7E1,7E0,4.6E1,8.1E1,1E1,3.1E1,1.24E2],"tree_param":{"num_deleted":"0","num_feature":"13","num_nodes":"31","size_leaf_vector":"1"}},{"base_weights":[2.6978245E-2,-1.2038635E0,6.8888083E0,-2.2058084E0,9.0975565E-1,5.568735E0,1.2335013E1,-2.781252E0,-1.3341886E0,2.3594089E0,-3.2076177E-1,7.696632E0,3.5933652E0,1.3874518E1,4.4643264E0,-1.5962413E-2,-3.311147E-2,7.2952644E-3,-1.7438037E-2,3.2767132E-2,9.041043E-3,-2.8455922E-2,-1.0700508E-3,6.2059473E-2,9.931183E-2,4.7794044E-2,-1.6115922E-2,1.5574776E-1,2.1687632E-2,8.828008E-2,1.4890473E-2],"categories":[],"categories_nodes":[],"categories_segments":[],"categories_sizes":[],"default_left":[0,0,0,0,0,0,0,0,0,0,0,0,0,0,0,0,0,0,0,0,0,0,0,0,0,0,0,0,0,0,0],"id":9,"left_children":[1,3,5,7,9,11,13,15,17,19,21,23,25,27,29,-1,-1,-1,-1,-1,-1,-1,-1,-1,-1,-1,-1,-1,-1,-1,-1],"loss_changes":[1.3327362E4,2.835529E3,1.6567627E3,4.5171338E2,7.695846E2,7.9200244E2,4.9543994E2,1.5962158E2,1.8174841E2,1.852218E2,1.1816382E2,2.0251758E2,3.9526538E2,9.362988E1,8.865442E1,0E0,0E0,0E0,0E0,0E0,0E0,0E0,0E0,0E0,0E0,0E0,0E0,0E0,0E0,0E0,0E0],"parents":[2147483647,0,0,1,1,2,2,3,3,4,4,5,5,6,6,7,7,8,8,9,9,10,10,11,11,12,12,13,13,14,14],"right_children":[2,4,6,8,10,12,14,16,18,20,22,24,26,28,30,-1,-1,-1,-1,-1,-1,-1,-1,-1,-1,-1,-1,-1,-1,-1,-1],"split_conditions":[1.107E1,5.92E0,1.992E1,3.92E0,1.4848635E1,1.1384198E1,1.2864649E1,1.1808878E1,1.0805999E1,1.663E1,2.4321884E1,1.338E1,2.4336637E1,1.552E1,7.5450015E0,-1.5962413E-2,-3.311147E-2,7.2952644E-3,-1.7438037E-2,3.2767132E-2,9.041043E-3,-2.8455922E-2,-1.0700508E-3,6.2059473E-2,9.931183E-2,4.7794044E-2,-1.6115922E-2,1.5574776E-1,2.1687632E-2,8.828008E-2,1.4890473E-2],"split_indices":[0,0,0,0,9,9,9,9,9,11,10,0,9,11,5,0,0,0,0,0,0,0,0,0,0,0,0,0,0,0,0],"split_type":[0,0,0,0,0,0,0,0,0,0,0,0,0,0,0,0,0,0,0,0,0,0,0,0,0,0,0,0,0,0,0],"sum_hessian":[1.576E3,1.337E3,2.39E2,9.07E2,4.3E2,1.94E2,4.5E1,5.45E2,3.62E2,1.97E2,2.33E2,9.2E1,1.02E2,3.7E1,8E0,8E1,4.65E2,4E1,3.22E2,1.4E2,5.7E1,2E1,2.13E2,3.8E1,5.4E1,8.9E1,1.3E1,3.6E1,1E0,3E0,5E0],"tree_param":{"num_deleted":"0","num_feature":"13","num_nodes":"31","size_leaf_vector":"1"}},{"base_weights":[4.3818343E-2,-1.1559155E0,7.1184554E0,-2.1567492E0,9.8061395E-1,9.216057E0,3.8616793E0,-2.741401E0,-1.2304798E0,2.2310023E0,-4.8402962E-1,5.1671104E0,1.0939909E1,4.80728E0,-1.3759286E0,-1.4008259E-2,-3.259793E-2,1.0248484E-2,-1.6437836E-2,3.1060532E-2,2.521054E-3,-3.5402246E-2,-2.9154215E-3,6.2246818E-2,2.761797E-3,1.0288702E-1,1.4553471E-1,4.736797E-2,1.4555952E-1,-2.7119057E-2,2.4536565E-2],"categories":[],"categories_nodes":[],"categories_segments":[],"categories_sizes":[],"default_left":[0,0,0,0,0,0,0,0,0,0,0,0,0,0,0,0,0,0,0,0,0,0,0,0,0,0,0,0,0,0,0],"id":10,"left_children":[1,3,5,7,9,11,13,15,17,19,21,23,25,27,29,-1,-1,-1,-1,-1,-1,-1,-1,-1,-1,-1,-1,-1,-1,-1,-1],"loss_changes":[1.3639445E4,2.9401545E3,1.5561309E3,5.035127E2,8.050526E2,9.2762305E2,4.672141E2,1.8039404E2,2.0764618E2,2.7907825E2,1.2070966E2,1.0357495E2,2.326914E2,2.7929553E2,6.423351E1,0E0,0E0,0E0,0E0,0E0,0E0,0E0,0E0,0E0,0E0,0E0,0E0,0E0,0E0,0E0,0E0],"parents":[2147483647,0,0,1,1,2,2,3,3,4,4,5,5,6,6,7,7,8,8,9,9,10,10,11,11,12,12,13,13,14,14],"right_children":[2,4,6,8,10,12,14,16,18,20,22,24,26,28,30,-1,-1,-1,-1,-1,-1,-1,-1,-1,-1,-1,-1,-1,-1,-1,-1],"split_conditions":[1.107E1,5.92E0,1.2594856E1,4.05E0,1.59134655E1,1.376E1,2.4842607E1,1.3820254E0,1.0805999E1,3.7516408E0,5.4009337E0,1.637E1,1.913E1,2.233161E1,1.0384958E1,-1.4008259E-2,-3.259793E-2,1.0248484E-2,-1.6437836E-2,3.1060532E-2,2.521054E-3,-3.5402246E-2,-2.9154215E-3,6.2246818E-2,2.761797E-3,1.0288702E-1,1.4553471E-1,4.736797E-2,1.4555952E-1,-2.7119057E-2,2.4536565E-2],"split_indices":[0,0,9,0,9,0,9,12,9,12,4,2,0,9,4,0,0,0,0,0,0,0,0,0,0,0,0,0,0,0,0],"split_type":[0,0,0,0,0,0,0,0,0,0,0,0,0,0,0,0,0,0,0,0,0,0,0,0,0,0,0,0,0,0,0],"sum_hessian":[1.605E3,1.373E3,2.32E2,9.35E2,4.38E2,1.4E2,9.2E1,5.72E2,3.63E2,2.36E2,2.02E2,4.3E1,9.7E1,7.8E1,1.4E1,7.5E1,4.97E2,3.9E1,3.24E2,1.82E2,5.4E1,1.4E1,1.88E2,3.9E1,4E0,6E1,3.7E1,7.5E1,3E0,1.1E1,3E0],"tree_param":{"num_deleted":"0","num_feature":"13","num_nodes":"31","size_leaf_vector":"1"}},{"base_weights":[-2.4466818E-2,-1.0239079E0,7.866284E0,-2.0315428E0,1.4180783E0,5.413603E0,1.0634099E1,-2.7222593E0,-1.1274244E0,1.8156179E0,-8.091814E-1,-3.1109255E-2,5.6146655E0,1.1505599E1,3.034438E0,-3.4643218E-2,-2.6047677E-2,-8.729924E-3,-1.9203605E-2,1.3324493E-2,3.201026E-2,2.378107E-2,-1.0349109E-2,6.5231025E-2,9.27627E-3,1.5037954E-1,9.0189E-2,7.7718287E-3,9.066243E-2],"categories":[],"categories_nodes":[],"categories_segments":[],"categories_sizes":[],"default_left":[0,0,0,0,0,0,0,0,0,0,0,0,0,0,0,0,0,0,0,0,0,0,0,0,0,0,0,0,0],"id":11,"left_children":[1,3,5,7,9,11,13,15,17,19,21,-1,23,25,27,-1,-1,-1,-1,-1,-1,-1,-1,-1,-1,-1,-1,-1,-1],"loss_changes":[1.2697177E4,3.5191218E3,1.1711611E3,6.2891406E2,3.7157623E2,1.7819556E2,5.214287E2,7.919629E1,8.938959E1,2.3108875E2,2.6841797E1,0E0,1.3648218E2,4.2282422E2,1.15244415E2,0E0,0E0,0E0,0E0,0E0,0E0,0E0,0E0,0E0,0E0,0E0,0E0,0E0,0E0],"parents":[2147483647,0,0,1,1,2,2,3,3,4,4,5,5,6,6,7,7,8,8,9,9,10,10,12,12,13,13,14,14],"right_children":[2,4,6,8,10,12,14,16,18,20,22,-1,24,26,28,-1,-1,-1,-1,-1,-1,-1,-1,-1,-1,-1,-1,-1,-1],"split_conditions":[1.26E1,6.34E0,1.682E1,3.92E0,3.8000002E0,-1.5820833E0,2.3000002E0,2.97E0,8E-1,9.07E0,2.97E0,-3.1109255E-2,5.8999996E0,1.0330896E1,1.875E1,-3.4643218E-2,-2.6047677E-2,-8.729924E-3,-1.9203605E-2,1.3324493E-2,3.201026E-2,2.378107E-2,-1.0349109E-2,6.5231025E-2,9.27627E-3,1.5037954E-1,9.0189E-2,7.7718287E-3,9.066243E-2],"split_indices":[0,0,0,0,7,5,7,0,7,0,1,0,7,4,1,0,0,0,0,0,0,0,0,0,0,0,0,0,0],"split_type":[0,0,0,0,0,0,0,0,0,0,0,0,0,0,0,0,0,0,0,0,0,0,0,0,0,0,0,0,0],"sum_hessian":[1.608E3,1.428E3,1.8E2,1.011E3,4.17E2,9.7E1,8.3E1,5.72E2,4.39E2,3.54E2,6.3E1,2E0,9.5E1,7.4E1,9E0,2.58E2,3.14E2,2.86E2,1.53E2,2.29E2,1.25E2,2E0,6.1E1,8.9E1,6E0,4.3E1,3.1E1,7E0,2E0],"tree_param":{"num_deleted":"0","num_feature":"13","num_nodes":"29","size_leaf_vector":"1"}},{"base_weights":[-4.9374136E-3,-1.1628703E0,6.8482575E0,-2.1234205E0,8.646924E-1,4.69515E0,9.715138E0,-2.672645E0,-1.3127849E0,1.3217534E0,-4.8582914E-1,5.1221185E0,-1.0811915E-1,1.1301262E1,6.041029E0,-1.4444719E-2,-3.141718E-2,5.691952E-3,-1.6325919E-2,2.1434069E-2,-1.08892105E-4,-1.374484E-2,2.2943267E-3,4.5743093E-2,6.9828115E-2,-2.1904394E-2,2.3173843E-2,-2.0563874E-2,1.3146253E-1,-1.1109572E-2,7.207173E-2],"categories":[],"categories_nodes":[],"categories_segments":[],"categories_sizes":[],"default_left":[0,0,0,0,0,0,0,0,0,0,0,0,0,0,0,0,0,0,0,0,0,0,0,0,0,0,0,0,0,0,0],"id":12,"left_children":[1,3,5,7,9,11,13,15,17,19,21,23,25,27,29,-1,-1,-1,-1,-1,-1,-1,-1,-1,-1,-1,-1,-1,-1,-1,-1],"loss_changes":[1.2792118E4,2.6875432E3,1.392625E3,4.1321826E2,2.7471033E2,2.7741797E2,5.0866016E2,1.329104E2,1.1877405E2,2.7616638E2,6.00562E1,1.2000122E2,5.4124737E1,5.922656E2,1.2021655E2,0E0,0E0,0E0,0E0,0E0,0E0,0E0,0E0,0E0,0E0,0E0,0E0,0E0,0E0,0E0,0E0],"parents":[2147483647,0,0,1,1,2,2,3,3,4,4,5,5,6,6,7,7,8,8,9,9,10,10,11,11,12,12,13,13,14,14],"right_children":[2,4,6,8,10,12,14,16,18,20,22,24,26,28,30,-1,-1,-1,-1,-1,-1,-1,-1,-1,-1,-1,-1,-1,-1,-1,-1],"split_conditions":[1.107E1,5.92E0,1.63E1,3.92E0,1.8000002E0,5E0,1.2107499E1,1.3419701E0,1.0064929E0,3.998929E0,7.65E0,1.376E1,9.815755E0,2.838709E0,1.0384958E1,-1.4444719E-2,-3.141718E-2,5.691952E-3,-1.6325919E-2,2.1434069E-2,-1.08892105E-4,-1.374484E-2,2.2943267E-3,4.5743093E-2,6.9828115E-2,-2.1904394E-2,2.3173843E-2,-2.0563874E-2,1.3146253E-1,-1.1109572E-2,7.207173E-2],"split_indices":[0,0,0,0,6,6,3,12,12,12,0,0,4,4,4,0,0,0,0,0,0,0,0,0,0,0,0,0,0,0,0],"split_type":[0,0,0,0,0,0,0,0,0,0,0,0,0,0,0,0,0,0,0,0,0,0,0,0,0,0,0,0,0,0,0],"sum_hessian":[1.61E3,1.378E3,2.32E2,9.35E2,4.43E2,1.34E2,9.8E1,5.56E2,3.79E2,3.31E2,1.12E2,1.23E2,1.1E1,6.7E1,3.1E1,6.6E1,4.9E2,3.2E1,3.47E2,2.25E2,1.06E2,5.3E1,5.9E1,7.1E1,5.2E1,6E0,5E0,3E0,6.4E1,2E0,2.9E1],"tree_param":{"num_deleted":"0","num_feature":"13","num_nodes":"31","size_leaf_vector":"1"}},{"base_weights":[5.0800364E-3,3.078782E0,-1.3110503E0,4.746482E0,-4.8236436E-1,-1.9149437E0,1.2987396E-1,2.537417E0,6.228836E0,-1.1080828E0,2.0360694E0,-2.4155521E0,-1.4704304E0,1.4280344E0,-1.1306479E0,3.988726E-2,-2.9678743E-3,4.073299E-2,8.221105E-2,-1.7305544E-2,-1.9828584E-4,3.4724753E-2,-1.7289625E-2,-6.610827E-3,-2.893617E-2,-1.8690818E-3,-1.8430717E-2,2.4804745E-2,-1.0398149E-2,-3.817507E-2,-4.440194E-3],"categories":[],"categories_nodes":[],"categories_segments":[],"categories_sizes":[],"default_left":[0,0,0,0,0,0,0,0,0,0,0,0,0,0,0,0,0,0,0,0,0,0,0,0,0,0,0,0,0,0,0],"id":13,"left_children":[1,3,5,7,9,11,13,15,17,19,21,23,25,27,29,-1,-1,-1,-1,-1,-1,-1,-1,-1,-1,-1,-1,-1,-1,-1,-1],"loss_changes":[6.4766646E3,2.8529722E3,9.75703E2,1.0549946E3,2.4493399E2,1.7224463E2,5.4488605E2,4.0589532E2,5.8242676E2,6.2607773E1,1.2984084E2,1.4085498E2,1.1099603E2,3.228686E2,2.8577762E2,0E0,0E0,0E0,0E0,0E0,0E0,0E0,0E0,0E0,0E0,0E0,0E0,0E0,0E0,0E0,0E0],"parents":[2147483647,0,0,1,1,2,2,3,3,4,4,5,5,6,6,7,7,8,8,9,9,10,10,11,11,12,12,13,13,14,14],"right_children":[2,4,6,8,10,12,14,16,18,20,22,24,26,28,30,-1,-1,-1,-1,-1,-1,-1,-1,-1,-1,-1,-1,-1,-1,-1,-1],"split_conditions":[1.3004922E1,2.4284394E0,6.63E0,6.57E0,7.65E0,3.75E0,1.8E1,1.8335127E0,4.366793E1,4.75E0,1E-1,1.2816404E0,1.4458382E1,1.9000001E0,5.578425E1,3.988726E-2,-2.9678743E-3,4.073299E-2,8.221105E-2,-1.7305544E-2,-1.9828584E-4,3.4724753E-2,-1.7289625E-2,-6.610827E-3,-2.893617E-2,-1.8690818E-3,-1.8430717E-2,2.4804745E-2,-1.0398149E-2,-3.817507E-2,-4.440194E-3],"split_indices":[9,12,2,2,2,2,9,12,10,2,7,12,9,7,10,0,0,0,0,0,0,0,0,0,0,0,0,0,0,0,0],"split_type":[0,0,0,0,0,0,0,0,0,0,0,0,0,0,0,0,0,0,0,0,0,0,0,0,0,0,0,0,0,0,0],"sum_hessian":[1.599E3,4.79E2,1.12E3,3.26E2,1.53E2,7.89E2,3.31E2,1.32E2,1.94E2,1.23E2,3E1,3.69E2,4.2E2,1.63E2,1.68E2,9.5E1,3.7E1,6.5E1,1.29E2,8.6E1,3.7E1,2.3E1,7E0,3.9E1,3.3E2,5.7E1,3.63E2,1.21E2,4.2E1,3.9E1,1.29E2],"tree_param":{"num_deleted":"0","num_feature":"13","num_nodes":"31","size_leaf_vector":"1"}},{"base_weights":[6.242702E-5,-1.2153667E0,3.1552947E0,3.4947282E-1,-2.0206544E0,7.0947776E0,1.188167E0,2.057977E0,-1.1280588E0,-2.6336205E0,-1.429062E0,5.2784805E0,1.092422E1,7.2591275E-1,5.835185E0,3.1998646E-2,2.8363068E-3,-1.672969E-2,9.21899E-3,-3.7767418E-2,-2.7251752E-2,-3.362214E-2,-1.4326046E-2,3.2582346E-2,7.383077E-2,3.8402416E-2,1.36116E-1,2.418599E-2,-4.226727E-3,7.968233E-2,8.808799E-3],"categories":[],"categories_nodes":[],"categories_segments":[],"categories_sizes":[],"default_left":[0,0,0,0,0,0,0,0,0,0,0,0,0,0,0,0,0,0,0,0,0,0,0,0,0,0,0,0,0,0,0],"id":14,"left_children":[1,3,5,7,9,11,13,15,17,19,21,23,25,27,29,-1,-1,-1,-1,-1,-1,-1,-1,-1,-1,-1,-1,-1,-1,-1,-1],"loss_changes":[6.178122E3,1.4662562E3,3.4633306E3,1.0019715E3,2.7473315E2,9.786919E2,6.401952E2,2.8008746E2,1.6499115E2,3.9085693E1,7.782208E1,3.2086206E2,4.5887695E2,4.479282E2,1.8462189E2,0E0,0E0,0E0,0E0,0E0,0E0,0E0,0E0,0E0,0E0,0E0,0E0,0E0,0E0,0E0,0E0],"parents":[2147483647,0,0,1,1,2,2,3,3,4,4,5,5,6,6,7,7,8,8,9,9,10,10,11,11,12,12,13,13,14,14],"right_children":[2,4,6,8,10,12,14,16,18,20,22,24,26,28,30,-1,-1,-1,-1,-1,-1,-1,-1,-1,-1,-1,-1,-1,-1,-1,-1],"split_conditions":[7.69E0,1.4458382E1,1.1592894E1,1.383E1,3.91E0,1.63E1,1.913E1,1.2713752E1,6.35E0,3.035152E1,2.056931E1,4.8427505E1,4.1922516E1,1.5856354E1,1.6389899E2,3.1998646E-2,2.8363068E-3,-1.672969E-2,9.21899E-3,-3.7767418E-2,-2.7251752E-2,-3.362214E-2,-1.4326046E-2,3.2582346E-2,7.383077E-2,3.8402416E-2,1.36116E-1,2.418599E-2,-4.226727E-3,7.968233E-2,8.808799E-3],"split_indices":[1,9,9,11,1,1,1,3,1,10,10,10,10,9,10,0,0,0,0,0,0,0,0,0,0,0,0,0,0,0,0],"split_type":[0,0,0,0,0,0,0,0,0,0,0,0,0,0,0,0,0,0,0,0,0,0,0,0,0,0,0,0,0,0,0],"sum_hessian":[1.609E3,1.162E3,4.47E2,3.95E2,7.67E2,1.48E2,2.99E2,1.83E2,2.12E2,3.75E2,3.92E2,1.02E2,4.6E1,2.73E2,2.6E1,1.24E2,5.9E1,1.77E2,3.5E1,5.9E1,3.16E2,2.7E1,3.65E2,4E1,6.2E1,8E0,3.8E1,1.17E2,1.56E2,2E1,6E0],"tree_param":{"num_deleted":"0","num_feature":"13","num_nodes":"31","size_leaf_vector":"1"}},{"base_weights":[6.0299702E-2,-1.0939293E0,6.7289205E0,-2.0571933E0,8.543921E-1,4.8783145E0,9.24733E0,-2.5865457E0,-1.2633305E0,1.3364013E0,-5.3667235E-1,5.103572E0,-2.0891962E0,1.0791095E1,6.160235E0,-1.2723894E-2,-3.0794187E-2,1.0790287E-3,-1.6192757E-2,2.1228414E-2,-2.9555102E-5,1.0692923E-3,-1.2670842E-2,7.681847E-3,6.0950592E-2,8.1040733E-4,-2.9163815E-2,4.5014117E-2,1.3167189E-1,7.863354E-2,2.1575859E-2],"categories":[],"categories_nodes":[],"categories_segments":[],"categories_sizes":[],"default_left":[0,0,0,0,0,0,0,0,0,0,0,0,0,0,0,0,0,0,0,0,0,0,0,0,0,0,0,0,0,0,0],"id":15,"left_children":[1,3,5,7,9,11,13,15,17,19,21,23,25,27,29,-1,-1,-1,-1,-1,-1,-1,-1,-1,-1,-1,-1,-1,-1,-1,-1],"loss_changes":[1.2207289E4,2.539121E3,1.0454648E3,3.770437E2,3.0110388E2,2.2568164E2,4.0056836E2,1.595E2,1.0276196E2,2.636731E2,4.5246647E1,2.4881812E2,6.240904E0,4.5123242E2,1.3014404E2,0E0,0E0,0E0,0E0,0E0,0E0,0E0,0E0,0E0,0E0,0E0,0E0,0E0,0E0,0E0,0E0],"parents":[2147483647,0,0,1,1,2,2,3,3,4,4,5,5,6,6,7,7,8,8,9,9,10,10,11,11,12,12,13,13,14,14],"right_children":[2,4,6,8,10,12,14,16,18,20,22,24,26,28,30,-1,-1,-1,-1,-1,-1,-1,-1,-1,-1,-1,-1,-1,-1,-1,-1],"split_conditions":[1.138E1,5.92E0,1.63E1,3.92E0,1.6E0,2.686678E2,1.2107499E1,1.3419701E0,9.740833E0,3.998929E0,1.5864314E2,2.2093275E1,1.159E1,4.366793E1,1.8000002E0,-1.2723894E-2,-3.0794187E-2,1.0790287E-3,-1.6192757E-2,2.1228414E-2,-2.9555102E-5,1.0692923E-3,-1.2670842E-2,7.681847E-3,6.0950592E-2,8.1040733E-4,-2.9163815E-2,4.5014117E-2,1.3167189E-1,7.863354E-2,2.1575859E-2],"split_indices":[0,0,0,0,7,10,3,12,3,12,10,10,0,10,7,0,0,0,0,0,0,0,0,0,0,0,0,0,0,0,0],"split_type":[0,0,0,0,0,0,0,0,0,0,0,0,0,0,0,0,0,0,0,0,0,0,0,0,0,0,0,0,0,0,0],"sum_hessian":[1.584E3,1.351E3,2.33E2,9.04E2,4.47E2,1.36E2,9.7E1,5.41E2,3.63E2,3.32E2,1.15E2,1.32E2,4E0,6.3E1,3.4E1,7E1,4.71E2,4.8E1,3.15E2,2.3E2,1.02E2,5.7E1,5.8E1,1.2E1,1.2E2,1E0,3E0,1E1,5.3E1,2.7E1,7E0],"tree_param":{"num_deleted":"0","num_feature":"13","num_nodes":"31","size_leaf_vector":"1"}},{"base_weights":[3.242178E-2,-8.54772E-1,4.6172614E0,7.8281707E-1,-1.7122092E0,7.4317436E0,1.6127893E0,2.5463808E0,-4.8438048E-1,-2.551736E0,-1.0687834E0,5.0993586E0,1.0533966E1,3.3016064E0,-4.1822758E-1,3.5957396E-2,6.1546257E-3,-1.3896774E-2,9.769187E-3,-1.2219612E-2,-2.857868E-2,-1.608141E-2,-3.5473884E-3,6.3017346E-2,1.2593757E-2,1.2640736E-1,7.501916E-2,4.6114784E-2,-2.6791835E-2,3.441084E-2,-2.3998762E-2],"categories":[],"categories_nodes":[],"categories_segments":[],"categories_sizes":[],"default_left":[0,0,0,0,0,0,0,0,0,0,0,0,0,0,0,0,0,0,0,0,0,0,0,0,0,0,0,0,0,0,0],"id":16,"left_children":[1,3,5,7,9,11,13,15,17,19,21,23,25,27,29,-1,-1,-1,-1,-1,-1,-1,-1,-1,-1,-1,-1,-1,-1,-1,-1],"loss_changes":[6.573187E3,1.902532E3,2.203495E3,1.0426426E3,4.7748682E2,9.2308594E2,4.4042294E2,2.76761E2,2.911818E2,2.1227295E1,1.4715918E2,1.8817212E2,1.22220215E2,3.65825E2,3.7493042E2,0E0,0E0,0E0,0E0,0E0,0E0,0E0,0E0,0E0,0E0,0E0,0E0,0E0,0E0,0E0,0E0],"parents":[2147483647,0,0,1,1,2,2,3,3,4,4,5,5,6,6,7,7,8,8,9,9,10,10,11,11,12,12,13,13,14,14],"right_children":[2,4,6,8,10,12,14,16,18,20,22,24,26,28,30,-1,-1,-1,-1,-1,-1,-1,-1,-1,-1,-1,-1,-1,-1,-1,-1],"split_conditions":[1.049E1,1.420062E1,1.257426E1,1.187E1,4E0,1.63E1,1.803237E1,1.5E0,5.38E0,3.9E0,6.7E0,1.1384198E1,1.1824168E1,4.2999997E0,6.16E0,3.5957396E-2,6.1546257E-3,-1.3896774E-2,9.769187E-3,-1.2219612E-2,-2.857868E-2,-1.608141E-2,-3.5473884E-3,6.3017346E-2,1.2593757E-2,1.2640736E-1,7.501916E-2,4.6114784E-2,-2.6791835E-2,3.441084E-2,-2.3998762E-2],"split_indices":[1,9,9,11,1,1,9,6,1,11,1,9,3,6,11,0,0,0,0,0,0,0,0,0,0,0,0,0,0,0,0],"split_type":[0,0,0,0,0,0,0,0,0,0,0,0,0,0,0,0,0,0,0,0,0,0,0,0,0,0,0,0,0,0,0],"sum_hessian":[1.614E3,1.353E3,2.61E2,4.65E2,8.88E2,1.34E2,1.27E2,1.94E2,2.71E2,3.84E2,5.04E2,7.8E1,5.6E1,6.9E1,5.8E1,1.42E2,5.2E1,1.73E2,9.8E1,1.2E1,3.72E2,3.3E2,1.74E2,6.7E1,1.1E1,4.3E1,1.3E1,6E1,9E0,1.9E1,3.9E1],"tree_param":{"num_deleted":"0","num_feature":"13","num_nodes":"31","size_leaf_vector":"1"}},{"base_weights":[-2.7609559E-2,2.7207313E0,-1.2408828E0,4.053057E0,-4.518548E-1,-5.8328588E-2,-1.7020799E0,2.160024E0,5.728586E0,1.7055175E0,-9.514762E-1,6.980343E-1,-1.7402549E0,-3.4000928E0,-1.384945E0,2.6428059E-2,-1.9794384E-2,7.928273E-2,2.8288325E-2,3.236632E-2,-1.34932045E-2,-1.5168105E-2,-2.8705336E-3,1.5452053E-2,-5.9009385E-3,-2.2500252E-2,-3.0874927E-3,-2.749463E-2,-4.026533E-2,-3.522257E-3,-2.0165954E-2],"categories":[],"categories_nodes":[],"categories_segments":[],"categories_sizes":[],"default_left":[0,0,0,0,0,0,0,0,0,0,0,0,0,0,0,0,0,0,0,0,0,0,0,0,0,0,0,0,0,0,0],"id":17,"left_children":[1,3,5,7,9,11,13,15,17,19,21,23,25,27,29,-1,-1,-1,-1,-1,-1,-1,-1,-1,-1,-1,-1,-1,-1,-1,-1],"loss_changes":[5.378571E3,2.0899287E3,6.1019275E2,1.0914238E3,1.6006956E2,4.0194095E2,4.2878296E2,1.6092603E2,8.366758E2,1.0483215E2,3.494693E1,1.9042152E2,4.276773E1,2.004419E1,3.22635E2,0E0,0E0,0E0,0E0,0E0,0E0,0E0,0E0,0E0,0E0,0E0,0E0,0E0,0E0,0E0,0E0],"parents":[2147483647,0,0,1,1,2,2,3,3,4,4,5,5,6,6,7,7,8,8,9,9,10,10,11,11,12,12,13,13,14,14],"right_children":[2,4,6,8,10,12,14,16,18,20,22,24,26,28,30,-1,-1,-1,-1,-1,-1,-1,-1,-1,-1,-1,-1,-1,-1,-1,-1],"split_conditions":[1.3004922E1,1.552E1,1.59134655E1,5.32912E1,7.884583E0,2.253E1,3.913039E1,7.499999E0,5E-1,1.848E1,1.9453452E2,6E-1,1.812E1,1.8079027E1,1.6686359E2,2.6428059E-2,-1.9794384E-2,7.928273E-2,2.8288325E-2,3.236632E-2,-1.34932045E-2,-1.5168105E-2,-2.8705336E-3,1.5452053E-2,-5.9009385E-3,-2.2500252E-2,-3.0874927E-3,-2.749463E-2,-4.026533E-2,-3.522257E-3,-2.0165954E-2],"split_indices":[9,11,9,10,5,11,10,6,6,11,10,6,5,9,10,0,0,0,0,0,0,0,0,0,0,0,0,0,0,0,0],"split_type":[0,0,0,0,0,0,0,0,0,0,0,0,0,0,0,0,0,0,0,0,0,0,0,0,0,0,0,0,0,0,0],"sum_hessian":[1.611E3,4.93E2,1.118E3,3.47E2,1.46E2,3.14E2,8.04E2,1.64E2,1.83E2,2.7E1,1.19E2,2.17E2,9.7E1,1.25E2,6.79E2,1.55E2,9E0,1.24E2,5.9E1,1.9E1,8E0,7.3E1,4.6E1,1.38E2,7.9E1,8E1,1.7E1,3E1,9.5E1,2.01E2,4.78E2],"tree_param":{"num_deleted":"0","num_feature":"13","num_nodes":"31","size_leaf_vector":"1"}},{"base_weights":[-6.2306587E-2,-8.5771763E-1,4.843009E0,-1.4275949E0,8.378821E-1,3.4325087E0,9.275877E0,5.493136E-1,-1.8296541E0,1.8002524E0,1.3116229E-1,4.303477E0,-4.9896084E-2,9.874154E0,-5.215669E-1,1.8117424E-2,-1.4466973E-2,-2.541398E-2,-1.390529E-2,9.504075E-3,4.8907857E-2,-7.43842E-3,7.680246E-3,9.374621E-2,3.610638E-2,2.3688452E-2,-1.4225276E-2,7.123493E-2,1.2760632E-1,1.9967195E-2,-2.0969676E-2],"categories":[],"categories_nodes":[],"categories_segments":[],"categories_sizes":[],"default_left":[0,0,0,0,0,0,0,0,0,0,0,0,0,0,0,0,0,0,0,0,0,0,0,0,0,0,0,0,0,0,0],"id":18,"left_children":[1,3,5,7,9,11,13,15,17,19,21,23,25,27,29,-1,-1,-1,-1,-1,-1,-1,-1,-1,-1,-1,-1,-1,-1,-1,-1],"loss_changes":[6.2079243E3,1.3240386E3,1.3562285E3,8.157102E2,2.3440744E2,5.158357E2,3.1581445E2,3.5740906E2,2.280398E2,3.575351E2,9.182325E1,5.587317E2,9.8444984E1,2.167998E2,1.6364992E1,0E0,0E0,0E0,0E0,0E0,0E0,0E0,0E0,0E0,0E0,0E0,0E0,0E0,0E0,0E0,0E0],"parents":[2147483647,0,0,1,1,2,2,3,3,4,4,5,5,6,6,7,7,8,8,9,9,10,10,11,11,12,12,13,13,14,14],"right_children":[2,4,6,8,10,12,14,16,18,20,22,24,26,28,30,-1,-1,-1,-1,-1,-1,-1,-1,-1,-1,-1,-1,-1,-1,-1,-1],"split_conditions":[1.11E1,6.57E0,1.913E1,1.4373919E0,1.965393E0,1.8000002E0,1.0799999E1,4.0999994E0,3.88E0,1.009E1,6.88E0,1.0589281E0,1.1141843E0,1.777E1,1.992E1,1.8117424E-2,-1.4466973E-2,-2.541398E-2,-1.390529E-2,9.504075E-3,4.8907857E-2,-7.43842E-3,7.680246E-3,9.374621E-2,3.610638E-2,2.3688452E-2,-1.4225276E-2,7.123493E-2,1.2760632E-1,1.9967195E-2,-2.0969676E-2],"split_indices":[1,1,1,12,12,7,7,7,1,11,2,12,12,2,1,0,0,0,0,0,0,0,0,0,0,0,0,0,0,0,0],"split_type":[0,0,0,0,0,0,0,0,0,0,0,0,0,0,0,0,0,0,0,0,0,0,0,0,0,0,0,0,0,0,0],"sum_hessian":[1.589E3,1.368E3,2.21E2,1.024E3,3.44E2,1.69E2,5.2E1,1.73E2,8.51E2,1.45E2,1.99E2,1.35E2,3.4E1,4.9E1,3E0,1.09E2,6.4E1,4.6E2,3.91E2,1.08E2,3.7E1,8.2E1,1.17E2,2.5E1,1.1E2,1.2E1,2.2E1,1.8E1,3.1E1,1E0,2E0],"tree_param":{"num_deleted":"0","num_feature":"13","num_nodes":"31","size_leaf_vector":"1"}},{"base_weights":[8.115276E-4,-1.1271281E0,6.5982823E0,-2.0117633E0,9.354468E-1,4.5645227E0,9.643519E0,-2.5621886E0,-1.2008771E0,2.39358E0,-3.4517165E-2,6.933077E0,3.1453078E0,1.1177507E1,5.3196473E0,-1.2331008E-2,-3.0291893E-2,7.789358E-3,-1.5474581E-2,3.3182517E-2,5.2449848E-3,4.4466727E-3,-1.1235382E-2,8.067885E-2,1.9515095E-2,4.015144E-2,-1.34925395E-2,1.3364883E-1,6.8950824E-2,6.754067E-2,-7.5781983E-3],"categories":[],"categories_nodes":[],"categories_segments":[],"categories_sizes":[],"default_left":[0,0,0,0,0,0,0,0,0,0,0,0,0,0,0,0,0,0,0,0,0,0,0,0,0,0,0,0,0,0,0],"id":19,"left_children":[1,3,5,7,9,11,13,15,17,19,21,23,25,27,29,-1,-1,-1,-1,-1,-1,-1,-1,-1,-1,-1,-1,-1,-1,-1,-1],"loss_changes":[1.1824616E4,2.4778994E3,1.3928223E3,4.2093872E2,5.771319E2,4.5216284E2,5.507549E2,1.5057593E2,1.514967E2,1.9221405E2,1.06698044E2,9.2529785E1,2.0143243E2,2.398291E2,1.3129895E2,0E0,0E0,0E0,0E0,0E0,0E0,0E0,0E0,0E0,0E0,0E0,0E0,0E0,0E0,0E0,0E0],"parents":[2147483647,0,0,1,1,2,2,3,3,4,4,5,5,6,6,7,7,8,8,9,9,10,10,11,11,12,12,13,13,14,14],"right_children":[2,4,6,8,10,12,14,16,18,20,22,24,26,28,30,-1,-1,-1,-1,-1,-1,-1,-1,-1,-1,-1,-1,-1,-1,-1,-1],"split_conditions":[1.107E1,5.92E0,1.63E1,3.92E0,1.3905509E1,1.0495713E1,1.257426E1,1.3419701E0,1.044E1,3.150252E0,1.6E0,2.2548976E0,2.4336637E1,2E-1,2.4842607E1,-1.2331008E-2,-3.0291893E-2,7.789358E-3,-1.5474581E-2,3.3182517E-2,5.2449848E-3,4.4466727E-3,-1.1235382E-2,8.067885E-2,1.9515095E-2,4.015144E-2,-1.34925395E-2,1.3364883E-1,6.8950824E-2,6.754067E-2,-7.5781983E-3],"split_indices":[0,0,0,0,9,9,9,12,9,12,6,12,9,6,9,0,0,0,0,0,0,0,0,0,0,0,0,0,0,0,0],"split_type":[0,0,0,0,0,0,0,0,0,0,0,0,0,0,0,0,0,0,0,0,0,0,0,0,0,0,0,0,0,0,0],"sum_hessian":[1.587E3,1.356E3,2.31E2,9.49E2,4.07E2,1.4E2,9.1E1,5.64E2,3.85E2,1.62E2,2.45E2,5.1E1,8.9E1,6.6E1,2.5E1,6.6E1,4.98E2,3.7E1,3.48E2,1.22E2,4E1,1.7E2,7.5E1,4.7E1,4E0,8E1,9E0,5.4E1,1.2E1,2.2E1,3E0],"tree_param":{"num_deleted":"0","num_feature":"13","num_nodes":"31","size_leaf_vector":"1"}},{"base_weights":[-2.1543115E-2,3.1084244E0,-1.0100714E0,4.8030825E0,-4.548886E-1,8.408599E-2,-1.5811598E0,2.8774662E0,6.498541E0,7.304053E-1,-1.1543055E0,9.605896E-1,-1.5964631E0,-3.2937138E0,-1.2775123E0,3.709868E-2,-1.6850667E-4,7.948108E-2,1.7794792E-2,1.4153995E-2,-1.9329267E-2,1.0194748E-3,-1.621501E-2,2.1144291E-2,-2.354534E-3,-2.0483807E-2,-3.6175412E-3,-2.363988E-2,-3.9858848E-2,-1.8222047E-3,-1.9218167E-2],"categories":[],"categories_nodes":[],"categories_segments":[],"categories_sizes":[],"default_left":[0,0,0,0,0,0,0,0,0,0,0,0,0,0,0,0,0,0,0,0,0,0,0,0,0,0,0,0,0,0,0],"id":20,"left_children":[1,3,5,7,9,11,13,15,17,19,21,23,25,27,29,-1,-1,-1,-1,-1,-1,-1,-1,-1,-1,-1,-1,-1,-1,-1,-1],"loss_changes":[4.96292E3,2.327044E3,7.61838E2,8.3341455E2,1.0446993E2,6.1872363E2,4.1232275E2,1.7630713E2,4.7275635E2,6.7080315E1,3.147403E1,3.1140698E2,4.7522186E1,3.7069824E1,3.543755E2,0E0,0E0,0E0,0E0,0E0,0E0,0E0,0E0,0E0,0E0,0E0,0E0,0E0,0E0,0E0,0E0],"parents":[2147483647,0,0,1,1,2,2,3,3,4,4,5,5,6,6,7,7,8,8,9,9,10,10,11,11,12,12,13,13,14,14],"right_children":[2,4,6,8,10,12,14,16,18,20,22,24,26,28,30,-1,-1,-1,-1,-1,-1,-1,-1,-1,-1,-1,-1,-1,-1,-1,-1],"split_conditions":[1.1966954E1,2.2548976E0,1.59134655E1,5.32912E1,2.8340125E0,3.9039218E0,3.913039E1,1E0,1.4353333E1,4E-1,1.48325E1,2E-1,2.757833E1,1.803237E1,1.6721094E2,3.709868E-2,-1.6850667E-4,7.948108E-2,1.7794792E-2,1.4153995E-2,-1.9329267E-2,1.0194748E-3,-1.621501E-2,2.1144291E-2,-2.354534E-3,-2.0483807E-2,-3.6175412E-3,-2.363988E-2,-3.9858848E-2,-1.8222047E-3,-1.9218167E-2],"split_indices":[9,12,9,10,12,12,10,6,3,6,3,6,3,9,10,0,0,0,0,0,0,0,0,0,0,0,0,0,0,0,0],"split_type":[0,0,0,0,0,0,0,0,0,0,0,0,0,0,0,0,0,0,0,0,0,0,0,0,0,0,0,0,0,0,0],"sum_hessian":[1.602E3,3.84E2,1.218E3,2.6E2,1.24E2,4.18E2,8E2,1.23E2,1.37E2,4.6E1,7.8E1,2.75E2,1.43E2,1.19E2,6.81E2,1.05E2,1.8E1,1.19E2,1.8E1,3.8E1,8E0,1.6E1,6.2E1,1.51E2,1.24E2,1.18E2,2.5E1,2.8E1,9.1E1,2.02E2,4.79E2],"tree_param":{"num_deleted":"0","num_feature":"13","num_nodes":"31","size_leaf_vector":"1"}},{"base_weights":[-7.0922016E-3,2.7314665E0,-1.2121505E0,4.6757765E0,5.480748E-1,8.971592E-3,-1.5880016E0,2.687791E0,5.798843E0,2.7890596E0,-4.842521E-1,8.877012E-1,-1.6802417E0,-1.3653037E-1,-1.7623045E0,3.774801E-2,-1.0012129E-2,7.661187E-2,2.498968E-2,4.4711664E-2,2.7247766E-4,1.3290804E-3,-1.3199112E-2,1.9141143E-2,-4.9672667E-3,1.2923611E-3,-2.127608E-2,2.451074E-2,-1.6469298E-2,-2.1512039E-2,-9.893451E-3],"categories":[],"categories_nodes":[],"categories_segments":[],"categories_sizes":[],"default_left":[0,0,0,0,0,0,0,0,0,0,0,0,0,0,0,0,0,0,0,0,0,0,0,0,0,0,0,0,0,0,0],"id":21,"left_children":[1,3,5,7,9,11,13,15,17,19,21,23,25,27,29,-1,-1,-1,-1,-1,-1,-1,-1,-1,-1,-1,-1,-1,-1,-1,-1],"loss_changes":[5.2703066E3,2.0690906E3,5.090011E2,5.604346E2,5.3575275E2,3.9039435E2,2.1429956E2,2.5598602E2,6.5457275E2,2.563994E2,6.8852646E1,1.9775525E2,4.0961304E1,2.986816E2,1.23251465E2,0E0,0E0,0E0,0E0,0E0,0E0,0E0,0E0,0E0,0E0,0E0,0E0,0E0,0E0,0E0,0E0],"parents":[2147483647,0,0,1,1,2,2,3,3,4,4,5,5,6,6,7,7,8,8,9,9,10,10,11,11,12,12,13,13,14,14],"right_children":[2,4,6,8,10,12,14,16,18,20,22,24,26,28,30,-1,-1,-1,-1,-1,-1,-1,-1,-1,-1,-1,-1,-1,-1,-1,-1],"split_conditions":[1.3004922E1,1.1477776E1,1.5564537E1,4.9595838E0,2.0526206E0,3.9440706E0,1.1637384E0,2.0124257E0,5E-1,1.8000002E0,1.807E1,6E-1,1.92E1,3.6000001E0,2.8683748E1,3.774801E-2,-1.0012129E-2,7.661187E-2,2.498968E-2,4.4711664E-2,2.7247766E-4,1.3290804E-3,-1.3199112E-2,1.9141143E-2,-4.9672667E-3,1.2923611E-3,-2.127608E-2,2.451074E-2,-1.6469298E-2,-2.1512039E-2,-9.893451E-3],"split_indices":[9,4,9,5,12,12,12,12,6,6,11,6,11,6,4,0,0,0,0,0,0,0,0,0,0,0,0,0,0,0,0],"split_type":[0,0,0,0,0,0,0,0,0,0,0,0,0,0,0,0,0,0,0,0,0,0,0,0,0,0,0,0,0,0,0],"sum_hessian":[1.595E3,4.87E2,1.108E3,2.57E2,2.3E2,2.61E2,8.47E2,9.4E1,1.63E2,7.2E1,1.58E2,1.72E2,8.9E1,9.1E1,7.56E2,7.8E1,1.6E1,1.22E2,4.1E1,4.9E1,2.3E1,8.6E1,7.2E1,1.05E2,6.7E1,1.1E1,7.8E1,3.3E1,5.8E1,6.18E2,1.38E2],"tree_param":{"num_deleted":"0","num_feature":"13","num_nodes":"31","size_leaf_vector":"1"}},{"base_weights":[-3.584166E-2,-1.0643696E0,3.270039E0,3.3530885E-1,-1.8070834E0,6.1192203E0,1.2007686E0,1.9858918E0,-8.207999E-1,-2.4402034E0,-1.2196383E0,4.204059E0,1.0056977E1,1.885574E0,-1.8423944E0,2.9385062E-2,-2.4946854E-3,-1.5164354E-2,1.6828146E-2,-3.4631547E-2,-2.5239028E-2,-5.8171004E-3,-1.7904565E-2,2.5328154E-2,6.1949972E-2,6.5497786E-2,1.2827334E-1,2.881334E-2,-1.4986729E-2,-3.436066E-2,-2.9277222E-3],"categories":[],"categories_nodes":[],"categories_segments":[],"categories_sizes":[],"default_left":[0,0,0,0,0,0,0,0,0,0,0,0,0,0,0,0,0,0,0,0,0,0,0,0,0,0,0,0,0,0,0],"id":22,"left_children":[1,3,5,7,9,11,13,15,17,19,21,23,25,27,29,-1,-1,-1,-1,-1,-1,-1,-1,-1,-1,-1,-1,-1,-1,-1,-1],"loss_changes":[5.287377E3,1.2335247E3,2.1681753E3,7.8783044E2,2.852644E2,1.1266431E3,4.5152847E2,2.5729755E2,3.195968E2,3.1666748E1,1.12611694E2,2.7395703E2,2.5765332E2,4.211775E2,7.9750854E1,0E0,0E0,0E0,0E0,0E0,0E0,0E0,0E0,0E0,0E0,0E0,0E0,0E0,0E0,0E0,0E0],"parents":[2147483647,0,0,1,1,2,2,3,3,4,4,5,5,6,6,7,7,8,8,9,9,10,10,11,11,12,12,13,13,14,14],"right_children":[2,4,6,8,10,12,14,16,18,20,22,24,26,28,30,-1,-1,-1,-1,-1,-1,-1,-1,-1,-1,-1,-1,-1,-1,-1,-1],"split_conditions":[8.3E0,1.4458382E1,1.257426E1,2.0526206E0,3.97E0,1.63E1,2.4842607E1,2.6999998E0,6.35E0,3.6271847E1,1.7731598E1,4.8427505E1,5.32912E1,4.2999997E0,9.3741665E0,2.9385062E-2,-2.4946854E-3,-1.5164354E-2,1.6828146E-2,-3.4631547E-2,-2.5239028E-2,-5.8171004E-3,-1.7904565E-2,2.5328154E-2,6.1949972E-2,6.5497786E-2,1.2827334E-1,2.881334E-2,-1.4986729E-2,-3.436066E-2,-2.9277222E-3],"split_indices":[1,9,9,12,1,1,9,6,1,10,9,10,10,6,5,0,0,0,0,0,0,0,0,0,0,0,0,0,0,0,0],"split_type":[0,0,0,0,0,0,0,0,0,0,0,0,0,0,0,0,0,0,0,0,0,0,0,0,0,0,0,0,0,0,0],"sum_hessian":[1.553E3,1.185E3,3.68E2,4.11E2,7.74E2,1.54E2,2.14E2,1.69E2,2.42E2,3.71E2,4.03E2,1.05E2,4.9E1,1.75E2,3.9E1,1.29E2,4E1,1.96E2,4.6E1,6.1E1,3.1E2,1.5E2,2.53E2,4.6E1,5.9E1,1.5E1,3.4E1,1.43E2,3.2E1,2.1E1,1.8E1],"tree_param":{"num_deleted":"0","num_feature":"13","num_nodes":"31","size_leaf_vector":"1"}},{"base_weights":[-3.2633282E-3,-1.0857391E0,6.2301598E0,-1.9734026E0,9.2421865E-1,4.188079E0,9.063007E0,-2.7374485E0,-1.3856117E0,2.3679276E0,-2.9460338E-1,6.6034174E0,2.7132418E0,1.0648904E1,5.616577E0,-1.47410985E-2,-3.220143E-2,-5.5362387E-3,-1.865753E-2,1.6352773E-2,3.533065E-2,3.4171615E-3,-1.2536114E-2,7.755738E-2,2.2697885E-2,3.5780203E-2,-1.4681527E-2,1.227443E-1,1.7175737E-3,3.3717424E-2,7.632257E-2],"categories":[],"categories_nodes":[],"categories_segments":[],"categories_sizes":[],"default_left":[0,0,0,0,0,0,0,0,0,0,0,0,0,0,0,0,0,0,0,0,0,0,0,0,0,0,0,0,0,0,0],"id":23,"left_children":[1,3,5,7,9,11,13,15,17,19,21,23,25,27,29,-1,-1,-1,-1,-1,-1,-1,-1,-1,-1,-1,-1,-1,-1,-1,-1],"loss_changes":[1.0762327E4,2.4265056E3,1.3272803E3,4.1970728E2,7.344608E2,4.772334E2,4.7582764E2,1.0289111E2,1.44927E2,1.3696057E2,1.1621439E2,8.926172E1,1.95146E2,3.4258105E2,8.9566895E1,0E0,0E0,0E0,0E0,0E0,0E0,0E0,0E0,0E0,0E0,0E0,0E0,0E0,0E0,0E0,0E0],"parents":[2147483647,0,0,1,1,2,2,3,3,4,4,5,5,6,6,7,7,8,8,9,9,10,10,11,11,12,12,13,13,14,14],"right_children":[2,4,6,8,10,12,14,16,18,20,22,24,26,28,30,-1,-1,-1,-1,-1,-1,-1,-1,-1,-1,-1,-1,-1,-1,-1,-1],"split_conditions":[1.107E1,5.92E0,1.63E1,3.42E0,1.4848635E1,1.0495713E1,1.2107499E1,1.3309621E0,1.375558E1,7.8E0,7.0000005E-1,2.2548976E0,2.4336637E1,2.2896836E0,1.34887495E1,-1.47410985E-2,-3.220143E-2,-5.5362387E-3,-1.865753E-2,1.6352773E-2,3.533065E-2,3.4171615E-3,-1.2536114E-2,7.755738E-2,2.2697885E-2,3.5780203E-2,-1.4681527E-2,1.227443E-1,1.7175737E-3,3.3717424E-2,7.632257E-2],"split_indices":[0,0,0,0,9,9,3,12,9,0,6,12,9,12,3,0,0,0,0,0,0,0,0,0,0,0,0,0,0,0,0],"split_type":[0,0,0,0,0,0,0,0,0,0,0,0,0,0,0,0,0,0,0,0,0,0,0,0,0,0,0,0,0,0,0],"sum_hessian":[1.593E3,1.358E3,2.35E2,9.42E2,4.16E2,1.38E2,9.7E1,4.08E2,5.34E2,1.9E2,2.26E2,5.1E1,8.7E1,6.5E1,3.2E1,4.9E1,3.59E2,1.39E2,3.95E2,9.4E1,9.6E1,1.32E2,9.4E1,4.6E1,5E0,7.7E1,1E1,6.2E1,3E0,1.2E1,2E1],"tree_param":{"num_deleted":"0","num_feature":"13","num_nodes":"31","size_leaf_vector":"1"}},{"base_weights":[7.738782E-2,-1.0438663E0,6.4842286E0,-1.9384305E0,9.0200275E-1,3.523195E0,8.197881E0,-2.4755595E0,-1.1304266E0,1.2965299E0,-4.0895677E-1,4.6786447E0,1.6921539E0,6.4683747E0,1.0684333E1,-3.33252E-2,-2.3998626E-2,3.6894123E-3,-1.5066215E-2,2.4459995E-2,6.9232835E-3,-3.525211E-2,-2.5141418E-3,6.408261E-2,2.2842791E-2,-3.6766618E-3,2.7357176E-2,7.722449E-2,1.4968454E-2,1.3193312E-1,7.379401E-2],"categories":[],"categories_nodes":[],"categories_segments":[],"categories_sizes":[],"default_left":[0,0,0,0,0,0,0,0,0,0,0,0,0,0,0,0,0,0,0,0,0,0,0,0,0,0,0,0,0,0,0],"id":24,"left_children":[1,3,5,7,9,11,13,15,17,19,21,23,25,27,29,-1,-1,-1,-1,-1,-1,-1,-1,-1,-1,-1,-1,-1,-1,-1,-1],"loss_changes":[1.1479132E4,2.3691074E3,1.1787725E3,4.0169165E2,2.2241293E2,1.8037817E2,5.7593945E2,8.4606445E1,1.3073538E2,2.0237909E2,4.971132E1,1.4832776E2,5.860122E1,2.434751E2,2.295E2,0E0,0E0,0E0,0E0,0E0,0E0,0E0,0E0,0E0,0E0,0E0,0E0,0E0,0E0,0E0,0E0],"parents":[2147483647,0,0,1,1,2,2,3,3,4,4,5,5,6,6,7,7,8,8,9,9,10,10,11,11,12,12,13,13,14,14],"right_children":[2,4,6,8,10,12,14,16,18,20,22,24,26,28,30,-1,-1,-1,-1,-1,-1,-1,-1,-1,-1,-1,-1,-1,-1,-1,-1],"split_conditions":[1.107E1,5.92E0,1.376E1,3.92E0,1.8000002E0,1.147E1,1.725E1,2.71E0,9.740833E0,1.3905417E1,2.2659402E0,4E-1,8.376317E0,2.6999998E0,1.1824168E1,-3.33252E-2,-2.3998626E-2,3.6894123E-3,-1.5066215E-2,2.4459995E-2,6.9232835E-3,-3.525211E-2,-2.5141418E-3,6.408261E-2,2.2842791E-2,-3.6766618E-3,2.7357176E-2,7.722449E-2,1.4968454E-2,1.3193312E-1,7.379401E-2],"split_indices":[0,0,0,0,6,1,1,0,3,3,4,6,4,6,3,0,0,0,0,0,0,0,0,0,0,0,0,0,0,0,0],"split_type":[0,0,0,0,0,0,0,0,0,0,0,0,0,0,0,0,0,0,0,0,0,0,0,0,0,0,0,0,0,0,0],"sum_hessian":[1.596E3,1.359E3,2.37E2,9.31E2,4.28E2,8.8E1,1.49E2,5.58E2,3.73E2,3.29E2,9.9E1,5.3E1,3.5E1,9E1,5.9E1,1.92E2,3.66E2,5.2E1,3.21E2,1.37E2,1.92E2,5E0,9.4E1,3.6E1,1.7E1,1E1,2.5E1,8.1E1,9E0,4.3E1,1.6E1],"tree_param":{"num_deleted":"0","num_feature":"13","num_nodes":"31","size_leaf_vector":"1"}},{"base_weights":[-1.0864127E-2,-8.283808E-1,4.890667E0,-1.4016212E0,9.211919E-1,3.5029404E0,9.831985E0,4.2519832E-1,-1.780012E0,1.2880441E0,-1.100101E0,4.5550404E0,-4.9308732E-1,-1.5253667E-2,1.0338781E1,1.8813742E-2,-1.1018718E-2,-2.5824513E-2,-1.4849362E-2,3.8195442E-2,8.890546E-3,1.2271069E-2,-1.4402452E-2,-2.1195192E-2,5.5770423E-2,1.390909E-2,-1.864725E-2,1.8388556E-2,1.223068E-1],"categories":[],"categories_nodes":[],"categories_segments":[],"categories_sizes":[],"default_left":[0,0,0,0,0,0,0,0,0,0,0,0,0,0,0,0,0,0,0,0,0,0,0,0,0,0,0,0,0],"id":25,"left_children":[1,3,5,7,9,11,13,15,17,19,21,23,25,-1,27,-1,-1,-1,-1,-1,-1,-1,-1,-1,-1,-1,-1,-1,-1],"loss_changes":[6.335243E3,1.3602556E3,1.5152861E3,7.065248E2,2.498248E2,7.5059717E2,2.9287598E2,3.2371933E2,2.0314526E2,2.9487372E2,2.5379375E1,4.750896E2,8.2233284E1,0E0,2.9419873E2,0E0,0E0,0E0,0E0,0E0,0E0,0E0,0E0,0E0,0E0,0E0,0E0,0E0,0E0],"parents":[2147483647,0,0,1,1,2,2,3,3,4,4,5,5,6,6,7,7,8,8,9,9,10,10,11,11,12,12,14,14],"right_children":[2,4,6,8,10,12,14,16,18,20,22,24,26,-1,28,-1,-1,-1,-1,-1,-1,-1,-1,-1,-1,-1,-1,-1,-1],"split_conditions":[1.11E1,6.57E0,1.913E1,1.4373919E0,5.8999996E0,1.8000002E0,9.7416663E-1,1.5E0,3.54E0,1.2667346E0,5.327741E-1,1.6283334E0,1.1141843E0,-1.5253667E-2,3.6E0,1.8813742E-2,-1.1018718E-2,-2.5824513E-2,-1.4849362E-2,3.8195442E-2,8.890546E-3,1.2271069E-2,-1.4402452E-2,-2.1195192E-2,5.5770423E-2,1.390909E-2,-1.864725E-2,1.8388556E-2,1.223068E-1],"split_indices":[1,1,1,12,6,6,5,6,1,12,12,5,12,0,11,0,0,0,0,0,0,0,0,0,0,0,0,0,0],"split_type":[0,0,0,0,0,0,0,0,0,0,0,0,0,0,0,0,0,0,0,0,0,0,0,0,0,0,0,0,0],"sum_hessian":[1.579E3,1.354E3,2.25E2,1.02E3,3.34E2,1.77E2,4.8E1,1.75E2,8.45E2,2.83E2,5.1E1,1.4E2,3.7E1,2E0,4.6E1,9.2E1,8.3E1,3.64E2,4.81E2,5E1,2.33E2,4E0,4.7E1,1E1,1.3E2,1.5E1,2.2E1,4E0,4.2E1],"tree_param":{"num_deleted":"0","num_feature":"13","num_nodes":"29","size_leaf_vector":"1"}},{"base_weights":[1.1210802E-2,-7.984082E-1,4.685832E0,-1.3309706E0,8.902643E-1,5.6862717E0,6.695172E-1,-1.5760745E-1,-1.7588767E0,1.2311108E0,-1.2124703E0,2.467943E0,7.1112857E0,-9.874909E-2,4.4271593E0,-3.1582203E-2,3.2676053E-3,-2.4602957E-2,-1.2720326E-2,2.5339326E-2,-1.7140858E-4,-2.1613982E-2,-3.732239E-3,-3.5008978E-2,3.243251E-2,5.6229144E-2,1.053052E-1,-3.393717E-2,3.5052106E-3,8.576196E-2,-9.695889E-3],"categories":[],"categories_nodes":[],"categories_segments":[],"categories_sizes":[],"default_left":[0,0,0,0,0,0,0,0,0,0,0,0,0,0,0,0,0,0,0,0,0,0,0,0,0,0,0,0,0,0,0],"id":26,"left_children":[1,3,5,7,9,11,13,15,17,19,21,23,25,27,29,-1,-1,-1,-1,-1,-1,-1,-1,-1,-1,-1,-1,-1,-1,-1,-1],"loss_changes":[5.89646E3,1.1954866E3,9.203511E2,5.06833E2,2.3012308E2,8.263042E2,1.3612007E2,3.3455145E2,2.0976025E2,3.6683176E2,2.8826714E1,1.6564859E2,5.7541846E2,5.0743065E1,1.4955374E2,0E0,0E0,0E0,0E0,0E0,0E0,0E0,0E0,0E0,0E0,0E0,0E0,0E0,0E0,0E0,0E0],"parents":[2147483647,0,0,1,1,2,2,3,3,4,4,5,5,6,6,7,7,8,8,9,9,10,10,11,11,12,12,13,13,14,14],"right_children":[2,4,6,8,10,12,14,16,18,20,22,24,26,28,30,-1,-1,-1,-1,-1,-1,-1,-1,-1,-1,-1,-1,-1,-1,-1,-1],"split_conditions":[1.11E1,6.63E0,1.8000002E0,1.2605416E1,2.283E1,4.366793E1,2.055E1,1.7696573E1,3.97E0,2E-1,2.6830416E1,5.611667E0,1.63E1,9.145E0,1.1079082E2,-3.1582203E-2,3.2676053E-3,-2.4602957E-2,-1.2720326E-2,2.5339326E-2,-1.7140858E-4,-2.1613982E-2,-3.732239E-3,-3.5008978E-2,3.243251E-2,5.6229144E-2,1.053052E-1,-3.393717E-2,3.5052106E-3,8.576196E-2,-9.695889E-3],"split_indices":[1,1,7,3,11,10,1,10,1,7,3,3,1,3,10,0,0,0,0,0,0,0,0,0,0,0,0,0,0,0,0],"split_type":[0,0,0,0,0,0,0,0,0,0,0,0,0,0,0,0,0,0,0,0,0,0,0,0,0,0,0,0,0,0,0],"sum_hessian":[1.556E3,1.327E3,2.29E2,1.009E3,3.18E2,1.83E2,4.6E1,2.7E2,7.39E2,2.74E2,4.4E1,5.7E1,1.26E2,3.9E1,7E0,3.8E1,2.32E2,4.12E2,3.27E2,1.47E2,1.27E2,2.3E1,2.1E1,4E0,5.3E1,7.1E1,5.5E1,4E0,3.5E1,4E0,3E0],"tree_param":{"num_deleted":"0","num_feature":"13","num_nodes":"31","size_leaf_vector":"1"}},{"base_weights":[4.021865E-2,2.5446153E0,-1.1021343E0,4.0483885E0,-2.1393457E-1,-1.7804749E0,9.3291074E-2,3.075002E0,7.066397E0,-6.956755E-1,2.169785E0,-2.1534855E0,-1.3382219E0,1.0894318E0,-9.4419533E-1,4.3231074E-2,1.192704E-2,2.9567199E-2,8.883622E-2,-1.3487732E-2,-1.3204613E-5,9.083276E-2,1.8453974E-2,-8.644958E-3,-2.528047E-2,-4.946563E-3,-1.6914433E-2,1.6978765E-2,-1.9744206E-2,1.8977324E-2,-1.585372E-2],"categories":[],"categories_nodes":[],"categories_segments":[],"categories_sizes":[],"default_left":[0,0,0,0,0,0,0,0,0,0,0,0,0,0,0,0,0,0,0,0,0,0,0,0,0,0,0,0,0,0,0],"id":27,"left_children":[1,3,5,7,9,11,13,15,17,19,21,23,25,27,29,-1,-1,-1,-1,-1,-1,-1,-1,-1,-1,-1,-1,-1,-1,-1,-1],"loss_changes":[4.557365E3,2.0708345E3,8.8729663E2,9.2714453E2,2.047648E2,1.12263916E2,4.1132114E2,4.1260522E2,3.202981E2,5.4381844E1,7.626625E1,7.154407E1,5.5915344E1,2.6745166E2,2.6018793E2,0E0,0E0,0E0,0E0,0E0,0E0,0E0,0E0,0E0,0E0,0E0,0E0,0E0,0E0,0E0,0E0],"parents":[2147483647,0,0,1,1,2,2,3,3,4,4,5,5,6,6,7,7,8,8,9,9,10,10,11,11,12,12,13,13,14,14],"right_children":[2,4,6,8,10,12,14,16,18,20,22,24,26,28,30,-1,-1,-1,-1,-1,-1,-1,-1,-1,-1,-1,-1,-1,-1,-1,-1],"split_conditions":[1.3004922E1,2.2548976E0,5.85E0,1.377E1,8.4E0,3.75E0,1.8E1,1.1477776E1,4.9283333E0,4E0,2.2896836E0,1.2595944E0,1.4973576E1,5.8999996E0,1.0853341E0,4.3231074E-2,1.192704E-2,2.9567199E-2,8.883622E-2,-1.3487732E-2,-1.3204613E-5,9.083276E-2,1.8453974E-2,-8.644958E-3,-2.528047E-2,-4.946563E-3,-1.6914433E-2,1.6978765E-2,-1.9744206E-2,1.8977324E-2,-1.585372E-2],"split_indices":[9,12,2,2,2,2,9,4,5,2,12,12,9,6,12,0,0,0,0,0,0,0,0,0,0,0,0,0,0,0,0],"split_type":[0,0,0,0,0,0,0,0,0,0,0,0,0,0,0,0,0,0,0,0,0,0,0,0,0,0,0,0,0,0,0],"sum_hessian":[1.591E3,4.98E2,1.093E3,3.22E2,1.76E2,6.97E2,3.96E2,2.45E2,7.7E1,1.47E2,2.9E1,3.76E2,3.21E2,2.02E2,1.94E2,1.71E2,7.4E1,1.5E1,6.2E1,8.3E1,6.4E1,1E0,2.8E1,3.6E1,3.4E2,5.9E1,2.62E2,1.75E2,2.7E1,3E1,1.64E2],"tree_param":{"num_deleted":"0","num_feature":"13","num_nodes":"31","size_leaf_vector":"1"}},{"base_weights":[-1.9336753E-2,-1.0960444E0,2.8835719E0,2.64055E-1,-1.7995214E0,5.4448314E0,8.032091E-1,2.075547E0,-9.6765065E-1,-2.3949192E0,-1.3553056E0,3.9590924E0,9.195917E0,1.2719117E0,-1.3029027E0,8.946252E-3,3.6484726E-2,-1.6453369E-2,4.6134773E-3,-2.9837903E-2,-2.4797913E-2,-9.475995E-3,-1.7994E-2,7.66333E-2,3.5027403E-2,4.3884568E-2,1.1029413E-1,1.1940571E-2,1.4294718E-1,-2.5724133E-2,1.1866936E-2],"categories":[],"categories_nodes":[],"categories_segments":[],"categories_sizes":[],"default_left":[0,0,0,0,0,0,0,0,0,0,0,0,0,0,0,0,0,0,0,0,0,0,0,0,0,0,0,0,0,0,0],"id":28,"left_children":[1,3,5,7,9,11,13,15,17,19,21,23,25,27,29,-1,-1,-1,-1,-1,-1,-1,-1,-1,-1,-1,-1,-1,-1,-1,-1],"loss_changes":[4.9790903E3,1.1122754E3,2.2921445E3,8.878046E2,1.9934985E2,1.0392075E3,2.3758365E2,2.4898499E2,1.7362451E2,8.572388E0,5.940631E1,3.047461E2,1.9071484E2,4.1649582E2,1.1072021E2,0E0,0E0,0E0,0E0,0E0,0E0,0E0,0E0,0E0,0E0,0E0,0E0,0E0,0E0,0E0,0E0],"parents":[2147483647,0,0,1,1,2,2,3,3,4,4,5,5,6,6,7,7,8,8,9,9,10,10,11,11,12,12,13,13,14,14],"right_children":[2,4,6,8,10,12,14,16,18,20,22,24,26,28,30,-1,-1,-1,-1,-1,-1,-1,-1,-1,-1,-1,-1,-1,-1,-1,-1],"split_conditions":[7.69E0,1.4458382E1,1.3004922E1,2.0526206E0,3.66E0,1.63E1,2.4842607E1,4.05E0,5.4E0,2.47E0,1.7731598E1,9.6381783E-1,4.9283333E0,2.41388E1,1.0167916E1,8.946252E-3,3.6484726E-2,-1.6453369E-2,4.6134773E-3,-2.9837903E-2,-2.4797913E-2,-9.475995E-3,-1.7994E-2,7.66333E-2,3.5027403E-2,4.3884568E-2,1.1029413E-1,1.1940571E-2,1.4294718E-1,-2.5724133E-2,1.1866936E-2],"split_indices":[1,9,9,12,1,1,9,1,1,1,9,12,5,9,5,0,0,0,0,0,0,0,0,0,0,0,0,0,0,0,0],"split_type":[0,0,0,0,0,0,0,0,0,0,0,0,0,0,0,0,0,0,0,0,0,0,0,0,0,0,0,0,0,0,0],"sum_hessian":[1.591E3,1.161E3,4.3E2,3.96E2,7.65E2,1.92E2,2.38E2,1.6E2,2.36E2,3.25E2,4.4E2,1.39E2,5.3E1,1.95E2,4.3E1,8E1,8E1,1.71E2,6.5E1,9.6E1,2.29E2,1.6E2,2.8E2,2.7E1,1.12E2,8E0,4.5E1,1.93E2,2E0,3E1,1.3E1],"tree_param":{"num_deleted":"0","num_feature":"13","num_nodes":"31","size_leaf_vector":"1"}},{"base_weights":[5.993379E-3,2.5493345E0,-1.1498656E0,3.7433205E0,-3.6313394E-1,-1.7023596E0,1.4670031E-1,2.4476368E0,5.7536106E0,-1.4619316E0,1.0286282E0,-2.1367946E0,-1.3096404E0,1.3151482E0,-1.0226368E0,3.7304264E-2,1.6280327E-3,3.5935625E-2,7.9024225E-2,-2.0949464E-2,-5.443289E-3,2.2634922E-2,-1.3441847E-2,-3.6559474E-2,-2.1945091E-2,-2.7982898E-3,-1.678682E-2,1.9935561E-2,-2.0048635E-2,-3.6997672E-2,-3.792636E-3],"categories":[],"categories_nodes":[],"categories_segments":[],"categories_sizes":[],"default_left":[0,0,0,0,0,0,0,0,0,0,0,0,0,0,0,0,0,0,0,0,0,0,0,0,0,0,0,0,0,0,0],"id":29,"left_children":[1,3,5,7,9,11,13,15,17,19,21,23,25,27,29,-1,-1,-1,-1,-1,-1,-1,-1,-1,-1,-1,-1,-1,-1,-1,-1],"loss_changes":[4.6947627E3,1.7366052E3,7.8679626E2,9.0798096E2,2.2477646E2,1.2857202E2,4.508607E2,4.6854602E2,4.6541602E2,3.4006683E1,1.5262674E2,5.540381E1,9.186017E1,2.5948203E2,2.6037753E2,0E0,0E0,0E0,0E0,0E0,0E0,0E0,0E0,0E0,0E0,0E0,0E0,0E0,0E0,0E0,0E0],"parents":[2147483647,0,0,1,1,2,2,3,3,4,4,5,5,6,6,7,7,8,8,9,9,10,10,11,11,12,12,13,13,14,14],"right_children":[2,4,6,8,10,12,14,16,18,20,22,24,26,28,30,-1,-1,-1,-1,-1,-1,-1,-1,-1,-1,-1,-1,-1,-1,-1,-1],"split_conditions":[1.3004922E1,1.5156859E1,6.63E0,9.43E0,5.38E0,3.75E0,1.8E1,1.302E1,4.8427505E1,3.88E0,1.859E1,2.0902868E1,1.4973576E1,5.8999996E0,5.578425E1,3.7304264E-2,1.6280327E-3,3.5935625E-2,7.9024225E-2,-2.0949464E-2,-5.443289E-3,2.2634922E-2,-1.3441847E-2,-3.6559474E-2,-2.1945091E-2,-2.7982898E-3,-1.678682E-2,1.9935561E-2,-2.0048635E-2,-3.6997672E-2,-3.792636E-3],"split_indices":[9,4,2,2,2,2,9,11,10,2,11,10,9,7,10,0,0,0,0,0,0,0,0,0,0,0,0,0,0,0,0],"split_type":[0,0,0,0,0,0,0,0,0,0,0,0,0,0,0,0,0,0,0,0,0,0,0,0,0,0,0,0,0,0,0],"sum_hessian":[1.595E3,4.98E2,1.097E3,3.53E2,1.45E2,7.69E2,3.28E2,2.16E2,1.37E2,8.1E1,6.4E1,3.63E2,4.06E2,1.64E2,1.64E2,1.53E2,6.3E1,5.1E1,8.6E1,5.5E1,2.6E1,4.4E1,2E1,3.7E1,3.26E2,6.9E1,3.37E2,1.42E2,2.2E1,3.6E1,1.28E2],"tree_param":{"num_deleted":"0","num_feature":"13","num_nodes":"31","size_leaf_vector":"1"}},{"base_weights":[-3.352525E-2,-9.879765E-1,3.0533E0,5.4577756E-1,-1.3443853E0,1.8540897E0,6.631206E0,1.8931487E0,-1.0762656E0,-2.0224862E0,-7.061958E-1,2.6879673E0,-8.7327026E-2,-1.0522369E0,7.1670346E0,-4.0384214E-3,2.936287E-2,-2.659346E-2,-8.286156E-3,-9.852344E-3,-2.3963932E-2,-1.1071824E-2,8.4020215E-4,-3.0394897E-2,3.3634845E-2,2.2740213E-2,-1.40651865E-2,-2.9724045E-2,9.445805E-3,8.845323E-2,1.1213231E-2],"categories":[],"categories_nodes":[],"categories_segments":[],"categories_sizes":[],"default_left":[0,0,0,0,0,0,0,0,0,0,0,0,0,0,0,0,0,0,0,0,0,0,0,0,0,0,0,0,0,0,0],"id":30,"left_children":[1,3,5,7,9,11,13,15,17,19,21,23,25,27,29,-1,-1,-1,-1,-1,-1,-1,-1,-1,-1,-1,-1,-1,-1,-1,-1],"loss_changes":[4.690459E3,6.6545215E2,1.6009939E3,5.0470114E2,4.2570276E2,4.5838446E2,3.9454004E2,2.2114633E2,4.3697586E1,8.086755E1,1.1948193E2,4.035913E2,2.2288535E2,2.4334452E1,4.5996143E2,0E0,0E0,0E0,0E0,0E0,0E0,0E0,0E0,0E0,0E0,0E0,0E0,0E0,0E0,0E0,0E0],"parents":[2147483647,0,0,1,1,2,2,3,3,4,4,5,5,6,6,7,7,8,8,9,9,10,10,11,11,12,12,13,13,14,14],"right_children":[2,4,6,8,10,12,14,16,18,20,22,24,26,28,30,-1,-1,-1,-1,-1,-1,-1,-1,-1,-1,-1,-1,-1,-1,-1,-1],"split_conditions":[8.3E0,1.5421727E0,1.63E1,1.5E0,3.97E0,6E-1,1.8033334E0,2.8658333E0,2.89E0,8.948598E0,6.63E0,-8.8624984E-1,1.2028486E0,1.377E1,4.7E0,-4.0384214E-3,2.936287E-2,-2.659346E-2,-8.286156E-3,-9.852344E-3,-2.3963932E-2,-1.1071824E-2,8.4020215E-4,-3.0394897E-2,3.3634845E-2,2.2740213E-2,-1.40651865E-2,-2.9724045E-2,9.445805E-3,8.845323E-2,1.1213231E-2],"split_indices":[1,12,1,6,1,6,5,5,2,4,1,5,12,2,6,0,0,0,0,0,0,0,0,0,0,0,0,0,0,0,0],"split_type":[0,0,0,0,0,0,0,0,0,0,0,0,0,0,0,0,0,0,0,0,0,0,0,0,0,0,0,0,0,0,0],"sum_hessian":[1.59E3,1.215E3,3.75E2,2.29E2,9.86E2,2.82E2,9.3E1,1.25E2,1.04E2,4.77E2,5.09E2,1.97E2,8.5E1,6E0,8.7E1,3.2E1,9.3E1,1.9E1,8.5E1,5.8E1,4.19E2,3.68E2,1.41E2,1.2E1,1.85E2,3E1,5.5E1,3E0,3E0,7.6E1,1.1E1],"tree_param":{"num_deleted":"0","num_feature":"13","num_nodes":"31","size_leaf_vector":"1"}},{"base_weights":[1.1884024E-2,-6.878872E-1,4.24467E0,7.0299476E-1,-1.431947E0,7.023145E0,8.2530075E-1,1.8596756E0,-6.461566E-1,-2.0143888E0,-6.2393236E-1,5.022675E0,9.78808E0,-1.3866845E0,2.274754E0,2.7581574E-2,2.6389458E-3,-1.5321848E-2,9.618953E-3,-2.541121E-2,-1.666565E-2,-9.53384E-3,3.1597696E-3,9.331945E-2,4.7914393E-2,1.1480982E-1,4.7259904E-2,-6.258655E-3,-2.7625214E-2,1.8106538E-1,1.9524401E-2],"categories":[],"categories_nodes":[],"categories_segments":[],"categories_sizes":[],"default_left":[0,0,0,0,0,0,0,0,0,0,0,0,0,0,0,0,0,0,0,0,0,0,0,0,0,0,0,0,0,0,0],"id":31,"left_children":[1,3,5,7,9,11,13,15,17,19,21,23,25,27,29,-1,-1,-1,-1,-1,-1,-1,-1,-1,-1,-1,-1,-1,-1,-1,-1],"loss_changes":[4.697661E3,1.4095049E3,2.1318464E3,7.42457E2,4.1618433E2,6.3670264E2,3.301836E2,2.6687415E2,2.5034286E2,7.214551E1,8.240413E1,1.3468323E2,1.3396484E2,3.6216423E1,4.1161133E2,0E0,0E0,0E0,0E0,0E0,0E0,0E0,0E0,0E0,0E0,0E0,0E0,0E0,0E0,0E0,0E0],"parents":[2147483647,0,0,1,1,2,2,3,3,4,4,5,5,6,6,7,7,8,8,9,9,10,10,11,11,12,12,13,13,14,14],"right_children":[2,4,6,8,10,12,14,16,18,20,22,24,26,28,30,-1,-1,-1,-1,-1,-1,-1,-1,-1,-1,-1,-1,-1,-1,-1,-1],"split_conditions":[1.11E1,1.4255272E1,1.3004922E1,1.4565833E1,4.82E0,1.688E1,9.815755E0,5E-1,6.12E0,3.66E0,8.3E0,8.089993E0,1.4284583E1,2.124305E1,1.1690833E1,2.7581574E-2,2.6389458E-3,-1.5321848E-2,9.618953E-3,-2.541121E-2,-1.666565E-2,-9.53384E-3,3.1597696E-3,9.331945E-2,4.7914393E-2,1.1480982E-1,4.7259904E-2,-6.258655E-3,-2.7625214E-2,1.8106538E-1,1.9524401E-2],"split_indices":[1,9,9,3,1,1,4,6,1,1,1,9,3,9,3,0,0,0,0,0,0,0,0,0,0,0,0,0,0,0,0],"split_type":[0,0,0,0,0,0,0,0,0,0,0,0,0,0,0,0,0,0,0,0,0,0,0,0,0,0,0,0,0,0,0],"sum_hessian":[1.584E3,1.36E3,2.24E2,4.74E2,8.86E2,1.23E2,1.01E2,2.55E2,2.19E2,5.14E2,3.72E2,7.3E1,5E1,4E1,6.1E1,1.82E2,7.3E1,1.47E2,7.2E1,3.22E2,1.92E2,2.94E2,7.8E1,1E1,6.3E1,4.4E1,6E0,2.4E1,1.6E1,1E0,6E1],"tree_param":{"num_deleted":"0","num_feature":"13","num_nodes":"31","size_leaf_vector":"1"}},{"base_weights":[1.9404931E-2,-9.704379E-1,5.9371376E0,-1.8553346E0,7.9953945E-1,3.9741976E0,8.37605E0,-2.5531807E0,-1.318167E0,-8.961954E-2,1.223233E0,4.192486E0,-2.604596E-2,9.978651E0,5.247662E0,-3.2255087E-2,-2.4347497E-2,-1.0444417E-3,-1.6509593E-2,-2.6491808E-2,1.6076851E-3,1.8563654E-2,4.8105465E-3,3.9094137E-3,5.095376E-2,-1.9896733E-2,1.1628261E-1,3.3388194E-2,7.290813E-2],"categories":[],"categories_nodes":[],"categories_segments":[],"categories_sizes":[],"default_left":[0,0,0,0,0,0,0,0,0,0,0,0,0,0,0,0,0,0,0,0,0,0,0,0,0,0,0,0,0],"id":32,"left_children":[1,3,5,7,9,11,13,15,17,19,21,23,-1,25,27,-1,-1,-1,-1,-1,-1,-1,-1,-1,-1,-1,-1,-1,-1],"loss_changes":[9.524401E3,2.1832656E3,1.0821855E3,3.4487988E2,1.7528949E2,1.9119482E2,4.6403174E2,4.5359375E1,1.1656409E2,8.2748695E1,1.138284E2,2.1011206E2,0E0,4.7759082E2,9.248505E1,0E0,0E0,0E0,0E0,0E0,0E0,0E0,0E0,0E0,0E0,0E0,0E0,0E0,0E0],"parents":[2147483647,0,0,1,1,2,2,3,3,4,4,5,5,6,6,7,7,8,8,9,9,10,10,11,11,13,13,14,14],"right_children":[2,4,6,8,10,12,14,16,18,20,22,24,-1,26,28,-1,-1,-1,-1,-1,-1,-1,-1,-1,-1,-1,-1,-1,-1],"split_conditions":[1.138E1,5.78E0,1.63E1,3.42E0,6.87E0,2.686678E2,1.2107499E1,2.71E0,9.740833E0,2.6151829E1,1.6686359E2,2.3574648E1,-2.604596E-2,2.3041679E-1,1.34887495E1,-3.2255087E-2,-2.4347497E-2,-1.0444417E-3,-1.6509593E-2,-2.6491808E-2,1.6076851E-3,1.8563654E-2,4.8105465E-3,3.9094137E-3,5.095376E-2,-1.9896733E-2,1.1628261E-1,3.3388194E-2,7.290813E-2],"split_indices":[0,0,0,0,0,10,3,0,3,10,10,10,0,5,3,0,0,0,0,0,0,0,0,0,0,0,0,0,0],"split_type":[0,0,0,0,0,0,0,0,0,0,0,0,0,0,0,0,0,0,0,0,0,0,0,0,0,0,0,0,0],"sum_hessian":[1.624E3,1.392E3,2.32E2,9.28E2,4.64E2,1.3E2,1.02E2,4.02E2,5.26E2,1.5E2,3.14E2,1.26E2,4E0,6.6E1,3.6E1,1.88E2,2.14E2,6.8E1,4.58E2,1.3E1,1.37E2,1.97E2,1.17E2,1.3E1,1.13E2,3E0,6.3E1,1.5E1,2.1E1],"tree_param":{"num_deleted":"0","num_feature":"13","num_nodes":"29","size_leaf_vector":"1"}},{"base_weights":[-9.2064574E-2,-7.397271E-1,3.8988788E0,-1.2173576E0,7.221164E-1,4.8772836E0,7.465139E-1,-1.5536617E-1,-1.6028237E0,1.017181E0,-1.0449435E0,3.2709708E0,6.8209996E0,-9.09619E-2,4.0285525E0,1.0001181E-2,-1.27558755E-2,-2.2802936E-2,-1.1219337E-2,1.5602956E-2,-1.0325457E-2,-9.0478575E-3,-2.4971038E-2,-2.295716E-2,4.170812E-2,1.0638903E-1,5.571118E-2,-1.5488457E-2,7.829605E-3,6.730923E-2,3.3672063E-3],"categories":[],"categories_nodes":[],"categories_segments":[],"categories_sizes":[],"default_left":[0,0,0,0,0,0,0,0,0,0,0,0,0,0,0,0,0,0,0,0,0,0,0,0,0,0,0,0,0,0,0],"id":33,"left_children":[1,3,5,7,9,11,13,15,17,19,21,23,25,27,29,-1,-1,-1,-1,-1,-1,-1,-1,-1,-1,-1,-1,-1,-1,-1,-1],"loss_changes":[4.1282E3,9.602347E2,6.841555E2,4.2384985E2,1.7781644E2,5.0846533E2,1.4879236E2,2.9652722E2,2.0555066E2,2.286879E2,1.1516254E1,2.7065118E2,3.3142627E2,4.7418503E1,8.345685E1,0E0,0E0,0E0,0E0,0E0,0E0,0E0,0E0,0E0,0E0,0E0,0E0,0E0,0E0,0E0,0E0],"parents":[2147483647,0,0,1,1,2,2,3,3,4,4,5,5,6,6,7,7,8,8,9,9,10,10,11,11,12,12,13,13,14,14],"right_children":[2,4,6,8,10,12,14,16,18,20,22,24,26,28,30,-1,-1,-1,-1,-1,-1,-1,-1,-1,-1,-1,-1,-1,-1,-1,-1],"split_conditions":[1.11E1,6.63E0,1.2E0,1.2605416E1,6.2999997E0,1.63E1,2.055E1,1E-1,3.97E0,2.283E1,2.3E1,4.793073E0,7.88E0,9.412494E0,2.133E1,1.0001181E-2,-1.27558755E-2,-2.2802936E-2,-1.1219337E-2,1.5602956E-2,-1.0325457E-2,-9.0478575E-3,-2.4971038E-2,-2.295716E-2,4.170812E-2,1.0638903E-1,5.571118E-2,-1.5488457E-2,7.829605E-3,6.730923E-2,3.3672063E-3],"split_indices":[1,1,6,3,6,1,1,6,1,11,6,4,11,4,2,0,0,0,0,0,0,0,0,0,0,0,0,0,0,0,0],"split_type":[0,0,0,0,0,0,0,0,0,0,0,0,0,0,0,0,0,0,0,0,0,0,0,0,0,0,0,0,0,0,0],"sum_hessian":[1.595E3,1.373E3,2.22E2,1.035E3,3.38E2,1.69E2,5.3E1,2.76E2,7.59E2,2.9E2,4.8E1,9.4E1,7.5E1,4.3E1,1E1,1.34E2,1.42E2,4.2E2,3.39E2,2.41E2,4.9E1,4.2E1,6E0,8E0,8.6E1,2.7E1,4.8E1,1.6E1,2.7E1,6E0,4E0],"tree_param":{"num_deleted":"0","num_feature":"13","num_nodes":"31","size_leaf_vector":"1"}},{"base_weights":[-5.0422873E-2,-7.72792E-1,3.8148844E0,4.929975E-1,-1.5146155E0,5.943933E0,8.9407164E-1,2.1388779E0,-6.225411E-1,-2.1768024E0,-1.0037835E0,4.010944E0,8.944381E0,2.6151726E0,-7.200592E-1,-6.723204E-3,2.9114686E-2,-1.4870589E-2,7.308265E-3,-2.602941E-2,-1.9391367E-2,-5.363901E-3,-1.4271988E-2,5.820965E-2,3.0672204E-2,1.0346455E-1,2.7150212E-2,1.974533E-2,6.4850464E-2,1.4877577E-2,-1.6636448E-2],"categories":[],"categories_nodes":[],"categories_segments":[],"categories_sizes":[],"default_left":[0,0,0,0,0,0,0,0,0,0,0,0,0,0,0,0,0,0,0,0,0,0,0,0,0,0,0,0,0,0,0],"id":34,"left_children":[1,3,5,7,9,11,13,15,17,19,21,23,25,27,29,-1,-1,-1,-1,-1,-1,-1,-1,-1,-1,-1,-1,-1,-1,-1,-1],"loss_changes":[4.450888E3,1.2618137E3,1.5555422E3,9.1384503E2,2.8432642E2,8.051006E2,2.9913794E2,2.806645E2,2.789208E2,2.443872E1,7.184387E1,1.2591589E2,1.4045654E2,1.2939899E2,9.374018E1,0E0,0E0,0E0,0E0,0E0,0E0,0E0,0E0,0E0,0E0,0E0,0E0,0E0,0E0,0E0,0E0],"parents":[2147483647,0,0,1,1,2,2,3,3,4,4,5,5,6,6,7,7,8,8,9,9,10,10,11,11,12,12,13,13,14,14],"right_children":[2,4,6,8,10,12,14,16,18,20,22,24,26,28,30,-1,-1,-1,-1,-1,-1,-1,-1,-1,-1,-1,-1,-1,-1,-1,-1],"split_conditions":[1.049E1,1.4693999E1,1.3708391E1,1.965393E0,3.97E0,1.63E1,1.803237E1,2.89E0,5.5E0,3.4E0,1.7731598E1,9.904906E0,2.2896836E0,1.985E1,1.2028486E0,-6.723204E-3,2.9114686E-2,-1.4870589E-2,7.308265E-3,-2.602941E-2,-1.9391367E-2,-5.363901E-3,-1.4271988E-2,5.820965E-2,3.0672204E-2,1.0346455E-1,2.7150212E-2,1.974533E-2,6.4850464E-2,1.4877577E-2,-1.6636448E-2],"split_indices":[1,9,9,12,1,1,9,1,1,1,9,9,12,11,12,0,0,0,0,0,0,0,0,0,0,0,0,0,0,0,0],"split_type":[0,0,0,0,0,0,0,0,0,0,0,0,0,0,0,0,0,0,0,0,0,0,0,0,0,0,0,0,0,0,0],"sum_hessian":[1.592E3,1.342E3,2.5E2,4.96E2,8.46E2,1.44E2,1.06E2,2E2,2.96E2,3.67E2,4.79E2,8.9E1,5.5E1,5.1E1,5.5E1,3.1E1,1.69E2,1.89E2,1.07E2,2.5E2,1.17E2,1.74E2,3.05E2,4.2E1,4.7E1,5.1E1,4E0,4.2E1,9E0,1.5E1,4E1],"tree_param":{"num_deleted":"0","num_feature":"13","num_nodes":"31","size_leaf_vector":"1"}},{"base_weights":[5.7111434E-3,-8.7683064E-1,3.3838825E0,5.0015575E-1,-1.5773941E0,5.645434E0,7.158985E-1,1.993407E0,-6.667795E-1,-2.1667526E0,-1.0974454E0,3.8835793E0,9.075051E0,-2.8604836E0,1.3065387E0,-1.3367533E-3,2.710239E-2,-1.3659995E-2,1.3289249E-2,-3.273554E-2,-2.213939E-2,-3.1959463E-2,-1.0443474E-2,2.1348352E-2,5.6264985E-2,5.2280795E-2,1.107623E-1,-1.5736552E-2,-3.7807982E-2,2.1756953E-2,-1.80213E-2],"categories":[],"categories_nodes":[],"categories_segments":[],"categories_sizes":[],"default_left":[0,0,0,0,0,0,0,0,0,0,0,0,0,0,0,0,0,0,0,0,0,0,0,0,0,0,0,0,0,0,0],"id":35,"left_children":[1,3,5,7,9,11,13,15,17,19,21,23,25,27,29,-1,-1,-1,-1,-1,-1,-1,-1,-1,-1,-1,-1,-1,-1,-1,-1],"loss_changes":[4.7642266E3,1.2230212E3,1.9931404E3,7.4713104E2,2.3522583E2,1.0463613E3,3.2692767E2,1.8624384E2,2.6051306E2,4.13938E1,1.2237146E2,2.76172E2,2.0748633E2,1.3131744E1,2.6318396E2,0E0,0E0,0E0,0E0,0E0,0E0,0E0,0E0,0E0,0E0,0E0,0E0,0E0,0E0,0E0,0E0],"parents":[2147483647,0,0,1,1,2,2,3,3,4,4,5,5,6,6,7,7,8,8,9,9,10,10,11,11,12,12,13,13,14,14],"right_children":[2,4,6,8,10,12,14,16,18,20,22,24,26,28,30,-1,-1,-1,-1,-1,-1,-1,-1,-1,-1,-1,-1,-1,-1,-1,-1],"split_conditions":[9.07E0,1.4255272E1,1.3708391E1,2.0526206E0,3.91E0,1.63E1,5.174296E0,2.89E0,6.3E0,3.6271847E1,2.056931E1,4.8427505E1,4.1922516E1,6.509583E0,2.4842607E1,-1.3367533E-3,2.710239E-2,-1.3659995E-2,1.3289249E-2,-3.273554E-2,-2.213939E-2,-3.1959463E-2,-1.0443474E-2,2.1348352E-2,5.6264985E-2,5.2280795E-2,1.107623E-1,-1.5736552E-2,-3.7807982E-2,2.1756953E-2,-1.80213E-2],"split_indices":[1,9,9,12,1,1,4,1,1,10,10,10,10,3,9,0,0,0,0,0,0,0,0,0,0,0,0,0,0,0,0],"split_type":[0,0,0,0,0,0,0,0,0,0,0,0,0,0,0,0,0,0,0,0,0,0,0,0,0,0,0,0,0,0,0],"sum_hessian":[1.596E3,1.266E3,3.3E2,4.27E2,8.39E2,1.78E2,1.52E2,1.87E2,2.4E2,3.75E2,4.64E2,1.19E2,5.9E1,2.1E1,1.31E2,3.4E1,1.53E2,1.84E2,5.6E1,5.8E1,3.17E2,3.4E1,4.3E2,4.7E1,7.2E1,1.2E1,4.7E1,7E0,1.4E1,1.07E2,2.4E1],"tree_param":{"num_deleted":"0","num_feature":"13","num_nodes":"31","size_leaf_vector":"1"}},{"base_weights":[-3.946333E-3,-9.8037595E-1,5.651915E0,-1.7758772E0,8.237079E-1,7.393899E0,3.5893342E0,-2.443163E0,-1.2810107E0,2.2584825E0,-1.079059E-1,5.676944E0,9.761105E0,4.172126E0,-1.0801215E0,-1.2807189E-2,-2.8911062E-2,-9.2214404E-4,-1.5402339E-2,2.9863661E-2,1.4092507E-3,3.581137E-3,-1.147795E-2,4.6990607E-2,7.462383E-2,1.16756216E-1,5.6908593E-2,4.167101E-2,1.3596046E-1,-2.4889233E-2,2.3565503E-2],"categories":[],"categories_nodes":[],"categories_segments":[],"categories_sizes":[],"default_left":[0,0,0,0,0,0,0,0,0,0,0,0,0,0,0,0,0,0,0,0,0,0,0,0,0,0,0,0,0,0,0],"id":36,"left_children":[1,3,5,7,9,11,13,15,17,19,21,23,25,27,29,-1,-1,-1,-1,-1,-1,-1,-1,-1,-1,-1,-1,-1,-1,-1,-1],"loss_changes":[8.852667E3,1.9633143E3,8.214048E2,3.1024658E2,5.603024E2,4.6076416E2,3.0385156E2,9.093335E1,7.6923584E1,1.5902441E2,1.0353194E2,8.8889404E1,1.4614209E2,2.641648E2,5.4232193E1,0E0,0E0,0E0,0E0,0E0,0E0,0E0,0E0,0E0,0E0,0E0,0E0,0E0,0E0,0E0,0E0],"parents":[2147483647,0,0,1,1,2,2,3,3,4,4,5,5,6,6,7,7,8,8,9,9,10,10,11,11,12,12,13,13,14,14],"right_children":[2,4,6,8,10,12,14,16,18,20,22,24,26,28,30,-1,-1,-1,-1,-1,-1,-1,-1,-1,-1,-1,-1,-1,-1,-1,-1],"split_conditions":[1.107E1,5.92E0,1.1966954E1,3.42E0,1.3905509E1,1.723E1,2.4842607E1,1.3309621E0,1.0195057E1,1.807E1,1.6E0,1.338E1,5E-1,2.233161E1,1.0384958E1,-1.2807189E-2,-2.8911062E-2,-9.2214404E-4,-1.5402339E-2,2.9863661E-2,1.4092507E-3,3.581137E-3,-1.147795E-2,4.6990607E-2,7.462383E-2,1.16756216E-1,5.6908593E-2,4.167101E-2,1.3596046E-1,-2.4889233E-2,2.3565503E-2],"split_indices":[0,0,9,0,9,0,9,12,9,11,7,0,7,9,4,0,0,0,0,0,0,0,0,0,0,0,0,0,0,0,0],"split_type":[0,0,0,0,0,0,0,0,0,0,0,0,0,0,0,0,0,0,0,0,0,0,0,0,0,0,0,0,0,0,0],"sum_hessian":[1.601E3,1.366E3,2.35E2,9.48E2,4.18E2,1.26E2,1.09E2,4.02E2,5.46E2,1.64E2,2.54E2,7.5E1,5.1E1,9.7E1,1.2E1,5.1E1,3.51E2,4.9E1,4.97E2,1.35E2,2.9E1,1.74E2,8E1,3.5E1,4E1,4.2E1,9E0,9.4E1,3E0,9E0,3E0],"tree_param":{"num_deleted":"0","num_feature":"13","num_nodes":"31","size_leaf_vector":"1"}},{"base_weights":[2.6388934E-2,-9.1331136E-1,5.5745916E0,-1.8937349E0,6.6049665E-1,3.6760707E0,8.33181E0,-2.4584365E0,-1.3931592E0,-2.0083188E-1,1.2985493E0,-1.8260897E0,3.8118677E0,-1.762473E0,8.687869E0,-1.1629331E-2,-2.9092686E-2,-7.2711566E-3,-1.7744292E-2,1.5358034E-2,-4.9171816E-3,6.0493004E-2,1.3151564E-2,4.567916E-3,-2.9857917E-2,6.63045E-2,3.742131E-2,4.6619237E-3,-2.8986497E-2,1.1309597E-1,5.886654E-2],"categories":[],"categories_nodes":[],"categories_segments":[],"categories_sizes":[],"default_left":[0,0,0,0,0,0,0,0,0,0,0,0,0,0,0,0,0,0,0,0,0,0,0,0,0,0,0,0,0,0,0],"id":37,"left_children":[1,3,5,7,9,11,13,15,17,19,21,23,25,27,29,-1,-1,-1,-1,-1,-1,-1,-1,-1,-1,-1,-1,-1,-1,-1,-1],"loss_changes":[8.27915E3,2.0966428E3,1.1733384E3,2.331748E2,2.8713785E2,1.1007092E2,3.4956934E2,9.803027E1,7.0243286E1,8.803401E1,1.2467789E2,9.059475E0,1.0292639E2,8.718438E0,4.2101025E2,0E0,0E0,0E0,0E0,0E0,0E0,0E0,0E0,0E0,0E0,0E0,0E0,0E0,0E0,0E0,0E0],"parents":[2147483647,0,0,1,1,2,2,3,3,4,4,5,5,6,6,7,7,8,8,9,9,10,10,11,11,12,12,13,13,14,14],"right_children":[2,4,6,8,10,12,14,16,18,20,22,24,26,28,30,-1,-1,-1,-1,-1,-1,-1,-1,-1,-1,-1,-1,-1,-1,-1,-1],"split_conditions":[1.107E1,5.32E0,1.63E1,3.42E0,6.92E0,3.4500018E-1,2.3041679E-1,1.3309621E0,2.0409374E0,1.1848445E0,1.77E0,1.173E1,8.701249E0,4.59E0,1.2107499E1,-1.1629331E-2,-2.9092686E-2,-7.2711566E-3,-1.7744292E-2,1.5358034E-2,-4.9171816E-3,6.0493004E-2,1.3151564E-2,4.567916E-3,-2.9857917E-2,6.63045E-2,3.742131E-2,4.6619237E-3,-2.8986497E-2,1.1309597E-1,5.886654E-2],"split_indices":[0,0,0,0,0,5,5,12,12,12,2,0,3,2,3,0,0,0,0,0,0,0,0,0,0,0,0,0,0,0,0],"split_type":[0,0,0,0,0,0,0,0,0,0,0,0,0,0,0,0,0,0,0,0,0,0,0,0,0,0,0,0,0,0,0],"sum_hessian":[1.586E3,1.357E3,2.29E2,8.36E2,5.21E2,1.37E2,9.2E1,3.91E2,4.45E2,2.22E2,2.99E2,3E0,1.34E2,3E0,8.9E1,4.6E1,3.45E2,1.03E2,3.42E2,2.9E1,1.93E2,6E0,2.93E2,1E0,2E0,1.9E1,1.15E2,1E0,2E0,5.9E1,3E1],"tree_param":{"num_deleted":"0","num_feature":"13","num_nodes":"31","size_leaf_vector":"1"}},{"base_weights":[4.7715902E-3,2.8235087E0,-8.129159E-1,4.220823E0,-6.566181E-1,1.3952729E-1,-1.3180825E0,4.806475E0,2.3826437E-1,2.2962146E-1,-1.0536916E0,8.6092645E-1,-1.3042399E0,1.862475E-1,-1.5014397E0,-7.895895E-3,5.521981E-2,3.302309E-2,-5.0696777E-3,-4.3321187E-3,4.181547E-2,-2.8206994E-5,-1.3918192E-2,1.6457826E-2,-1.6300568E-3,-1.7713912E-2,-2.0799146E-3,2.9270113E-2,-1.3743391E-2,-1.863853E-2,-7.0597637E-3],"categories":[],"categories_nodes":[],"categories_segments":[],"categories_sizes":[],"default_left":[0,0,0,0,0,0,0,0,0,0,0,0,0,0,0,0,0,0,0,0,0,0,0,0,0,0,0,0,0,0,0],"id":38,"left_children":[1,3,5,7,9,11,13,15,17,19,21,23,25,27,29,-1,-1,-1,-1,-1,-1,-1,-1,-1,-1,-1,-1,-1,-1,-1,-1],"loss_changes":[3.690049E3,1.7533906E3,5.9728156E2,5.982803E2,3.6839787E1,4.5002332E2,2.2397778E2,2.60813E2,6.695116E1,7.483984E1,1.5903725E1,1.8432095E2,4.857306E1,3.188246E2,1.17772705E2,0E0,0E0,0E0,0E0,0E0,0E0,0E0,0E0,0E0,0E0,0E0,0E0,0E0,0E0,0E0,0E0],"parents":[2147483647,0,0,1,1,2,2,3,3,4,4,5,5,6,6,7,7,8,8,9,9,10,10,11,11,12,12,13,13,14,14],"right_children":[2,4,6,8,10,12,14,16,18,20,22,24,26,28,30,-1,-1,-1,-1,-1,-1,-1,-1,-1,-1,-1,-1,-1,-1,-1,-1],"split_conditions":[1.1753876E1,2.2896836E0,1.59134655E1,1.8000002E0,2.8340125E0,3.9440706E0,1.1365013E0,5.470834E-1,8.78872E0,1.9005417E1,8.953078E0,6E-1,2.6830416E1,3.6000001E0,1.7511665E1,-7.895895E-3,5.521981E-2,3.302309E-2,-5.0696777E-3,-4.3321187E-3,4.181547E-2,-2.8206994E-5,-1.3918192E-2,1.6457826E-2,-1.6300568E-3,-1.7713912E-2,-2.0799146E-3,2.9270113E-2,-1.3743391E-2,-1.863853E-2,-7.0597637E-3],"split_indices":[9,12,9,6,12,12,12,5,9,3,9,6,3,6,5,0,0,0,0,0,0,0,0,0,0,0,0,0,0,0,0],"split_type":[0,0,0,0,0,0,0,0,0,0,0,0,0,0,0,0,0,0,0,0,0,0,0,0,0,0,0,0,0,0,0],"sum_hessian":[1.599E3,3.59E2,1.24E3,2.56E2,1.03E2,4.3E2,8.1E2,2.23E2,3.3E1,3.2E1,7.1E1,2.87E2,1.43E2,8.8E1,7.22E2,8E0,2.15E2,6E0,2.7E1,2.8E1,4E0,1.2E1,5.9E1,1.76E2,1.11E2,1.12E2,3.1E1,3.2E1,5.6E1,5.9E2,1.32E2],"tree_param":{"num_deleted":"0","num_feature":"13","num_nodes":"31","size_leaf_vector":"1"}},{"base_weights":[-8.262518E-2,-9.6689886E-1,5.3714366E0,-1.7385967E0,7.287632E-1,3.804999E0,7.4864798E0,-2.438295E0,-1.2219261E0,-3.4092534E-1,1.0358757E0,4.178854E0,4.3555966E-1,-9.9031067E-1,7.8785863E0,-3.0707285E-2,-2.3544244E-2,-1.5659077E-3,-1.5249103E-2,9.577642E-3,-9.110061E-3,2.332848E-2,8.851644E-3,3.5470765E-2,6.0223028E-2,-1.0193951E-2,2.1243272E-2,-1.91082E-2,1.0952365E-2,1.2158312E-1,7.3512845E-2],"categories":[],"categories_nodes":[],"categories_segments":[],"categories_sizes":[],"default_left":[0,0,0,0,0,0,0,0,0,0,0,0,0,0,0,0,0,0,0,0,0,0,0,0,0,0,0,0,0,0,0],"id":39,"left_children":[1,3,5,7,9,11,13,15,17,19,21,23,25,27,29,-1,-1,-1,-1,-1,-1,-1,-1,-1,-1,-1,-1,-1,-1,-1,-1],"loss_changes":[7.639818E3,1.7848052E3,7.0370557E2,3.3575854E2,1.406289E2,1.6067883E2,3.169165E2,3.5783936E1,9.490338E1,5.7242424E1,8.170657E1,1.2569995E2,3.0247738E1,9.117914E0,2.648711E2,0E0,0E0,0E0,0E0,0E0,0E0,0E0,0E0,0E0,0E0,0E0,0E0,0E0,0E0,0E0,0E0],"parents":[2147483647,0,0,1,1,2,2,3,3,4,4,5,5,6,6,7,7,8,8,9,9,10,10,11,11,12,12,13,13,14,14],"right_children":[2,4,6,8,10,12,14,16,18,20,22,24,26,28,30,-1,-1,-1,-1,-1,-1,-1,-1,-1,-1,-1,-1,-1,-1,-1,-1],"split_conditions":[1.107E1,5.92E0,1.63E1,3.42E0,6.63E0,1.688E1,1.8033334E0,2.71E0,9.740833E0,1.336375E1,9.703334E0,1.376E1,1.42E1,1.761E1,9.272082E0,-3.0707285E-2,-2.3544244E-2,-1.5659077E-3,-1.5249103E-2,9.577642E-3,-9.110061E-3,2.332848E-2,8.851644E-3,3.5470765E-2,6.0223028E-2,-1.0193951E-2,2.1243272E-2,-1.91082E-2,1.0952365E-2,1.2158312E-1,7.3512845E-2],"split_indices":[0,0,0,0,0,2,5,0,3,3,3,0,0,1,3,0,0,0,0,0,0,0,0,0,0,0,0,0,0,0,0],"split_type":[0,0,0,0,0,0,0,0,0,0,0,0,0,0,0,0,0,0,0,0,0,0,0,0,0,0,0,0,0,0,0],"sum_hessian":[1.582E3,1.362E3,2.2E2,9.36E2,4.26E2,1.28E2,9.2E1,3.96E2,5.4E2,9.5E1,3.31E2,1.15E2,1.3E1,4E0,8.8E1,1.79E2,2.17E2,7.1E1,4.69E2,2.7E1,6.8E1,5.7E1,2.74E2,6.8E1,4.7E1,7E0,6E0,3E0,1E0,2.2E1,6.6E1],"tree_param":{"num_deleted":"0","num_feature":"13","num_nodes":"31","size_leaf_vector":"1"}},{"base_weights":[3.451125E-2,-6.704526E-1,3.6513855E0,8.7601924E-1,-1.1161327E0,2.1281545E0,6.2314034E0,1.901956E0,-9.559796E-1,-1.5756617E0,5.952834E-3,2.966401E0,-2.4444164E-1,7.158378E0,2.906652E-1,-5.7001384E-3,2.4604922E-2,-2.2633286E-2,-4.899249E-3,-2.1520693E-2,-1.3608534E-2,-3.0160105E-2,1.7503804E-3,-2.7020525E-2,3.823744E-2,1.6071323E-2,-1.1078734E-2,8.173266E-3,9.065725E-2,5.7605438E-2,-5.4152547E-3],"categories":[],"categories_nodes":[],"categories_segments":[],"categories_sizes":[],"default_left":[0,0,0,0,0,0,0,0,0,0,0,0,0,0,0,0,0,0,0,0,0,0,0,0,0,0,0,0,0,0,0],"id":40,"left_children":[1,3,5,7,9,11,13,15,17,19,21,23,25,27,29,-1,-1,-1,-1,-1,-1,-1,-1,-1,-1,-1,-1,-1,-1,-1,-1],"loss_changes":[4.0642249E3,9.2041296E2,1.0085288E3,5.637932E2,5.342029E2,3.2888043E2,5.2658325E2,1.5555383E2,5.9764153E1,9.216528E1,1.2725315E2,3.4300684E2,5.8563675E1,5.6582666E2,5.6687508E1,0E0,0E0,0E0,0E0,0E0,0E0,0E0,0E0,0E0,0E0,0E0,0E0,0E0,0E0,0E0,0E0],"parents":[2147483647,0,0,1,1,2,2,3,3,4,4,5,5,6,6,7,7,8,8,9,9,10,10,11,11,12,12,13,13,14,14],"right_children":[2,4,6,8,10,12,14,16,18,20,22,24,26,28,30,-1,-1,-1,-1,-1,-1,-1,-1,-1,-1,-1,-1,-1,-1,-1,-1],"split_conditions":[1.049E1,1.6194276E0,1.63E1,3.2999997E0,5.72E0,6E-1,4.7E0,1.1450001E0,3.42E0,3.54E0,3.8901062E0,5.470834E-1,1.2028486E0,4.9283333E0,5.38E0,-5.7001384E-3,2.4604922E-2,-2.2633286E-2,-4.899249E-3,-2.1520693E-2,-1.3608534E-2,-3.0160105E-2,1.7503804E-3,-2.7020525E-2,3.823744E-2,1.6071323E-2,-1.1078734E-2,8.173266E-3,9.065725E-2,5.7605438E-2,-5.4152547E-3],"split_indices":[1,12,1,6,1,6,6,5,1,1,4,5,12,5,2,0,0,0,0,0,0,0,0,0,0,0,0,0,0,0,0],"split_type":[0,0,0,0,0,0,0,0,0,0,0,0,0,0,0,0,0,0,0,0,0,0,0,0,0,0,0,0,0,0,0],"sum_hessian":[1.592E3,1.333E3,2.59E2,2.98E2,1.035E3,1.64E2,9.5E1,1.91E2,1.07E2,7.34E2,3.01E2,1.21E2,4.3E1,8.2E1,1.3E1,2.3E1,1.68E2,3.3E1,7.4E1,3.45E2,3.89E2,1.5E1,2.86E2,1E1,1.11E2,1.3E1,3E1,1.2E1,7E1,1E0,1.2E1],"tree_param":{"num_deleted":"0","num_feature":"13","num_nodes":"31","size_leaf_vector":"1"}},{"base_weights":[1.6477672E-2,2.2900877E0,-9.974724E-1,3.9361734E0,-4.502386E-2,-1.5080135E0,2.5327936E-1,4.5857563E0,7.524438E-1,-5.350976E-1,8.602187E0,-1.9955491E0,-1.0698283E0,1.7488474E0,-5.3844124E-1,-1.1019154E-2,5.4668564E-2,-7.8078113E-3,2.4692422E-2,-1.1002368E-2,1.2306586E-2,1.3481195E-1,3.8859747E-2,-7.3142247E-3,-2.3441806E-2,2.8440114E-3,-1.3936371E-2,3.9163142E-2,7.9334425E-3,-2.0588486E-2,2.1981213E-3],"categories":[],"categories_nodes":[],"categories_segments":[],"categories_sizes":[],"default_left":[0,0,0,0,0,0,0,0,0,0,0,0,0,0,0,0,0,0,0,0,0,0,0,0,0,0,0,0,0,0,0],"id":41,"left_children":[1,3,5,7,9,11,13,15,17,19,21,23,25,27,29,-1,-1,-1,-1,-1,-1,-1,-1,-1,-1,-1,-1,-1,-1,-1,-1],"loss_changes":[3.6700598E3,1.88748E3,7.0343665E2,5.921616E2,8.691083E2,1.6492432E2,3.798447E2,5.1039307E2,1.1045409E2,1.4987906E2,1.5992694E2,6.399463E1,1.0792673E2,2.0376987E2,2.0668733E2,0E0,0E0,0E0,0E0,0E0,0E0,0E0,0E0,0E0,0E0,0E0,0E0,0E0,0E0,0E0,0E0],"parents":[2147483647,0,0,1,1,2,2,3,3,4,4,5,5,6,6,7,7,8,8,9,9,10,10,11,11,12,12,13,13,14,14],"right_children":[2,4,6,8,10,12,14,16,18,20,22,24,26,28,30,-1,-1,-1,-1,-1,-1,-1,-1,-1,-1,-1,-1,-1,-1,-1,-1],"split_conditions":[1.3004922E1,2.0526206E0,6.63E0,2.6999998E0,1.58E1,3.75E0,1.679314E1,5.470834E-1,5.22E0,7.65E0,2.2896836E0,1.2816404E0,1.4458382E1,8.6970825E0,9.815755E0,-1.1019154E-2,5.4668564E-2,-7.8078113E-3,2.4692422E-2,-1.1002368E-2,1.2306586E-2,1.3481195E-1,3.8859747E-2,-7.3142247E-3,-2.3441806E-2,2.8440114E-3,-1.3936371E-2,3.9163142E-2,7.9334425E-3,-2.0588486E-2,2.1981213E-3],"split_indices":[9,12,2,6,2,2,9,5,2,2,12,12,9,5,4,0,0,0,0,0,0,0,0,0,0,0,0,0,0,0,0],"split_type":[0,0,0,0,0,0,0,0,0,0,0,0,0,0,0,0,0,0,0,0,0,0,0,0,0,0,0,0,0,0,0],"sum_hessian":[1.59E3,4.9E2,1.1E3,2.87E2,2.03E2,7.81E2,3.19E2,2.38E2,4.9E1,1.93E2,1E1,3.68E2,4.13E2,1.1E2,2.09E2,1.5E1,2.23E2,2.5E1,2.4E1,1.51E2,4.2E1,5E0,5E0,3.4E1,3.34E2,5.3E1,3.6E2,3.9E1,7.1E1,7.4E1,1.35E2],"tree_param":{"num_deleted":"0","num_feature":"13","num_nodes":"31","size_leaf_vector":"1"}},{"base_weights":[-1.2296117E-2,-7.6101834E-1,6.865468E0,-1.7286991E0,1.0260931E0,2.0464494E0,7.4401217E0,-2.4159086E0,-1.212305E0,4.2153597E-1,2.1119542E0,4.56731E0,-9.8188967E-1,5.990661E0,1.064505E1,-1.6758563E-2,-2.7875442E-2,9.284664E-3,-1.425084E-2,5.957823E-3,-2.501159E-2,2.9187439E-2,9.605741E-3,-6.582047E-4,5.6031447E-2,6.049645E-3,-1.36769E-2,1.0156043E-1,5.5543523E-2,1.22146234E-1,1.2556856E-2],"categories":[],"categories_nodes":[],"categories_segments":[],"categories_sizes":[],"default_left":[0,0,0,0,0,0,0,0,0,0,0,0,0,0,0,0,0,0,0,0,0,0,0,0,0,0,0,0,0,0,0],"id":42,"left_children":[1,3,5,7,9,11,13,15,17,19,21,23,25,27,29,-1,-1,-1,-1,-1,-1,-1,-1,-1,-1,-1,-1,-1,-1,-1,-1],"loss_changes":[8.1826855E3,2.4799373E3,4.167798E2,3.2710107E2,3.2996808E2,1.4189694E2,5.819419E2,3.7209473E1,9.068085E1,1.0579056E2,1.17846436E2,2.4400131E1,4.266408E0,2.5338013E2,1.6568896E2,0E0,0E0,0E0,0E0,0E0,0E0,0E0,0E0,0E0,0E0,0E0,0E0,0E0,0E0,0E0,0E0],"parents":[2147483647,0,0,1,1,2,2,3,3,4,4,5,5,6,6,7,7,8,8,9,9,10,10,11,11,12,12,13,13,14,14],"right_children":[2,4,6,8,10,12,14,16,18,20,22,24,26,28,30,-1,-1,-1,-1,-1,-1,-1,-1,-1,-1,-1,-1,-1,-1,-1,-1],"split_conditions":[1.376E1,5.92E0,4.98E0,3.42E0,9.07E0,1.727E1,1.823E1,1.3309621E0,6.509583E0,1.423E1,1.147E1,1.49E1,1.826E1,1.0937136E0,1.552E1,-1.6758563E-2,-2.7875442E-2,9.284664E-3,-1.425084E-2,5.957823E-3,-2.501159E-2,2.9187439E-2,9.605741E-3,-6.582047E-4,5.6031447E-2,6.049645E-3,-1.36769E-2,1.0156043E-1,5.5543523E-2,1.22146234E-1,1.2556856E-2],"split_indices":[0,0,11,0,0,2,1,12,3,1,1,0,2,12,11,0,0,0,0,0,0,0,0,0,0,0,0,0,0,0,0],"split_type":[0,0,0,0,0,0,0,0,0,0,0,0,0,0,0,0,0,0,0,0,0,0,0,0,0,0,0,0,0,0,0],"sum_hessian":[1.587E3,1.432E3,1.55E2,9.29E2,5.03E2,1.7E1,1.38E2,3.97E2,5.32E2,3.24E2,1.79E2,9E0,8E0,9.7E1,4.1E1,4.7E1,3.5E2,2E1,5.12E2,3.11E2,1.3E1,1.24E2,5.5E1,1E0,8E0,1E0,7E0,2E1,7.7E1,3.9E1,2E0],"tree_param":{"num_deleted":"0","num_feature":"13","num_nodes":"31","size_leaf_vector":"1"}},{"base_weights":[-2.839174E-2,-3.9818975E-1,6.100602E0,-1.0962284E0,1.1203375E0,-3.883405E-2,6.477433E0,-5.7956047E-2,-1.4649739E0,1.7549505E0,-3.806609E-1,7.4357586E0,1.4456433E0,-2.9840784E-2,4.0623466E-3,-2.1344543E-2,-9.880212E-3,-9.388673E-3,2.382373E-2,4.3209814E-3,-1.2173736E-2,9.696009E-2,4.7694597E-2,6.0795974E-2,4.339255E-3],"categories":[],"categories_nodes":[],"categories_segments":[],"categories_sizes":[],"default_left":[0,0,0,0,0,0,0,0,0,0,0,0,0,0,0,0,0,0,0,0,0,0,0,0,0],"id":43,"left_children":[1,3,5,7,9,-1,11,13,15,17,19,21,23,-1,-1,-1,-1,-1,-1,-1,-1,-1,-1,-1,-1],"loss_changes":[3.5449524E3,1.5647142E3,3.457129E2,3.8698486E2,4.4360522E2,0E0,4.0395093E2,3.0208957E2,1.9871948E2,3.500869E2,7.831567E1,2.6787964E2,6.210539E1,0E0,0E0,0E0,0E0,0E0,0E0,0E0,0E0,0E0,0E0,0E0,0E0],"parents":[2147483647,0,0,1,1,2,2,3,3,4,4,6,6,7,7,8,8,9,9,10,10,11,11,12,12],"right_children":[2,4,6,8,10,-1,12,14,16,18,20,22,24,-1,-1,-1,-1,-1,-1,-1,-1,-1,-1,-1,-1],"split_conditions":[1.63E1,6.63E0,4.1331844E0,1.2605416E1,7.0000005E-1,-3.883405E-2,1.8000002E0,1.7696573E1,3.97E0,2.2093275E1,1.531639E2,1.2334584E1,8.5575E0,-2.9840784E-2,4.0623466E-3,-2.1344543E-2,-9.880212E-3,-9.388673E-3,2.382373E-2,4.3209814E-3,-1.2173736E-2,9.696009E-2,4.7694597E-2,6.0795974E-2,4.339255E-3],"split_indices":[1,1,10,3,7,0,7,10,1,10,10,3,3,0,0,0,0,0,0,0,0,0,0,0,0],"split_type":[0,0,0,0,0,0,0,0,0,0,0,0,0,0,0,0,0,0,0,0,0,0,0,0,0],"sum_hessian":[1.562E3,1.474E3,8.8E1,1.01E3,4.64E2,3E0,8.5E1,2.65E2,7.45E2,3.26E2,1.38E2,7.1E1,1.4E1,3.6E1,2.29E2,4.05E2,3.4E2,4.4E1,2.82E2,6.7E1,7.1E1,4.8E1,2.3E1,2E0,1.2E1],"tree_param":{"num_deleted":"0","num_feature":"13","num_nodes":"25","size_leaf_vector":"1"}},{"base_weights":[5.823534E-2,-9.067159E-1,5.3833923E0,-1.5694523E0,9.043294E-1,3.7232378E0,7.6537743E0,-2.0906727E0,-8.7822765E-1,1.2078897E0,-7.67896E-1,4.0578127E0,1.4256093E-1,8.396879E0,2.489211E0,-7.864377E-3,-2.3851827E-2,9.515389E-3,-1.0410913E-2,4.9805887E-2,1.2001513E-2,-2.372827E-4,-1.6373334E-2,3.4169566E-2,5.9398856E-2,-2.2261227E-2,1.924705E-2,4.5310743E-3,9.665247E-2,4.612856E-2,7.6084775E-3],"categories":[],"categories_nodes":[],"categories_segments":[],"categories_sizes":[],"default_left":[0,0,0,0,0,0,0,0,0,0,0,0,0,0,0,0,0,0,0,0,0,0,0,0,0,0,0,0,0,0,0],"id":44,"left_children":[1,3,5,7,9,11,13,15,17,19,21,23,25,27,29,-1,-1,-1,-1,-1,-1,-1,-1,-1,-1,-1,-1,-1,-1,-1,-1],"loss_changes":[8.0055522E3,1.5845433E3,8.723384E2,3.4619458E2,1.8062543E2,1.6714185E2,3.6287988E2,5.5424316E1,4.961145E1,1.124798E2,2.9479221E1,1.4657544E2,4.8691917E1,2.6030518E2,3.9895607E1,0E0,0E0,0E0,0E0,0E0,0E0,0E0,0E0,0E0,0E0,0E0,0E0,0E0,0E0,0E0,0E0],"parents":[2147483647,0,0,1,1,2,2,3,3,4,4,5,5,6,6,7,7,8,8,9,9,10,10,11,11,12,12,13,13,14,14],"right_children":[2,4,6,8,10,12,14,16,18,20,22,24,26,28,30,-1,-1,-1,-1,-1,-1,-1,-1,-1,-1,-1,-1,-1,-1,-1,-1],"split_conditions":[1.107E1,6.34E0,1.63E1,3.92E0,4.6E0,5.8999996E0,2.3000002E0,6.3929176E0,6.840833E0,2.15E0,7.9E0,1.376E1,9.815755E0,1.9554167E0,1.82E1,-7.864377E-3,-2.3851827E-2,9.515389E-3,-1.0410913E-2,4.9805887E-2,1.2001513E-2,-2.372827E-4,-1.6373334E-2,3.4169566E-2,5.9398856E-2,-2.2261227E-2,1.924705E-2,4.5310743E-3,9.665247E-2,4.612856E-2,7.6084775E-3],"split_indices":[0,0,0,0,6,6,6,3,3,2,0,0,4,5,0,0,0,0,0,0,0,0,0,0,0,0,0,0,0,0,0],"split_type":[0,0,0,0,0,0,0,0,0,0,0,0,0,0,0,0,0,0,0,0,0,0,0,0,0,0,0,0,0,0,0],"sum_hessian":[1.556E3,1.318E3,2.38E2,9.65E2,3.53E2,1.39E2,9.9E1,5.49E2,4.16E2,2.99E2,5.4E1,1.27E2,1.2E1,8.6E1,1.3E1,2.9E1,5.2E2,1.5E1,4.01E2,9E0,2.9E2,2.7E1,2.7E1,7.6E1,5.1E1,5E0,7E0,4E0,8.2E1,6E0,7E0],"tree_param":{"num_deleted":"0","num_feature":"13","num_nodes":"31","size_leaf_vector":"1"}},{"base_weights":[5.361866E-2,-8.922948E-1,5.433525E0,-1.7846583E0,4.755492E-1,3.0704815E0,6.7836204E0,-2.3142233E0,-1.3038994E0,7.674113E-1,-9.6958786E-1,3.4229205E0,-8.8177305E-1,-1.000393E0,7.0037327E0,-1.4603532E-2,-2.7056081E-2,-6.8457774E-3,-1.688883E-2,3.3793782E-3,1.9554991E-2,-5.219586E-3,-1.5784465E-2,-3.026956E-2,3.9798047E-2,-2.3762662E-2,1.02826E-2,-2.8540263E-2,1.0179187E-2,8.916304E-2,5.7328936E-2],"categories":[],"categories_nodes":[],"categories_segments":[],"categories_sizes":[],"default_left":[0,0,0,0,0,0,0,0,0,0,0,0,0,0,0,0,0,0,0,0,0,0,0,0,0,0,0,0,0,0,0],"id":45,"left_children":[1,3,5,7,9,11,13,15,17,19,21,23,25,27,29,-1,-1,-1,-1,-1,-1,-1,-1,-1,-1,-1,-1,-1,-1,-1,-1],"loss_changes":[8.0657075E3,1.6462363E3,7.352798E2,2.0473071E2,2.255532E2,1.2559595E2,2.6401025E2,5.129883E1,6.6442505E1,2.0563693E2,2.0006561E1,1.0543347E2,2.0548326E1,1.7709532E1,2.4472754E2,0E0,0E0,0E0,0E0,0E0,0E0,0E0,0E0,0E0,0E0,0E0,0E0,0E0,0E0,0E0,0E0],"parents":[2147483647,0,0,1,1,2,2,3,3,4,4,5,5,6,6,7,7,8,8,9,9,10,10,11,11,12,12,13,13,14,14],"right_children":[2,4,6,8,10,12,14,16,18,20,22,24,26,28,30,-1,-1,-1,-1,-1,-1,-1,-1,-1,-1,-1,-1,-1,-1,-1,-1],"split_conditions":[1.107E1,5.24E0,1.376E1,3.42E0,3.9E0,1.637E1,1.8033334E0,1.3309621E0,2.0409374E0,8.13E0,1.1200001E1,3.4500018E-1,8.738944E0,2.4284394E0,9.259583E0,-1.4603532E-2,-2.7056081E-2,-6.8457774E-3,-1.688883E-2,3.3793782E-3,1.9554991E-2,-5.219586E-3,-1.5784465E-2,-3.026956E-2,3.9798047E-2,-2.3762662E-2,1.02826E-2,-2.8540263E-2,1.0179187E-2,8.916304E-2,5.7328936E-2],"split_indices":[0,0,0,0,6,2,5,12,12,0,6,5,4,12,5,0,0,0,0,0,0,0,0,0,0,0,0,0,0,0,0],"split_type":[0,0,0,0,0,0,0,0,0,0,0,0,0,0,0,0,0,0,0,0,0,0,0,0,0,0,0,0,0,0,0],"sum_hessian":[1.583E3,1.347E3,2.36E2,8.15E2,5.32E2,8.7E1,1.49E2,3.86E2,4.29E2,4.43E2,8.9E1,8E1,7E0,4E0,1.45E2,5E1,3.36E2,1.09E2,3.2E2,3.05E2,1.38E2,4.4E1,4.5E1,2E0,7.8E1,4E0,3E0,2E0,2E0,8.8E1,5.7E1],"tree_param":{"num_deleted":"0","num_feature":"13","num_nodes":"31","size_leaf_vector":"1"}},{"base_weights":[-1.761792E-2,1.2018421E0,-9.654573E-1,2.0988748E0,-3.9891037E-1,-2.6466003E-1,-1.259459E0,-1.4985226E0,3.0075383E0,2.37068E-1,-1.8775411E0,5.961637E-1,-9.0287334E-1,-1.5202814E0,-3.9154768E-1,-2.8070517E-2,3.3770842E-3,3.917751E-2,8.423303E-3,1.7794387E-2,-1.1600616E-2,-2.6917003E-2,-1.0949696E-2,-1.8620105E-2,1.1218991E-2,-2.211966E-2,-7.014713E-3,-1.1137766E-3,-1.7632404E-2,1.5257394E-3,-8.638705E-3],"categories":[],"categories_nodes":[],"categories_segments":[],"categories_sizes":[],"default_left":[0,0,0,0,0,0,0,0,0,0,0,0,0,0,0,0,0,0,0,0,0,0,0,0,0,0,0,0,0,0,0],"id":46,"left_children":[1,3,5,7,9,11,13,15,17,19,21,23,25,27,29,-1,-1,-1,-1,-1,-1,-1,-1,-1,-1,-1,-1,-1,-1,-1,-1],"loss_changes":[1.8262511E3,9.930632E2,1.8283228E2,1.452596E3,2.3459901E2,1.4557701E2,1.4111285E2,1.714512E2,4.3397656E2,3.1308325E2,3.5110474E1,1.1093687E2,4.340918E1,5.5041626E1,3.0517637E1,0E0,0E0,0E0,0E0,0E0,0E0,0E0,0E0,0E0,0E0,0E0,0E0,0E0,0E0,0E0,0E0],"parents":[2147483647,0,0,1,1,2,2,3,3,4,4,5,5,6,6,7,7,8,8,9,9,10,10,11,11,12,12,13,13,14,14],"right_children":[2,4,6,8,10,12,14,16,18,20,22,24,26,28,30,-1,-1,-1,-1,-1,-1,-1,-1,-1,-1,-1,-1,-1,-1,-1,-1],"split_conditions":[1.4353333E1,7E-1,1.658E1,2.5447977E1,1.740243E2,7.0000005E-1,2.9406504E1,3.9720833E0,1.6686359E2,4.0999994E0,8.83875E0,1.1328332E1,1.4665432E1,1.4403169E1,2.463E1,-2.8070517E-2,3.3770842E-3,3.917751E-2,8.423303E-3,1.7794387E-2,-1.1600616E-2,-2.6917003E-2,-1.0949696E-2,-1.8620105E-2,1.1218991E-2,-2.211966E-2,-7.014713E-3,-1.1137766E-3,-1.7632404E-2,1.5257394E-3,-8.638705E-3],"split_indices":[3,6,11,10,10,6,4,5,10,6,5,5,4,4,11,0,0,0,0,0,0,0,0,0,0,0,0,0,0,0,0],"split_type":[0,0,0,0,0,0,0,0,0,0,0,0,0,0,0,0,0,0,0,0,0,0,0,0,0,0,0,0,0,0,0],"sum_hessian":[1.578E3,6.9E2,8.88E2,4.42E2,2.48E2,2.63E2,6.25E2,8.9E1,3.53E2,1.74E2,7.4E1,1.12E2,1.51E2,4.8E2,1.45E2,5.6E1,3.3E1,2.83E2,7E1,8.4E1,9E1,4.4E1,3E1,1.7E1,9.5E1,2.8E1,1.23E2,2.6E1,4.54E2,6.2E1,8.3E1],"tree_param":{"num_deleted":"0","num_feature":"13","num_nodes":"31","size_leaf_vector":"1"}},{"base_weights":[-1.3354572E-2,-9.1881734E-1,5.290667E0,-1.6752805E0,7.4646306E-1,4.196111E0,9.916173E0,-2.1353357E0,-1.0140045E0,4.269854E-1,1.7307632E0,2.7102728E0,5.250345E0,5.297559E0,1.0771615E1,-1.2923199E-2,-2.50051E-2,-2.6166027E-2,-1.0044833E-2,1.6854523E-2,2.0681743E-3,-7.3202658E-3,2.0979514E-2,4.069082E-2,1.03431055E-2,3.2288324E-2,6.507703E-2,6.647101E-2,-3.3612384E-3,1.2156236E-1,6.3555893E-3],"categories":[],"categories_nodes":[],"categories_segments":[],"categories_sizes":[],"default_left":[0,0,0,0,0,0,0,0,0,0,0,0,0,0,0,0,0,0,0,0,0,0,0,0,0,0,0,0,0,0,0],"id":47,"left_children":[1,3,5,7,9,11,13,15,17,19,21,23,25,27,29,-1,-1,-1,-1,-1,-1,-1,-1,-1,-1,-1,-1,-1,-1,-1,-1],"loss_changes":[7.8715107E3,1.7648629E3,1.1684175E3,2.9080176E2,1.369953E2,2.9122266E2,1.2072998E2,7.112793E1,5.2911987E1,8.734136E1,4.5950928E1,1.412851E2,1.5534619E2,3.90813E1,9.4396484E1,0E0,0E0,0E0,0E0,0E0,0E0,0E0,0E0,0E0,0E0,0E0,0E0,0E0,0E0,0E0,0E0],"parents":[2147483647,0,0,1,1,2,2,3,3,4,4,5,5,6,6,7,7,8,8,9,9,10,10,11,11,12,12,13,13,14,14],"right_children":[2,4,6,8,10,12,14,16,18,20,22,24,26,28,30,-1,-1,-1,-1,-1,-1,-1,-1,-1,-1,-1,-1,-1,-1,-1,-1],"split_conditions":[1.107E1,5.92E0,1.992E1,3.92E0,9.07E0,1.376E1,1.494E1,1.3419701E0,