{"learner":{"attributes":{"scikit_learn":"{\"_estimator_type\": \"regressor\"}"},"feature_names":["lag_1","lag_2","lag_3","temperature_2m_mean","precipitation_sum","wind_speed_10m_max","wind_direction_10m_dominant"],"feature_types":["float","float","float","float","float","float","float"],"gradient_booster":{"model":{"gbtree_model_param":{"num_parallel_tree":"1","num_trees":"1056"},"iteration_indptr":[0,1,2,3,4,5,6,7,8,9,10,11,12,13,14,15,16,17,18,19,20,21,22,23,24,25,26,27,28,29,30,31,32,33,34,35,36,37,38,39,40,41,42,43,44,45,46,47,48,49,50,51,52,53,54,55,56,57,58,59,60,61,62,63,64,65,66,67,68,69,70,71,72,73,74,75,76,77,78,79,80,81,82,83,84,85,86,87,88,89,90,91,92,93,94,95,96,97,98,99,100,101,102,103,104,105,106,107,108,109,110,111,112,113,114,115,116,117,118,119,120,121,122,123,124,125,126,127,128,129,130,131,132,133,134,135,136,137,138,139,140,141,142,143,144,145,146,147,148,149,150,151,152,153,154,155,156,157,158,159,160,161,162,163,164,165,166,167,168,169,170,171,172,173,174,175,176,177,178,179,180,181,182,183,184,185,186,187,188,189,190,191,192,193,194,195,196,197,198,199,200,201,202,203,204,205,206,207,208,209,210,211,212,213,214,215,216,217,218,219,220,221,222,223,224,225,226,227,228,229,230,231,232,233,234,235,236,237,238,239,240,241,242,243,244,245,246,247,248,249,250,251,252,253,254,255,256,257,258,259,260,261,262,263,264,265,266,267,268,269,270,271,272,273,274,275,276,277,278,279,280,281,282,283,284,285,286,287,288,289,290,291,292,293,294,295,296,297,298,299,300,301,302,303,304,305,306,307,308,309,310,311,312,313,314,315,316,317,318,319,320,321,322,323,324,325,326,327,328,329,330,331,332,333,334,335,336,337,338,339,340,341,342,343,344,345,346,347,348,349,350,351,352,353,354,355,356,357,358,359,360,361,362,363,364,365,366,367,368,369,370,371,372,373,374,375,376,377,378,379,380,381,382,383,384,385,386,387,388,389,390,391,392,393,394,395,396,397,398,399,400,401,402,403,404,405,406,407,408,409,410,411,412,413,414,415,416,417,418,419,420,421,422,423,424,425,426,427,428,429,430,431,432,433,434,435,436,437,438,439,440,441,442,443,444,445,446,447,448,449,450,451,452,453,454,455,456,457,458,459,460,461,462,463,464,465,466,467,468,469,470,471,472,473,474,475,476,477,478,479,480,481,482,483,484,485,486,487,488,489,490,491,492,493,494,495,496,497,498,499,500,501,502,503,504,505,506,507,508,509,510,511,512,513,514,515,516,517,518,519,520,521,522,523,524,525,526,527,528,529,530,531,532,533,534,535,536,537,538,539,540,541,542,543,544,545,546,547,548,549,550,551,552,553,554,555,556,557,558,559,560,561,562,563,564,565,566,567,568,569,570,571,572,573,574,575,576,577,578,579,580,581,582,583,584,585,586,587,588,589,590,591,592,593,594,595,596,597,598,599,600,601,602,603,604,605,606,607,608,609,610,611,612,613,614,615,616,617,618,619,620,621,622,623,624,625,626,627,628,629,630,631,632,633,634,635,636,637,638,639,640,641,642,643,644,645,646,647,648,649,650,651,652,653,654,655,656,657,658,659,660,661,662,663,664,665,666,667,668,669,670,671,672,673,674,675,676,677,678,679,680,681,682,683,684,685,686,687,688,689,690,691,692,693,694,695,696,697,698,699,700,701,702,703,704,705,706,707,708,709,710,711,712,713,714,715,716,717,718,719,720,721,722,723,724,725,726,727,728,729,730,731,732,733,734,735,736,737,738,739,740,741,742,743,744,745,746,747,748,749,750,751,752,753,754,755,756,757,758,759,760,761,762,763,764,765,766,767,768,769,770,771,772,773,774,775,776,777,778,779,780,781,782,783,784,785,786,787,788,789,790,791,792,793,794,795,796,797,798,799,800,801,802,803,804,805,806,807,808,809,810,811,812,813,814,815,816,817,818,819,820,821,822,823,824,825,826,827,828,829,830,831,832,833,834,835,836,837,838,839,840,841,842,843,844,845,846,847,848,849,850,851,852,853,854,855,856,857,858,859,860,861,862,863,864,865,866,867,868,869,870,871,872,873,874,875,876,877,878,879,880,881,882,883,884,885,886,887,888,889,890,891,892,893,894,895,896,897,898,899,900,901,902,903,904,905,906,907,908,909,910,911,912,913,914,915,916,917,918,919,920,921,922,923,924,925,926,927,928,929,930,931,932,933,934,935,936,937,938,939,940,941,942,943,944,945,946,947,948,949,950,951,952,953,954,955,956,957,958,959,960,961,962,963,964,965,966,967,968,969,970,971,972,973,974,975,976,977,978,979,980,981,982,983,984,985,986,987,988,989,990,991,992,993,994,995,996,997,998,999,1000,1001,1002,1003,1004,1005,1006,1007,1008,1009,1010,1011,1012,1013,1014,1015,1016,1017,1018,1019,1020,1021,1022,1023,1024,1025,1026,1027,1028,1029,1030,1031,1032,1033,1034,1035,1036,1037,1038,1039,1040,1041,1042,1043,1044,1045,1046,1047,1048,1049,1050,1051,1052,1053,1054,1055,1056],"tree_info":[0,0,0,0,0,0,0,0,0,0,0,0,0,0,0,0,0,0,0,0,0,0,0,0,0,0,0,0,0,0,0,0,0,0,0,0,0,0,0,0,0,0,0,0,0,0,0,0,0,0,0,0,0,0,0,0,0,0,0,0,0,0,0,0,0,0,0,0,0,0,0,0,0,0,0,0,0,0,0,0,0,0,0,0,0,0,0,0,0,0,0,0,0,0,0,0,0,0,0,0,0,0,0,0,0,0,0,0,0,0,0,0,0,0,0,0,0,0,0,0,0,0,0,0,0,0,0,0,0,0,0,0,0,0,0,0,0,0,0,0,0,0,0,0,0,0,0,0,0,0,0,0,0,0,0,0,0,0,0,0,0,0,0,0,0,0,0,0,0,0,0,0,0,0,0,0,0,0,0,0,0,0,0,0,0,0,0,0,0,0,0,0,0,0,0,0,0,0,0,0,0,0,0,0,0,0,0,0,0,0,0,0,0,0,0,0,0,0,0,0,0,0,0,0,0,0,0,0,0,0,0,0,0,0,0,0,0,0,0,0,0,0,0,0,0,0,0,0,0,0,0,0,0,0,0,0,0,0,0,0,0,0,0,0,0,0,0,0,0,0,0,0,0,0,0,0,0,0,0,0,0,0,0,0,0,0,0,0,0,0,0,0,0,0,0,0,0,0,0,0,0,0,0,0,0,0,0,0,0,0,0,0,0,0,0,0,0,0,0,0,0,0,0,0,0,0,0,0,0,0,0,0,0,0,0,0,0,0,0,0,0,0,0,0,0,0,0,0,0,0,0,0,0,0,0,0,0,0,0,0,0,0,0,0,0,0,0,0,0,0,0,0,0,0,0,0,0,0,0,0,0,0,0,0,0,0,0,0,0,0,0,0,0,0,0,0,0,0,0,0,0,0,0,0,0,0,0,0,0,0,0,0,0,0,0,0,0,0,0,0,0,0,0,0,0,0,0,0,0,0,0,0,0,0,0,0,0,0,0,0,0,0,0,0,0,0,0,0,0,0,0,0,0,0,0,0,0,0,0,0,0,0,0,0,0,0,0,0,0,0,0,0,0,0,0,0,0,0,0,0,0,0,0,0,0,0,0,0,0,0,0,0,0,0,0,0,0,0,0,0,0,0,0,0,0,0,0,0,0,0,0,0,0,0,0,0,0,0,0,0,0,0,0,0,0,0,0,0,0,0,0,0,0,0,0,0,0,0,0,0,0,0,0,0,0,0,0,0,0,0,0,0,0,0,0,0,0,0,0,0,0,0,0,0,0,0,0,0,0,0,0,0,0,0,0,0,0,0,0,0,0,0,0,0,0,0,0,0,0,0,0,0,0,0,0,0,0,0,0,0,0,0,0,0,0,0,0,0,0,0,0,0,0,0,0,0,0,0,0,0,0,0,0,0,0,0,0,0,0,0,0,0,0,0,0,0,0,0,0,0,0,0,0,0,0,0,0,0,0,0,0,0,0,0,0,0,0,0,0,0,0,0,0,0,0,0,0,0,0,0,0,0,0,0,0,0,0,0,0,0,0,0,0,0,0,0,0,0,0,0,0,0,0,0,0,0,0,0,0,0,0,0,0,0,0,0,0,0,0,0,0,0,0,0,0,0,0,0,0,0,0,0,0,0,0,0,0,0,0,0,0,0,0,0,0,0,0,0,0,0,0,0,0,0,0,0,0,0,0,0,0,0,0,0,0,0,0,0,0,0,0,0,0,0,0,0,0,0,0,0,0,0,0,0,0,0,0,0,0,0,0,0,0,0,0,0,0,0,0,0,0,0,0,0,0,0,0,0,0,0,0,0,0,0,0,0,0,0,0,0,0,0,0,0,0,0,0,0,0,0,0,0,0,0,0,0,0,0,0,0,0,0,0,0,0,0,0,0,0,0,0,0,0,0,0,0,0,0,0,0,0,0,0,0,0,0,0,0,0,0,0,0,0,0,0,0,0,0,0,0,0,0,0,0,0,0,0,0,0,0,0,0,0,0,0,0,0,0,0,0,0,0,0,0,0,0,0,0,0,0,0,0,0,0,0,0,0,0,0,0,0,0,0,0,0,0,0,0,0,0,0,0,0,0,0,0,0,0,0,0,0,0,0,0,0,0,0,0,0,0,0,0,0,0,0,0,0,0,0,0,0,0,0,0,0,0,0,0,0,0,0,0,0,0,0,0,0,0,0,0,0,0,0,0,0,0,0,0,0,0,0,0,0,0,0,0,0,0,0,0,0,0,0,0,0,0,0,0,0,0,0,0,0,0,0,0,0,0,0,0,0,0,0,0,0,0,0,0,0,0,0,0,0,0,0,0,0,0,0,0,0,0,0,0,0,0,0,0,0,0,0,0,0,0,0,0,0,0,0,0,0,0,0,0,0,0],"trees":[{"base_weights":[1.041072E-2,-1.0228434E0,5.371021E0,7.194656E-1,-2.0703807E0,8.468497E0,1.4536542E0,-8.135769E-3,1.08177654E-1,-1.04955226E-1,-3.8968522E-2,2.2639474E-1,4.5403033E-1,9.008196E-2,-7.397411E-2],"categories":[],"categories_nodes":[],"categories_segments":[],"categories_sizes":[],"default_left":[0,0,0,0,0,0,0,0,0,0,0,0,0,0,0],"id":0,"left_children":[1,3,5,7,9,11,13,-1,-1,-1,-1,-1,-1,-1,-1],"loss_changes":[1.038534E4,2.8706E3,3.6642764E3,1.1654237E3,6.964214E2,1.3981172E3,4.1906085E2,0E0,0E0,0E0,0E0,0E0,0E0,0E0,0E0],"parents":[2147483647,0,0,1,1,2,2,3,3,4,4,5,5,6,6],"right_children":[2,4,6,8,10,12,14,-1,-1,-1,-1,-1,-1,-1,-1],"split_conditions":[1.049E1,1.4693999E1,1.353236E1,6.57E0,4.95E0,1.63E1,2.4842607E1,-8.135769E-3,1.08177654E-1,-1.04955226E-1,-3.8968522E-2,2.2639474E-1,4.5403033E-1,9.008196E-2,-7.397411E-2],"split_indices":[1,5,5,1,1,1,5,0,0,0,0,0,0,0,0],"split_type":[0,0,0,0,0,0,0,0,0,0,0,0,0,0,0],"sum_hessian":[1.873E3,1.571E3,3.02E2,5.9E2,9.81E2,1.68E2,1.34E2,4.1E2,1.8E2,5.95E2,3.86E2,9.8E1,7E1,1.06E2,2.8E1],"tree_param":{"num_deleted":"0","num_feature":"7","num_nodes":"15","size_leaf_vector":"1"}},{"base_weights":[-4.741193E-3,-1.2674258E0,7.413548E0,-2.3200455E0,1.0220307E0,9.444793E0,3.880997E0,-1.1166994E-1,-5.424103E-2,9.4775125E-2,-1.081398E-2,2.7576634E-1,4.9613354E-1,1.8048897E-1,-4.8987903E-2],"categories":[],"categories_nodes":[],"categories_segments":[],"categories_sizes":[],"default_left":[0,0,0,0,0,0,0,0,0,0,0,0,0,0,0],"id":1,"left_children":[1,3,5,7,9,11,13,-1,-1,-1,-1,-1,-1,-1,-1],"loss_changes":[1.7516242E4,3.853435E3,1.9150742E3,5.9120215E2,9.611302E2,1.2627695E3,4.471538E2,0E0,0E0,0E0,0E0,0E0,0E0,0E0,0E0],"parents":[2147483647,0,0,1,1,2,2,3,3,4,4,5,5,6,6],"right_children":[2,4,6,8,10,12,14,-1,-1,-1,-1,-1,-1,-1,-1],"split_conditions":[1.107E1,5.92E0,1.3004922E1,3.92E0,1.4848635E1,1.75E1,2.4842607E1,-1.1166994E-1,-5.424103E-2,9.4775125E-2,-1.081398E-2,2.7576634E-1,4.9613354E-1,1.8048897E-1,-4.8987903E-2],"split_indices":[0,0,5,0,5,0,5,0,0,0,0,0,0,0,0],"split_type":[0,0,0,0,0,0,0,0,0,0,0,0,0,0,0],"sum_hessian":[1.868E3,1.597E3,2.71E2,1.094E3,5.03E2,1.71E2,1E2,6.53E2,4.41E2,2.37E2,2.66E2,1.07E2,6.4E1,8.6E1,1.4E1],"tree_param":{"num_deleted":"0","num_feature":"7","num_nodes":"15","size_leaf_vector":"1"}},{"base_weights":[9.943743E-3,-1.2124296E0,7.126343E0,-2.2284737E0,9.8437655E-1,4.9524803E0,1.0199026E1,-1.076717E-1,-5.1621277E-2,9.114972E-2,-1.0139528E-2,2.8091308E-1,1.370936E-1,4.5233318E-1,2.2329283E-1],"categories":[],"categories_nodes":[],"categories_segments":[],"categories_sizes":[],"default_left":[0,0,0,0,0,0,0,0,0,0,0,0,0,0,0],"id":2,"left_children":[1,3,5,7,9,11,13,-1,-1,-1,-1,-1,-1,-1,-1],"loss_changes":[1.6319071E4,3.5757087E3,1.786377E3,5.637373E2,8.895272E2,5.0741626E2,7.404922E2,0E0,0E0,0E0,0E0,0E0,0E0,0E0,0E0],"parents":[2147483647,0,0,1,1,2,2,3,3,4,4,5,5,6,6],"right_children":[2,4,6,8,10,12,14,-1,-1,-1,-1,-1,-1,-1,-1],"split_conditions":[1.107E1,5.92E0,1.63E1,3.92E0,1.4848635E1,1.0495713E1,1.257426E1,-1.076717E-1,-5.1621277E-2,9.114972E-2,-1.0139528E-2,2.8091308E-1,1.370936E-1,4.5233318E-1,2.2329283E-1],"split_indices":[0,0,0,0,5,5,5,0,0,0,0,0,0,0,0],"split_type":[0,0,0,0,0,0,0,0,0,0,0,0,0,0,0],"sum_hessian":[1.874E3,1.6E3,2.74E2,1.094E3,5.06E2,1.62E2,1.12E2,6.52E2,4.42E2,2.38E2,2.68E2,5.7E1,1.05E2,8E1,3.2E1],"tree_param":{"num_deleted":"0","num_feature":"7","num_nodes":"15","size_leaf_vector":"1"}},{"base_weights":[-4.5605176E-3,-1.1673963E0,6.8356667E0,-2.1701949E0,8.7847304E-1,4.782446E0,9.770677E0,-1.1209572E-1,-6.019775E-2,-1.5199626E-2,4.9871963E-2,-1.2543537E-1,1.9120963E-1,4.4314468E-1,2.3240069E-1],"categories":[],"categories_nodes":[],"categories_segments":[],"categories_sizes":[],"default_left":[0,0,0,0,0,0,0,0,0,0,0,0,0,0,0],"id":3,"left_children":[1,3,5,7,9,11,13,-1,-1,-1,-1,-1,-1,-1,-1],"loss_changes":[1.4890028E4,3.2844587E3,1.5924053E3,4.8343506E2,2.8817502E2,3.1054395E2,6.79667E2,0E0,0E0,0E0,0E0,0E0,0E0,0E0,0E0],"parents":[2147483647,0,0,1,1,2,2,3,3,4,4,5,5,6,6],"right_children":[2,4,6,8,10,12,14,-1,-1,-1,-1,-1,-1,-1,-1],"split_conditions":[1.107E1,5.78E0,1.63E1,3.42E0,6.63E0,1.3520541E1,1.2107499E1,-1.1209572E-1,-6.019775E-2,-1.5199626E-2,4.9871963E-2,-1.2543537E-1,1.9120963E-1,4.4314468E-1,2.3240069E-1],"split_indices":[0,0,0,0,0,6,3,0,0,0,0,0,0,0,0],"split_type":[0,0,0,0,0,0,0,0,0,0,0,0,0,0,0],"sum_hessian":[1.87E3,1.599E3,2.71E2,1.073E3,5.26E2,1.61E2,1.1E2,4.67E2,6.06E2,1.32E2,3.94E2,4E0,1.57E2,7.2E1,3.8E1],"tree_param":{"num_deleted":"0","num_feature":"7","num_nodes":"15","size_leaf_vector":"1"}},{"base_weights":[-1.4670838E-2,-1.1375391E0,6.5946193E0,-2.099586E0,8.3261293E-1,8.493092E0,3.4461906E0,-1.0789026E-1,-5.8659423E-2,8.328987E-2,-1.3402443E-2,2.4867097E-1,4.4762152E-1,1.6201223E-1,-5.970047E-2],"categories":[],"categories_nodes":[],"categories_segments":[],"categories_sizes":[],"default_left":[0,0,0,0,0,0,0,0,0,0,0,0,0,0,0],"id":4,"left_children":[1,3,5,7,9,11,13,-1,-1,-1,-1,-1,-1,-1,-1],"loss_changes":[1.3900291E4,3.0362495E3,1.5965312E3,4.3569775E2,8.40379E2,1.0047168E3,4.2169153E2,0E0,0E0,0E0,0E0,0E0,0E0,0E0,0E0],"parents":[2147483647,0,0,1,1,2,2,3,3,4,4,5,5,6,6],"right_children":[2,4,6,8,10,12,14,-1,-1,-1,-1,-1,-1,-1,-1],"split_conditions":[1.107E1,5.78E0,1.3004922E1,3.42E0,1.4848635E1,1.75E1,2.4842607E1,-1.0789026E-1,-5.8659423E-2,8.328987E-2,-1.3402443E-2,2.4867097E-1,4.4762152E-1,1.6201223E-1,-5.970047E-2],"split_indices":[0,0,5,0,5,0,5,0,0,0,0,0,0,0,0],"split_type":[0,0,0,0,0,0,0,0,0,0,0,0,0,0,0],"sum_hessian":[1.871E3,1.6E3,2.71E2,1.075E3,5.25E2,1.68E2,1.03E2,4.68E2,6.07E2,2.45E2,2.8E2,1.06E2,6.2E1,8.9E1,1.4E1],"tree_param":{"num_deleted":"0","num_feature":"7","num_nodes":"15","size_leaf_vector":"1"}},{"base_weights":[1.8632852E-2,-1.0701798E0,6.360001E0,-1.9798058E0,9.1676456E-1,4.3857365E0,9.116608E0,-9.588021E-2,-4.5487598E-2,7.9084665E-2,-1.6664948E-2,2.523585E-1,1.1979066E-1,4.051512E-1,1.9757237E-1],"categories":[],"categories_nodes":[],"categories_segments":[],"categories_sizes":[],"default_left":[0,0,0,0,0,0,0,0,0,0,0,0,0,0,0],"id":5,"left_children":[1,3,5,7,9,11,13,-1,-1,-1,-1,-1,-1,-1,-1],"loss_changes":[1.28631E4,2.875543E3,1.4457578E3,4.5396094E2,7.819237E2,4.2617456E2,6.105293E2,0E0,0E0,0E0,0E0,0E0,0E0,0E0,0E0],"parents":[2147483647,0,0,1,1,2,2,3,3,4,4,5,5,6,6],"right_children":[2,4,6,8,10,12,14,-1,-1,-1,-1,-1,-1,-1,-1],"split_conditions":[1.107E1,5.92E0,1.63E1,3.92E0,1.59134655E1,1.0495713E1,1.257426E1,-9.588021E-2,-4.5487598E-2,7.9084665E-2,-1.6664948E-2,2.523585E-1,1.1979066E-1,4.051512E-1,1.9757237E-1],"split_indices":[0,0,0,0,5,5,5,0,0,0,0,0,0,0,0],"split_type":[0,0,0,0,0,0,0,0,0,0,0,0,0,0,0],"sum_hessian":[1.861E3,1.589E3,2.72E2,1.09E3,4.99E2,1.6E2,1.12E2,6.5E2,4.4E2,2.69E2,2.3E2,5.6E1,1.04E2,8E1,3.2E1],"tree_param":{"num_deleted":"0","num_feature":"7","num_nodes":"15","size_leaf_vector":"1"}},{"base_weights":[5.126779E-3,-1.0529133E0,6.1448298E0,-1.9218642E0,8.34219E-1,4.2730927E0,8.773826E0,-9.2874944E-2,-4.4318583E-2,5.0311137E-2,-2.5424886E-2,1.2154508E-1,2.2036998E-1,3.633097E-1,1.0907828E-1],"categories":[],"categories_nodes":[],"categories_segments":[],"categories_sizes":[],"default_left":[0,0,0,0,0,0,0,0,0,0,0,0,0,0,0],"id":6,"left_children":[1,3,5,7,9,11,13,-1,-1,-1,-1,-1,-1,-1,-1],"loss_changes":[1.2108614E4,2.6089253E3,1.3108047E3,4.2027417E2,3.6485275E2,2.4616016E2,4.680713E2,0E0,0E0,0E0,0E0,0E0,0E0,0E0,0E0],"parents":[2147483647,0,0,1,1,2,2,3,3,4,4,5,5,6,6],"right_children":[2,4,6,8,10,12,14,-1,-1,-1,-1,-1,-1,-1,-1],"split_conditions":[1.107E1,5.92E0,1.63E1,3.92E0,1.8000002E0,1.376E1,2.3000002E0,-9.2874944E-2,-4.4318583E-2,5.0311137E-2,-2.5424886E-2,1.2154508E-1,2.2036998E-1,3.633097E-1,1.0907828E-1],"split_indices":[0,0,0,0,4,0,4,0,0,0,0,0,0,0,0],"split_type":[0,0,0,0,0,0,0,0,0,0,0,0,0,0,0],"sum_hessian":[1.862E3,1.589E3,2.73E2,1.088E3,5.01E2,1.61E2,1.12E2,6.5E2,4.38E2,3.79E2,1.22E2,9.5E1,6.6E1,9.9E1,1.3E1],"tree_param":{"num_deleted":"0","num_feature":"7","num_nodes":"15","size_leaf_vector":"1"}},{"base_weights":[7.646118E-3,-1.0007504E0,5.8783197E0,-1.7041821E0,1.158504E0,4.875015E0,1.0641692E1,-8.866489E-2,-3.6971323E-2,7.303495E-2,1.2293935E-2,1.14302434E-1,2.3715337E-1,1.934569E-1,4.450616E-1],"categories":[],"categories_nodes":[],"categories_segments":[],"categories_sizes":[],"default_left":[0,0,0,0,0,0,0,0,0,0,0,0,0,0,0],"id":7,"left_children":[1,3,5,7,9,11,13,-1,-1,-1,-1,-1,-1,-1,-1],"loss_changes":[1.1105822E4,2.4337139E3,1.2623789E3,5.47011E2,2.47956E2,5.569287E2,2.0659717E2,0E0,0E0,0E0,0E0,0E0,0E0,0E0,0E0],"parents":[2147483647,0,0,1,1,2,2,3,3,4,4,5,5,6,6],"right_children":[2,4,6,8,10,12,14,-1,-1,-1,-1,-1,-1,-1,-1],"split_conditions":[1.107E1,6.63E0,2.055E1,3.92E0,1.5802249E2,1.376E1,1.494E1,-8.866489E-2,-3.6971323E-2,7.303495E-2,1.2293935E-2,1.14302434E-1,2.3715337E-1,1.934569E-1,4.450616E-1],"split_indices":[0,0,0,0,6,0,1,0,0,0,0,0,0,0,0],"split_type":[0,0,0,0,0,0,0,0,0,0,0,0,0,0,0],"sum_hessian":[1.874E3,1.6E3,2.74E2,1.207E3,3.93E2,2.28E2,4.6E1,6.55E2,5.52E2,2.06E2,1.87E2,9.6E1,1.32E2,8E0,3.8E1],"tree_param":{"num_deleted":"0","num_feature":"7","num_nodes":"15","size_leaf_vector":"1"}},{"base_weights":[-1.5013103E-2,-9.6272814E-1,5.608152E0,-1.7968053E0,7.324732E-1,3.9003801E0,8.056725E0,-9.2961706E-2,-4.979409E-2,4.486873E-2,-2.477954E-2,-1.3403028E-1,1.5699841E-1,3.350506E-1,9.578687E-2],"categories":[],"categories_nodes":[],"categories_segments":[],"categories_sizes":[],"default_left":[0,0,0,0,0,0,0,0,0,0,0,0,0,0,0],"id":8,"left_children":[1,3,5,7,9,11,13,-1,-1,-1,-1,-1,-1,-1,-1],"loss_changes":[9.976253E3,2.2664297E3,1.0976094E3,3.3433057E2,3.2417535E2,2.663589E2,4.1601318E2,0E0,0E0,0E0,0E0,0E0,0E0,0E0,0E0],"parents":[2147483647,0,0,1,1,2,2,3,3,4,4,5,5,6,6],"right_children":[2,4,6,8,10,12,14,-1,-1,-1,-1,-1,-1,-1,-1],"split_conditions":[1.107E1,5.78E0,1.63E1,3.42E0,1.8000002E0,1.3520541E1,2.3000002E0,-9.2961706E-2,-4.979409E-2,4.486873E-2,-2.477954E-2,-1.3403028E-1,1.5699841E-1,3.350506E-1,9.578687E-2],"split_indices":[0,0,0,0,4,6,4,0,0,0,0,0,0,0,0],"split_type":[0,0,0,0,0,0,0,0,0,0,0,0,0,0,0],"sum_hessian":[1.87E3,1.601E3,2.69E2,1.073E3,5.28E2,1.6E2,1.09E2,4.66E2,6.07E2,4E2,1.28E2,4E0,1.56E2,9.6E1,1.3E1],"tree_param":{"num_deleted":"0","num_feature":"7","num_nodes":"15","size_leaf_vector":"1"}},{"base_weights":[1.1706087E-2,-9.2506504E-1,5.4675827E0,-1.5843079E0,1.0801095E0,7.125199E0,2.6187837E0,-8.1673294E-2,-3.3326834E-2,8.602586E-2,-3.9749136E-3,2.2552508E-1,4.250377E-1,1.2952176E-1,-7.9875655E-2],"categories":[],"categories_nodes":[],"categories_segments":[],"categories_sizes":[],"default_left":[0,0,0,0,0,0,0,0,0,0,0,0,0,0,0],"id":9,"left_children":[1,3,5,7,9,11,13,-1,-1,-1,-1,-1,-1,-1,-1],"loss_changes":[9.521567E3,2.1035273E3,1.2705059E3,4.704751E2,5.474223E2,7.7419824E2,3.7859576E2,0E0,0E0,0E0,0E0,0E0,0E0,0E0,0E0],"parents":[2147483647,0,0,1,1,2,2,3,3,4,4,5,5,6,6],"right_children":[2,4,6,8,10,12,14,-1,-1,-1,-1,-1,-1,-1,-1],"split_conditions":[1.107E1,6.63E0,1.3004922E1,4.05E0,1.4693999E1,2.055E1,2.4842607E1,-8.1673294E-2,-3.3326834E-2,8.602586E-2,-3.9749136E-3,2.2552508E-1,4.250377E-1,1.2952176E-1,-7.9875655E-2],"split_indices":[0,0,5,0,5,0,5,0,0,0,0,0,0,0,0],"split_type":[0,0,0,0,0,0,0,0,0,0,0,0,0,0,0],"sum_hessian":[1.861E3,1.589E3,2.72E2,1.196E3,3.93E2,1.71E2,1.01E2,6.71E2,5.25E2,1.97E2,1.96E2,1.33E2,3.8E1,8.7E1,1.4E1],"tree_param":{"num_deleted":"0","num_feature":"7","num_nodes":"15","size_leaf_vector":"1"}},{"base_weights":[-1.0896968E-2,2.4701204E0,-1.1014667E0,1.1339569E0,6.3163743E0,-1.6407146E0,1.9250698E-1,-3.3091444E-3,7.5310625E-2,1.7599437E-1,3.4398952E-1,-8.0118194E-2,-4.4737846E-2,-5.8824264E-2,2.8474336E-2],"categories":[],"categories_nodes":[],"categories_segments":[],"categories_sizes":[],"default_left":[0,0,0,0,0,0,0,0,0,0,0,0,0,0,0],"id":10,"left_children":[1,3,5,7,9,11,13,-1,-1,-1,-1,-1,-1,-1,-1],"loss_changes":[5.0597153E3,2.9273342E3,9.0672266E2,4.3505377E2,6.3416455E2,1.9432251E2,3.6832706E2,0E0,0E0,0E0,0E0,0E0,0E0,0E0,0E0],"parents":[2147483647,0,0,1,1,2,2,3,3,4,4,5,5,6,6],"right_children":[2,4,6,8,10,12,14,-1,-1,-1,-1,-1,-1,-1,-1],"split_conditions":[1.3004922E1,1.11E1,6.63E0,4.05E0,1.725E1,3.83E0,9.000007E1,-3.3091444E-3,7.5310625E-2,1.7599437E-1,3.4398952E-1,-8.0118194E-2,-4.4737846E-2,-5.8824264E-2,2.8474336E-2],"split_indices":[5,1,1,1,1,1,6,0,0,0,0,0,0,0,0],"split_type":[0,0,0,0,0,0,0,0,0,0,0,0,0,0,0],"sum_hessian":[1.868E3,5.7E2,1.298E3,4.24E2,1.46E2,9.16E2,3.82E2,1.73E2,2.51E2,9.1E1,5.5E1,4.62E2,4.54E2,9.2E1,2.9E2],"tree_param":{"num_deleted":"0","num_feature":"7","num_nodes":"15","size_leaf_vector":"1"}},{"base_weights":[-5.930065E-3,2.3724413E0,-1.0461202E0,1.0430988E0,6.2167473E0,-1.4861567E0,5.207442E-1,1.4482733E-2,9.225808E-2,1.6744913E-1,3.37674E-1,-7.590416E-2,-3.8258895E-2,-5.6479476E-2,4.8792575E-2],"categories":[],"categories_nodes":[],"categories_segments":[],"categories_sizes":[],"default_left":[0,0,0,0,0,0,0,0,0,0,0,0,0,0,0],"id":11,"left_children":[1,3,5,7,9,11,13,-1,-1,-1,-1,-1,-1,-1,-1],"loss_changes":[4.62631E3,2.9013323E3,8.977842E2,3.855253E2,6.635244E2,2.4480347E2,4.348935E2,0E0,0E0,0E0,0E0,0E0,0E0,0E0,0E0],"parents":[2147483647,0,0,1,1,2,2,3,3,4,4,5,5,6,6],"right_children":[2,4,6,8,10,12,14,-1,-1,-1,-1,-1,-1,-1,-1],"split_conditions":[1.3004922E1,1.11E1,7.69E0,6.57E0,1.688E1,3.97E0,9.000007E1,1.4482733E-2,9.225808E-2,1.6744913E-1,3.37674E-1,-7.590416E-2,-3.8258895E-2,-5.6479476E-2,4.8792575E-2],"split_indices":[5,1,1,1,1,1,6,0,0,0,0,0,0,0,0],"split_type":[0,0,0,0,0,0,0,0,0,0,0,0,0,0,0],"sum_hessian":[1.868E3,5.68E2,1.3E3,4.23E2,1.45E2,1.015E3,2.85E2,2.86E2,1.37E2,8.7E1,5.8E1,4.97E2,5.18E2,7.8E1,2.07E2],"tree_param":{"num_deleted":"0","num_feature":"7","num_nodes":"15","size_leaf_vector":"1"}},{"base_weights":[6.406888E-3,2.7547805E0,-8.462093E-1,4.1512203E0,-6.3934916E-1,-1.3991723E0,3.7842405E-1,1.2590677E-1,2.3124705E-1,-5.646531E-2,2.0320276E-2,-1.9227672E-2,-6.251349E-2,6.358142E-2,-2.5552874E-2],"categories":[],"categories_nodes":[],"categories_segments":[],"categories_sizes":[],"default_left":[0,0,0,0,0,0,0,0,0,0,0,0,0,0,0],"id":12,"left_children":[1,3,5,7,9,11,13,-1,-1,-1,-1,-1,-1,-1,-1],"loss_changes":[4.384317E3,2.10234E3,9.675382E2,4.9076074E2,1.2862187E2,2.0888623E2,6.009449E2,0E0,0E0,0E0,0E0,0E0,0E0,0E0,0E0],"parents":[2147483647,0,0,1,1,2,2,3,3,4,4,5,5,6,6],"right_children":[2,4,6,8,10,12,14,-1,-1,-1,-1,-1,-1,-1,-1],"split_conditions":[1.1966954E1,1.5074168E1,6.63E0,1.213E1,5.38E0,1.4693999E1,1.679314E1,1.2590677E-1,2.3124705E-1,-5.646531E-2,2.0320276E-2,-1.9227672E-2,-6.251349E-2,6.358142E-2,-2.5552874E-2],"split_indices":[5,3,2,2,2,5,5,0,0,0,0,0,0,0,0],"split_type":[0,0,0,0,0,0,0,0,0,0,0,0,0,0,0],"sum_hessian":[1.869E3,4.42E2,1.427E3,3.13E2,1.29E2,9.83E2,4.44E2,2.18E2,9.5E1,7.5E1,5.4E1,2.07E2,7.76E2,1.99E2,2.45E2],"tree_param":{"num_deleted":"0","num_feature":"7","num_nodes":"15","size_leaf_vector":"1"}},{"base_weights":[8.23557E-3,2.2240937E0,-9.645036E-1,9.771405E-1,5.789844E0,-1.4675181E0,2.298863E-1,-4.5663957E-3,6.60799E-2,1.1199983E-1,2.8255835E-1,-1.09163E-1,-5.0336797E-2,-5.1363982E-2,2.824823E-2],"categories":[],"categories_nodes":[],"categories_segments":[],"categories_sizes":[],"default_left":[0,0,0,0,0,0,0,0,0,0,0,0,0,0,0],"id":13,"left_children":[1,3,5,7,9,11,13,-1,-1,-1,-1,-1,-1,-1,-1],"loss_changes":[4.0414617E3,2.53764E3,7.831738E2,3.5136716E2,6.589624E2,1.8668164E2,3.117909E2,0E0,0E0,0E0,0E0,0E0,0E0,0E0,0E0],"parents":[2147483647,0,0,1,1,2,2,3,3,4,4,5,5,6,6],"right_children":[2,4,6,8,10,12,14,-1,-1,-1,-1,-1,-1,-1,-1],"split_conditions":[1.3004922E1,1.11E1,6.63E0,4.05E0,4.8427505E1,2.2093275E1,9.000007E1,-4.5663957E-3,6.60799E-2,1.1199983E-1,2.8255835E-1,-1.09163E-1,-5.0336797E-2,-5.1363982E-2,2.824823E-2],"split_indices":[5,1,1,1,6,6,6,0,0,0,0,0,0,0,0],"split_type":[0,0,0,0,0,0,0,0,0,0,0,0,0,0,0],"sum_hessian":[1.873E3,5.71E2,1.302E3,4.24E2,1.47E2,9.16E2,3.86E2,1.73E2,2.51E2,5.4E1,9.3E1,8.7E1,8.29E2,9.4E1,2.92E2],"tree_param":{"num_deleted":"0","num_feature":"7","num_nodes":"15","size_leaf_vector":"1"}},{"base_weights":[-2.1143656E-3,2.5378516E0,-7.936289E-1,3.8620632E0,-7.00523E-1,1.6257174E-1,-1.2673938E0,7.157055E-2,1.8653871E-1,4.9234908E-2,-3.561287E-2,4.4358823E-2,-2.7577505E-2,-1.0678713E-1,-3.814948E-2],"categories":[],"categories_nodes":[],"categories_segments":[],"categories_sizes":[],"default_left":[0,0,0,0,0,0,0,0,0,0,0,0,0,0,0],"id":14,"left_children":[1,3,5,7,9,11,13,-1,-1,-1,-1,-1,-1,-1,-1],"loss_changes":[3.7655208E3,1.9109958E3,6.471104E2,6.3347314E2,6.124944E1,4.198547E2,3.8905408E2,0E0,0E0,0E0,0E0,0E0,0E0,0E0,0E0],"parents":[2147483647,0,0,1,1,2,2,3,3,4,4,5,5,6,6],"right_children":[2,4,6,8,10,12,14,-1,-1,-1,-1,-1,-1,-1,-1],"split_conditions":[1.1966954E1,1.5074168E1,1.5856354E1,4.662622E1,8.435069E0,1.5142917E1,3.913039E1,7.157055E-2,1.8653871E-1,4.9234908E-2,-3.561287E-2,4.4358823E-2,-2.7577505E-2,-1.0678713E-1,-3.814948E-2],"split_indices":[5,3,5,6,5,3,6,0,0,0,0,0,0,0,0],"split_type":[0,0,0,0,0,0,0,0,0,0,0,0,0,0,0],"sum_hessian":[1.871E3,4.44E2,1.427E3,3.15E2,1.29E2,4.73E2,9.54E2,1.08E2,2.07E2,1.3E1,1.16E2,2.22E2,2.51E2,1.41E2,8.13E2],"tree_param":{"num_deleted":"0","num_feature":"7","num_nodes":"15","size_leaf_vector":"1"}},{"base_weights":[-2.960653E-3,-8.6537457E-1,2.2523327E0,-2.7122632E-1,-1.3652552E0,1.3729091E0,5.3843164E0,-8.077265E-2,7.4459864E-3,-7.265427E-2,-3.909339E-2,7.844492E-2,-1.3079123E-2,5.5233892E-2,2.5928277E-1],"categories":[],"categories_nodes":[],"categories_segments":[],"categories_sizes":[],"default_left":[0,0,0,0,0,0,0,0,0,0,0,0,0,0,0],"id":15,"left_children":[1,3,5,7,9,11,13,-1,-1,-1,-1,-1,-1,-1,-1],"loss_changes":[3.6352021E3,4.0117804E2,1.4166018E3,5.3260144E2,1.3275317E2,4.741324E2,6.15761E2,0E0,0E0,0E0,0E0,0E0,0E0,0E0,0E0],"parents":[2147483647,0,0,1,1,2,2,3,3,4,4,5,5,6,6],"right_children":[2,4,6,8,10,12,14,-1,-1,-1,-1,-1,-1,-1,-1],"split_conditions":[7.69E0,1.6582288E2,1.63E1,2.1606638E1,3.6E0,7.0000005E-1,4.1922516E1,-8.077265E-2,7.4459864E-3,-7.265427E-2,-3.909339E-2,7.844492E-2,-1.3079123E-2,5.5233892E-2,2.5928277E-1],"split_indices":[1,6,1,6,1,4,6,0,0,0,0,0,0,0,0],"split_type":[0,0,0,0,0,0,0,0,0,0,0,0,0,0,0],"sum_hessian":[1.867E3,1.351E3,5.16E2,6.18E2,7.33E2,4.04E2,1.12E2,1.24E2,4.94E2,2.83E2,4.5E2,2.89E2,1.15E2,3E1,8.2E1],"tree_param":{"num_deleted":"0","num_feature":"7","num_nodes":"15","size_leaf_vector":"1"}},{"base_weights":[-6.633062E-4,2.4131792E0,-7.511853E-1,3.7825835E0,-3.7930813E-1,1.3480619E-1,-1.2027527E0,6.47228E-2,1.8437035E-1,5.6183282E-2,-2.4157083E-2,4.1581906E-2,-2.678776E-2,-1.01463415E-1,-3.61545E-2],"categories":[],"categories_nodes":[],"categories_segments":[],"categories_sizes":[],"default_left":[0,0,0,0,0,0,0,0,0,0,0,0,0,0,0],"id":16,"left_children":[1,3,5,7,9,11,13,-1,-1,-1,-1,-1,-1,-1,-1],"loss_changes":[3.391395E3,1.6993103E3,5.7148334E2,6.424004E2,6.9847694E1,3.8619556E2,3.4960352E2,0E0,0E0,0E0,0E0,0E0,0E0,0E0,0E0],"parents":[2147483647,0,0,1,1,2,2,3,3,4,4,5,5,6,6],"right_children":[2,4,6,8,10,12,14,-1,-1,-1,-1,-1,-1,-1,-1],"split_conditions":[1.1966954E1,1.4565833E1,1.59134655E1,4.662622E1,1.5074168E1,1.5142917E1,3.913039E1,6.47228E-2,1.8437035E-1,5.6183282E-2,-2.4157083E-2,4.1581906E-2,-2.678776E-2,-1.01463415E-1,-3.61545E-2],"split_indices":[5,3,5,6,3,3,6,0,0,0,0,0,0,0,0],"split_type":[0,0,0,0,0,0,0,0,0,0,0,0,0,0,0],"sum_hessian":[1.87E3,4.43E2,1.427E3,2.97E2,1.46E2,4.82E2,9.45E2,1E2,1.97E2,1.7E1,1.29E2,2.25E2,2.57E2,1.4E2,8.05E2],"tree_param":{"num_deleted":"0","num_feature":"7","num_nodes":"15","size_leaf_vector":"1"}},{"base_weights":[1.1498038E-2,-9.544834E-1,3.6683984E0,-1.5504749E0,1.7662422E-1,1.8843775E0,5.7807565E0,1.0296019E-3,-6.431495E-2,3.2330286E-2,-2.0512708E-2,1.0512088E-1,-2.8262313E-2,2.6854998E-1,1.3680339E-1],"categories":[],"categories_nodes":[],"categories_segments":[],"categories_sizes":[],"default_left":[0,0,0,0,0,0,0,0,0,0,0,0,0,0,0],"id":17,"left_children":[1,3,5,7,9,11,13,-1,-1,-1,-1,-1,-1,-1,-1],"loss_changes":[6.6269346E3,1.00068335E3,1.4663555E3,2.0524414E2,2.4582147E2,4.8986823E2,4.6746826E2,0E0,0E0,0E0,0E0,0E0,0E0,0E0,0E0],"parents":[2147483647,0,0,1,1,2,2,3,3,4,4,5,5,6,6],"right_children":[2,4,6,8,10,12,14,-1,-1,-1,-1,-1,-1,-1,-1],"split_conditions":[9.07E0,5.24E0,1.376E1,1.0195057E1,1.59134655E1,1.8E1,1.2594856E1,1.0296019E-3,-6.431495E-2,3.2330286E-2,-2.0512708E-2,1.0512088E-1,-2.8262313E-2,2.6854998E-1,1.3680339E-1],"split_indices":[0,0,0,5,5,5,5,0,0,0,0,0,0,0,0],"split_type":[0,0,0,0,0,0,0,0,0,0,0,0,0,0,0],"sum_hessian":[1.874E3,1.483E3,3.91E2,9.71E2,5.12E2,2.13E2,1.78E2,7.6E1,8.95E2,2.64E2,2.48E2,1.6E2,5.3E1,1.12E2,6.6E1],"tree_param":{"num_deleted":"0","num_feature":"7","num_nodes":"15","size_leaf_vector":"1"}},{"base_weights":[6.997667E-3,-9.272805E-1,3.5415065E0,-1.5789107E0,2.100099E-2,1.8346814E0,5.5622835E0,-3.2068056E-3,-6.5379456E-2,2.5248328E-2,-2.3486294E-2,1.0045729E-1,-2.4186386E-2,2.5838616E-1,1.3165753E-1],"categories":[],"categories_nodes":[],"categories_segments":[],"categories_sizes":[],"default_left":[0,0,0,0,0,0,0,0,0,0,0,0,0,0,0],"id":18,"left_children":[1,3,5,7,9,11,13,-1,-1,-1,-1,-1,-1,-1,-1],"loss_changes":[6.191634E3,9.1642175E2,1.3418477E3,1.7498218E2,2.467745E2,4.2216077E2,4.3251758E2,0E0,0E0,0E0,0E0,0E0,0E0,0E0,0E0],"parents":[2147483647,0,0,1,1,2,2,3,3,4,4,5,5,6,6],"right_children":[2,4,6,8,10,12,14,-1,-1,-1,-1,-1,-1,-1,-1],"split_conditions":[9.07E0,4.82E0,1.376E1,1.0195057E1,1.59134655E1,1.8E1,1.2594856E1,-3.2068056E-3,-6.5379456E-2,2.5248328E-2,-2.3486294E-2,1.0045729E-1,-2.4186386E-2,2.5838616E-1,1.3165753E-1],"split_indices":[0,0,0,5,5,5,5,0,0,0,0,0,0,0,0],"split_type":[0,0,0,0,0,0,0,0,0,0,0,0,0,0,0],"sum_hessian":[1.873E3,1.482E3,3.91E2,8.78E2,6.04E2,2.13E2,1.78E2,7.2E1,8.06E2,3.01E2,3.03E2,1.61E2,5.2E1,1.12E2,6.6E1],"tree_param":{"num_deleted":"0","num_feature":"7","num_nodes":"15","size_leaf_vector":"1"}},{"base_weights":[4.2445445E-3,-8.904261E-1,3.3980482E0,-1.4383014E0,1.5570024E-1,1.7340955E0,5.3887887E0,-7.9807416E-2,-4.39184E-2,4.588133E-2,-3.8591635E-3,8.682201E-2,2.1357104E-2,1.6541073E-1,2.9074195E-1],"categories":[],"categories_nodes":[],"categories_segments":[],"categories_sizes":[],"default_left":[0,0,0,0,0,0,0,0,0,0,0,0,0,0,0],"id":19,"left_children":[1,3,5,7,9,11,13,-1,-1,-1,-1,-1,-1,-1,-1],"loss_changes":[5.705266E3,8.524933E2,1.2891548E3,1.8088342E2,1.3761415E2,1.3502856E2,3.8567285E2,0E0,0E0,0E0,0E0,0E0,0E0,0E0,0E0],"parents":[2147483647,0,0,1,1,2,2,3,3,4,4,5,5,6,6],"right_children":[2,4,6,8,10,12,14,-1,-1,-1,-1,-1,-1,-1,-1],"split_conditions":[9.07E0,5.24E0,1.376E1,3E0,1.0628332E1,1.147E1,1.823E1,-7.9807416E-2,-4.39184E-2,4.588133E-2,-3.8591635E-3,8.682201E-2,2.1357104E-2,1.6541073E-1,2.9074195E-1],"split_indices":[0,0,0,0,3,1,1,0,0,0,0,0,0,0,0],"split_type":[0,0,0,0,0,0,0,0,0,0,0,0,0,0,0],"sum_hessian":[1.877E3,1.486E3,3.91E2,9.75E2,5.11E2,2.14E2,1.77E2,2.97E2,6.78E2,1E2,4.11E2,1.46E2,6.8E1,1.22E2,5.5E1],"tree_param":{"num_deleted":"0","num_feature":"7","num_nodes":"15","size_leaf_vector":"1"}},{"base_weights":[8.808634E-3,2.1435184E0,-6.467734E-1,8.313798E-1,3.445958E0,-1.094481E0,3.3982313E-1,6.326752E-2,-3.6800997E-3,7.6261036E-2,1.8010697E-1,-1.5777232E-2,-4.8667617E-2,5.724042E-2,-1.7410977E-2],"categories":[],"categories_nodes":[],"categories_segments":[],"categories_sizes":[],"default_left":[0,0,0,0,0,0,0,0,0,0,0,0,0,0,0],"id":20,"left_children":[1,3,5,7,9,11,13,-1,-1,-1,-1,-1,-1,-1,-1],"loss_changes":[2.626806E3,7.507958E2,6.3466284E2,1.6941432E2,3.9745728E2,1.2066687E2,4.1488052E2,0E0,0E0,0E0,0E0,0E0,0E0,0E0,0E0],"parents":[2147483647,0,0,1,1,2,2,3,3,4,4,5,5,6,6],"right_children":[2,4,6,8,10,12,14,-1,-1,-1,-1,-1,-1,-1,-1],"split_conditions":[1.1879999E1,6.7E0,6.63E0,1E-1,5.26334E1,1.4693999E1,1.609969E1,6.326752E-2,-3.6800997E-3,7.6261036E-2,1.8010697E-1,-1.5777232E-2,-4.8667617E-2,5.724042E-2,-1.7410977E-2],"split_indices":[5,2,2,4,6,5,5,0,0,0,0,0,0,0,0],"split_type":[0,0,0,0,0,0,0,0,0,0,0,0,0,0,0],"sum_hessian":[1.875E3,4.4E2,1.435E3,2.2E2,2.2E2,9.87E2,4.48E2,1.16E2,1.04E2,1.04E2,1.16E2,2.07E2,7.8E2,1.82E2,2.66E2],"tree_param":{"num_deleted":"0","num_feature":"7","num_nodes":"15","size_leaf_vector":"1"}},{"base_weights":[-1.4564021E-3,-8.4113234E-1,3.1936219E0,-1.4395977E0,2.5908371E-2,1.6542364E0,5.0367565E0,-2.86041E-3,-5.9622288E-2,2.2979034E-2,-2.0716207E-2,9.321674E-2,-2.7596448E-2,1.5750518E-1,2.8807244E-1],"categories":[],"categories_nodes":[],"categories_segments":[],"categories_sizes":[],"default_left":[0,0,0,0,0,0,0,0,0,0,0,0,0,0,0],"id":21,"left_children":[1,3,5,7,9,11,13,-1,-1,-1,-1,-1,-1,-1,-1],"loss_changes":[5.0276274E3,7.700758E2,1.0982131E3,1.4584094E2,1.9902591E2,4.0206445E2,3.7361328E2,0E0,0E0,0E0,0E0,0E0,0E0,0E0,0E0],"parents":[2147483647,0,0,1,1,2,2,3,3,4,4,5,5,6,6],"right_children":[2,4,6,8,10,12,14,-1,-1,-1,-1,-1,-1,-1,-1],"split_conditions":[9.07E0,4.82E0,1.376E1,1.0195057E1,1.59134655E1,1.8E1,2.055E1,-2.86041E-3,-5.9622288E-2,2.2979034E-2,-2.0716207E-2,9.321674E-2,-2.7596448E-2,1.5750518E-1,2.8807244E-1],"split_indices":[0,0,0,5,5,5,0,0,0,0,0,0,0,0,0],"split_type":[0,0,0,0,0,0,0,0,0,0,0,0,0,0,0],"sum_hessian":[1.872E3,1.483E3,3.89E2,8.77E2,6.06E2,2.13E2,1.76E2,7.2E1,8.05E2,3.01E2,3.05E2,1.6E2,5.3E1,1.31E2,4.5E1],"tree_param":{"num_deleted":"0","num_feature":"7","num_nodes":"15","size_leaf_vector":"1"}},{"base_weights":[4.0589487E-3,-8.064168E-1,3.073907E0,-1.3058444E0,1.820233E-1,1.5834117E0,4.8485813E0,-6.764811E-2,-3.50549E-2,2.9565778E-2,-1.652385E-2,8.848799E-2,-2.6341798E-2,2.2845483E-1,1.08180866E-1],"categories":[],"categories_nodes":[],"categories_segments":[],"categories_sizes":[],"default_left":[0,0,0,0,0,0,0,0,0,0,0,0,0,0,0],"id":22,"left_children":[1,3,5,7,9,11,13,-1,-1,-1,-1,-1,-1,-1,-1],"loss_changes":[4.6575967E3,7.3133966E2,1.0265737E3,1.7610803E2,1.8165381E2,3.5864764E2,3.8998486E2,0E0,0E0,0E0,0E0,0E0,0E0,0E0,0E0],"parents":[2147483647,0,0,1,1,2,2,3,3,4,4,5,5,6,6],"right_children":[2,4,6,8,10,12,14,-1,-1,-1,-1,-1,-1,-1,-1],"split_conditions":[9.07E0,5.32E0,1.376E1,3.4E0,1.5856354E1,1.8E1,1.2594856E1,-6.764811E-2,-3.50549E-2,2.9565778E-2,-1.652385E-2,8.848799E-2,-2.6341798E-2,2.2845483E-1,1.08180866E-1],"split_indices":[0,0,0,0,5,5,5,0,0,0,0,0,0,0,0],"split_type":[0,0,0,0,0,0,0,0,0,0,0,0,0,0,0],"sum_hessian":[1.87E3,1.48E3,3.9E2,9.83E2,4.97E2,2.13E2,1.77E2,4.45E2,5.38E2,2.53E2,2.44E2,1.61E2,5.2E1,1.12E2,6.5E1],"tree_param":{"num_deleted":"0","num_feature":"7","num_nodes":"15","size_leaf_vector":"1"}},{"base_weights":[-8.972854E-3,-7.8317344E-1,2.9235082E0,-1.2615361E0,1.6359764E-1,1.486123E0,4.635176E0,5.844209E-3,-5.276368E-2,2.741842E-2,-1.6082857E-2,8.400612E-2,-2.5574964E-2,1.324255E-1,2.5061753E-1],"categories":[],"categories_nodes":[],"categories_segments":[],"categories_sizes":[],"default_left":[0,0,0,0,0,0,0,0,0,0,0,0,0,0,0],"id":23,"left_children":[1,3,5,7,9,11,13,-1,-1,-1,-1,-1,-1,-1,-1],"loss_changes":[4.250074E3,6.7095123E2,9.550991E2,1.676084E2,1.6176924E2,3.3082175E2,3.7781055E2,0E0,0E0,0E0,0E0,0E0,0E0,0E0,0E0],"parents":[2147483647,0,0,1,1,2,2,3,3,4,4,5,5,6,6],"right_children":[2,4,6,8,10,12,14,-1,-1,-1,-1,-1,-1,-1,-1],"split_conditions":[9.07E0,5.32E0,1.376E1,1.0195057E1,1.59134655E1,1.8E1,1.725E1,5.844209E-3,-5.276368E-2,2.741842E-2,-1.6082857E-2,8.400612E-2,-2.5574964E-2,1.324255E-1,2.5061753E-1],"split_indices":[0,0,0,5,5,5,1,0,0,0,0,0,0,0,0],"split_type":[0,0,0,0,0,0,0,0,0,0,0,0,0,0,0],"sum_hessian":[1.87E3,1.48E3,3.9E2,9.83E2,4.97E2,2.13E2,1.77E2,7.7E1,9.06E2,2.55E2,2.42E2,1.6E2,5.3E1,1.12E2,6.5E1],"tree_param":{"num_deleted":"0","num_feature":"7","num_nodes":"15","size_leaf_vector":"1"}},{"base_weights":[9.622512E-3,-4.6671426E-1,4.5401196E0,-1.0493279E0,9.6992385E-1,4.9585624E0,-6.5228343E-3,-6.195744E-2,-2.6230102E-2,4.790267E-2,-2.172736E-2,1.3617517E-1,2.5302458E-1,3.5942234E-2,-1.1780855E-1],"categories":[],"categories_nodes":[],"categories_segments":[],"categories_sizes":[],"default_left":[0,0,0,0,0,0,0,0,0,0,0,0,0,0,0],"id":24,"left_children":[1,3,5,7,9,11,13,-1,-1,-1,-1,-1,-1,-1,-1],"loss_changes":[4.0376584E3,1.4180669E3,3.386792E2,2.4921655E2,2.1486328E2,3.5486987E2,4.9591446E1,0E0,0E0,0E0,0E0,0E0,0E0,0E0,0E0],"parents":[2147483647,0,0,1,1,2,2,3,3,4,4,5,5,6,6],"right_children":[2,4,6,8,10,12,14,-1,-1,-1,-1,-1,-1,-1,-1],"split_conditions":[1.376E1,6.63E0,3.6000001E0,3.42E0,4.0999994E0,1.63E1,2.317E1,-6.195744E-2,-2.6230102E-2,4.790267E-2,-2.172736E-2,1.3617517E-1,2.5302458E-1,3.5942234E-2,-1.1780855E-1],"split_indices":[0,0,4,0,4,1,2,0,0,0,0,0,0,0,0],"split_type":[0,0,0,0,0,0,0,0,0,0,0,0,0,0,0],"sum_hessian":[1.869E3,1.692E3,1.77E2,1.204E3,4.88E2,1.62E2,1.5E1,4.65E2,7.39E2,4.12E2,7.6E1,9E1,7.2E1,1.2E1,3E0],"tree_param":{"num_deleted":"0","num_feature":"7","num_nodes":"15","size_leaf_vector":"1"}},{"base_weights":[9.23404E-3,-7.2035474E-1,2.7689593E0,-1.324123E0,-6.454926E-2,1.4274151E0,4.349853E0,-7.1741804E-2,-4.2012893E-2,-1.7828785E-2,2.2048062E-2,-8.805128E-2,6.049834E-2,1.3026857E-1,2.4247004E-1],"categories":[],"categories_nodes":[],"categories_segments":[],"categories_sizes":[],"default_left":[0,0,0,0,0,0,0,0,0,0,0,0,0,0,0],"id":25,"left_children":[1,3,5,7,9,11,13,-1,-1,-1,-1,-1,-1,-1,-1],"loss_changes":[3.76516E3,5.855313E2,8.2303906E2,9.354968E1,1.8365895E2,1.284519E2,3.1426685E2,0E0,0E0,0E0,0E0,0E0,0E0,0E0,0E0],"parents":[2147483647,0,0,1,1,2,2,3,3,4,4,5,5,6,6],"right_children":[2,4,6,8,10,12,14,-1,-1,-1,-1,-1,-1,-1,-1],"split_conditions":[9.07E0,4.4E0,1.376E1,2.71E0,6.63E0,1.3520541E1,1.823E1,-7.1741804E-2,-4.2012893E-2,-1.7828785E-2,2.2048062E-2,-8.805128E-2,6.049834E-2,1.3026857E-1,2.4247004E-1],"split_indices":[0,0,0,0,0,6,1,0,0,0,0,0,0,0,0],"split_type":[0,0,0,0,0,0,0,0,0,0,0,0,0,0,0],"sum_hessian":[1.868E3,1.478E3,3.9E2,7.69E2,7.09E2,2.12E2,1.78E2,2.19E2,5.5E2,4.36E2,2.73E2,8E0,2.04E2,1.23E2,5.5E1],"tree_param":{"num_deleted":"0","num_feature":"7","num_nodes":"15","size_leaf_vector":"1"}},{"base_weights":[1.0897033E-2,-5.522025E-1,3.306949E0,-9.6885765E-1,7.23487E-1,2.6497355E0,6.41079E0,-5.7511725E-2,-2.398081E-2,3.8995136E-2,-3.160394E-2,1.1318119E-1,-1.5796565E-2,2.970482E-1,1.1351832E-1],"categories":[],"categories_nodes":[],"categories_segments":[],"categories_sizes":[],"default_left":[0,0,0,0,0,0,0,0,0,0,0,0,0,0,0],"id":26,"left_children":[1,3,5,7,9,11,13,-1,-1,-1,-1,-1,-1,-1,-1],"loss_changes":[3.4725562E3,8.500742E2,5.3990186E2,2.1972156E2,1.8280507E2,2.1978857E2,1.9798743E2,0E0,0E0,0E0,0E0,0E0,0E0,0E0,0E0],"parents":[2147483647,0,0,1,1,2,2,3,3,4,4,5,5,6,6],"right_children":[2,4,6,8,10,12,14,-1,-1,-1,-1,-1,-1,-1,-1],"split_conditions":[1.107E1,6.63E0,2.055E1,3.42E0,3.8000002E0,5E0,4E-1,-5.7511725E-2,-2.398081E-2,3.8995136E-2,-3.160394E-2,1.1318119E-1,-1.5796565E-2,2.970482E-1,1.1351832E-1],"split_indices":[0,0,0,0,4,4,4,0,0,0,0,0,0,0,0],"split_type":[0,0,0,0,0,0,0,0,0,0,0,0,0,0,0],"sum_hessian":[1.869E3,1.597E3,2.72E2,1.204E3,3.93E2,2.26E2,4.6E1,4.66E2,7.38E2,3.3E2,6.3E1,2.05E2,2.1E1,3.2E1,1.4E1],"tree_param":{"num_deleted":"0","num_feature":"7","num_nodes":"15","size_leaf_vector":"1"}},{"base_weights":[2.171259E-3,-6.7336184E-1,2.5587986E0,-1.2298573E0,-6.467716E-2,1.303961E0,4.0459986E0,-6.674899E-2,-3.8990684E-2,1.2926603E-2,-3.3780295E-2,7.570808E-2,-2.9875482E-2,1.9379385E-1,8.487202E-2],"categories":[],"categories_nodes":[],"categories_segments":[],"categories_sizes":[],"default_left":[0,0,0,0,0,0,0,0,0,0,0,0,0,0,0],"id":27,"left_children":[1,3,5,7,9,11,13,-1,-1,-1,-1,-1,-1,-1,-1],"loss_changes":[3.2227393E3,4.9988623E2,7.2254004E2,8.1617676E1,2.3371526E2,3.0316626E2,3.2273486E2,0E0,0E0,0E0,0E0,0E0,0E0,0E0,0E0],"parents":[2147483647,0,0,1,1,2,2,3,3,4,4,5,5,6,6],"right_children":[2,4,6,8,10,12,14,-1,-1,-1,-1,-1,-1,-1,-1],"split_conditions":[9.07E0,4.4E0,1.376E1,2.71E0,7.0000005E-1,1.8E1,1.2594856E1,-6.674899E-2,-3.8990684E-2,1.2926603E-2,-3.3780295E-2,7.570808E-2,-2.9875482E-2,1.9379385E-1,8.487202E-2],"split_indices":[0,0,0,0,4,5,5,0,0,0,0,0,0,0,0],"split_type":[0,0,0,0,0,0,0,0,0,0,0,0,0,0,0],"sum_hessian":[1.864E3,1.475E3,3.89E2,7.7E2,7.05E2,2.12E2,1.77E2,2.19E2,5.51E2,4.73E2,2.32E2,1.6E2,5.2E1,1.12E2,6.5E1],"tree_param":{"num_deleted":"0","num_feature":"7","num_nodes":"15","size_leaf_vector":"1"}},{"base_weights":[7.822968E-3,-2.2073454E-1,3.5343566E0,4.992762E-1,-7.08539E-1,4.143603E0,-1.113374E0,5.1308244E-2,-2.0047065E-2,-4.252388E-2,-3.4159368E-3,2.0223674E-1,8.306642E-2,1.3127264E-1,-6.5980114E-2],"categories":[],"categories_nodes":[],"categories_segments":[],"categories_sizes":[],"default_left":[0,0,0,0,0,0,0,0,0,0,0,0,0,0,0],"id":28,"left_children":[1,3,5,7,9,11,13,-1,-1,-1,-1,-1,-1,-1,-1],"loss_changes":[1.5096416E3,6.181576E2,3.274171E2,6.1565234E2,2.629745E2,2.176156E2,4.5096703E1,0E0,0E0,0E0,0E0,0E0,0E0,0E0,0E0],"parents":[2147483647,0,0,1,1,2,2,3,3,4,4,5,5,6,6],"right_children":[2,4,6,8,10,12,14,-1,-1,-1,-1,-1,-1,-1,-1],"split_conditions":[1.63E1,1.422625E1,4.7E0,2E-1,5E0,1.1824168E1,5.38E0,5.1308244E-2,-2.0047065E-2,-4.252388E-2,-3.4159368E-3,2.0223674E-1,8.306642E-2,1.3127264E-1,-6.5980114E-2],"split_indices":[1,3,4,4,2,3,2,0,0,0,0,0,0,0,0],"split_type":[0,0,0,0,0,0,0,0,0,0,0,0,0,0,0],"sum_hessian":[1.871E3,1.758E3,1.13E2,7.1E2,1.048E3,1E2,1.3E1,3.89E2,3.21E2,6.33E2,4.15E2,6.2E1,3.8E1,1E0,1.2E1],"tree_param":{"num_deleted":"0","num_feature":"7","num_nodes":"15","size_leaf_vector":"1"}},{"base_weights":[-6.069445E-3,-2.1499407E-1,3.267759E0,4.6688202E-1,-6.8312705E-1,3.1498376E-1,4.3442016E0,4.810909E-2,-1.886381E-2,-4.6525817E-2,-1.0624619E-2,-1.4812168E-1,4.1239414E-2,2.088216E-1,1.2515547E-2],"categories":[],"categories_nodes":[],"categories_segments":[],"categories_sizes":[],"default_left":[0,0,0,0,0,0,0,0,0,0,0,0,0,0,0],"id":29,"left_children":[1,3,5,7,9,11,13,-1,-1,-1,-1,-1,-1,-1,-1],"loss_changes":[1.2770156E3,5.6053015E2,3.546228E2,5.454576E2,2.252862E2,1.03652725E2,3.6856018E2,0E0,0E0,0E0,0E0,0E0,0E0,0E0,0E0],"parents":[2147483647,0,0,1,1,2,2,3,3,4,4,5,5,6,6],"right_children":[2,4,6,8,10,12,14,-1,-1,-1,-1,-1,-1,-1,-1],"split_conditions":[1.63E1,1.422625E1,4.1922516E1,2E-1,3.97E0,4.1331844E0,1.6389899E2,4.810909E-2,-1.886381E-2,-4.6525817E-2,-1.0624619E-2,-1.4812168E-1,4.1239414E-2,2.088216E-1,1.2515547E-2],"split_indices":[1,3,6,4,1,6,6,0,0,0,0,0,0,0,0],"split_type":[0,0,0,0,0,0,0,0,0,0,0,0,0,0,0],"sum_hessian":[1.865E3,1.754E3,1.11E2,7.14E2,1.04E3,3E1,8.1E1,3.91E2,3.23E2,4.47E2,5.93E2,4E0,2.6E1,6.3E1,1.8E1],"tree_param":{"num_deleted":"0","num_feature":"7","num_nodes":"15","size_leaf_vector":"1"}},{"base_weights":[-9.569946E-3,1.9366782E0,-4.317791E-1,1.5434443E0,6.3361635E0,-6.98188E-1,4.4285908E-1,8.623411E-2,9.2641255E-3,1.927539E-1,4.1983733E-1,-6.834635E-2,-2.2168772E-2,-6.1687518E-2,3.0725481E-2],"categories":[],"categories_nodes":[],"categories_segments":[],"categories_sizes":[],"default_left":[0,0,0,0,0,0,0,0,0,0,0,0,0,0,0],"id":30,"left_children":[1,3,5,7,9,11,13,-1,-1,-1,-1,-1,-1,-1,-1],"loss_changes":[1.5349944E3,5.6631934E2,3.5798175E2,2.8494684E2,1.06541016E2,1.500979E2,2.6864624E2,0E0,0E0,0E0,0E0,0E0,0E0,0E0,0E0],"parents":[2147483647,0,0,1,1,2,2,3,3,4,4,5,5,6,6],"right_children":[2,4,6,8,10,12,14,-1,-1,-1,-1,-1,-1,-1,-1],"split_conditions":[1.0805999E1,1.992E1,7.69E0,1E-1,1.1261993E2,2.1606638E1,2.4321884E1,8.623411E-2,9.2641255E-3,1.927539E-1,4.1983733E-1,-6.834635E-2,-2.2168772E-2,-6.1687518E-2,3.0725481E-2],"split_indices":[5,1,1,4,6,6,6,0,0,0,0,0,0,0,0],"split_type":[0,0,0,0,0,0,0,0,0,0,0,0,0,0,0],"sum_hessian":[1.866E3,3.32E2,1.534E3,3.06E2,2.6E1,1.176E3,3.58E2,1.97E2,1.09E2,2.2E1,4E0,1.13E2,1.063E3,5.3E1,3.05E2],"tree_param":{"num_deleted":"0","num_feature":"7","num_nodes":"15","size_leaf_vector":"1"}},{"base_weights":[6.320322E-3,-3.834982E-1,3.7183206E0,-8.583302E-1,7.859527E-1,4.532475E0,1.9557171E0,-5.1687688E-2,-2.152919E-2,-5.9128914E-2,3.3732917E-2,1.3722073E-1,2.3491296E-1,-2.1186132E-2,1.0566272E-1],"categories":[],"categories_nodes":[],"categories_segments":[],"categories_sizes":[],"default_left":[0,0,0,0,0,0,0,0,0,0,0,0,0,0,0],"id":31,"left_children":[1,3,5,7,9,11,13,-1,-1,-1,-1,-1,-1,-1,-1],"loss_changes":[2.710222E3,9.418958E2,2.4657129E2,1.7515564E2,1.1284851E2,1.6187793E2,1.1968764E2,0E0,0E0,0E0,0E0,0E0,0E0,0E0,0E0],"parents":[2147483647,0,0,1,1,2,2,3,3,4,4,5,5,6,6],"right_children":[2,4,6,8,10,12,14,-1,-1,-1,-1,-1,-1,-1,-1],"split_conditions":[1.376E1,6.63E0,1.2403335E1,3.4E0,1.3520541E1,1.992E1,1.3267917E1,-5.1687688E-2,-2.152919E-2,-5.9128914E-2,3.3732917E-2,1.3722073E-1,2.3491296E-1,-2.1186132E-2,1.0566272E-1],"split_indices":[0,0,3,0,6,0,3,0,0,0,0,0,0,0,0],"split_type":[0,0,0,0,0,0,0,0,0,0,0,0,0,0,0],"sum_hessian":[1.871E3,1.694E3,1.77E2,1.205E3,4.89E2,1.2E2,5.7E1,4.48E2,7.57E2,1.9E1,4.7E2,7.8E1,4.2E1,1.4E1,4.3E1],"tree_param":{"num_deleted":"0","num_feature":"7","num_nodes":"15","size_leaf_vector":"1"}},{"base_weights":[9.093599E-3,1.6160197E0,-4.775882E-1,2.5826938E0,-4.5413536E-1,-5.360128E-1,2.5846713E0,8.0507725E-2,2.0623758E-1,-3.0675964E-2,3.9110105E-2,1.9159511E-3,-3.1913828E-2,3.5951936E-1,3.770328E-2],"categories":[],"categories_nodes":[],"categories_segments":[],"categories_sizes":[],"default_left":[0,0,0,0,0,0,0,0,0,0,0,0,0,0,0],"id":32,"left_children":[1,3,5,7,9,11,13,-1,-1,-1,-1,-1,-1,-1,-1],"loss_changes":[1.4600989E3,8.696786E2,2.5776535E2,3.843081E2,7.258487E1,2.472735E2,2.8528278E2,0E0,0E0,0E0,0E0,0E0,0E0,0E0,0E0],"parents":[2147483647,0,0,1,1,2,2,3,3,4,4,5,5,6,6],"right_children":[2,4,6,8,10,12,14,-1,-1,-1,-1,-1,-1,-1,-1],"split_conditions":[1.1879999E1,1.4565833E1,1.913E1,1.725E1,9.57E0,1.59134655E1,1.992E1,8.0507725E-2,2.0623758E-1,-3.0675964E-2,3.9110105E-2,1.9159511E-3,-3.1913828E-2,3.5951936E-1,3.770328E-2],"split_indices":[5,3,1,1,1,5,1,0,0,0,0,0,0,0,0],"split_type":[0,0,0,0,0,0,0,0,0,0,0,0,0,0,0],"sum_hessian":[1.865E3,4.33E2,1.432E3,2.95E2,1.38E2,1.406E3,2.6E1,2.54E2,4.1E1,1.12E2,2.6E1,4.76E2,9.3E2,4E0,2.2E1],"tree_param":{"num_deleted":"0","num_feature":"7","num_nodes":"15","size_leaf_vector":"1"}},{"base_weights":[-1.7643705E-2,1.507015E0,-4.8397252E-1,1.1088122E0,4.7961316E0,9.616708E-2,-7.849104E-1,5.4215133E-2,-3.4640294E-2,2.0726115E-1,5.8263708E-2,-1.3750983E-2,5.3054288E-2,-4.431385E-2,-2.2775788E-2],"categories":[],"categories_nodes":[],"categories_segments":[],"categories_sizes":[],"default_left":[0,0,0,0,0,0,0,0,0,0,0,0,0,0,0],"id":33,"left_children":[1,3,5,7,9,11,13,-1,-1,-1,-1,-1,-1,-1,-1],"loss_changes":[1.3295739E3,5.683461E2,2.5008261E2,2.4705734E2,8.881372E1,2.896414E2,6.605438E1,0E0,0E0,0E0,0E0,0E0,0E0,0E0,0E0],"parents":[2147483647,0,0,1,1,2,2,3,3,4,4,5,5,6,6],"right_children":[2,4,6,8,10,12,14,-1,-1,-1,-1,-1,-1,-1,-1],"split_conditions":[1.1879999E1,1.725E1,1.59134655E1,2.7000003E0,1.0495713E1,7.78E0,3.75E0,5.4215133E-2,-3.4640294E-2,2.0726115E-1,5.8263708E-2,-1.3750983E-2,5.3054288E-2,-4.431385E-2,-2.2775788E-2],"split_indices":[5,1,5,4,5,2,2,0,0,0,0,0,0,0,0],"split_type":[0,0,0,0,0,0,0,0,0,0,0,0,0,0,0],"sum_hessian":[1.868E3,4.37E2,1.431E3,3.91E2,4.6E1,4.89E2,9.42E2,3.39E2,5.2E1,3.8E1,8E0,3.62E2,1.27E2,3.13E2,6.29E2],"tree_param":{"num_deleted":"0","num_feature":"7","num_nodes":"15","size_leaf_vector":"1"}},{"base_weights":[2.5317091E-3,-5.625034E-1,2.1456122E0,-1.0583249E0,-2.5559574E-2,2.693971E0,-1.6263703E-1,-5.918508E-2,-3.2808945E-2,1.5225617E-2,-2.1148503E-2,8.536568E-2,2.0637988E-1,2.7990876E-2,-7.305828E-2],"categories":[],"categories_nodes":[],"categories_segments":[],"categories_sizes":[],"default_left":[0,0,0,0,0,0,0,0,0,0,0,0,0,0,0],"id":34,"left_children":[1,3,5,7,9,11,13,-1,-1,-1,-1,-1,-1,-1,-1],"loss_changes":[2.2692522E3,3.9478955E2,4.9534583E2,7.4141846E1,1.600388E2,3.8056958E2,1.2057078E2,0E0,0E0,0E0,0E0,0E0,0E0,0E0,0E0],"parents":[2147483647,0,0,1,1,2,2,3,3,4,4,5,5,6,6],"right_children":[2,4,6,8,10,12,14,-1,-1,-1,-1,-1,-1,-1,-1],"split_conditions":[9.07E0,4.4E0,1.8E1,2.71E0,1.679314E1,2.055E1,2.4842607E1,-5.918508E-2,-3.2808945E-2,1.5225617E-2,-2.1148503E-2,8.536568E-2,2.0637988E-1,2.7990876E-2,-7.305828E-2],"split_indices":[0,0,5,0,5,0,5,0,0,0,0,0,0,0,0],"split_type":[0,0,0,0,0,0,0,0,0,0,0,0,0,0,0],"sum_hessian":[1.872E3,1.482E3,3.9E2,7.7E2,7.12E2,3.15E2,7.5E1,2.2E2,5.5E2,3.95E2,3.17E2,2.71E2,4.4E1,5E1,2.5E1],"tree_param":{"num_deleted":"0","num_feature":"7","num_nodes":"15","size_leaf_vector":"1"}},{"base_weights":[8.339925E-3,-6.417285E-1,1.7924433E0,-1.0809599E0,-2.1042152E-1,9.589857E-1,3.2863781E0,-5.6935333E-2,-3.3679917E-2,2.4457373E-2,-1.5203321E-2,4.445617E-2,-5.858195E-2,1.5582559E-1,6.1148882E-2],"categories":[],"categories_nodes":[],"categories_segments":[],"categories_sizes":[],"default_left":[0,0,0,0,0,0,0,0,0,0,0,0,0,0,0],"id":35,"left_children":[1,3,5,7,9,11,13,-1,-1,-1,-1,-1,-1,-1,-1],"loss_changes":[2.1757551E3,2.6025745E2,6.2065906E2,5.4241577E1,1.1127619E2,1.6707184E2,2.3307947E2,0E0,0E0,0E0,0E0,0E0,0E0,0E0,0E0],"parents":[2147483647,0,0,1,1,2,2,3,3,4,4,5,5,6,6],"right_children":[2,4,6,8,10,12,14,-1,-1,-1,-1,-1,-1,-1,-1],"split_conditions":[7.8E0,4.05E0,1.376E1,2.71E0,1.0628332E1,1.637E1,1.2403335E1,-5.6935333E-2,-3.3679917E-2,2.4457373E-2,-1.5203321E-2,4.445617E-2,-5.858195E-2,1.5582559E-1,6.1148882E-2],"split_indices":[0,0,0,0,3,2,3,0,0,0,0,0,0,0,0],"split_type":[0,0,0,0,0,0,0,0,0,0,0,0,0,0,0],"sum_hessian":[1.874E3,1.374E3,5E2,6.8E2,6.94E2,3.22E2,1.78E2,2.2E2,4.6E2,1.25E2,5.69E2,2.98E2,2.4E1,1.2E2,5.8E1],"tree_param":{"num_deleted":"0","num_feature":"7","num_nodes":"15","size_leaf_vector":"1"}},{"base_weights":[2.7648106E-3,1.3909062E0,-4.2713204E-1,2.3047352E0,-4.9045992E-1,-6.806664E-1,1.3769013E-1,9.5993325E-2,4.576845E-3,-3.5445154E-2,1.2778629E-2,-3.559959E-2,-1.7402457E-2,3.4453835E-2,-1.879372E-2],"categories":[],"categories_nodes":[],"categories_segments":[],"categories_sizes":[],"default_left":[0,0,0,0,0,0,0,0,0,0,0,0,0,0,0],"id":36,"left_children":[1,3,5,7,9,11,13,-1,-1,-1,-1,-1,-1,-1,-1],"loss_changes":[1.1129502E3,7.593182E2,2.0401312E2,1.3543518E2,5.268861E1,5.521054E1,2.1331006E2,0E0,0E0,0E0,0E0,0E0,0E0,0E0,0E0],"parents":[2147483647,0,0,1,1,2,2,3,3,4,4,5,5,6,6],"right_children":[2,4,6,8,10,12,14,-1,-1,-1,-1,-1,-1,-1,-1],"split_conditions":[1.1879999E1,1.4565833E1,6.63E0,2.7000003E0,6.7E0,3.75E0,1.679314E1,9.5993325E-2,4.576845E-3,-3.5445154E-2,1.2778629E-2,-3.559959E-2,-1.7402457E-2,3.4453835E-2,-1.879372E-2],"split_indices":[5,3,2,4,2,2,5,0,0,0,0,0,0,0,0],"split_type":[0,0,0,0,0,0,0,0,0,0,0,0,0,0,0],"sum_hessian":[1.863E3,4.4E2,1.423E3,2.96E2,1.44E2,9.82E2,4.41E2,2.7E2,2.6E1,9.4E1,5E1,4.62E2,5.2E2,1.99E2,2.42E2],"tree_param":{"num_deleted":"0","num_feature":"7","num_nodes":"15","size_leaf_vector":"1"}},{"base_weights":[2.927346E-3,1.1244526E0,-4.909259E-1,2.0263247E0,-5.375226E-1,-7.4221134E-1,-5.9200928E-2,6.124707E-2,1.7736816E-1,-3.2534845E-2,1.76382E-2,-3.308023E-2,-6.3876696E-3,2.0243252E-2,-2.4383102E-2],"categories":[],"categories_nodes":[],"categories_segments":[],"categories_sizes":[],"default_left":[0,0,0,0,0,0,0,0,0,0,0,0,0,0,0],"id":37,"left_children":[1,3,5,7,9,11,13,-1,-1,-1,-1,-1,-1,-1,-1],"loss_changes":[1.0362869E3,8.5845386E2,1.4087964E2,4.028844E2,6.3889538E1,5.8435608E1,1.6388629E2,0E0,0E0,0E0,0E0,0E0,0E0,0E0,0E0],"parents":[2147483647,0,0,1,1,2,2,3,3,4,4,5,5,6,6],"right_children":[2,4,6,8,10,12,14,-1,-1,-1,-1,-1,-1,-1,-1],"split_conditions":[1.3004922E1,1.4565833E1,5.85E0,1.725E1,7.78E0,2.6830416E1,1.8E1,6.124707E-2,1.7736816E-1,-3.2534845E-2,1.76382E-2,-3.308023E-2,-6.3876696E-3,2.0243252E-2,-2.4383102E-2],"split_indices":[5,3,2,1,1,3,5,0,0,0,0,0,0,0,0],"split_type":[0,0,0,0,0,0,0,0,0,0,0,0,0,0,0],"sum_hessian":[1.869E3,5.71E2,1.298E3,3.7E2,2.01E2,8.2E2,4.78E2,3.2E2,5E1,1.53E2,4.8E1,6.74E2,1.46E2,2.37E2,2.41E2],"tree_param":{"num_deleted":"0","num_feature":"7","num_nodes":"15","size_leaf_vector":"1"}},{"base_weights":[6.559371E-3,1.2916646E0,-3.8927552E-1,2.4860506E0,4.178948E-2,9.699504E-2,-6.399588E-1,7.5336315E-2,1.8988141E-1,-1.9778142E-2,6.193953E-2,2.858989E-2,-1.7967045E-2,-2.6300142E-2,9.3096815E-2],"categories":[],"categories_nodes":[],"categories_segments":[],"categories_sizes":[],"default_left":[0,0,0,0,0,0,0,0,0,0,0,0,0,0,0],"id":38,"left_children":[1,3,5,7,9,11,13,-1,-1,-1,-1,-1,-1,-1,-1],"loss_changes":[9.548044E2,6.5972845E2,1.7498842E2,2.7854883E2,1.9279254E2,1.8121925E2,1.4392505E2,0E0,0E0,0E0,0E0,0E0,0E0,0E0,0E0],"parents":[2147483647,0,0,1,1,2,2,3,3,4,4,5,5,6,6],"right_children":[2,4,6,8,10,12,14,-1,-1,-1,-1,-1,-1,-1,-1],"split_conditions":[1.1879999E1,1.1824168E1,1.59134655E1,1.725E1,9.57E0,1.5142917E1,1.913E1,7.5336315E-2,1.8988141E-1,-1.9778142E-2,6.193953E-2,2.858989E-2,-1.7967045E-2,-2.6300142E-2,9.3096815E-2],"split_indices":[5,3,5,1,1,3,1,0,0,0,0,0,0,0,0],"split_type":[0,0,0,0,0,0,0,0,0,0,0,0,0,0,0],"sum_hessian":[1.875E3,4.41E2,1.434E3,2.25E2,2.16E2,4.88E2,9.46E2,1.88E2,3.7E1,1.6E2,5.6E1,2.27E2,2.61E2,9.32E2,1.4E1],"tree_param":{"num_deleted":"0","num_feature":"7","num_nodes":"15","size_leaf_vector":"1"}},{"base_weights":[-4.755784E-3,1.0114045E0,-4.4937092E-1,6.846112E-1,3.4186459E0,-9.0259355E-1,-2.2715671E-1,4.4787105E-2,-1.2716026E-3,1.4344515E-1,-2.4068884E-3,-3.7938416E-2,-2.3921307E-2,6.2431907E-3,-2.3103379E-2],"categories":[],"categories_nodes":[],"categories_segments":[],"categories_sizes":[],"default_left":[0,0,0,0,0,0,0,0,0,0,0,0,0,0,0],"id":39,"left_children":[1,3,5,7,9,11,13,-1,-1,-1,-1,-1,-1,-1,-1],"loss_changes":[8.4757996E2,4.4684833E2,1.312248E2,1.767165E2,8.02486E1,1.0151947E1,1.295639E2,0E0,0E0,0E0,0E0,0E0,0E0,0E0,0E0],"parents":[2147483647,0,0,1,1,2,2,3,3,4,4,5,5,6,6],"right_children":[2,4,6,8,10,12,14,-1,-1,-1,-1,-1,-1,-1,-1],"split_conditions":[1.3004922E1,1.63E1,3.75E0,1E-1,2.638E1,3.97E0,1.803237E1,4.4787105E-2,-1.2716026E-3,1.4344515E-1,-2.4068884E-3,-3.7938416E-2,-2.3921307E-2,6.2431907E-3,-2.3103379E-2],"split_indices":[5,1,2,4,2,1,5,0,0,0,0,0,0,0,0],"split_type":[0,0,0,0,0,0,0,0,0,0,0,0,0,0,0],"sum_hessian":[1.874E3,5.7E2,1.304E3,5.03E2,6.7E1,4.28E2,8.76E2,2.99E2,2.04E2,6.1E1,6E0,3.2E2,1.08E2,4.31E2,4.45E2],"tree_param":{"num_deleted":"0","num_feature":"7","num_nodes":"15","size_leaf_vector":"1"}},{"base_weights":[4.6842946E-3,1.4389479E0,-3.087423E-1,2.2404966E0,-5.5083656E-1,-3.8627908E-1,1.5065798E0,7.0692554E-2,1.647725E-1,-3.5990074E-2,2.865199E-2,1.18685E-3,-2.451962E-2,8.3606236E-2,-4.9201675E-2],"categories":[],"categories_nodes":[],"categories_segments":[],"categories_sizes":[],"default_left":[0,0,0,0,0,0,0,0,0,0,0,0,0,0,0],"id":40,"left_children":[1,3,5,7,9,11,13,-1,-1,-1,-1,-1,-1,-1,-1],"loss_changes":[8.3972876E2,5.355288E2,2.163581E2,1.8497705E2,5.01439E1,1.5709631E2,1.23079636E2,0E0,0E0,0E0,0E0,0E0,0E0,0E0,0E0],"parents":[2147483647,0,0,1,1,2,2,3,3,4,4,5,5,6,6],"right_children":[2,4,6,8,10,12,14,-1,-1,-1,-1,-1,-1,-1,-1],"split_conditions":[1.0805999E1,1.4565833E1,1.63E1,1.725E1,1.002E1,1.59134655E1,3.6000001E0,7.0692554E-2,1.647725E-1,-3.5990074E-2,2.865199E-2,1.18685E-3,-2.451962E-2,8.3606236E-2,-4.9201675E-2],"split_indices":[5,3,1,1,1,5,4,0,0,0,0,0,0,0,0],"split_type":[0,0,0,0,0,0,0,0,0,0,0,0,0,0,0],"sum_hessian":[1.866E3,3.34E2,1.532E3,2.38E2,9.6E1,1.47E3,6.2E1,2.02E2,3.6E1,7.4E1,2.2E1,5.59E2,9.11E2,5E1,1.2E1],"tree_param":{"num_deleted":"0","num_feature":"7","num_nodes":"15","size_leaf_vector":"1"}},{"base_weights":[1.2804766E-2,1.4687403E0,-2.678322E-1,2.1569123E0,-6.151016E-1,-1.4228185E0,-1.1933118E-1,3.4487385E-2,1.236741E-1,3.1360876E-2,-3.530328E-2,-2.159514E-2,-8.947843E-2,1.9227682E-2,-1.9080143E-2],"categories":[],"categories_nodes":[],"categories_segments":[],"categories_sizes":[],"default_left":[0,0,0,0,0,0,0,0,0,0,0,0,0,0,0],"id":41,"left_children":[1,3,5,7,9,11,13,-1,-1,-1,-1,-1,-1,-1,-1],"loss_changes":[7.660897E2,4.358415E2,2.6945435E2,3.0634375E2,3.4539032E1,1.3992447E2,3.3050165E2,0E0,0E0,0E0,0E0,0E0,0E0,0E0,0E0],"parents":[2147483647,0,0,1,1,2,2,3,3,4,4,5,5,6,6],"right_children":[2,4,6,8,10,12,14,-1,-1,-1,-1,-1,-1,-1,-1],"split_conditions":[1.0495713E1,1.5024166E1,2.4321884E1,5.32912E1,8.260411E0,1.8532133E1,1.6529385E2,3.4487385E-2,1.236741E-1,3.1360876E-2,-3.530328E-2,-2.159514E-2,-8.947843E-2,1.9227682E-2,-1.9080143E-2],"split_indices":[5,3,6,6,5,5,6,0,0,0,0,0,0,0,0],"split_type":[0,0,0,0,0,0,0,0,0,0,0,0,0,0,0],"sum_hessian":[1.873E3,3.02E2,1.571E3,2.27E2,7.5E1,1.78E2,1.393E3,1.06E2,1.21E2,1.3E1,6.2E1,9.3E1,8.5E1,5.28E2,8.65E2],"tree_param":{"num_deleted":"0","num_feature":"7","num_nodes":"15","size_leaf_vector":"1"}},{"base_weights":[4.721105E-3,8.290001E-1,-4.552815E-1,1.0247379E-2,1.387871E0,-1.544334E0,-3.1423014E-1,1.1555064E-2,-3.2620303E-2,6.8972915E-2,-7.2221394E-4,-1.5581685E-2,-8.5330375E-2,6.9923284E-3,-2.222015E-2],"categories":[],"categories_nodes":[],"categories_segments":[],"categories_sizes":[],"default_left":[0,0,0,0,0,0,0,0,0,0,0,0,0,0,0],"id":42,"left_children":[1,3,5,7,9,11,13,-1,-1,-1,-1,-1,-1,-1,-1],"loss_changes":[7.071512E2,3.0564728E2,1.8338873E2,6.900717E1,2.3371857E2,1.0655185E2,1.4135767E2,0E0,0E0,0E0,0E0,0E0,0E0,0E0,0E0],"parents":[2147483647,0,0,1,1,2,2,3,3,4,4,5,5,6,6],"right_children":[2,4,6,8,10,12,14,-1,-1,-1,-1,-1,-1,-1,-1],"split_conditions":[1.3905509E1,5E0,2.4321884E1,1.8861555E2,6E-1,1.8532133E1,1.7056111E2,1.1555064E-2,-3.2620303E-2,6.8972915E-2,-7.2221394E-4,-1.5581685E-2,-8.5330375E-2,6.9923284E-3,-2.222015E-2],"split_indices":[5,2,6,6,4,5,6,0,0,0,0,0,0,0,0],"split_type":[0,0,0,0,0,0,0,0,0,0,0,0,0,0,0],"sum_hessian":[1.863E3,6.67E2,1.196E3,2.71E2,3.96E2,1.36E2,1.06E3,2.03E2,6.8E1,3.05E2,9.1E1,5.2E1,8.4E1,3.71E2,6.89E2],"tree_param":{"num_deleted":"0","num_feature":"7","num_nodes":"15","size_leaf_vector":"1"}},{"base_weights":[-6.186719E-3,1.0699395E0,-3.3481073E-1,2.178284E0,-2.31858E-2,-5.619739E-1,1.6488437E-1,6.6177204E-2,1.7273228E-1,-2.1213716E-2,5.401601E-2,-2.533802E-2,-2.466564E-3,3.0555755E-2,-1.3929502E-2],"categories":[],"categories_nodes":[],"categories_segments":[],"categories_sizes":[],"default_left":[0,0,0,0,0,0,0,0,0,0,0,0,0,0,0],"id":43,"left_children":[1,3,5,7,9,11,13,-1,-1,-1,-1,-1,-1,-1,-1],"loss_changes":[6.6060583E2,5.2950195E2,1.6252884E2,2.1874011E2,1.6994516E2,4.9676514E1,1.5105048E2,0E0,0E0,0E0,0E0,0E0,0E0,0E0,0E0],"parents":[2147483647,0,0,1,1,2,2,3,3,4,4,5,5,6,6],"right_children":[2,4,6,8,10,12,14,-1,-1,-1,-1,-1,-1,-1,-1],"split_conditions":[1.1879999E1,1.1690833E1,6.63E0,1.725E1,9.57E0,2.6830416E1,1.679314E1,6.6177204E-2,1.7273228E-1,-2.1213716E-2,5.401601E-2,-2.533802E-2,-2.466564E-3,3.0555755E-2,-1.3929502E-2],"split_indices":[5,3,2,1,1,3,5,0,0,0,0,0,0,0,0],"split_type":[0,0,0,0,0,0,0,0,0,0,0,0,0,0,0],"sum_hessian":[1.866E3,4.36E2,1.43E3,2.16E2,2.2E2,9.83E2,4.47E2,1.83E2,3.3E1,1.61E2,5.9E1,8.16E2,1.67E2,2.03E2,2.44E2],"tree_param":{"num_deleted":"0","num_feature":"7","num_nodes":"15","size_leaf_vector":"1"}},{"base_weights":[1.0379852E-2,-5.3205925E-1,1.4891515E0,-9.282879E-1,-1.4248605E-1,8.0380297E-1,2.729009E0,-5.1285498E-2,-2.8469449E-2,2.0715427E-2,-1.0671692E-2,4.8474632E-2,-2.1950152E-2,1.1123712E-1,-1.1704094E-1],"categories":[],"categories_nodes":[],"categories_segments":[],"categories_sizes":[],"default_left":[0,0,0,0,0,0,0,0,0,0,0,0,0,0,0],"id":44,"left_children":[1,3,5,7,9,11,13,-1,-1,-1,-1,-1,-1,-1,-1],"loss_changes":[1.5064156E3,2.119585E2,4.260725E2,5.0612427E1,6.527363E1,2.1001932E2,1.9988208E2,0E0,0E0,0E0,0E0,0E0,0E0,0E0,0E0],"parents":[2147483647,0,0,1,1,2,2,3,3,4,4,5,5,6,6],"right_children":[2,4,6,8,10,12,14,-1,-1,-1,-1,-1,-1,-1,-1],"split_conditions":[7.8E0,4.05E0,1.376E1,2.66E0,1.03845825E1,1.8374111E1,2.4842607E1,-5.1285498E-2,-2.8469449E-2,2.0715427E-2,-1.0671692E-2,4.8474632E-2,-2.1950152E-2,1.1123712E-1,-1.1704094E-1],"split_indices":[0,0,0,0,3,5,5,0,0,0,0,0,0,0,0],"split_type":[0,0,0,0,0,0,0,0,0,0,0,0,0,0,0],"sum_hessian":[1.876E3,1.373E3,5.03E2,6.8E2,6.93E2,3.25E2,1.78E2,2.06E2,4.74E2,1.15E2,5.78E2,2.43E2,8.2E1,1.73E2,5E0],"tree_param":{"num_deleted":"0","num_feature":"7","num_nodes":"15","size_leaf_vector":"1"}},{"base_weights":[1.1982903E-2,-1.2692627E-1,2.1692715E0,7.0547646E-1,-2.9491523E-1,-3.9290223E-1,3.1000922E0,-2.752758E-2,6.7709245E-2,-2.1883277E-2,7.002604E-3,-5.365991E-2,6.016072E-2,1.4433579E-1,2.9388081E-2],"categories":[],"categories_nodes":[],"categories_segments":[],"categories_sizes":[],"default_left":[0,0,0,0,0,0,0,0,0,0,0,0,0,0,0],"id":45,"left_children":[1,3,5,7,9,11,13,-1,-1,-1,-1,-1,-1,-1,-1],"loss_changes":[5.59754E2,2.4561757E2,2.7071442E2,4.5055585E2,1.9449216E2,6.398941E1,1.2858972E2,0E0,0E0,0E0,0E0,0E0,0E0,0E0,0E0],"parents":[2147483647,0,0,1,1,2,2,3,3,4,4,5,5,6,6],"right_children":[2,4,6,8,10,12,14,-1,-1,-1,-1,-1,-1,-1,-1],"split_conditions":[1.63E1,9.740833E0,4.1922516E1,3.854559E1,5.78E0,1.992E1,1.6389899E2,-2.752758E-2,6.7709245E-2,-2.1883277E-2,7.002604E-3,-5.365991E-2,6.016072E-2,1.4433579E-1,2.9388081E-2],"split_indices":[1,3,6,6,2,1,6,0,0,0,0,0,0,0,0],"split_type":[0,0,0,0,0,0,0,0,0,0,0,0,0,0,0],"sum_hessian":[1.866E3,1.754E3,1.12E2,2.94E2,1.46E3,3E1,8.2E1,1.26E2,1.68E2,9.23E2,5.37E2,2E1,1E1,6.3E1,1.9E1],"tree_param":{"num_deleted":"0","num_feature":"7","num_nodes":"15","size_leaf_vector":"1"}},{"base_weights":[1.0967116E-2,1.2869513E0,-2.335155E-1,1.9157234E0,-5.9975225E-1,-1.2968605E0,-9.670842E-2,2.939938E-2,1.10207595E-1,2.8618077E-2,-3.3986717E-2,-2.0513635E-2,-8.0649674E-2,1.7595576E-2,-1.6707659E-2],"categories":[],"categories_nodes":[],"categories_segments":[],"categories_sizes":[],"default_left":[0,0,0,0,0,0,0,0,0,0,0,0,0,0,0],"id":46,"left_children":[1,3,5,7,9,11,13,-1,-1,-1,-1,-1,-1,-1,-1],"loss_changes":[5.8397003E2,3.5822733E2,2.2841284E2,2.4907361E2,3.043506E1,1.0971628E2,2.6489993E2,0E0,0E0,0E0,0E0,0E0,0E0,0E0,0E0],"parents":[2147483647,0,0,1,1,2,2,3,3,4,4,5,5,6,6],"right_children":[2,4,6,8,10,12,14,-1,-1,-1,-1,-1,-1,-1,-1],"split_conditions":[1.0495713E1,1.5024166E1,2.4321884E1,5.32912E1,8.260411E0,1.8532133E1,1.6529385E2,2.939938E-2,1.10207595E-1,2.8618077E-2,-3.3986717E-2,-2.0513635E-2,-8.0649674E-2,1.7595576E-2,-1.6707659E-2],"split_indices":[5,3,6,6,5,5,6,0,0,0,0,0,0,0,0],"split_type":[0,0,0,0,0,0,0,0,0,0,0,0,0,0,0],"sum_hessian":[1.87E3,3E2,1.57E3,2.25E2,7.5E1,1.78E2,1.392E3,1.04E2,1.21E2,1.3E1,6.2E1,9.3E1,8.5E1,5.28E2,8.64E2],"tree_param":{"num_deleted":"0","num_feature":"7","num_nodes":"15","size_leaf_vector":"1"}},{"base_weights":[1.4739141E-3,-3.3166808E-1,6.029227E-1,6.001605E-1,-5.2198064E-1,-1.0313193E0,8.270225E-1,-1.8041572E-2,5.9156187E-2,-2.9565278E-2,-1.1227473E-2,-4.432468E-2,1.0393592E-1,5.1608786E-2,-6.6606575E-3],"categories":[],"categories_nodes":[],"categories_segments":[],"categories_sizes":[],"default_left":[0,0,0,0,0,0,0,0,0,0,0,0,0,0,0],"id":47,"left_children":[1,3,5,7,9,11,13,-1,-1,-1,-1,-1,-1,-1,-1],"loss_changes":[3.7548892E2,2.141837E2,2.4549677E2,2.094188E2,5.7396393E1,4.2521004E1,3.0910742E2,0E0,0E0,0E0,0E0,0E0,0E0,0E0,0E0],"parents":[2147483647,0,0,1,1,2,2,3,3,4,4,5,5,6,6],"right_children":[2,4,6,8,10,12,14,-1,-1,-1,-1,-1,-1,-1,-1],"split_conditions":[6.63E0,1.03845825E1,2.5447977E1,4.662622E1,3.75E0,2.817E1,6E-1,-1.8041572E-2,5.9156187E-2,-2.9565278E-2,-1.1227473E-2,-4.432468E-2,1.0393592E-1,5.1608786E-2,-6.6606575E-3],"split_indices":[2,3,6,6,2,2,4,0,0,0,0,0,0,0,0],"split_type":[0,0,0,0,0,0,0,0,0,0,0,0,0,0,0],"sum_hessian":[1.872E3,1.205E3,6.67E2,2.04E2,1.001E3,8E1,5.87E2,9.6E1,1.08E2,4.74E2,5.27E2,7.8E1,2E0,3.85E2,2.02E2],"tree_param":{"num_deleted":"0","num_feature":"7","num_nodes":"15","size_leaf_vector":"1"}},{"base_weights":[3.6598905E-3,-5.1435125E-1,1.3084546E0,-8.546778E-1,-1.6603838E-1,7.016927E-1,2.4943302E0,-4.7604382E-2,-2.6097097E-2,-5.4036073E-2,-3.262695E-3,4.0879335E-2,-2.7598862E-2,8.10762E-2,1.7928612E-1],"categories":[],"categories_nodes":[],"categories_segments":[],"categories_sizes":[],"default_left":[0,0,0,0,0,0,0,0,0,0,0,0,0,0,0],"id":48,"left_children":[1,3,5,7,9,11,13,-1,-1,-1,-1,-1,-1,-1,-1],"loss_changes":[1.2605471E3,1.5810919E2,3.7960815E2,4.4457733E1,6.6420555E1,1.8573009E2,1.3621887E2,0E0,0E0,0E0,0E0,0E0,0E0,0E0,0E0],"parents":[2147483647,0,0,1,1,2,2,3,3,4,4,5,5,6,6],"right_children":[2,4,6,8,10,12,14,-1,-1,-1,-1,-1,-1,-1,-1],"split_conditions":[7.65E0,4.05E0,1.376E1,2.66E0,2.1606638E1,1.21E1,2.41E1,-4.7604382E-2,-2.6097097E-2,-5.4036073E-2,-3.262695E-3,4.0879335E-2,-2.7598862E-2,8.10762E-2,1.7928612E-1],"split_indices":[0,0,0,0,6,1,0,0,0,0,0,0,0,0,0],"split_type":[0,0,0,0,0,0,0,0,0,0,0,0,0,0,0],"sum_hessian":[1.863E3,1.334E3,5.29E2,6.74E2,6.6E2,3.51E2,1.78E2,2.03E2,4.71E2,3.9E1,6.21E2,2.79E2,7.2E1,1.54E2,2.4E1],"tree_param":{"num_deleted":"0","num_feature":"7","num_nodes":"15","size_leaf_vector":"1"}},{"base_weights":[-1.5423036E-3,1.0920453E0,-2.3949456E-1,8.520686E-1,3.789111E0,1.24930404E-1,-4.6715134E-1,4.273614E-2,-4.332728E-2,1.884249E-1,3.627392E-2,-1.2223801E-2,2.0746116E-2,-1.9438427E-2,8.267812E-2],"categories":[],"categories_nodes":[],"categories_segments":[],"categories_sizes":[],"default_left":[0,0,0,0,0,0,0,0,0,0,0,0,0,0,0],"id":49,"left_children":[1,3,5,7,9,11,13,-1,-1,-1,-1,-1,-1,-1,-1],"loss_changes":[4.8635553E2,2.1294717E2,1.274078E2,1.6472652E2,8.3118256E1,1.1021794E2,1.0535675E2,0E0,0E0,0E0,0E0,0E0,0E0,0E0,0E0],"parents":[2147483647,0,0,1,1,2,2,3,3,4,4,5,5,6,6],"right_children":[2,4,6,8,10,12,14,-1,-1,-1,-1,-1,-1,-1,-1],"split_conditions":[1.0805999E1,1.992E1,1.59134655E1,2.7000003E0,2E-1,5.18E0,1.913E1,4.273614E-2,-4.332728E-2,1.884249E-1,3.627392E-2,-1.2223801E-2,2.0746116E-2,-1.9438427E-2,8.267812E-2],"split_indices":[5,1,5,4,4,1,1,0,0,0,0,0,0,0,0],"split_type":[0,0,0,0,0,0,0,0,0,0,0,0,0,0,0],"sum_hessian":[1.867E3,3.33E2,1.534E3,3.07E2,2.6E1,5.9E2,9.44E2,2.71E2,3.6E1,1.8E1,8E0,2.86E2,3.04E2,9.3E2,1.4E1],"tree_param":{"num_deleted":"0","num_feature":"7","num_nodes":"15","size_leaf_vector":"1"}},{"base_weights":[5.9339805E-3,7.458958E-1,-3.185154E-1,1.1880112E0,7.751211E-2,-1.2155303E0,-1.769761E-1,8.558242E-3,6.59029E-2,6.168796E-2,-8.373037E-3,-1.1874307E-2,-7.350864E-2,5.5319914E-3,-2.0395331E-2],"categories":[],"categories_nodes":[],"categories_segments":[],"categories_sizes":[],"default_left":[0,0,0,0,0,0,0,0,0,0,0,0,0,0,0],"id":50,"left_children":[1,3,5,7,9,11,13,-1,-1,-1,-1,-1,-1,-1,-1],"loss_changes":[4.4894736E2,1.6834445E2,1.6483658E2,1.7744308E2,1.0442709E2,1.13004486E2,1.29278E2,0E0,0E0,0E0,0E0,0E0,0E0,0E0,0E0],"parents":[2147483647,0,0,1,1,2,2,3,3,4,4,5,5,6,6],"right_children":[2,4,6,8,10,12,14,-1,-1,-1,-1,-1,-1,-1,-1],"split_conditions":[1.3004922E1,1E-1,3.3012043E1,4.366793E1,8.78872E0,1.8079027E1,1.9533209E2,8.558242E-3,6.59029E-2,6.168796E-2,-8.373037E-3,-1.1874307E-2,-7.350864E-2,5.5319914E-3,-2.0395331E-2],"split_indices":[5,4,6,6,5,5,6,0,0,0,0,0,0,0,0],"split_type":[0,0,0,0,0,0,0,0,0,0,0,0,0,0,0],"sum_hessian":[1.868E3,5.69E2,1.299E3,3.42E2,2.27E2,1.76E2,1.123E3,1.23E2,2.19E2,3.6E1,1.91E2,7.8E1,9.8E1,5.91E2,5.32E2],"tree_param":{"num_deleted":"0","num_feature":"7","num_nodes":"15","size_leaf_vector":"1"}},{"base_weights":[-1.19102806E-4,8.4730965E-1,-2.60139E-1,3.8979717E-2,1.2780954E0,-1.0669535E0,-1.4641379E-1,1.6260554E-1,-5.009492E-3,7.115331E-2,-1.7168184E-3,-7.075385E-3,-7.176907E-2,1.1653409E-2,-1.5209033E-2],"categories":[],"categories_nodes":[],"categories_segments":[],"categories_sizes":[],"default_left":[0,0,0,0,0,0,0,0,0,0,0,0,0,0,0],"id":51,"left_children":[1,3,5,7,9,11,13,-1,-1,-1,-1,-1,-1,-1,-1],"loss_changes":[4.1293286E2,1.5316562E2,1.3142067E2,1.1113318E2,2.2233069E2,1.2645546E2,1.4322084E2,0E0,0E0,0E0,0E0,0E0,0E0,0E0,0E0],"parents":[2147483647,0,0,1,1,2,2,3,3,4,4,5,5,6,6],"right_children":[2,4,6,8,10,12,14,-1,-1,-1,-1,-1,-1,-1,-1],"split_conditions":[1.1879999E1,4.662622E1,2.6151829E1,7.5599995E0,4E-1,1.8079027E1,1.6721094E2,1.6260554E-1,-5.009492E-3,7.115331E-2,-1.7168184E-3,-7.075385E-3,-7.176907E-2,1.1653409E-2,-1.5209033E-2],"split_indices":[5,6,6,5,4,5,6,0,0,0,0,0,0,0,0],"split_type":[0,0,0,0,0,0,0,0,0,0,0,0,0,0,0],"sum_hessian":[1.872E3,4.39E2,1.433E3,1.53E2,2.86E2,1.76E2,1.257E3,5E0,1.48E2,1.98E2,8.8E1,8.5E1,9.1E1,4.5E2,8.07E2],"tree_param":{"num_deleted":"0","num_feature":"7","num_nodes":"15","size_leaf_vector":"1"}},{"base_weights":[7.7484907E-3,-4.5579946E-1,1.270693E0,-8.0525184E-1,-1.1477819E-1,6.7659277E-1,2.354376E0,-4.47693E-2,-2.4610393E-2,-5.274303E-2,-1.3350069E-3,4.1381866E-2,-1.999069E-2,1.6334474E-1,6.655943E-2],"categories":[],"categories_nodes":[],"categories_segments":[],"categories_sizes":[],"default_left":[0,0,0,0,0,0,0,0,0,0,0,0,0,0,0],"id":52,"left_children":[1,3,5,7,9,11,13,-1,-1,-1,-1,-1,-1,-1,-1],"loss_changes":[1.0924161E3,1.6257559E2,3.2095905E2,3.902585E1,6.9903076E1,1.5936438E2,2.0064844E2,0E0,0E0,0E0,0E0,0E0,0E0,0E0,0E0],"parents":[2147483647,0,0,1,1,2,2,3,3,4,4,5,5,6,6],"right_children":[2,4,6,8,10,12,14,-1,-1,-1,-1,-1,-1,-1,-1],"split_conditions":[7.8E0,4.05E0,1.376E1,2.66E0,2.1606638E1,1.8374111E1,9.197083E0,-4.47693E-2,-2.4610393E-2,-5.274303E-2,-1.3350069E-3,4.1381866E-2,-1.999069E-2,1.6334474E-1,6.655943E-2],"split_indices":[0,0,0,0,6,5,3,0,0,0,0,0,0,0,0],"split_type":[0,0,0,0,0,0,0,0,0,0,0,0,0,0,0],"sum_hessian":[1.864E3,1.364E3,5E2,6.73E2,6.91E2,3.24E2,1.76E2,2.03E2,4.7E2,4E1,6.51E2,2.42E2,8.2E1,4.1E1,1.35E2],"tree_param":{"num_deleted":"0","num_feature":"7","num_nodes":"15","size_leaf_vector":"1"}},{"base_weights":[-3.5281846E-4,-1.1416874E-1,1.7518165E0,5.6438506E-1,-2.5166035E-1,-4.4131723E-1,2.5403323E0,-2.3106227E-2,5.5246625E-2,-1.8350776E-2,5.4933513E-3,-5.408664E-2,5.576536E-2,1.1133204E-1,-2.0171849E-2],"categories":[],"categories_nodes":[],"categories_segments":[],"categories_sizes":[],"default_left":[0,0,0,0,0,0,0,0,0,0,0,0,0,0,0],"id":53,"left_children":[1,3,5,7,9,11,13,-1,-1,-1,-1,-1,-1,-1,-1],"loss_changes":[3.7272546E2,1.6387555E2,1.9826367E2,3.0635004E2,1.3226028E2,5.9555546E1,9.8272156E1,0E0,0E0,0E0,0E0,0E0,0E0,0E0,0E0],"parents":[2147483647,0,0,1,1,2,2,3,3,4,4,5,5,6,6],"right_children":[2,4,6,8,10,12,14,-1,-1,-1,-1,-1,-1,-1,-1],"split_conditions":[1.63E1,9.740833E0,4.1922516E1,3.854559E1,5.78E0,1.992E1,2.638E1,-2.3106227E-2,5.5246625E-2,-1.8350776E-2,5.4933513E-3,-5.408664E-2,5.576536E-2,1.1133204E-1,-2.0171849E-2],"split_indices":[1,3,6,6,2,1,2,0,0,0,0,0,0,0,0],"split_type":[0,0,0,0,0,0,0,0,0,0,0,0,0,0,0],"sum_hessian":[1.867E3,1.754E3,1.13E2,2.95E2,1.459E3,3E1,8.3E1,1.27E2,1.68E2,9.24E2,5.35E2,2E1,1E1,7.4E1,9E0],"tree_param":{"num_deleted":"0","num_feature":"7","num_nodes":"15","size_leaf_vector":"1"}},{"base_weights":[-1.2267595E-2,1.1175551E0,-1.739595E-1,1.9368318E0,-5.9534848E-2,-1.0503856E0,-5.9364814E-2,6.8459004E-2,2.985755E-1,-3.598313E-2,5.584559E-2,-1.6641548E-2,-6.7430876E-2,3.647711E-2,-7.3844753E-3],"categories":[],"categories_nodes":[],"categories_segments":[],"categories_sizes":[],"default_left":[0,0,0,0,0,0,0,0,0,0,0,0,0,0,0],"id":54,"left_children":[1,3,5,7,9,11,13,-1,-1,-1,-1,-1,-1,-1,-1],"loss_changes":[3.414466E2,2.2577606E2,1.6414687E2,1.028761E2,1.3171388E2,8.2340866E1,1.9695526E2,0E0,0E0,0E0,0E0,0E0,0E0,0E0,0E0],"parents":[2147483647,0,0,1,1,2,2,3,3,4,4,5,5,6,6],"right_children":[2,4,6,8,10,12,14,-1,-1,-1,-1,-1,-1,-1,-1],"split_conditions":[9.904906E0,1.237625E1,2.5447977E1,1.494859E2,7.2E0,1.8532133E1,9.740833E0,6.8459004E-2,2.985755E-1,-3.598313E-2,5.584559E-2,-1.6641548E-2,-6.7430876E-2,3.647711E-2,-7.3844753E-3],"split_indices":[5,3,6,6,1,5,3,0,0,0,0,0,0,0,0],"split_type":[0,0,0,0,0,0,0,0,0,0,0,0,0,0,0],"sum_hessian":[1.867E3,2.33E2,1.634E3,1.37E2,9.6E1,1.88E2,1.446E3,1.35E2,2E0,6.1E1,3.5E1,1.02E2,8.6E1,1.68E2,1.278E3],"tree_param":{"num_deleted":"0","num_feature":"7","num_nodes":"15","size_leaf_vector":"1"}},{"base_weights":[6.2330626E-4,-5.3334194E-1,9.6368116E-1,-1.0054245E0,-3.78169E-1,5.4799765E-1,2.1113472E0,-3.590098E-2,-8.282939E-2,-4.927464E-2,-1.0964714E-2,3.1850968E-2,-1.2022196E-2,9.0764776E-2,-8.070161E-2],"categories":[],"categories_nodes":[],"categories_segments":[],"categories_sizes":[],"default_left":[0,0,0,0,0,0,0,0,0,0,0,0,0,0,0],"id":55,"left_children":[1,3,5,7,9,11,13,-1,-1,-1,-1,-1,-1,-1,-1],"loss_changes":[9.6162744E2,8.77449E1,3.1704584E2,2.0507996E1,7.494136E1,1.2148207E2,2.0366388E2,0E0,0E0,0E0,0E0,0E0,0E0,0E0,0E0],"parents":[2147483647,0,0,1,1,2,2,3,3,4,4,5,5,6,6],"right_children":[2,4,6,8,10,12,14,-1,-1,-1,-1,-1,-1,-1,-1],"split_conditions":[6.63E0,3E0,1.376E1,3.3650137E2,2.1606638E1,1.8374111E1,4.7E0,-3.590098E-2,-8.282939E-2,-4.927464E-2,-1.0964714E-2,3.1850968E-2,-1.2022196E-2,9.0764776E-2,-8.070161E-2],"split_indices":[0,0,0,6,6,5,4,0,0,0,0,0,0,0,0],"split_type":[0,0,0,0,0,0,0,0,0,0,0,0,0,0,0],"sum_hessian":[1.868E3,1.202E3,6.66E2,2.96E2,9.06E2,4.9E2,1.76E2,2.82E2,1.4E1,8.1E1,8.25E2,3.68E2,1.22E2,1.66E2,1E1],"tree_param":{"num_deleted":"0","num_feature":"7","num_nodes":"15","size_leaf_vector":"1"}},{"base_weights":[-6.2456266E-3,3.9782062E-1,-3.1424496E-1,6.863925E-1,-9.0444064E-1,-6.550547E-1,-7.967571E-2,-1.2449077E-2,4.5218986E-2,-2.9740328E-2,-1.4227572E-1,-2.9433157E-2,-1.3335722E-3,-2.5695108E-2,8.3694665E-4],"categories":[],"categories_nodes":[],"categories_segments":[],"categories_sizes":[],"default_left":[0,0,0,0,0,0,0,0,0,0,0,0,0,0,0],"id":56,"left_children":[1,3,5,7,9,11,13,-1,-1,-1,-1,-1,-1,-1,-1],"loss_changes":[2.3247713E2,3.0426395E2,8.46879E1,3.3403433E2,4.9187996E1,3.0982788E1,3.792422E1,0E0,0E0,0E0,0E0,0E0,0E0,0E0,0E0],"parents":[2147483647,0,0,1,1,2,2,3,3,4,4,5,5,6,6],"right_children":[2,4,6,8,10,12,14,-1,-1,-1,-1,-1,-1,-1,-1],"split_conditions":[1.422625E1,4.0999994E0,3.88E0,4.0836323E1,2.133E1,2.6528334E1,6.4397964E1,-1.2449077E-2,4.5218986E-2,-2.9740328E-2,-1.4227572E-1,-2.9433157E-2,-1.3335722E-3,-2.5695108E-2,8.3694665E-4],"split_indices":[3,4,2,6,2,3,6,0,0,0,0,0,0,0,0],"split_type":[0,0,0,0,0,0,0,0,0,0,0,0,0,0,0],"sum_hessian":[1.866E3,8.07E2,1.059E3,6.61E2,1.46E2,4.31E2,6.28E2,2.18E2,4.43E2,1.41E2,5E0,3.63E2,6.8E1,9.1E1,5.37E2],"tree_param":{"num_deleted":"0","num_feature":"7","num_nodes":"15","size_leaf_vector":"1"}},{"base_weights":[4.283292E-3,-4.3604726E-1,1.059633E0,-7.2162896E-1,-1.3654982E-1,7.1327317E-1,2.3989134E0,-4.0984083E-2,-2.167694E-2,4.1380515E-3,-2.0882616E-2,3.0070119E-2,-8.601936E-2,-4.3512546E-3,1.1104327E-1],"categories":[],"categories_nodes":[],"categories_segments":[],"categories_sizes":[],"default_left":[0,0,0,0,0,0,0,0,0,0,0,0,0,0,0],"id":57,"left_children":[1,3,5,7,9,11,13,-1,-1,-1,-1,-1,-1,-1,-1],"loss_changes":[8.71315E2,1.1305896E2,2.5434674E2,3.6042786E1,6.508156E1,9.862724E1,1.4490137E2,0E0,0E0,0E0,0E0,0E0,0E0,0E0,0E0],"parents":[2147483647,0,0,1,1,2,2,3,3,4,4,5,5,6,6],"right_children":[2,4,6,8,10,12,14,-1,-1,-1,-1,-1,-1,-1,-1],"split_conditions":[7.47E0,4.05E0,1.63E1,2.66E0,5.9E0,2.317E1,4.366793E1,-4.0984083E-2,-2.167694E-2,4.1380515E-3,-2.0882616E-2,3.0070119E-2,-8.601936E-2,-4.3512546E-3,1.1104327E-1],"split_indices":[0,0,0,0,1,2,6,0,0,0,0,0,0,0,0],"split_type":[0,0,0,0,0,0,0,0,0,0,0,0,0,0,0],"sum_hessian":[1.873E3,1.322E3,5.51E2,6.76E2,6.46E2,4.39E2,1.12E2,2.04E2,4.72E2,4.05E2,2.41E2,4.29E2,1E1,1.9E1,9.3E1],"tree_param":{"num_deleted":"0","num_feature":"7","num_nodes":"15","size_leaf_vector":"1"}},{"base_weights":[1.0089712E-2,-4.7902608E-1,8.915096E-1,-9.188365E-1,-3.336752E-1,5.0184715E-1,1.9674009E0,-3.26721E-2,-7.8442745E-2,-4.694657E-2,-9.321953E-3,2.4995945E-2,-3.0561622E-2,8.529918E-2,-1.0331547E-1],"categories":[],"categories_nodes":[],"categories_segments":[],"categories_sizes":[],"default_left":[0,0,0,0,0,0,0,0,0,0,0,0,0,0,0],"id":58,"left_children":[1,3,5,7,9,11,13,-1,-1,-1,-1,-1,-1,-1,-1],"loss_changes":[8.0575244E2,7.653348E1,2.7864203E2,1.962918E1,7.229485E1,9.819402E1,2.2643207E2,0E0,0E0,0E0,0E0,0E0,0E0,0E0,0E0],"parents":[2147483647,0,0,1,1,2,2,3,3,4,4,5,5,6,6],"right_children":[2,4,6,8,10,12,14,-1,-1,-1,-1,-1,-1,-1,-1],"split_conditions":[6.63E0,3E0,1.376E1,3.3650137E2,2.1606638E1,8.1E0,4.7E0,-3.26721E-2,-7.8442745E-2,-4.694657E-2,-9.321953E-3,2.4995945E-2,-3.0561622E-2,8.529918E-2,-1.0331547E-1],"split_indices":[0,0,0,6,6,4,4,0,0,0,0,0,0,0,0],"split_type":[0,0,0,0,0,0,0,0,0,0,0,0,0,0,0],"sum_hessian":[1.867E3,1.201E3,6.66E2,2.97E2,9.04E2,4.9E2,1.76E2,2.83E2,1.4E1,8.1E1,8.23E2,4.39E2,5.1E1,1.67E2,9E0],"tree_param":{"num_deleted":"0","num_feature":"7","num_nodes":"15","size_leaf_vector":"1"}},{"base_weights":[6.9352207E-3,5.847418E-1,-2.475537E-1,1.364288E0,-3.0751896E-1,-8.880956E-1,-9.6603096E-2,9.196819E-3,6.8020515E-2,6.433172E-2,-1.5559841E-2,-2.5063638E-2,-7.436543E-2,2.026313E-2,-1.2087151E-2],"categories":[],"categories_nodes":[],"categories_segments":[],"categories_sizes":[],"default_left":[0,0,0,0,0,0,0,0,0,0,0,0,0,0,0],"id":59,"left_children":[1,3,5,7,9,11,13,-1,-1,-1,-1,-1,-1,-1,-1],"loss_changes":[2.7556073E2,3.9897455E2,1.25708145E2,1.429447E2,5.40623E1,5.9602432E1,1.4557788E2,0E0,0E0,0E0,0E0,0E0,0E0,0E0,0E0],"parents":[2147483647,0,0,1,1,2,2,3,3,4,4,5,5,6,6],"right_children":[2,4,6,8,10,12,14,-1,-1,-1,-1,-1,-1,-1,-1],"split_conditions":[1.3004922E1,1.2605416E1,9.000007E1,4.0836323E1,8.089993E0,2.4503809E1,1.6529385E2,9.196819E-3,6.8020515E-2,6.433172E-2,-1.5559841E-2,-2.5063638E-2,-7.436543E-2,2.026313E-2,-1.2087151E-2],"split_indices":[5,3,6,6,5,5,6,0,0,0,0,0,0,0,0],"split_type":[0,0,0,0,0,0,0,0,0,0,0,0,0,0,0],"sum_hessian":[1.872E3,5.72E2,1.3E3,3.05E2,2.67E2,2.47E2,1.053E3,8.3E1,2.22E2,1.2E1,2.55E2,2.04E2,4.3E1,2.73E2,7.8E2],"tree_param":{"num_deleted":"0","num_feature":"7","num_nodes":"15","size_leaf_vector":"1"}},{"base_weights":[-3.943264E-3,-4.568438E-1,8.161798E-1,-8.7664247E-1,-3.18103E-1,6.4393324E-1,3.0710034E0,-3.116099E-2,-7.519866E-2,-4.4652645E-2,-8.908946E-3,3.0495794E-2,-3.9183915E-2,9.860623E-2,2.9320446E-1],"categories":[],"categories_nodes":[],"categories_segments":[],"categories_sizes":[],"default_left":[0,0,0,0,0,0,0,0,0,0,0,0,0,0,0],"id":60,"left_children":[1,3,5,7,9,11,13,-1,-1,-1,-1,-1,-1,-1,-1],"loss_changes":[6.953262E2,6.996243E1,2.5668735E2,1.818718E1,6.5268036E1,1.6100821E2,8.599399E1,0E0,0E0,0E0,0E0,0E0,0E0,0E0,0E0],"parents":[2147483647,0,0,1,1,2,2,3,3,4,4,5,5,6,6],"right_children":[2,4,6,8,10,12,14,-1,-1,-1,-1,-1,-1,-1,-1],"split_conditions":[6.63E0,3E0,2.055E1,3.3650137E2,2.1606638E1,2.4842607E1,2.2807753E2,-3.116099E-2,-7.519866E-2,-4.4652645E-2,-8.908946E-3,3.0495794E-2,-3.9183915E-2,9.860623E-2,2.9320446E-1],"split_indices":[0,0,0,6,6,5,6,0,0,0,0,0,0,0,0],"split_type":[0,0,0,0,0,0,0,0,0,0,0,0,0,0,0],"sum_hessian":[1.87E3,1.205E3,6.65E2,2.98E2,9.07E2,6.19E2,4.6E1,2.84E2,1.4E1,8.1E1,8.26E2,5.67E2,5.2E1,4.3E1,3E0],"tree_param":{"num_deleted":"0","num_feature":"7","num_nodes":"15","size_leaf_vector":"1"}},{"base_weights":[-4.312379E-3,-7.211442E-2,2.0098124E0,2.9284983E0,-1.055445E-1,5.11541E0,1.5125052E0,-3.6137004E-3,1.3240822E-1,7.1424404E-3,-1.4382465E-2,-8.427102E-3,5.377372E-1,8.7539904E-2,-1.0089752E-1],"categories":[],"categories_nodes":[],"categories_segments":[],"categories_sizes":[],"default_left":[0,0,0,0,0,0,0,0,0,0,0,0,0,0,0],"id":61,"left_children":[1,3,5,7,9,11,13,-1,-1,-1,-1,-1,-1,-1,-1],"loss_changes":[2.5578859E2,1.8207213E2,8.6473495E1,3.2921265E1,1.4229988E2,3.859014E2,1.8106552E2,0E0,0E0,0E0,0E0,0E0,0E0,0E0,0E0],"parents":[2147483647,0,0,1,1,2,2,3,3,4,4,5,5,6,6],"right_children":[2,4,6,8,10,12,14,-1,-1,-1,-1,-1,-1,-1,-1],"split_conditions":[1.913E1,7.5599995E0,1.992E1,3.91E0,1.59134655E1,1.875E1,1.679314E1,-3.6137004E-3,1.3240822E-1,7.1424404E-3,-1.4382465E-2,-8.427102E-3,5.377372E-1,8.7539904E-2,-1.0089752E-1],"split_indices":[1,5,1,1,5,2,5,0,0,0,0,0,0,0,0],"split_type":[0,0,0,0,0,0,0,0,0,0,0,0,0,0,0],"sum_hessian":[1.871E3,1.811E3,6E1,1.9E1,1.792E3,7E0,5.3E1,3E0,1.6E1,8.62E2,9.3E2,5E0,2E0,4.5E1,8E0],"tree_param":{"num_deleted":"0","num_feature":"7","num_nodes":"15","size_leaf_vector":"1"}},{"base_weights":[1.2612159E-2,-3.5172692E-1,1.0110651E0,-5.953617E-1,-4.05506E-2,1.2492431E0,-1.1622845E0,-3.584375E-2,-1.7881855E-2,1.031117E-2,-2.4176821E-2,4.184438E-2,1.5042228E-1,1.137063E-1,-5.333753E-2],"categories":[],"categories_nodes":[],"categories_segments":[],"categories_sizes":[],"default_left":[0,0,0,0,0,0,0,0,0,0,0,0,0,0,0],"id":62,"left_children":[1,3,5,7,9,11,13,-1,-1,-1,-1,-1,-1,-1,-1],"loss_changes":[6.817071E2,1.0406763E2,2.6079163E2,3.315158E1,1.1133862E2,1.8221136E2,5.2710083E1,0E0,0E0,0E0,0E0,0E0,0E0,0E0,0E0],"parents":[2147483647,0,0,1,1,2,2,3,3,4,4,5,5,6,6],"right_children":[2,4,6,8,10,12,14,-1,-1,-1,-1,-1,-1,-1,-1],"split_conditions":[7.8E0,4.4E0,6.0000005E0,2.66E0,7E-1,2.41E1,7.9E0,-3.584375E-2,-1.7881855E-2,1.031117E-2,-2.4176821E-2,4.184438E-2,1.5042228E-1,1.137063E-1,-5.333753E-2],"split_indices":[0,0,4,0,4,0,0,0,0,0,0,0,0,0,0],"split_type":[0,0,0,0,0,0,0,0,0,0,0,0,0,0,0],"sum_hessian":[1.872E3,1.372E3,5E2,7.69E2,6.03E2,4.51E2,4.9E1,2.06E2,5.63E2,3.96E2,2.07E2,4.28E2,2.3E1,2E0,4.7E1],"tree_param":{"num_deleted":"0","num_feature":"7","num_nodes":"15","size_leaf_vector":"1"}},{"base_weights":[1.1952079E-3,4.8742104E-1,-1.9184458E-1,-4.3773815E-1,9.3065745E-1,-5.532697E-1,-1.1523435E-2,-5.4755762E-2,-1.1384429E-2,5.3132035E-2,-3.8115684E-2,-2.4390534E-2,6.966218E-4,8.050128E-3,-1.564686E-2],"categories":[],"categories_nodes":[],"categories_segments":[],"categories_sizes":[],"default_left":[0,0,0,0,0,0,0,0,0,0,0,0,0,0,0],"id":63,"left_children":[1,3,5,7,9,11,13,-1,-1,-1,-1,-1,-1,-1,-1],"loss_changes":[1.7570732E2,2.1856157E2,8.7324905E1,2.3631855E1,3.2135132E2,2.1799896E1,7.933565E1,0E0,0E0,0E0,0E0,0E0,0E0,0E0,0E0],"parents":[2147483647,0,0,1,1,2,2,3,3,4,4,5,5,6,6],"right_children":[2,4,6,8,10,12,14,-1,-1,-1,-1,-1,-1,-1,-1],"split_conditions":[1.1690833E1,3.854559E1,3.75E0,5.3144107E0,3.9999995E0,2.6528334E1,6E-1,-5.4755762E-2,-1.1384429E-2,5.3132035E-2,-3.8115684E-2,-2.4390534E-2,6.966218E-4,8.050128E-3,-1.564686E-2],"split_indices":[3,6,2,6,4,3,4,0,0,0,0,0,0,0,0],"split_type":[0,0,0,0,0,0,0,0,0,0,0,0,0,0,0],"sum_hessian":[1.87E3,5.31E2,1.339E3,1.72E2,3.59E2,4.45E2,8.94E2,2E1,1.52E2,2.9E2,6.9E1,3.87E2,5.8E1,5.74E2,3.2E2],"tree_param":{"num_deleted":"0","num_feature":"7","num_nodes":"15","size_leaf_vector":"1"}},{"base_weights":[2.0450284E-4,-3.4602493E-1,9.442149E-1,-6.013574E-1,-9.426665E-2,8.0645525E-1,3.5349002E0,-2.0318188E-2,-4.8909914E-2,6.507749E-3,-1.9404674E-2,1.9782135E-2,5.3763E-2,1.8147561E-1,1.3491173E-2],"categories":[],"categories_nodes":[],"categories_segments":[],"categories_sizes":[],"default_left":[0,0,0,0,0,0,0,0,0,0,0,0,0,0,0],"id":64,"left_children":[1,3,5,7,9,11,13,-1,-1,-1,-1,-1,-1,-1,-1],"loss_changes":[6.1021796E2,8.7752625E1,1.7595209E2,3.1225693E1,7.557329E1,8.201657E1,9.517279E1,0E0,0E0,0E0,0E0,0E0,0E0,0E0,0E0],"parents":[2147483647,0,0,1,1,2,2,3,3,4,4,5,5,6,6],"right_children":[2,4,6,8,10,12,14,-1,-1,-1,-1,-1,-1,-1,-1],"split_conditions":[7.8E0,4.05E0,2.41E1,6.21E0,5.9E0,1.376E1,2.626E1,-2.0318188E-2,-4.8909914E-2,6.507749E-3,-1.9404674E-2,1.9782135E-2,5.3763E-2,1.8147561E-1,1.3491173E-2],"split_indices":[0,0,0,1,1,0,1,0,0,0,0,0,0,0,0],"split_type":[0,0,0,0,0,0,0,0,0,0,0,0,0,0,0],"sum_hessian":[1.865E3,1.365E3,5E2,6.77E2,6.88E2,4.76E2,2.4E1,6.16E2,6.1E1,4.2E2,2.68E2,3.23E2,1.53E2,1.7E1,7E0],"tree_param":{"num_deleted":"0","num_feature":"7","num_nodes":"15","size_leaf_vector":"1"}},{"base_weights":[3.91786E-3,-3.83243E-1,7.782333E-1,-6.788475E-1,-2.168559E-1,5.170709E-1,1.9546661E0,-2.3001995E-2,-5.2273337E-2,-4.3129007E-4,-2.1431368E-2,2.5244258E-2,-3.1580493E-2,9.162409E-2,-5.2017525E-2],"categories":[],"categories_nodes":[],"categories_segments":[],"categories_sizes":[],"default_left":[0,0,0,0,0,0,0,0,0,0,0,0,0,0,0],"id":65,"left_children":[1,3,5,7,9,11,13,-1,-1,-1,-1,-1,-1,-1,-1],"loss_changes":[5.6119525E2,6.1235397E1,1.9070709E2,2.2867767E1,5.6629425E1,9.967024E1,1.6999353E2,0E0,0E0,0E0,0E0,0E0,0E0,0E0,0E0],"parents":[2147483647,0,0,1,1,2,2,3,3,4,4,5,5,6,6],"right_children":[2,4,6,8,10,12,14,-1,-1,-1,-1,-1,-1,-1,-1],"split_conditions":[6.92E0,3.4E0,1.63E1,5.72E0,6E-1,8.1E0,2.3000002E0,-2.3001995E-2,-5.2273337E-2,-4.3129007E-4,-2.1431368E-2,2.5244258E-2,-3.1580493E-2,9.162409E-2,-5.2017525E-2],"split_indices":[0,0,0,1,4,4,4,0,0,0,0,0,0,0,0],"split_type":[0,0,0,0,0,0,0,0,0,0,0,0,0,0,0],"sum_hessian":[1.87E3,1.247E3,6.23E2,4.48E2,7.99E2,5.11E2,1.12E2,4.05E2,4.3E1,5.01E2,2.98E2,4.62E2,4.9E1,9.9E1,1.3E1],"tree_param":{"num_deleted":"0","num_feature":"7","num_nodes":"15","size_leaf_vector":"1"}},{"base_weights":[8.082368E-3,7.664505E-1,-1.3303682E-1,9.0850145E-2,1.441433E0,-8.7797236E-1,-3.7832476E-2,9.578704E-2,-3.1974374E-3,1.6756561E-1,4.0984552E-2,-1.659129E-2,-6.15851E-2,1.2614932E-2,-1.0187514E-2],"categories":[],"categories_nodes":[],"categories_segments":[],"categories_sizes":[],"default_left":[0,0,0,0,0,0,0,0,0,0,0,0,0,0,0],"id":66,"left_children":[1,3,5,7,9,11,13,-1,-1,-1,-1,-1,-1,-1,-1],"loss_changes":[2.0055098E2,1.3393846E2,1.1202214E2,6.267926E1,1.5475134E2,5.7632294E1,1.1828135E2,0E0,0E0,0E0,0E0,0E0,0E0,0E0,0E0],"parents":[2147483647,0,0,1,1,2,2,3,3,4,4,5,5,6,6],"right_children":[2,4,6,8,10,12,14,-1,-1,-1,-1,-1,-1,-1,-1],"split_conditions":[1.0464797E1,5.32912E1,2.4321884E1,7.5599995E0,5.8236176E1,2.094507E1,1.6529385E2,9.578704E-2,-3.1974374E-3,1.6756561E-1,4.0984552E-2,-1.659129E-2,-6.15851E-2,1.2614932E-2,-1.0187514E-2],"split_indices":[5,6,6,5,6,5,6,0,0,0,0,0,0,0,0],"split_type":[0,0,0,0,0,0,0,0,0,0,0,0,0,0,0],"sum_hessian":[1.872E3,2.93E2,1.579E3,1.47E2,1.46E2,1.78E2,1.401E3,9E0,1.38E2,1.5E1,1.31E2,1.12E2,6.6E1,5.37E2,8.64E2],"tree_param":{"num_deleted":"0","num_feature":"7","num_nodes":"15","size_leaf_vector":"1"}},{"base_weights":[2.2008526E-3,4.144839E-1,-2.2932433E-1,2.7674994E-1,1.8478295E0,-1.4568253E-1,-1.075236E0,1.0046248E-1,7.6985885E-3,3.9755292E-2,1.7649901E-1,-2.886674E-2,4.2983153E-4,-3.2121107E-2,-1.1694227E-1],"categories":[],"categories_nodes":[],"categories_segments":[],"categories_sizes":[],"default_left":[0,0,0,0,0,0,0,0,0,0,0,0,0,0,0],"id":67,"left_children":[1,3,5,7,9,11,13,-1,-1,-1,-1,-1,-1,-1,-1],"loss_changes":[1.7916658E2,1.327474E2,8.488916E1,1.0860809E2,1.2723622E2,1.0488603E2,4.7654343E1,0E0,0E0,0E0,0E0,0E0,0E0,0E0,0E0],"parents":[2147483647,0,0,1,1,2,2,3,3,4,4,5,5,6,6],"right_children":[2,4,6,8,10,12,14,-1,-1,-1,-1,-1,-1,-1,-1],"split_conditions":[1.3905509E1,1.725E1,2.8018658E2,7.5599995E0,1.1850047E2,9.255606E1,2.4503809E1,1.0046248E-1,7.6985885E-3,3.9755292E-2,1.7649901E-1,-2.886674E-2,4.2983153E-4,-3.2121107E-2,-1.1694227E-1],"split_indices":[5,1,6,5,6,6,5,0,0,0,0,0,0,0,0],"split_type":[0,0,0,0,0,0,0,0,0,0,0,0,0,0,0],"sum_hessian":[1.875E3,6.74E2,1.201E3,6.16E2,5.8E1,1.094E3,1.07E2,1.8E1,5.98E2,4.6E1,1.2E1,2.23E2,8.71E2,9.7E1,1E1],"tree_param":{"num_deleted":"0","num_feature":"7","num_nodes":"15","size_leaf_vector":"1"}},{"base_weights":[7.5260196E-3,-4.9717195E-2,1.7078077E0,2.5208735E0,-7.981356E-2,4.87232E0,1.2073648E0,1.11799344E-1,-3.4248374E-2,6.5251067E-3,-1.1947378E-2,-1.1593774E-2,5.193177E-1,7.370313E-2,-1.0008667E-1],"categories":[],"categories_nodes":[],"categories_segments":[],"categories_sizes":[],"default_left":[0,0,0,0,0,0,0,0,0,0,0,0,0,0,0],"id":68,"left_children":[1,3,5,7,9,11,13,-1,-1,-1,-1,-1,-1,-1,-1],"loss_changes":[1.8228589E2,1.4038736E2,9.072043E1,3.1835846E1,1.04758995E2,3.6552518E2,1.5448962E2,0E0,0E0,0E0,0E0,0E0,0E0,0E0,0E0],"parents":[2147483647,0,0,1,1,2,2,3,3,4,4,5,5,6,6],"right_children":[2,4,6,8,10,12,14,-1,-1,-1,-1,-1,-1,-1,-1],"split_conditions":[1.913E1,7.5599995E0,1.992E1,1.3409583E1,1.59134655E1,1.875E1,1.679314E1,1.11799344E-1,-3.4248374E-2,6.5251067E-3,-1.1947378E-2,-1.1593774E-2,5.193177E-1,7.370313E-2,-1.0008667E-1],"split_indices":[1,5,1,3,5,2,5,0,0,0,0,0,0,0,0],"split_type":[0,0,0,0,0,0,0,0,0,0,0,0,0,0,0],"sum_hessian":[1.871E3,1.811E3,6E1,2E1,1.791E3,7E0,5.3E1,1.8E1,2E0,8.63E2,9.28E2,5E0,2E0,4.5E1,8E0],"tree_param":{"num_deleted":"0","num_feature":"7","num_nodes":"15","size_leaf_vector":"1"}},{"base_weights":[9.155425E-3,-3.5361603E-1,7.370055E-1,-6.372691E-1,-1.9351046E-1,6.3287956E-1,3.2107122E0,-2.1630524E-2,-4.89112E-2,-1.9036686E-3,-2.6095709E-2,1.6091174E-2,4.729842E-2,1.6749676E-1,6.258997E-3],"categories":[],"categories_nodes":[],"categories_segments":[],"categories_sizes":[],"default_left":[0,0,0,0,0,0,0,0,0,0,0,0,0,0,0],"id":69,"left_children":[1,3,5,7,9,11,13,-1,-1,-1,-1,-1,-1,-1,-1],"loss_changes":[4.961338E2,5.68264E1,1.5895361E2,1.9871887E1,5.647824E1,7.647275E1,8.883859E1,0E0,0E0,0E0,0E0,0E0,0E0,0E0,0E0],"parents":[2147483647,0,0,1,1,2,2,3,3,4,4,5,5,6,6],"right_children":[2,4,6,8,10,12,14,-1,-1,-1,-1,-1,-1,-1,-1],"split_conditions":[6.92E0,3.4E0,2.41E1,5.72E0,6.35E0,1.376E1,2.626E1,-2.1630524E-2,-4.89112E-2,-1.9036686E-3,-2.6095709E-2,1.6091174E-2,4.729842E-2,1.6749676E-1,6.258997E-3],"split_indices":[0,0,0,1,1,0,1,0,0,0,0,0,0,0,0],"split_type":[0,0,0,0,0,0,0,0,0,0,0,0,0,0,0],"sum_hessian":[1.877E3,1.253E3,6.24E2,4.51E2,8.02E2,6E2,2.4E1,4.08E2,4.3E1,6.21E2,1.81E2,4.46E2,1.54E2,1.7E1,7E0],"tree_param":{"num_deleted":"0","num_feature":"7","num_nodes":"15","size_leaf_vector":"1"}},{"base_weights":[-4.0717265E-3,-3.6351112E-1,6.527282E-1,-7.7678E-1,-2.6741362E-1,7.9699695E-1,-9.810466E-1,-4.1669786E-2,-2.2179548E-2,2.8493704E-2,-1.184556E-2,6.935398E-2,2.0093553E-2,-9.306085E-2,1.7490825E-2],"categories":[],"categories_nodes":[],"categories_segments":[],"categories_sizes":[],"default_left":[0,0,0,0,0,0,0,0,0,0,0,0,0,0,0],"id":70,"left_children":[1,3,5,7,9,11,13,-1,-1,-1,-1,-1,-1,-1,-1],"loss_changes":[4.4052603E2,4.76875E1,1.5634564E2,1.3353439E1,4.2749336E1,1.6657483E2,1.1426971E2,0E0,0E0,0E0,0E0,0E0,0E0,0E0,0E0],"parents":[2147483647,0,0,1,1,2,2,3,3,4,4,5,5,6,6],"right_children":[2,4,6,8,10,12,14,-1,-1,-1,-1,-1,-1,-1,-1],"split_conditions":[6.63E0,2.74E0,2.4842607E1,1.59134655E1,6.840833E0,9.5824995E0,1.3038751E1,-4.1669786E-2,-2.2179548E-2,2.8493704E-2,-1.184556E-2,6.935398E-2,2.0093553E-2,-9.306085E-2,1.7490825E-2],"split_indices":[0,0,5,5,3,3,3,0,0,0,0,0,0,0,0],"split_type":[0,0,0,0,0,0,0,0,0,0,0,0,0,0,0],"sum_hessian":[1.864E3,1.205E3,6.59E2,2.26E2,9.79E2,6.06E2,5.3E1,8.5E1,1.41E2,3.9E1,9.4E2,1.26E2,4.8E2,2.6E1,2.7E1],"tree_param":{"num_deleted":"0","num_feature":"7","num_nodes":"15","size_leaf_vector":"1"}},{"base_weights":[4.974068E-3,-4.9744688E-2,1.6583096E0,2.3723922E0,-7.8085534E-2,1.2865664E0,6.5410724E0,-9.9079525E-3,1.07889436E-1,-2.9567376E-2,3.9349907E-4,6.7128025E-2,-8.903873E-2,5.277867E-1,-1.8831344E-2],"categories":[],"categories_nodes":[],"categories_segments":[],"categories_sizes":[],"default_left":[0,0,0,0,0,0,0,0,0,0,0,0,0,0,0],"id":71,"left_children":[1,3,5,7,9,11,13,-1,-1,-1,-1,-1,-1,-1,-1],"loss_changes":[1.6943947E2,1.2463937E2,1.0049249E2,2.5773354E1,1.10350655E2,1.0132541E2,2.1167633E2,0E0,0E0,0E0,0E0,0E0,0E0,0E0,0E0],"parents":[2147483647,0,0,1,1,2,2,3,3,4,4,5,5,6,6],"right_children":[2,4,6,8,10,12,14,-1,-1,-1,-1,-1,-1,-1,-1],"split_conditions":[1.913E1,7.5599995E0,2.0633371E1,3.91E0,2.6151829E1,1.8E1,1.992E1,-9.9079525E-3,1.07889436E-1,-2.9567376E-2,3.9349907E-4,6.7128025E-2,-8.903873E-2,5.277867E-1,-1.8831344E-2],"split_indices":[1,5,5,1,6,5,1,0,0,0,0,0,0,0,0],"split_type":[0,0,0,0,0,0,0,0,0,0,0,0,0,0,0],"sum_hessian":[1.871E3,1.812E3,5.9E1,2E1,1.792E3,5.6E1,3E0,3E0,1.7E1,2.01E2,1.591E3,5E1,6E0,1E0,2E0],"tree_param":{"num_deleted":"0","num_feature":"7","num_nodes":"15","size_leaf_vector":"1"}},{"base_weights":[3.3737038E-4,-3.0214417E-1,7.268424E-1,-4.5479977E-1,-2.385554E-2,8.7815815E-1,-1.1242657E0,-1.4826393E-2,-3.613183E-2,-6.3133195E-2,1.2839419E-3,3.1521823E-2,2.7947846E-1,-9.6408084E-2,1.0068804E-2],"categories":[],"categories_nodes":[],"categories_segments":[],"categories_sizes":[],"default_left":[0,0,0,0,0,0,0,0,0,0,0,0,0,0,0],"id":72,"left_children":[1,3,5,7,9,11,13,-1,-1,-1,-1,-1,-1,-1,-1],"loss_changes":[4.1116025E2,5.6108307E1,1.5504324E2,2.7517471E1,4.398384E1,1.6657422E2,8.2306915E1,0E0,0E0,0E0,0E0,0E0,0E0,0E0,0E0],"parents":[2147483647,0,0,1,1,2,2,3,3,4,4,5,5,6,6],"right_children":[2,4,6,8,10,12,14,-1,-1,-1,-1,-1,-1,-1,-1],"split_conditions":[7.47E0,4.72E0,2.4842607E1,2.62632E2,1.673528E1,2.41388E1,1.3038751E1,-1.4826393E-2,-3.613183E-2,-6.3133195E-2,1.2839419E-3,3.1521823E-2,2.7947846E-1,-9.6408084E-2,1.0068804E-2],"split_indices":[0,0,5,6,6,5,3,0,0,0,0,0,0,0,0],"split_type":[0,0,0,0,0,0,0,0,0,0,0,0,0,0,0],"sum_hessian":[1.869E3,1.32E3,5.49E2,8.52E2,4.68E2,5.08E2,4.1E1,7.52E2,1E2,1.5E1,4.53E2,5.05E2,3E0,2E1,2.1E1],"tree_param":{"num_deleted":"0","num_feature":"7","num_nodes":"15","size_leaf_vector":"1"}},{"base_weights":[2.4384665E-3,-4.4784527E-2,1.4301063E0,1.3034046E-1,-3.8810498E-1,1.9141177E0,-1.5253043E0,2.405919E-2,-5.3777527E-3,-1.0788313E-2,-4.4493366E-2,-1.6197078E-2,1.0972562E-1,9.058444E-2,-1.1370642E-1],"categories":[],"categories_nodes":[],"categories_segments":[],"categories_sizes":[],"default_left":[0,0,0,0,0,0,0,0,0,0,0,0,0,0,0],"id":73,"left_children":[1,3,5,7,9,11,13,-1,-1,-1,-1,-1,-1,-1,-1],"loss_changes":[1.2633937E2,1.0911549E2,8.874675E1,1.6297743E2,4.99637E1,1.1787604E2,5.801449E1,0E0,0E0,0E0,0E0,0E0,0E0,0E0,0E0],"parents":[2147483647,0,0,1,1,2,2,3,3,4,4,5,5,6,6],"right_children":[2,4,6,8,10,12,14,-1,-1,-1,-1,-1,-1,-1,-1],"split_conditions":[1.913E1,6E-1,2.638E1,1.3409583E1,1.035E1,1.675E1,9.5824995E0,2.405919E-2,-5.3777527E-3,-1.0788313E-2,-4.4493366E-2,-1.6197078E-2,1.0972562E-1,9.058444E-2,-1.1370642E-1],"split_indices":[1,4,2,3,1,2,3,0,0,0,0,0,0,0,0],"split_type":[0,0,0,0,0,0,0,0,0,0,0,0,0,0,0],"sum_hessian":[1.872E3,1.813E3,5.9E1,1.201E3,6.12E2,5.1E1,8E0,4.22E2,7.79E2,5.4E2,7.2E1,1.5E1,3.6E1,2E0,6E0],"tree_param":{"num_deleted":"0","num_feature":"7","num_nodes":"15","size_leaf_vector":"1"}},{"base_weights":[8.153676E-3,-4.2143673E-2,1.5228063E0,2.2526252E0,-6.9087155E-2,4.47181E0,1.0489414E0,-9.582536E-3,1.0248162E-1,5.083031E-3,-1.1770098E-2,-1.7355213E-2,4.900581E-1,6.2103484E-2,-9.173951E-2],"categories":[],"categories_nodes":[],"categories_segments":[],"categories_sizes":[],"default_left":[0,0,0,0,0,0,0,0,0,0,0,0,0,0,0],"id":74,"left_children":[1,3,5,7,9,11,13,-1,-1,-1,-1,-1,-1,-1,-1],"loss_changes":[1.4222166E2,1.11880745E2,7.915509E1,2.3344131E1,8.645602E1,3.353849E2,1.0953851E2,0E0,0E0,0E0,0E0,0E0,0E0,0E0,0E0],"parents":[2147483647,0,0,1,1,2,2,3,3,4,4,5,5,6,6],"right_children":[2,4,6,8,10,12,14,-1,-1,-1,-1,-1,-1,-1,-1],"split_conditions":[1.913E1,7.5599995E0,1.992E1,3.91E0,1E-1,1.875E1,1.679314E1,-9.582536E-3,1.0248162E-1,5.083031E-3,-1.1770098E-2,-1.7355213E-2,4.900581E-1,6.2103484E-2,-9.173951E-2],"split_indices":[1,5,1,1,4,2,5,0,0,0,0,0,0,0,0],"split_type":[0,0,0,0,0,0,0,0,0,0,0,0,0,0,0],"sum_hessian":[1.865E3,1.806E3,5.9E1,2E1,1.786E3,7E0,5.2E1,3E0,1.7E1,9.68E2,8.18E2,5E0,2E0,4.5E1,7E0],"tree_param":{"num_deleted":"0","num_feature":"7","num_nodes":"15","size_leaf_vector":"1"}},{"base_weights":[3.850068E-3,-2.2449815E-1,8.7051225E-1,-4.537138E-1,2.1998137E-2,1.0322999E0,-1.4404417E0,-1.8504897E-2,2.1749541E-2,1.6091745E-2,-1.2612571E-2,3.6793977E-2,2.6771298E-1,-2.3976237E-2,-1.2181632E-1],"categories":[],"categories_nodes":[],"categories_segments":[],"categories_sizes":[],"default_left":[0,0,0,0,0,0,0,0,0,0,0,0,0,0,0],"id":75,"left_children":[1,3,5,7,9,11,13,-1,-1,-1,-1,-1,-1,-1,-1],"loss_changes":[3.7106146E2,8.385718E1,1.4767554E2,2.4591629E1,1.00891685E2,1.4362704E2,3.496193E1,0E0,0E0,0E0,0E0,0E0,0E0,0E0,0E0],"parents":[2147483647,0,0,1,1,2,2,3,3,4,4,5,5,6,6],"right_children":[2,4,6,8,10,12,14,-1,-1,-1,-1,-1,-1,-1,-1],"split_conditions":[9.07E0,4.4E0,2.4842607E1,3.0449274E1,5.52E0,2.41388E1,1.294E1,-1.8504897E-2,2.1749541E-2,1.6091745E-2,-1.2612571E-2,3.6793977E-2,2.6771298E-1,-2.3976237E-2,-1.2181632E-1],"split_indices":[0,0,5,5,1,5,0,0,0,0,0,0,0,0,0],"split_type":[0,0,0,0,0,0,0,0,0,0,0,0,0,0,0],"sum_hessian":[1.873E3,1.483E3,3.9E2,7.68E2,7.15E2,3.65E2,2.5E1,7.46E2,2.2E1,3.35E2,3.8E2,3.62E2,3E0,1.8E1,7E0],"tree_param":{"num_deleted":"0","num_feature":"7","num_nodes":"15","size_leaf_vector":"1"}},{"base_weights":[9.781055E-5,-4.5745976E-2,1.3596275E0,2.148215E0,-7.1474E-2,4.312171E0,8.9703536E-1,-9.43868E-3,9.779828E-2,2.7819516E-3,-1.4076636E-2,-1.7307417E-2,4.7370705E-1,5.8532227E-2,-9.3645774E-2],"categories":[],"categories_nodes":[],"categories_segments":[],"categories_sizes":[],"default_left":[0,0,0,0,0,0,0,0,0,0,0,0,0,0,0],"id":76,"left_children":[1,3,5,7,9,11,13,-1,-1,-1,-1,-1,-1,-1,-1],"loss_changes":[1.1654947E2,1.02264854E2,7.944706E1,2.1406647E1,7.67576E1,3.1417303E2,1.1876265E2,0E0,0E0,0E0,0E0,0E0,0E0,0E0,0E0],"parents":[2147483647,0,0,1,1,2,2,3,3,4,4,5,5,6,6],"right_children":[2,4,6,8,10,12,14,-1,-1,-1,-1,-1,-1,-1,-1],"split_conditions":[1.913E1,7.5599995E0,1.992E1,3.91E0,7E-1,1.875E1,1.679314E1,-9.43868E-3,9.779828E-2,2.7819516E-3,-1.4076636E-2,-1.7307417E-2,4.7370705E-1,5.8532227E-2,-9.3645774E-2],"split_indices":[1,5,1,1,4,2,5,0,0,0,0,0,0,0,0],"split_type":[0,0,0,0,0,0,0,0,0,0,0,0,0,0,0],"sum_hessian":[1.868E3,1.808E3,6E1,2E1,1.788E3,7E0,5.3E1,3E0,1.7E1,1.204E3,5.84E2,5E0,2E0,4.5E1,8E0],"tree_param":{"num_deleted":"0","num_feature":"7","num_nodes":"15","size_leaf_vector":"1"}},{"base_weights":[-3.6240006E-5,-3.3138043E-1,5.4501796E-1,-7.3159087E-1,-2.4497674E-1,7.457716E-1,-6.2613785E-1,8.162225E-3,-2.962626E-2,3.808476E-2,-1.0981906E-2,2.6019726E-2,2.343451E-1,-1.7920777E-2,-1.3889118E-1],"categories":[],"categories_nodes":[],"categories_segments":[],"categories_sizes":[],"default_left":[0,0,0,0,0,0,0,0,0,0,0,0,0,0,0],"id":77,"left_children":[1,3,5,7,9,11,13,-1,-1,-1,-1,-1,-1,-1,-1],"loss_changes":[3.3772302E2,4.003692E1,1.6669243E2,8.78772E0,5.1014317E1,2.0538727E2,4.740387E1,0E0,0E0,0E0,0E0,0E0,0E0,0E0,0E0],"parents":[2147483647,0,0,1,1,2,2,3,3,4,4,5,5,6,6],"right_children":[2,4,6,8,10,12,14,-1,-1,-1,-1,-1,-1,-1,-1],"split_conditions":[6.34E0,2.66E0,3.8000002E0,4.832499E0,6.509583E0,3.4E0,2.317E1,8.162225E-3,-2.962626E-2,3.808476E-2,-1.0981906E-2,2.6019726E-2,2.343451E-1,-1.7920777E-2,-1.3889118E-1],"split_indices":[0,0,4,3,3,4,2,0,0,0,0,0,0,0,0],"split_type":[0,0,0,0,0,0,0,0,0,0,0,0,0,0,0],"sum_hessian":[1.868E3,1.162E3,7.06E2,2.05E2,9.57E2,6.03E2,1.03E2,9E0,1.96E2,3.1E1,9.26E2,5.97E2,6E0,9.9E1,4E0],"tree_param":{"num_deleted":"0","num_feature":"7","num_nodes":"15","size_leaf_vector":"1"}},{"base_weights":[-5.9881654E-6,-1.3460004E-1,1.2896636E0,-3.3972052E-1,2.4065293E-1,2.8340526E0,7.88194E-1,1.710811E-2,-1.4852375E-2,1.5593214E-2,-4.4687178E-2,-1.0729711E-1,1.270639E-1,-9.00534E-2,3.9393954E-2],"categories":[],"categories_nodes":[],"categories_segments":[],"categories_sizes":[],"default_left":[0,0,0,0,0,0,0,0,0,0,0,0,0,0,0],"id":78,"left_children":[1,3,5,7,9,11,13,-1,-1,-1,-1,-1,-1,-1,-1],"loss_changes":[3.251188E2,1.306264E2,1.3484634E2,4.2725334E1,1.4245366E2,1.2913037E2,1.0585543E2,0E0,0E0,0E0,0E0,0E0,0E0,0E0,0E0],"parents":[2147483647,0,0,1,1,2,2,3,3,4,4,5,5,6,6],"right_children":[2,4,6,8,10,12,14,-1,-1,-1,-1,-1,-1,-1,-1],"split_conditions":[1.376E1,5.92E0,9.197083E0,7.1283336E0,1.397E1,6.067917E0,7.78E0,1.710811E-2,-1.4852375E-2,1.5593214E-2,-4.4687178E-2,-1.0729711E-1,1.270639E-1,-9.00534E-2,3.9393954E-2],"split_indices":[0,0,3,3,2,3,1,0,0,0,0,0,0,0,0],"split_type":[0,0,0,0,0,0,0,0,0,0,0,0,0,0,0],"sum_hessian":[1.871E3,1.695E3,1.76E2,1.096E3,5.99E2,4.2E1,1.34E2,6.4E1,1.032E3,5.36E2,6.3E1,3E0,3.9E1,9E0,1.25E2],"tree_param":{"num_deleted":"0","num_feature":"7","num_nodes":"15","size_leaf_vector":"1"}},{"base_weights":[1.3256252E-3,-2.0039071E-1,7.657754E-1,-4.0549046E-1,2.1433488E-2,6.2824506E-1,2.7485888E0,-1.2657365E-2,-3.1753674E-2,1.5571793E-2,-1.21464385E-2,-3.955625E-2,3.019608E-2,1.4985818E-1,-9.198288E-3],"categories":[],"categories_nodes":[],"categories_segments":[],"categories_sizes":[],"default_left":[0,0,0,0,0,0,0,0,0,0,0,0,0,0,0],"id":79,"left_children":[1,3,5,7,9,11,13,-1,-1,-1,-1,-1,-1,-1,-1],"loss_changes":[2.8804858E2,6.725191E1,1.0462508E2,2.3944427E1,9.3400734E1,9.982068E1,8.883281E1,0E0,0E0,0E0,0E0,0E0,0E0,0E0,0E0],"parents":[2147483647,0,0,1,1,2,2,3,3,4,4,5,5,6,6],"right_children":[2,4,6,8,10,12,14,-1,-1,-1,-1,-1,-1,-1,-1],"split_conditions":[9.07E0,4.4E0,2.41E1,2.5235962E2,5.52E0,2.4321884E1,2.626E1,-1.2657365E-2,-3.1753674E-2,1.5571793E-2,-1.21464385E-2,-3.955625E-2,3.019608E-2,1.4985818E-1,-9.198288E-3],"split_indices":[0,0,0,6,1,6,1,0,0,0,0,0,0,0,0],"split_type":[0,0,0,0,0,0,0,0,0,0,0,0,0,0,0],"sum_hessian":[1.866E3,1.477E3,3.89E2,7.67E2,7.1E2,3.65E2,2.4E1,6.55E2,1.12E2,3.32E2,3.78E2,3.2E1,3.33E2,1.7E1,7E0],"tree_param":{"num_deleted":"0","num_feature":"7","num_nodes":"15","size_leaf_vector":"1"}},{"base_weights":[-2.7555483E-3,-2.9810894E-1,4.832465E-1,-2.615378E-1,-1.2697241E0,4.033728E-1,2.6492608E0,2.4023063E-2,-1.1859758E-2,-5.372243E-2,8.314122E-2,3.8700692E-2,9.813696E-3,1.4445376E-1,-8.890939E-3],"categories":[],"categories_nodes":[],"categories_segments":[],"categories_sizes":[],"default_left":[0,0,0,0,0,0,0,0,0,0,0,0,0,0,0],"id":80,"left_children":[1,3,5,7,9,11,13,-1,-1,-1,-1,-1,-1,-1,-1],"loss_changes":[2.6885532E2,4.1063927E1,1.214207E2,4.929992E1,2.2923805E1,6.0823685E1,8.257054E1,0E0,0E0,0E0,0E0,0E0,0E0,0E0,0E0],"parents":[2147483647,0,0,1,1,2,2,3,3,4,4,5,5,6,6],"right_children":[2,4,6,8,10,12,14,-1,-1,-1,-1,-1,-1,-1,-1],"split_conditions":[6.34E0,1.035E1,2.41E1,7.1283336E0,2.055E1,5.55E0,2.626E1,2.4023063E-2,-1.1859758E-2,-5.372243E-2,8.314122E-2,3.8700692E-2,9.813696E-3,1.4445376E-1,-8.890939E-3],"split_indices":[0,1,0,3,1,1,1,0,0,0,0,0,0,0,0],"split_type":[0,0,0,0,0,0,0,0,0,0,0,0,0,0,0],"sum_hessian":[1.871E3,1.164E3,7.07E2,1.123E3,4.1E1,6.83E2,2.4E1,5.8E1,1.065E3,4E1,1E0,1.31E2,5.52E2,1.7E1,7E0],"tree_param":{"num_deleted":"0","num_feature":"7","num_nodes":"15","size_leaf_vector":"1"}},{"base_weights":[1.0404397E-2,-3.2504357E-2,1.3075057E0,-6.5599346E-1,4.6904195E-2,3.351387E-1,2.6554139E0,-2.0274686E-2,-7.352254E-2,3.2375373E-2,-3.2523703E-3,5.381955E-2,-5.5510692E-2,3.6012113E-1,4.9746796E-2],"categories":[],"categories_nodes":[],"categories_segments":[],"categories_sizes":[],"default_left":[0,0,0,0,0,0,0,0,0,0,0,0,0,0,0],"id":81,"left_children":[1,3,5,7,9,11,13,-1,-1,-1,-1,-1,-1,-1,-1],"loss_changes":[1.04288055E2,8.9842575E1,7.774974E1,3.1515472E1,1.7039252E2,7.123394E1,2.16834E2,0E0,0E0,0E0,0E0,0E0,0E0,0E0,0E0],"parents":[2147483647,0,0,1,1,2,2,3,3,4,4,5,5,6,6],"right_children":[2,4,6,8,10,12,14,-1,-1,-1,-1,-1,-1,-1,-1],"split_conditions":[1.913E1,2.6151829E1,1.0478281E2,1.26E1,