{"learner":{"attributes":{"scikit_learn":"{\"_estimator_type\": \"regressor\"}"},"feature_names":["temperature_2m_mean","precipitation_sum","wind_speed_10m_max","wind_direction_10m_dominant"],"feature_types":["float","float","float","float"],"gradient_booster":{"model":{"gbtree_model_param":{"num_parallel_tree":"1","num_trees":"100"},"iteration_indptr":[0,1,2,3,4,5,6,7,8,9,10,11,12,13,14,15,16,17,18,19,20,21,22,23,24,25,26,27,28,29,30,31,32,33,34,35,36,37,38,39,40,41,42,43,44,45,46,47,48,49,50,51,52,53,54,55,56,57,58,59,60,61,62,63,64,65,66,67,68,69,70,71,72,73,74,75,76,77,78,79,80,81,82,83,84,85,86,87,88,89,90,91,92,93,94,95,96,97,98,99,100],"tree_info":[0,0,0,0,0,0,0,0,0,0,0,0,0,0,0,0,0,0,0,0,0,0,0,0,0,0,0,0,0,0,0,0,0,0,0,0,0,0,0,0,0,0,0,0,0,0,0,0,0,0,0,0,0,0,0,0,0,0,0,0,0,0,0,0,0,0,0,0,0,0,0,0,0,0,0,0,0,0,0,0,0,0,0,0,0,0,0,0,0,0,0,0,0,0,0,0,0,0,0,0],"trees":[{"base_weights":[5.2335785E-8,3.2022154E0,-1.4530854E0,4.9809513E0,-5.0163364E-1,-1.7584774E-1,-1.9152796E0,6.2258487E0,2.765883E0,1.9507488E0,-6.906377E-1,1.2706474E0,-1.3426753E0,-3.6409779E0,-1.613633E0,3.446326E0,7.730182E0,3.2836652E0,2.697399E-1,-1.469867E-1,4.0694823E0,1.1045461E0,-7.6084524E-1,1.7797463E0,-2.0626385E0,-1.0806905E0,-2.903668E0,-2.4708185E0,-4.0040417E0,-5.070958E-1,-2.0789623E0,6.4671774E0,2.8599381E0,8.375228E0,3.1860144E0,-6.4906764E-1,3.5393145E0,-3.373892E-1,3.6932971E0,7.586595E-1,-8.905176E-1,-1.6984056E-1,4.936441E0,-9.8962003E-1,3.931385E-1,3.2086167E-1,2.748375E0,-2.443157E0,8.3215946E-1,-5.940177E-1,-1.7235061E0,-1.5205573E0,-1.1726358E0,-1.6105721E0,-3.2415888E0,-4.1463323E0,-2.7728226E0,2.1186198E-1,-1.7236898E0,-2.3016434E0,-1.089726E0,1.276787E0,2.8788552E0,4.4217116E-1,1.1861486E0,2.7394366E0,1.4829503E0,1.5143642E0,-2.1097101E-1,9.153959E-3,1.1299363E0,-1.052761E0,9.4152905E-2,1.6465946E-1,1.367546E0,-6.2045413E-1,-1.744938E-3,1.756255E0,5.2159455E-2,-2.0590721E-1,-5.642574E-1,-2.137916E-1,8.02787E-1,1.8690186E-2,1.434546E0,1.0525846E0,2.0360932E-1,-2.5840545E-2,-7.6880324E-1,-8.2656765E-1,-1.3349783E-1,-5.4397565E-1,2.7454597E-1,-7.359388E-1,1.386551E-1,-5.8547664E-1,6.791594E-1,-1.0040529E0,-2.1784058E-1,-8.927637E-1,-1.2999802E0,-4.4006765E-1,-1.0006055E0,6.821597E-1,-2.0050819E-1,-3.5821113E-1,-6.5485823E-1,-5.2554816E-1,-7.7666247E-1,-3.8342094E-1,-5.229328E-3],"categories":[],"categories_nodes":[],"categories_segments":[],"categories_sizes":[],"default_left":[0,0,0,0,0,0,0,0,0,0,0,0,0,0,0,0,0,0,0,0,0,0,0,0,0,0,0,0,0,0,0,0,0,0,0,0,0,0,0,0,0,0,0,0,0,0,0,0,0,0,0,0,0,0,0,0,0,0,0,0,0,0,0,0,0,0,0,0,0,0,0,0,0,0,0,0,0,0,0,0,0,0,0,0,0,0,0,0,0,0,0,0,0,0,0,0,0,0,0,0,0,0,0,0,0,0,0,0,0,0,0],"id":0,"left_children":[1,3,5,7,9,11,13,15,17,19,21,23,25,27,29,31,33,35,37,39,41,-1,43,45,47,49,51,53,55,57,59,61,63,65,67,-1,69,71,73,-1,75,-1,77,79,81,83,85,87,-1,89,91,93,-1,95,97,99,101,103,105,107,109,-1,-1,-1,-1,-1,-1,-1,-1,-1,-1,-1,-1,-1,-1,-1,-1,-1,-1,-1,-1,-1,-1,-1,-1,-1,-1,-1,-1,-1,-1,-1,-1,-1,-1,-1,-1,-1,-1,-1,-1,-1,-1,-1,-1,-1,-1,-1,-1,-1,-1],"loss_changes":[8.780386E3,3.8829302E3,7.6591406E2,1.0802783E3,9.03412E1,5.856885E2,4.902102E2,1.035417E3,1.8652063E2,6.282176E1,5.7750618E1,2.6670166E2,7.538165E1,5.00094E1,4.1756274E2,1.427008E2,4.5403223E2,1.7476697E2,5.528815E1,1.8168625E1,3.0926926E1,0E0,4.7117477E1,1.8988895E2,4.542495E1,5.090779E1,3.1591583E1,1.8649063E1,7.073242E0,2.1203769E2,1.23494385E2,5.6023987E1,1.12433655E2,3.260088E2,1.6285768E2,0E0,9.153882E1,4.8609848E1,8.380119E0,0E0,7.281128E0,0E0,2.5207062E1,3.8710373E1,7.7635635E1,6.3140736E1,1.2506836E2,5.4135056E0,0E0,2.9693024E1,1.847284E1,2.517143E1,0E0,2.9521843E1,2.3354492E0,7.453003E0,5.392128E0,2.7921814E2,1.9281677E1,6.905762E1,2.1587463E1,0E0,0E0,0E0,0E0,0E0,0E0,0E0,0E0,0E0,0E0,0E0,0E0,0E0,0E0,0E0,0E0,0E0,0E0,0E0,0E0,0E0,0E0,0E0,0E0,0E0,0E0,0E0,0E0,0E0,0E0,0E0,0E0,0E0,0E0,0E0,0E0,0E0,0E0,0E0,0E0,0E0,0E0,0E0,0E0,0E0,0E0,0E0,0E0,0E0,0E0],"parents":[2147483647,0,0,1,1,2,2,3,3,4,4,5,5,6,6,7,7,8,8,9,9,10,10,11,11,12,12,13,13,14,14,15,15,16,16,17,17,18,18,19,19,20,20,22,22,23,23,24,24,25,25,26,26,27,27,28,28,29,29,30,30,31,31,32,32,33,33,34,34,36,36,37,37,38,38,40,40,42,42,43,43,44,44,45,45,46,46,47,47,49,49,50,50,51,51,53,53,54,54,55,55,56,56,57,57,58,58,59,59,60,60],"right_children":[2,4,6,8,10,12,14,16,18,20,22,24,26,28,30,32,34,36,38,40,42,-1,44,46,48,50,52,54,56,58,60,62,64,66,68,-1,70,72,74,-1,76,-1,78,80,82,84,86,88,-1,90,92,94,-1,96,98,100,102,104,106,108,110,-1,-1,-1,-1,-1,-1,-1,-1,-1,-1,-1,-1,-1,-1,-1,-1,-1,-1,-1,-1,-1,-1,-1,-1,-1,-1,-1,-1,-1,-1,-1,-1,-1,-1,-1,-1,-1,-1,-1,-1,-1,-1,-1,-1,-1,-1,-1,-1,-1,-1],"split_conditions":[1.3104198E1,1.5070001E1,1.5893093E1,1.0823973E1,8.435069E0,1.5274167E1,3.913039E1,4.8427505E1,1.7251733E2,3.8088783E1,5.3144107E0,4.2999997E0,3.0384006E2,1.8075441E1,1.6721094E2,8.260411E0,7E-1,9.313527E0,3.3291144E2,1.6572083E1,7.0911775E0,1.1045461E0,1.2659004E1,1.0341089E2,1.36325E1,1.4904173E1,1.4277983E1,1.0967916E1,2.6340614E1,4.2999997E0,2.797E1,4.366793E1,8.784583E0,1.2109584E1,9.779817E0,-6.4906764E-1,5.05125E0,1.0669999E1,1.2031756E1,7.586595E-1,3.035499E1,-1.6984056E-1,1.915125E1,2.3999999E0,7E-1,2.3E0,2.03915E2,6.222084E0,8.3215946E-1,1.0899825E1,2.8386105E2,2.3978334E1,-1.1726358E0,1.0669999E1,2.57575E1,6.509583E0,1.331792E1,1.237625E1,1.1299999E1,1.9502032E2,2.141319E1,1.276787E0,2.8788552E0,4.4217116E-1,1.1861486E0,2.7394366E0,1.4829503E0,1.5143642E0,-2.1097101E-1,9.153959E-3,1.1299363E0,-1.052761E0,9.4152905E-2,1.6465946E-1,1.367546E0,-6.2045413E-1,-1.744938E-3,1.756255E0,5.2159455E-2,-2.0590721E-1,-5.642574E-1,-2.137916E-1,8.02787E-1,1.8690186E-2,1.434546E0,1.0525846E0,2.0360932E-1,-2.5840545E-2,-7.6880324E-1,-8.2656765E-1,-1.3349783E-1,-5.4397565E-1,2.7454597E-1,-7.359388E-1,1.386551E-1,-5.8547664E-1,6.791594E-1,-1.0040529E0,-2.1784058E-1,-8.927637E-1,-1.2999802E0,-4.4006765E-1,-1.0006055E0,6.821597E-1,-2.0050819E-1,-3.5821113E-1,-6.5485823E-1,-5.2554816E-1,-7.7666247E-1,-3.8342094E-1,-5.229328E-3],"split_indices":[2,0,2,2,2,0,3,3,3,3,3,1,3,2,3,2,1,3,3,0,2,0,2,3,0,2,2,0,3,1,0,3,0,0,2,0,0,0,2,0,3,0,0,1,1,1,3,0,0,3,3,0,0,0,0,0,0,0,1,3,2,0,0,0,0,0,0,0,0,0,0,0,0,0,0,0,0,0,0,0,0,0,0,0,0,0,0,0,0,0,0,0,0,0,0,0,0,0,0,0,0,0,0,0,0,0,0,0,0,0,0],"split_type":[0,0,0,0,0,0,0,0,0,0,0,0,0,0,0,0,0,0,0,0,0,0,0,0,0,0,0,0,0,0,0,0,0,0,0,0,0,0,0,0,0,0,0,0,0,0,0,0,0,0,0,0,0,0,0,0,0,0,0,0,0,0,0,0,0,0,0,0,0,0,0,0,0,0,0,0,0,0,0,0,0,0,0,0,0,0,0,0,0,0,0,0,0,0,0,0,0,0,0,0,0,0,0,0,0,0,0,0,0,0,0],"sum_hessian":[1.885E3,5.88E2,1.297E3,3.97E2,1.91E2,3.45E2,9.52E2,2.53E2,1.44E2,1.3E1,1.78E2,1.54E2,1.91E2,1.4E2,8.12E2,9E1,1.63E2,1.19E2,2.5E1,7E0,6E0,2E0,1.76E2,1.34E2,2E1,1.65E2,2.6E1,3.5E1,1.05E2,2.41E2,5.71E2,1.3E1,7.7E1,1.42E2,2.1E1,5E0,1.14E2,2.2E1,3E0,1E0,6E0,1E0,5E0,1.47E2,2.9E1,5.4E1,8E1,1.9E1,1E0,9.5E1,7E1,1.2E1,1.4E1,1.8E1,1.7E1,9.2E1,1.3E1,1.52E2,8.9E1,4.65E2,1.06E2,9E0,4E0,3.5E1,4.2E1,1.15E2,2.7E1,1.4E1,7E0,7E0,1.07E2,3E0,1.9E1,1E0,2E0,2E0,4E0,4E0,1E0,1.11E2,3.6E1,2E1,9E0,5.2E1,2E0,5.8E1,2.2E1,1E0,1.8E1,5E0,9E1,6.8E1,2E0,8E0,4E0,1.7E1,1E0,1.6E1,1E0,1.5E1,7.7E1,5E0,8E0,4.5E1,1.07E2,4.3E1,4.6E1,1.62E2,3.03E2,9E1,1.6E1],"tree_param":{"num_deleted":"0","num_feature":"4","num_nodes":"111","size_leaf_vector":"1"}},{"base_weights":[4.1545196E-3,2.309522E0,-1.006204E0,3.6529772E0,-1.5162927E-1,-9.853531E-2,-1.3480241E0,1.8220812E0,4.517602E0,3.1916675E-1,-1.0008546E0,8.997731E-1,-9.4787204E-1,-2.5734563E0,-1.1267192E0,2.4804544E0,1.0393384E0,5.5649753E0,1.6016952E0,2.1668077E0,8.426907E-3,-2.3432515E0,-9.804382E-3,1.4675934E0,-9.2555046E-1,-2.2851664E-1,-1.405372E0,-1.5996013E0,-2.8031304E0,-3.2524544E-1,-1.4582298E0,2.19409E0,3.121169E0,-3.679488E-1,2.231513E0,6.0448465E0,3.255993E0,5.8098354E0,8.6130375E-1,3.508741E0,-1.3255043E0,-3.5023662E-1,1.0717592E0,-2.5034556E0,-6.360097E-1,4.2731187E-1,-1.7086115E0,5.0041676E-1,2.539267E0,-1.925499E-1,-9.315892E-1,5.6869596E-1,-1.1057383E0,-1.7272725E0,-4.762277E-1,-8.7964964E-1,-2.174581E0,-1.8203893E0,-2.909492E0,4.6977365E-1,-9.5642424E-1,-1.6825356E0,-9.223865E-1,1.2142519E-1,1.0995364E0,4.26837E-1,-4.5150545E-1,1.9712266E-1,1.4008847E0,5.1258128E-2,1.8855219E0,2.4939559E0,8.040394E-1,2.6312342E-1,2.3395734E0,4.188606E-1,-3.4164396E-1,1.8901522E0,5.285951E-1,-1.5724915E-1,-7.9983103E-1,1.7289372E-1,-3.621698E-1,1.2979402E-1,1.0348748E0,-1.0745445E-1,-7.708933E-1,5.9397414E-2,-4.7070196E-1,-3.9115727E-2,4.96788E-1,-7.253251E-1,-1.973251E-1,2.91894E-1,-2.308525E-1,1.084624E0,-5.1779103E-2,4.3101442E-1,-3.891527E-1,6.911482E-2,2.115184E0,6.0261214E-1,-4.3188658E-1,-2.7602747E-1,-6.8845004E-1,6.4218414E-1,-1.889082E-1,5.772855E-1,-3.6521387E-1,2.1498099E-1,-7.2453004E-1,-7.900812E-1,2.6131448E-1,-8.795472E-1,-9.474972E-2,4.68283E-1,-2.962274E-1,-2.5494E-1,-8.2627815E-1,-4.5552182E-1,-8.3470833E-1,-3.00528E-1,4.282022E-1],"categories":[],"categories_nodes":[],"categories_segments":[],"categories_sizes":[],"default_left":[0,0,0,0,0,0,0,0,0,0,0,0,0,0,0,0,0,0,0,0,0,0,0,0,0,0,0,0,0,0,0,0,0,0,0,0,0,0,0,0,0,0,0,0,0,0,0,0,0,0,0,0,0,0,0,0,0,0,0,0,0,0,0,0,0,0,0,0,0,0,0,0,0,0,0,0,0,0,0,0,0,0,0,0,0,0,0,0,0,0,0,0,0,0,0,0,0,0,0,0,0,0,0,0,0,0,0,0,0,0,0,0,0,0,0,0,0,0,0,0,0,0,0],"id":1,"left_children":[1,3,5,7,9,11,13,15,17,19,21,23,25,27,29,31,33,35,37,39,41,43,45,47,49,51,53,55,57,59,61,63,-1,65,67,69,71,73,75,77,79,81,83,85,87,89,91,93,95,97,-1,99,101,103,105,107,109,111,113,115,117,119,121,-1,-1,-1,-1,-1,-1,-1,-1,-1,-1,-1,-1,-1,-1,-1,-1,-1,-1,-1,-1,-1,-1,-1,-1,-1,-1,-1,-1,-1,-1,-1,-1,-1,-1,-1,-1,-1,-1,-1,-1,-1,-1,-1,-1,-1,-1,-1,-1,-1,-1,-1,-1,-1,-1,-1,-1,-1,-1,-1,-1],"loss_changes":[4.395285E3,1.9017607E3,4.069276E2,5.806592E2,8.1881065E1,3.0609692E2,2.5554858E2,5.977777E1,7.607051E2,7.576765E1,9.709497E1,1.7340996E2,6.385434E1,2.794812E1,2.1447461E2,1.246575E2,9.6451805E1,1.8530078E2,2.0686162E2,9.3693375E1,4.3852524E1,6.88649E0,3.266088E1,1.303645E2,6.331229E1,5.447741E1,3.476941E1,1.0505859E1,6.8286743E0,1.1987751E2,6.719824E1,1.6697568E2,0E0,5.7118565E1,1.1592958E2,2.1341162E2,7.673587E1,9.125986E1,6.47117E1,5.717015E1,5.0481825E0,6.898393E1,4.2578754E1,3.0554047E0,3.423131E0,2.4198404E1,5.116585E0,4.155687E1,1.7572568E2,5.7655228E1,0E0,8.828533E1,4.1366688E1,3.820349E1,1.4199036E1,1.6547176E1,1.2856827E1,3.2936024E1,5.039856E0,1.7008667E2,2.3154572E1,6.834192E1,3.3322327E1,0E0,0E0,0E0,0E0,0E0,0E0,0E0,0E0,0E0,0E0,0E0,0E0,0E0,0E0,0E0,0E0,0E0,0E0,0E0,0E0,0E0,0E0,0E0,0E0,0E0,0E0,0E0,0E0,0E0,0E0,0E0,0E0,0E0,0E0,0E0,0E0,0E0,0E0,0E0,0E0,0E0,0E0,0E0,0E0,0E0,0E0,0E0,0E0,0E0,0E0,0E0,0E0,0E0,0E0,0E0,0E0,0E0,0E0,0E0,0E0],"parents":[2147483647,0,0,1,1,2,2,3,3,4,4,5,5,6,6,7,7,8,8,9,9,10,10,11,11,12,12,13,13,14,14,15,15,16,16,17,17,18,18,19,19,20,20,21,21,22,22,23,23,24,24,25,25,26,26,27,27,28,28,29,29,30,30,31,31,33,33,34,34,35,35,36,36,37,37,38,38,39,39,40,40,41,41,42,42,43,43,44,44,45,45,46,46,47,47,48,48,49,49,51,51,52,52,53,53,54,54,55,55,56,56,57,57,58,58,59,59,60,60,61,61,62,62],"right_children":[2,4,6,8,10,12,14,16,18,20,22,24,26,28,30,32,34,36,38,40,42,44,46,48,50,52,54,56,58,60,62,64,-1,66,68,70,72,74,76,78,80,82,84,86,88,90,92,94,96,98,-1,100,102,104,106,108,110,112,114,116,118,120,122,-1,-1,-1,-1,-1,-1,-1,-1,-1,-1,-1,-1,-1,-1,-1,-1,-1,-1,-1,-1,-1,-1,-1,-1,-1,-1,-1,-1,-1,-1,-1,-1,-1,-1,-1,-1,-1,-1,-1,-1,-1,-1,-1,-1,-1,-1,-1,-1,-1,-1,-1,-1,-1,-1,-1,-1,-1,-1,-1,-1],"split_conditions":[1.3004921E1,1.4542918E1,1.5893093E1,4.5605587E1,1.532092E2,1.5874168E1,4.0836323E1,3.454845E1,5E-1,1.5070001E1,1.9051252E1,1.3E0,1.9653491E2,1.7811815E1,1.6721094E2,1.2768586E1,3.913039E1,1.2334584E1,8.78872E0,1.1159999E1,6.846784E1,4.3999996E0,7.0000005E-1,1.4912967E2,1.6513002E2,6E-1,2.6830416E1,1E-1,6.067917E0,1.390125E1,2.6428335E1,2.5447977E1,3.121169E0,7.9658318E0,9.922083E0,5.611667E0,6.489992E0,6.846784E1,1.7396239E2,3.8088783E1,2.8113623E1,1E-1,1.1440978E1,9.432412E0,1.6572083E1,1E-1,2.5378334E1,1.1240833E1,1.4815833E1,4.2999997E0,-9.315892E-1,5E-1,1.3104198E1,1.4336861E1,2.6934584E1,3.4584436E0,6.222084E0,5.611667E0,2.636792E1,3.6000001E0,3.2399998E1,2.9272412E2,3.2319604E2,1.2142519E-1,1.0995364E0,4.26837E-1,-4.5150545E-1,1.9712266E-1,1.4008847E0,5.1258128E-2,1.8855219E0,2.4939559E0,8.040394E-1,2.6312342E-1,2.3395734E0,4.188606E-1,-3.4164396E-1,1.8901522E0,5.285951E-1,-1.5724915E-1,-7.9983103E-1,1.7289372E-1,-3.621698E-1,1.2979402E-1,1.0348748E0,-1.0745445E-1,-7.708933E-1,5.9397414E-2,-4.7070196E-1,-3.9115727E-2,4.96788E-1,-7.253251E-1,-1.973251E-1,2.91894E-1,-2.308525E-1,1.084624E0,-5.1779103E-2,4.3101442E-1,-3.891527E-1,6.911482E-2,2.115184E0,6.0261214E-1,-4.3188658E-1,-2.7602747E-1,-6.8845004E-1,6.4218414E-1,-1.889082E-1,5.772855E-1,-3.6521387E-1,2.1498099E-1,-7.2453004E-1,-7.900812E-1,2.6131448E-1,-8.795472E-1,-9.474972E-2,4.68283E-1,-2.962274E-1,-2.5494E-1,-8.2627815E-1,-4.5552182E-1,-8.3470833E-1,-3.00528E-1,4.282022E-1],"split_indices":[2,0,2,3,3,0,3,3,1,0,0,1,3,2,3,2,3,0,2,2,3,1,1,3,3,1,0,1,0,0,0,3,0,0,0,0,2,3,3,3,3,1,2,2,0,1,0,0,0,1,0,1,2,2,0,3,0,0,0,1,2,3,3,0,0,0,0,0,0,0,0,0,0,0,0,0,0,0,0,0,0,0,0,0,0,0,0,0,0,0,0,0,0,0,0,0,0,0,0,0,0,0,0,0,0,0,0,0,0,0,0,0,0,0,0,0,0,0,0,0,0,0,0],"split_type":[0,0,0,0,0,0,0,0,0,0,0,0,0,0,0,0,0,0,0,0,0,0,0,0,0,0,0,0,0,0,0,0,0,0,0,0,0,0,0,0,0,0,0,0,0,0,0,0,0,0,0,0,0,0,0,0,0,0,0,0,0,0,0,0,0,0,0,0,0,0,0,0,0,0,0,0,0,0,0,0,0,0,0,0,0,0,0,0,0,0,0,0,0,0,0,0,0,0,0,0,0,0,0,0,0,0,0,0,0,0,0,0,0,0,0,0,0,0,0,0,0,0,0],"sum_hessian":[1.885E3,5.74E2,1.311E3,3.71E2,2.03E2,3.59E2,9.52E2,1.2E2,2.51E2,1.31E2,7.2E1,1.65E2,1.94E2,1.44E2,8.08E2,6.4E1,5.6E1,1.84E2,6.7E1,1.8E1,1.13E2,3E1,4.2E1,1.26E2,3.9E1,7.6E1,1.18E2,2.9E1,1.15E2,2.37E2,5.71E2,6.3E1,1E0,2.6E1,3E1,1.51E2,3.3E1,9E0,5.8E1,1.3E1,5E0,8.5E1,2.8E1,2.7E1,3E0,3.4E1,8E0,6.7E1,5.9E1,3E1,9E0,4E1,3.6E1,8.7E1,3.1E1,1.4E1,1.5E1,1.3E1,1.02E2,1.05E2,1.32E2,4.01E2,1.7E2,2.9E1,3.4E1,1E1,1.6E1,1.9E1,1.1E1,6E0,1.45E2,2E0,3.1E1,3E0,6E0,4.6E1,1.2E1,4E0,9E0,4E0,1E0,4.1E1,4.4E1,2.3E1,5E0,1E0,2.6E1,2E0,1E0,2.4E1,1E1,4E0,4E0,4.9E1,1.8E1,4.2E1,1.7E1,1.2E1,1.8E1,3.9E1,1E0,3E0,3.3E1,3.7E1,5E1,1E0,3E1,1E0,1.3E1,1E0,1.4E1,1E1,3E0,1.01E2,1E0,6E1,4.5E1,1.26E2,6E0,3.51E2,5E1,1.65E2,5E0],"tree_param":{"num_deleted":"0","num_feature":"4","num_nodes":"123","size_leaf_vector":"1"}},{"base_weights":[9.635805E-3,2.361096E0,-5.0717485E-1,3.2046745E0,-1.289045E-1,1.9922632E-1,-9.476801E-1,1.9447217E0,4.2664976E0,-2.9783496E-1,3.4508612E0,9.798659E-1,-4.9311006E-1,-1.8138369E0,-7.9126424E-1,-9.3440247E-1,2.219959E0,4.5715504E0,3.5665858E-1,1.4908005E0,-6.463288E-1,3.2965955E-1,1.5760275E0,1.1964297E0,-1.4920186E0,8.870723E-2,-8.085756E-1,-1.4267007E0,-2.1761262E0,-2.0231E-1,-1.0698177E0,-2.0702064E-2,-2.5282025E0,2.5587351E0,-4.5253775E-1,-1.068584E0,4.763657E0,-1.5653188E0,2.219193E0,-4.7743562E-1,2.1371303E0,-2.8688043E-1,-1.7712307E0,-2.7149458E0,1.2844607E0,-2.95117E0,-9.227448E-1,-5.316675E-1,7.8934455E-1,-6.530579E-1,-1.5205044E0,-9.918317E-1,-1.9838835E0,-2.2846851E0,-1.4338944E0,3.703154E-1,-1.1585166E0,-1.1469288E0,3.5241368E-1,4.707133E-1,-3.8650763E-1,-9.1888326E-1,-1.3859676E-1,1.8464257E0,6.8805516E-1,1.6174184E-1,-8.4557897E-1,1.9382323E-1,-1.1890844E0,1.6341896E0,8.441732E-1,-8.5577977E-1,-6.2558666E-2,1.012873E0,-1.89816E-2,9.6318215E-1,-2.3575115E-3,-2.8803888E-1,5.731415E-2,-5.807564E-1,1.2941295E-1,-8.824093E-1,-2.3742822E-1,-1.0657256E-1,4.3974322E-1,-9.88264E-1,-1.8539308E-1,-5.860028E-2,-5.422774E-1,-2.6640674E-1,1.04748614E-1,1.5449158E0,1.5521237E-1,-2.4723361E-1,9.780463E-2,-5.360462E-1,-4.8580274E-2,-3.6179256E-1,1.5891469E-1,-6.2342477E-1,-2.4855578E-1,-5.19578E-1,-7.6987886E-1,-2.747154E-1,-6.7239535E-1,2.2311082E-1,-4.9203402E-1,-4.1326696E-1,4.360211E-2,-2.8399923E-1,-4.5825413E-1,8.837454E-3,9.424627E-1],"categories":[],"categories_nodes":[],"categories_segments":[],"categories_sizes":[],"default_left":[0,0,0,0,0,0,0,0,0,0,0,0,0,0,0,0,0,0,0,0,0,0,0,0,0,0,0,0,0,0,0,0,0,0,0,0,0,0,0,0,0,0,0,0,0,0,0,0,0,0,0,0,0,0,0,0,0,0,0,0,0,0,0,0,0,0,0,0,0,0,0,0,0,0,0,0,0,0,0,0,0,0,0,0,0,0,0,0,0,0,0,0,0,0,0,0,0,0,0,0,0,0,0,0,0,0,0,0,0,0,0,0,0],"id":2,"left_children":[1,3,5,7,9,11,13,15,17,19,21,23,25,27,29,31,33,35,37,39,41,-1,-1,43,45,47,49,51,53,55,57,59,61,63,65,67,69,71,73,-1,75,77,79,81,83,85,87,89,91,93,95,97,99,101,103,105,107,109,111,-1,-1,-1,-1,-1,-1,-1,-1,-1,-1,-1,-1,-1,-1,-1,-1,-1,-1,-1,-1,-1,-1,-1,-1,-1,-1,-1,-1,-1,-1,-1,-1,-1,-1,-1,-1,-1,-1,-1,-1,-1,-1,-1,-1,-1,-1,-1,-1,-1,-1,-1,-1,-1,-1],"loss_changes":[2.2931772E3,7.1458655E2,4.815741E2,3.315161E2,5.3639423E1,3.2205994E2,1.2767786E2,9.558255E1,1.6177051E2,5.332314E1,1.118568E1,1.5167496E2,5.807141E1,1.723236E1,1.3250415E2,1.59664755E1,9.893878E1,1.426958E2,4.2850983E1,3.1291264E1,2.8200298E1,0E0,0E0,9.2322296E1,1.6381924E1,4.9101326E1,2.1704117E1,1.5720322E1,2.6060486E0,1.4333911E2,6.0612976E1,1.814351E1,3.0045147E0,7.7441895E1,3.202238E1,2.7380787E1,1.4862183E2,9.8845625E0,1.6059183E1,0E0,2.7656368E1,1.7880466E1,6.9993134E0,2.8524017E-1,7.575287E1,2.766571E0,1.1232553E1,1.9143343E1,6.0187878E1,2.8739342E1,1.2735786E1,1.4649483E1,1.6521301E0,5.205353E0,2.968237E0,1.24329384E2,2.818869E1,3.8263428E1,2.6029625E1,0E0,0E0,0E0,0E0,0E0,0E0,0E0,0E0,0E0,0E0,0E0,0E0,0E0,0E0,0E0,0E0,0E0,0E0,0E0,0E0,0E0,0E0,0E0,0E0,0E0,0E0,0E0,0E0,0E0,0E0,0E0,0E0,0E0,0E0,0E0,0E0,0E0,0E0,0E0,0E0,0E0,0E0,0E0,0E0,0E0,0E0,0E0,0E0,0E0,0E0,0E0,0E0,0E0,0E0],"parents":[2147483647,0,0,1,1,2,2,3,3,4,4,5,5,6,6,7,7,8,8,9,9,10,10,11,11,12,12,13,13,14,14,15,15,16,16,17,17,18,18,19,19,20,20,23,23,24,24,25,25,26,26,27,27,28,28,29,29,30,30,31,31,32,32,33,33,34,34,35,35,36,36,37,37,38,38,40,40,41,41,42,42,43,43,44,44,45,45,46,46,47,47,48,48,49,49,50,50,51,51,52,52,53,53,54,54,55,55,56,56,57,57,58,58],"right_children":[2,4,6,8,10,12,14,16,18,20,22,24,26,28,30,32,34,36,38,40,42,-1,-1,44,46,48,50,52,54,56,58,60,62,64,66,68,70,72,74,-1,76,78,80,82,84,86,88,90,92,94,96,98,100,102,104,106,108,110,112,-1,-1,-1,-1,-1,-1,-1,-1,-1,-1,-1,-1,-1,-1,-1,-1,-1,-1,-1,-1,-1,-1,-1,-1,-1,-1,-1,-1,-1,-1,-1,-1,-1,-1,-1,-1,-1,-1,-1,-1,-1,-1,-1,-1,-1,-1,-1,-1,-1,-1,-1,-1,-1,-1],"split_conditions":[1.0823973E1,1.5070001E1,1.5893093E1,5.4008427E1,1.0739833E1,1.4815833E1,4.0836323E1,5.611667E0,1.0636766E1,8.435069E0,2.1449167E1,8.1E0,1.6721094E2,2.124305E1,1.5563748E1,5.05125E0,2.6999998E0,6.222084E0,1.0630416E1,3.035499E1,1.3690459E2,3.2965955E-1,1.5760275E0,3.9970834E0,1.27279215E1,7.846537E1,3.0384006E2,1.331792E1,2.1011003E1,4.2999997E0,3.002625E1,3.1419174E1,1E-1,7.5599995E0,9.292254E0,6.067917E0,1.2109584E1,9.9700294E1,7E-1,-4.7743562E-1,1E-1,9.292254E0,3.5823752E2,3.913039E1,1.1298495E1,1.0515832E1,1.5124284E1,2.172625E1,9.9700294E1,2.6480566E2,2.5582502E1,2.0188908E1,2.57575E1,7.815834E0,1E-1,2.5068514E1,3.085307E1,2.2499988E2,2.4864888E2,4.707133E-1,-3.8650763E-1,-9.1888326E-1,-1.3859676E-1,1.8464257E0,6.8805516E-1,1.6174184E-1,-8.4557897E-1,1.9382323E-1,-1.1890844E0,1.6341896E0,8.441732E-1,-8.5577977E-1,-6.2558666E-2,1.012873E0,-1.89816E-2,9.6318215E-1,-2.3575115E-3,-2.8803888E-1,5.731415E-2,-5.807564E-1,1.2941295E-1,-8.824093E-1,-2.3742822E-1,-1.0657256E-1,4.3974322E-1,-9.88264E-1,-1.8539308E-1,-5.860028E-2,-5.422774E-1,-2.6640674E-1,1.04748614E-1,1.5449158E0,1.5521237E-1,-2.4723361E-1,9.780463E-2,-5.360462E-1,-4.8580274E-2,-3.6179256E-1,1.5891469E-1,-6.2342477E-1,-2.4855578E-1,-5.19578E-1,-7.6987886E-1,-2.747154E-1,-6.7239535E-1,2.2311082E-1,-4.9203402E-1,-4.1326696E-1,4.360211E-2,-2.8399923E-1,-4.5825413E-1,8.837454E-3,9.424627E-1],"split_indices":[2,0,2,3,2,0,3,0,2,2,0,1,3,2,0,0,1,0,0,3,3,0,0,0,2,3,3,0,3,1,0,3,1,2,2,0,0,3,1,0,1,2,3,3,2,0,2,0,3,3,0,2,0,0,1,2,2,3,3,0,0,0,0,0,0,0,0,0,0,0,0,0,0,0,0,0,0,0,0,0,0,0,0,0,0,0,0,0,0,0,0,0,0,0,0,0,0,0,0,0,0,0,0,0,0,0,0,0,0,0,0,0,0],"split_type":[0,0,0,0,0,0,0,0,0,0,0,0,0,0,0,0,0,0,0,0,0,0,0,0,0,0,0,0,0,0,0,0,0,0,0,0,0,0,0,0,0,0,0,0,0,0,0,0,0,0,0,0,0,0,0,0,0,0,0,0,0,0,0,0,0,0,0,0,0,0,0,0,0,0,0,0,0,0,0,0,0,0,0,0,0,0,0,0,0,0,0,0,0,0,0,0,0,0,0,0,0,0,0,0,0,0,0,0,0,0,0,0,0],"sum_hessian":[1.885E3,3.39E2,1.546E3,2.53E2,8.6E1,5.94E2,9.52E2,1.17E2,1.36E2,8.3E1,3E0,2.79E2,3.15E2,1.44E2,8.08E2,1E1,1.07E2,1.26E2,1E1,1.3E1,7E1,2E0,1E0,2.57E2,2.2E1,1.11E2,2.04E2,7.2E1,7.2E1,2.6E2,5.48E2,7E0,3E0,9.5E1,1.2E1,4E0,1.22E2,5E0,5E0,2E0,1.1E1,5.4E1,1.6E1,5E0,2.52E2,5E0,1.7E1,5.9E1,5.2E1,1.69E2,3.5E1,4.2E1,3E1,6.1E1,1.1E1,1.63E2,9.7E1,5.2E2,2.8E1,3E0,4E0,2E0,1E0,5E0,9E1,9E0,3E0,3E0,1E0,8.9E1,3.3E1,2E0,3E0,3E0,2E0,7E0,4E0,2.2E1,3.2E1,1.5E1,1E0,4E0,1E0,2.5E1,2.27E2,4E0,1E0,1E1,7E0,4.2E1,1.7E1,2E0,5E1,1.44E2,2.5E1,2.9E1,6E0,3.7E1,5E0,2.7E1,3E0,2.3E1,3.8E1,8E0,3E0,1.38E2,2.5E1,8.3E1,1.4E1,3.43E2,1.77E2,2.6E1,2E0],"tree_param":{"num_deleted":"0","num_feature":"4","num_nodes":"113","size_leaf_vector":"1"}},{"base_weights":[6.0268277E-3,1.42434E0,-4.3683037E-1,2.0870657E0,-2.003455E-1,5.487285E-2,-6.5013623E-1,1.287111E0,2.754732E0,1.078088E0,-3.503262E-1,3.8863075E-1,-5.972279E-1,-1.2144632E0,-5.24397E-1,2.242815E0,1.1935153E0,6.6648583E0,2.2290354E0,1.381225E-2,2.4948204E0,-4.9032822E-1,1.056087E0,7.153547E-1,-5.531596E-1,4.66876E-1,-7.4815667E-1,-1.0713875E0,-1.7116026E0,8.74815E-2,-7.4954283E-1,3.8835952E0,1.0094266E0,9.600143E0,3.3905208E0,2.8314514E0,8.3971137E-1,-3.819485E-1,5.633993E-1,-3.1477582E-1,3.4134855E0,-2.6397952E-1,-8.8402265E-1,1.3396232E0,2.6861355E-1,5.5990505E-1,3.298386E0,-1.709632E0,-2.1056317E-1,-9.072405E-1,2.95211E0,-1.7915628E0,-4.8266417E-1,-1.1074607E0,4.680388E-1,-1.3110361E0,-6.079767E-1,1.0733356E0,-2.842752E-1,-9.06629E-1,-3.1090745E-1,1.9712638E0,4.3344203E-1,4.1984585E-1,-1.5147516E-1,1.0727162E0,3.1977856E0,-1.2767129E0,1.3742144E0,6.6320884E-1,2.0391405E0,-1.2510754E-1,1.0897E0,3.363837E-1,-1.6626E-1,1.5203896E0,1.8635322E-1,-1.5140879E-1,3.6923662E-1,-1.8284434E-1,-6.8772626E-1,-4.819534E-1,2.814626E-1,3.1180957E-1,-1.4067064E-2,2.1626687E0,3.581684E-1,-9.0939444E-1,-1.4439684E-1,1.9869928E-1,-2.1311454E-1,-4.2315525E-1,7.6981264E-1,1.1366344E-1,1.4361944E0,-1.993004E-1,-6.2895435E-1,1.3405366E0,-1.7197111E-1,-2.1845615E-1,-3.677469E-1,-1.7502213E-2,3.070766E-1,-4.8143625E-1,-1.6087277E-1,8.984745E-2,1.6533477E0,-6.136271E-1,-3.1157907E-2,-1.7114235E-1,-3.439165E-1,3.0159956E-1,-1.0795584E-1],"categories":[],"categories_nodes":[],"categories_segments":[],"categories_sizes":[],"default_left":[0,0,0,0,0,0,0,0,0,0,0,0,0,0,0,0,0,0,0,0,0,0,0,0,0,0,0,0,0,0,0,0,0,0,0,0,0,0,0,0,0,0,0,0,0,0,0,0,0,0,0,0,0,0,0,0,0,0,0,0,0,0,0,0,0,0,0,0,0,0,0,0,0,0,0,0,0,0,0,0,0,0,0,0,0,0,0,0,0,0,0,0,0,0,0,0,0,0,0,0,0,0,0,0,0,0,0,0,0,0,0,0,0],"id":3,"left_children":[1,3,5,7,9,11,13,15,17,19,21,23,25,27,29,-1,31,33,35,37,39,41,43,45,47,49,51,53,55,57,59,61,63,65,67,69,71,-1,73,-1,75,77,79,-1,81,83,85,87,89,91,93,95,97,99,101,103,-1,105,107,109,111,-1,-1,-1,-1,-1,-1,-1,-1,-1,-1,-1,-1,-1,-1,-1,-1,-1,-1,-1,-1,-1,-1,-1,-1,-1,-1,-1,-1,-1,-1,-1,-1,-1,-1,-1,-1,-1,-1,-1,-1,-1,-1,-1,-1,-1,-1,-1,-1,-1,-1,-1,-1],"loss_changes":[1.1852382E3,4.8386578E2,1.508577E2,1.6683313E2,2.5495672E1,9.512478E1,7.053406E1,7.622826E1,3.407522E2,2.1074656E1,2.3752113E1,8.9322586E1,2.411868E1,1.1111603E1,1.1330585E2,0E0,6.8380905E1,1.5967273E2,1.2651282E2,7.0830364E0,2.3116508E1,9.390757E0,2.8332802E1,8.448246E1,2.9355268E1,6.756329E1,3.5147438E1,8.514923E0,2.2638168E0,8.166766E1,4.112915E1,4.9489807E1,8.222104E1,2.5692505E1,1.19599686E2,2.4837762E2,1.6997508E2,0E0,4.985815E0,0E0,1.9950985E1,2.5808243E1,1.3682701E1,0E0,1.4062988E1,5.93993E1,9.014896E1,2.613935E1,2.6211542E1,2.634375E1,3.1243038E1,7.544716E0,4.964736E1,5.437088E0,1.2294374E0,3.6913795E0,0E0,2.0783466E2,5.1261208E1,3.4969543E1,1.0669577E1,0E0,0E0,0E0,0E0,0E0,0E0,0E0,0E0,0E0,0E0,0E0,0E0,0E0,0E0,0E0,0E0,0E0,0E0,0E0,0E0,0E0,0E0,0E0,0E0,0E0,0E0,0E0,0E0,0E0,0E0,0E0,0E0,0E0,0E0,0E0,0E0,0E0,0E0,0E0,0E0,0E0,0E0,0E0,0E0,0E0,0E0,0E0,0E0,0E0,0E0,0E0,0E0],"parents":[2147483647,0,0,1,1,2,2,3,3,4,4,5,5,6,6,7,7,8,8,9,9,10,10,11,11,12,12,13,13,14,14,16,16,17,17,18,18,19,19,20,20,21,21,22,22,23,23,24,24,25,25,26,26,27,27,28,28,29,29,30,30,31,31,32,32,33,33,34,34,35,35,36,36,38,38,40,40,41,41,42,42,44,44,45,45,46,46,47,47,48,48,49,49,50,50,51,51,52,52,53,53,54,54,55,55,57,57,58,58,59,59,60,60],"right_children":[2,4,6,8,10,12,14,16,18,20,22,24,26,28,30,-1,32,34,36,38,40,42,44,46,48,50,52,54,56,58,60,62,64,66,68,70,72,-1,74,-1,76,78,80,-1,82,84,86,88,90,92,94,96,98,100,102,104,-1,106,108,110,112,-1,-1,-1,-1,-1,-1,-1,-1,-1,-1,-1,-1,-1,-1,-1,-1,-1,-1,-1,-1,-1,-1,-1,-1,-1,-1,-1,-1,-1,-1,-1,-1,-1,-1,-1,-1,-1,-1,-1,-1,-1,-1,-1,-1,-1,-1,-1,-1,-1,-1,-1,-1],"split_conditions":[1.1966954E1,1.5070001E1,1.5546833E1,5.4008427E1,8.435069E0,2.03915E2,1.0858908E2,9.313527E0,5.8440453E1,4.044061E1,2.2567915E1,1.6E0,1.3580417E1,2.5068514E1,1.6721094E2,2.242815E0,7.5599995E0,8.705417E0,1.0495713E1,3.035499E1,7.0911775E0,6E-1,2.2765833E1,1.5349684E1,1.0165833E1,1.1172084E1,1.8230415E1,2.6830416E1,7.767916E0,1.237625E1,2.6830416E1,9.5824995E0,1E-1,8.953078E0,9.740833E0,1.0144082E1,1.1681987E1,-3.819485E-1,1.85325E1,-3.1477582E-1,1.8815834E1,1.1440978E1,2.027E1,1.3396232E0,5.26334E1,1.331792E1,1.416375E1,9.024277E1,1.3104198E1,3.5555887E2,1.4186923E1,2.1911507E2,1.8453333E1,7.815834E0,2.8551249E1,1.2653817E1,-6.079767E-1,1.6323938E2,1.3267917E1,1.7567919E1,2.6934584E1,1.9712638E0,4.3344203E-1,4.1984585E-1,-1.5147516E-1,1.0727162E0,3.1977856E0,-1.2767129E0,1.3742144E0,6.6320884E-1,2.0391405E0,-1.2510754E-1,1.0897E0,3.363837E-1,-1.6626E-1,1.5203896E0,1.8635322E-1,-1.5140879E-1,3.6923662E-1,-1.8284434E-1,-6.8772626E-1,-4.819534E-1,2.814626E-1,3.1180957E-1,-1.4067064E-2,2.1626687E0,3.581684E-1,-9.0939444E-1,-1.4439684E-1,1.9869928E-1,-2.1311454E-1,-4.2315525E-1,7.6981264E-1,1.1366344E-1,1.4361944E0,-1.993004E-1,-6.2895435E-1,1.3405366E0,-1.7197111E-1,-2.1845615E-1,-3.677469E-1,-1.7502213E-2,3.070766E-1,-4.8143625E-1,-1.6087277E-1,8.984745E-2,1.6533477E0,-6.136271E-1,-3.1157907E-2,-1.7114235E-1,-3.439165E-1,3.0159956E-1,-1.0795584E-1],"split_indices":[2,0,2,3,2,3,3,3,3,3,0,1,0,2,3,0,2,0,2,3,2,1,0,2,0,0,0,0,0,0,0,0,1,2,0,2,2,0,0,0,0,2,0,0,3,0,0,3,2,3,2,3,0,0,0,3,0,3,0,0,0,0,0,0,0,0,0,0,0,0,0,0,0,0,0,0,0,0,0,0,0,0,0,0,0,0,0,0,0,0,0,0,0,0,0,0,0,0,0,0,0,0,0,0,0,0,0,0,0,0,0,0,0],"split_type":[0,0,0,0,0,0,0,0,0,0,0,0,0,0,0,0,0,0,0,0,0,0,0,0,0,0,0,0,0,0,0,0,0,0,0,0,0,0,0,0,0,0,0,0,0,0,0,0,0,0,0,0,0,0,0,0,0,0,0,0,0,0,0,0,0,0,0,0,0,0,0,0,0,0,0,0,0,0,0,0,0,0,0,0,0,0,0,0,0,0,0,0,0,0,0,0,0,0,0,0,0,0,0,0,0,0,0,0,0,0,0,0,0],"sum_hessian":[1.885E3,4.48E2,1.437E3,3.18E2,1.3E2,4.35E2,1.002E3,1.46E2,1.72E2,1.3E1,1.17E2,2.88E2,1.47E2,1.81E2,8.21E2,1E0,1.45E2,1.9E1,1.53E2,8E0,5E0,1.07E2,1E1,2.14E2,7.4E1,1.8E1,1.29E2,1.43E2,3.8E1,2.21E2,6E2,8E0,1.37E2,9E0,1E1,1.06E2,4.7E1,2E0,6E0,1E0,4E0,6.9E1,3.8E1,1E0,9E0,2.03E2,1.1E1,1.6E1,5.8E1,1.2E1,6E0,2.5E1,1.04E2,1.4E2,3E0,1.9E1,1.9E1,6E1,1.61E2,4.41E2,1.59E2,3E0,5E0,1.09E2,2.8E1,2E0,7E0,1E0,9E0,9.3E1,1.3E1,3.3E1,1.4E1,4E0,2E0,2E0,2E0,6E1,9E0,3.3E1,5E0,2E0,7E0,1.13E2,9E1,3E0,8E0,7E0,9E0,2.1E1,3.7E1,1.1E1,1E0,3E0,3E0,6E0,1.9E1,1E0,1.03E2,3.5E1,1.05E2,2E0,1E0,1.3E1,6E0,5.2E1,8E0,1.4E1,1.47E2,1.85E2,2.56E2,5E0,1.54E2],"tree_param":{"num_deleted":"0","num_feature":"4","num_nodes":"113","size_leaf_vector":"1"}},{"base_weights":[1.3675147E-2,8.1152844E-1,-4.0952823E-1,1.5030175E0,8.508983E-2,-3.3257857E-1,-1.1843474E0,1.0339649E0,2.6432295E0,1.6936883E0,3.2364357E-2,-3.8137317E-1,9.980694E-1,-2.468507E0,-1.0606407E0,1.6949736E-1,1.5276437E0,3.2490244E0,2.356874E0,-1.4692253E0,1.2205289E-1,-1.0529275E0,-3.1950915E-1,4.8050814E0,3.1692255E-1,-8.1881624E-1,-5.721989E-2,-7.743825E-1,-1.7997471E0,4.8029633E0,5.8939205E-3,2.0254605E0,-1.3269559E-1,3.0913632E0,-9.568501E-1,-2.501927E0,1.0131656E0,8.8717884E-1,-1.3578615E-1,-1.9703224E0,-9.282095E-1,-2.0150743E-1,-7.43601E-1,2.4869186E-1,1.6303526E0,1.7087134E0,-8.798045E-3,-1.0618399E0,-2.0539837E-2,-1.958551E0,1.7646949E-1,2.5402606E0,-3.7892705E-1,1.4513727E-1,-6.865213E-1,3.5059097E-1,9.010342E-1,9.9953115E-1,-2.3968707E-1,1.2322994E0,5.1762074E-1,-1.2585886E0,8.042512E-2,7.7844733E-1,-9.4286746E-1,6.706157E-1,-2.862548E-1,3.8662484E-1,-3.4740874E-1,7.424737E-1,-5.4601777E-2,-4.6067717E-3,-7.371434E-1,1.3425295E-1,-3.376491E-1,-8.361513E-2,6.4148545E-1,-3.6658278E-1,-1.6553716E-1,-1.2271726E-1,9.2862374E-1,4.3406424E-1,-3.5514247E-1,5.1912665E-1,-1.9119547E-1,-2.7144533E-1,-6.4990604E-1,-5.6854967E-2,1.3626623E-1],"categories":[],"categories_nodes":[],"categories_segments":[],"categories_sizes":[],"default_left":[0,0,0,0,0,0,0,0,0,0,0,0,0,0,0,0,0,0,0,0,0,0,0,0,0,0,0,0,0,0,0,0,0,0,0,0,0,0,0,0,0,0,0,0,0,0,0,0,0,0,0,0,0,0,0,0,0,0,0,0,0,0,0,0,0,0,0,0,0,0,0,0,0,0,0,0,0,0,0,0,0,0,0,0,0,0,0,0,0],"id":4,"left_children":[1,3,5,7,9,11,13,15,17,-1,19,21,23,25,27,29,31,-1,33,35,37,39,41,43,45,-1,-1,47,49,51,53,55,57,59,61,63,65,67,69,71,73,75,77,-1,-1,-1,79,81,83,85,87,-1,-1,-1,-1,-1,-1,-1,-1,-1,-1,-1,-1,-1,-1,-1,-1,-1,-1,-1,-1,-1,-1,-1,-1,-1,-1,-1,-1,-1,-1,-1,-1,-1,-1,-1,-1,-1,-1],"loss_changes":[6.3714813E2,3.2839224E2,7.312009E1,1.7643152E2,9.363553E1,7.329526E1,1.50151825E1,1.0173889E2,2.0187689E2,0E0,4.3006096E1,4.469841E1,1.02202515E2,4.82745E0,2.039856E1,6.6680176E1,1.25903595E2,0E0,2.3417792E2,4.8679104E1,5.950155E1,8.582947E0,4.959346E1,1.0510971E1,6.1369484E1,0E0,0E0,1.6447212E1,9.132881E0,7.738373E1,9.540078E1,9.4531586E1,8.575856E1,1.0119446E2,7.252854E1,5.0624146E1,1.6560158E1,6.391086E1,2.7720938E1,9.479477E0,2.2759483E1,1.4132588E2,1.9143951E1,0E0,0E0,0E0,4.3510845E1,1.854197E1,2.4861847E1,3.733017E0,3.9104164E-1,0E0,0E0,0E0,0E0,0E0,0E0,0E0,0E0,0E0,0E0,0E0,0E0,0E0,0E0,0E0,0E0,0E0,0E0,0E0,0E0,0E0,0E0,0E0,0E0,0E0,0E0,0E0,0E0,0E0,0E0,0E0,0E0,0E0,0E0,0E0,0E0,0E0,0E0],"parents":[2147483647,0,0,1,1,2,2,3,3,4,4,5,5,6,6,7,7,8,8,10,10,11,11,12,12,13,13,14,14,15,15,16,16,18,18,19,19,20,20,21,21,22,22,23,23,24,24,27,27,28,28,29,29,30,30,31,31,32,32,33,33,34,34,35,35,36,36,37,37,38,38,39,39,40,40,41,41,42,42,46,46,47,47,48,48,49,49,50,50],"right_children":[2,4,6,8,10,12,14,16,18,-1,20,22,24,26,28,30,32,-1,34,36,38,40,42,44,46,-1,-1,48,50,52,54,56,58,60,62,64,66,68,70,72,74,76,78,-1,-1,-1,80,82,84,86,88,-1,-1,-1,-1,-1,-1,-1,-1,-1,-1,-1,-1,-1,-1,-1,-1,-1,-1,-1,-1,-1,-1,-1,-1,-1,-1,-1,-1,-1,-1,-1,-1,-1,-1,-1,-1,-1,-1],"split_conditions":[1.370839E1,1.2713752E1,2.7802396E2,1.0669999E1,6.489992E0,2.6248996E2,1.4241629E1,4.5605587E1,1.0774167E1,1.6936883E0,1.3190833E1,1.673528E1,1.3359584E1,2.66575E1,3.4675946E2,1.0366278E1,4E-1,3.2490244E0,1.6455635E2,8.21467E1,1.5136666E1,1.5158522E1,4.2999997E0,9.072083E0,1.3905509E1,-8.1881624E-1,-5.721989E-2,3.2319604E2,2.636792E1,8.417916E0,1.2483749E1,9.885262E0,6.2037926E1,1E-1,1.14862E1,7.5599995E0,1E-1,1.9502032E2,5.3144107E0,4.1331844E0,1.731746E1,3.4E0,1.2013749E1,2.4869186E-1,1.6303526E0,1.7087134E0,2.9763746E1,1.0165833E1,1.57908325E1,9.145E0,2.9286661E1,2.5402606E0,-3.7892705E-1,1.4513727E-1,-6.865213E-1,3.5059097E-1,9.010342E-1,9.9953115E-1,-2.3968707E-1,1.2322994E0,5.1762074E-1,-1.2585886E0,8.042512E-2,7.7844733E-1,-9.4286746E-1,6.706157E-1,-2.862548E-1,3.8662484E-1,-3.4740874E-1,7.424737E-1,-5.4601777E-2,-4.6067717E-3,-7.371434E-1,1.3425295E-1,-3.376491E-1,-8.361513E-2,6.4148545E-1,-3.6658278E-1,-1.6553716E-1,-1.2271726E-1,9.2862374E-1,4.3406424E-1,-3.5514247E-1,5.1912665E-1,-1.9119547E-1,-2.7144533E-1,-6.4990604E-1,-5.6854967E-2,1.3626623E-1],"split_indices":[2,0,3,0,2,3,2,3,0,0,0,3,0,0,3,3,1,0,3,3,0,2,1,0,2,0,0,3,0,0,2,2,3,1,2,2,1,3,3,3,2,1,0,0,0,0,0,0,2,0,0,0,0,0,0,0,0,0,0,0,0,0,0,0,0,0,0,0,0,0,0,0,0,0,0,0,0,0,0,0,0,0,0,0,0,0,0,0,0],"split_type":[0,0,0,0,0,0,0,0,0,0,0,0,0,0,0,0,0,0,0,0,0,0,0,0,0,0,0,0,0,0,0,0,0,0,0,0,0,0,0,0,0,0,0,0,0,0,0,0,0,0,0,0,0,0,0,0,0,0,0,0,0,0,0,0,0,0,0,0,0,0,0,0,0,0,0,0,0,0,0,0,0,0,0,0,0,0,0,0,0],"sum_hessian":[1.885E3,6.53E2,1.232E3,3.34E2,3.19E2,1.122E3,1.1E2,2.38E2,9.6E1,2E0,3.17E2,1.083E3,3.9E1,8E0,1.02E2,8.7E1,1.51E2,2E0,9.4E1,1.7E1,3E2,9E1,9.93E2,5E0,3.4E1,7E0,1E0,7.5E1,2.7E1,2E0,8.5E1,1.16E2,3.5E1,7.7E1,1.7E1,1.2E1,5E0,7.5E1,2.25E2,9E0,8.1E1,7.78E2,2.15E2,1E0,4E0,1E0,3.3E1,5.4E1,2.1E1,2.5E1,2E0,1E0,1E0,7.1E1,1.4E1,6.3E1,5.3E1,5E0,3E1,4.3E1,3.4E1,4E0,1.3E1,1E0,1.1E1,3E0,2E0,6.3E1,1.2E1,3E0,2.22E2,2E0,7E0,1E1,7.1E1,7.54E2,2.4E1,6E1,1.55E2,3E1,3E0,2E0,5.2E1,5E0,1.6E1,5E0,2E1,1E0,1E0],"tree_param":{"num_deleted":"0","num_feature":"4","num_nodes":"89","size_leaf_vector":"1"}},{"base_weights":[1.6071113E-2,1.002095E0,-1.6665068E-1,1.5942836E0,3.1682026E-1,2.6491635E-2,-4.4587252E-1,1.382305E0,2.8229651E0,1.3549507E0,2.2185068E-1,3.219879E-1,-2.2985265E-1,-2.7790114E-1,-6.9420445E-1,8.8785523E-1,3.5932786E0,4.374404E-1,-9.151796E-1,6.078021E-1,-6.13503E-1,-2.6346996E-1,2.199418E0,-8.061754E-1,-9.0489805E-2,-7.965398E-1,1.554743E-1,-1.257762E0,1.1838024E0,4.25803E0,-3.1618366E-1,4.832781E-2,2.842054E0,-3.5780823E-1,-2.3418686E0,5.1028275E-1,6.961527E0,-2.2334607E0,-3.3358312E-1,7.393426E-2,-4.3188748E-1,3.6397824E0,2.0919919E-1,4.1359067E-1,-8.63658E-1,3.1109214E0,-1.5780663E-1,-8.696883E-1,1.2955774E-1,-3.3222532E-1,3.4378558E-1,-5.1474694E-2,-9.118393E-1,9.319064E-1,2.4329777E-1,1.3616587E0,-3.301668E-1,-7.9291767E-1,6.348258E-1,-4.4636883E-2,7.00133E-1,1.0796131E0,-9.8277606E-2,1.23893745E-1,-2.815972E-1,-9.1001123E-1,-3.7133247E-1,-2.3973787E-2,3.0827162E-1,3.3307905E0,1.4997315E-1,-2.4047118E-1,-9.296972E-1,4.0099832E-1,-1.6145815E-1,-3.5709403E-2,3.861726E-1,-1.9736674E-1,9.678077E-3,2.4029253E-1,1.295718E0,-2.4128324E-1,2.4453516E-1,-1.901218E-1,-3.5780776E-1,1.6586914E0,4.564552E-1,-4.4010335E-1,-1.1044618E-2,-2.0414256E-1,-3.1735405E-1,-2.607699E-1,2.532519E-1,-1.2106786E-1,1.9210897E-1],"categories":[],"categories_nodes":[],"categories_segments":[],"categories_sizes":[],"default_left":[0,0,0,0,0,0,0,0,0,0,0,0,0,0,0,0,0,0,0,0,0,0,0,0,0,0,0,0,0,0,0,0,0,0,0,0,0,0,0,0,0,0,0,0,0,0,0,0,0,0,0,0,0,0,0,0,0,0,0,0,0,0,0,0,0,0,0,0,0,0,0,0,0,0,0,0,0,0,0,0,0,0,0,0,0,0,0,0,0,0,0,0,0,0,0],"id":5,"left_children":[1,3,5,7,9,11,13,15,-1,-1,17,19,21,23,25,27,29,31,33,35,37,39,41,43,45,47,49,51,53,55,57,59,61,63,65,67,69,71,73,75,77,79,81,-1,83,85,87,89,91,-1,93,-1,-1,-1,-1,-1,-1,-1,-1,-1,-1,-1,-1,-1,-1,-1,-1,-1,-1,-1,-1,-1,-1,-1,-1,-1,-1,-1,-1,-1,-1,-1,-1,-1,-1,-1,-1,-1,-1,-1,-1,-1,-1,-1,-1],"loss_changes":[3.3996393E2,1.1920944E2,8.586766E1,2.4875757E2,5.4038216E1,7.142936E1,2.6962006E1,1.6625809E2,0E0,0E0,3.3738293E1,1.17483826E2,4.182059E1,3.8538837E1,2.290532E1,8.276755E1,7.411325E1,1.0746416E2,1.6656368E1,2.0463701E2,4.5961163E1,2.8387497E1,1.9305042E1,1.4000702E1,6.277298E1,1.5964447E1,7.2774024E0,3.0442461E1,7.84731E1,4.1112E1,3.389088E1,4.5397415E1,3.9552216E1,7.9987354E0,8.2627106E-1,1.0144227E2,1.2824089E2,1.6106094E1,3.1135118E1,3.9252373E1,3.4952305E1,4.253891E0,3.1119153E0,0E0,6.809265E0,1.4647121E1,4.493223E1,7.0058136E0,1.3581303E1,0E0,6.021216E0,0E0,0E0,0E0,0E0,0E0,0E0,0E0,0E0,0E0,0E0,0E0,0E0,0E0,0E0,0E0,0E0,0E0,0E0,0E0,0E0,0E0,0E0,0E0,0E0,0E0,0E0,0E0,0E0,0E0,0E0,0E0,0E0,0E0,0E0,0E0,0E0,0E0,0E0,0E0,0E0,0E0,0E0,0E0,0E0],"parents":[2147483647,0,0,1,1,2,2,3,3,4,4,5,5,6,6,7,7,10,10,11,11,12,12,13,13,14,14,15,15,16,16,17,17,18,18,19,19,20,20,21,21,22,22,23,23,24,24,25,25,26,26,27,27,28,28,29,29,30,30,31,31,32,32,33,33,34,34,35,35,36,36,37,37,38,38,39,39,40,40,41,41,42,42,44,44,45,45,46,46,47,47,48,48,50,50],"right_children":[2,4,6,8,10,12,14,16,-1,-1,18,20,22,24,26,28,30,32,34,36,38,40,42,44,46,48,50,52,54,56,58,60,62,64,66,68,70,72,74,76,78,80,82,-1,84,86,88,90,92,-1,94,-1,-1,-1,-1,-1,-1,-1,-1,-1,-1,-1,-1,-1,-1,-1,-1,-1,-1,-1,-1,-1,-1,-1,-1,-1,-1,-1,-1,-1,-1,-1,-1,-1,-1,-1,-1,-1,-1,-1,-1,-1,-1,-1,-1],"split_conditions":[1.0464797E1,1.1853333E1,1.8014393E1,1.5216905E2,6.489992E0,1.5874168E1,1.8658186E2,1.0849167E1,2.8229651E0,1.3549507E0,1.3935117E2,1.6000001E0,1.7906157E1,3.1419174E1,2.9426249E1,6.222084E0,1.25012634E2,9.9700294E1,8.000001E-1,1.4000001E0,2.7E0,1.420062E1,1.7368285E2,1.8075441E1,7.767916E0,2.9462873E1,1.825026E1,4.9635548E1,7.1283336E0,1.0195057E1,2E-1,1.0195057E1,9.983106E0,1.3680417E1,1.4657498E1,1.0341089E2,1.1524166E1,1.4186923E1,8.559584E0,1.3779114E1,2.6209585E1,2.0478334E1,1.8874166E1,4.1359067E-1,1.1901249E1,2.3000002E0,1.0515832E1,2.262187E2,1.2403335E1,-3.3222532E-1,2.262187E2,-5.1474694E-2,-9.118393E-1,9.319064E-1,2.4329777E-1,1.3616587E0,-3.301668E-1,-7.9291767E-1,6.348258E-1,-4.4636883E-2,7.00133E-1,1.0796131E0,-9.8277606E-2,1.23893745E-1,-2.815972E-1,-9.1001123E-1,-3.7133247E-1,-2.3973787E-2,3.0827162E-1,3.3307905E0,1.4997315E-1,-2.4047118E-1,-9.296972E-1,4.0099832E-1,-1.6145815E-1,-3.5709403E-2,3.861726E-1,-1.9736674E-1,9.678077E-3,2.4029253E-1,1.295718E0,-2.4128324E-1,2.4453516E-1,-1.901218E-1,-3.5780776E-1,1.6586914E0,4.564552E-1,-4.4010335E-1,-1.1044618E-2,-2.0414256E-1,-3.1735405E-1,-2.607699E-1,2.532519E-1,-1.2106786E-1,1.9210897E-1],"split_indices":[2,0,2,3,2,0,3,0,0,0,3,1,2,3,0,0,3,3,1,1,1,2,3,2,0,2,2,3,0,2,1,2,2,0,0,3,0,2,0,2,0,0,0,0,0,1,0,3,0,0,3,0,0,0,0,0,0,0,0,0,0,0,0,0,0,0,0,0,0,0,0,0,0,0,0,0,0,0,0,0,0,0,0,0,0,0,0,0,0,0,0,0,0,0,0],"split_type":[0,0,0,0,0,0,0,0,0,0,0,0,0,0,0,0,0,0,0,0,0,0,0,0,0,0,0,0,0,0,0,0,0,0,0,0,0,0,0,0,0,0,0,0,0,0,0,0,0,0,0,0,0,0,0,0,0,0,0,0,0,0,0,0,0,0,0,0,0,0,0,0,0,0,0,0,0,0,0,0,0,0,0,0,0,0,0,0,0,0,0,0,0,0,0],"sum_hessian":[1.885E3,2.94E2,1.591E3,1.57E2,1.37E2,9.41E2,6.5E2,1.54E2,3E0,2E0,1.35E2,4.37E2,5.04E2,3.89E2,2.61E2,1.27E2,2.7E1,1.14E2,2.1E1,3.35E2,1.02E2,4.98E2,6E0,1.01E2,2.88E2,2.33E2,2.8E1,1.5E1,1.12E2,2.3E1,4E0,9.9E1,1.5E1,1.6E1,5E0,3.31E2,4E0,1.4E1,8.8E1,1.66E2,3.32E2,3E0,3E0,2E0,9.9E1,5E0,2.83E2,2.16E2,1.7E1,3E0,2.5E1,1E1,5E0,1.7E1,9.5E1,2.2E1,1E0,2E0,2E0,9.2E1,7E0,1.2E1,3E0,7E0,9E0,2E0,3E0,1.55E2,1.76E2,2E0,2E0,6E0,8E0,9E0,7.9E1,1.44E2,2.2E1,2.23E2,1.09E2,1E0,2E0,1E0,2E0,6E1,3.9E1,1E0,4E0,2.3E1,2.6E2,1.1E2,1.06E2,7E0,1E1,7E0,1.8E1],"tree_param":{"num_deleted":"0","num_feature":"4","num_nodes":"95","size_leaf_vector":"1"}},{"base_weights":[1.6942743E-2,5.620608E-1,-1.5327626E-1,1.0141659E0,1.2716866E-1,3.4254875E-2,-2.8874397E-1,8.2684803E-1,8.903464E0,1.3167133E0,-9.3091734E-2,-3.5782674E-1,4.3275702E-1,-1.1556405E0,-2.1038073E-1,6.355373E-1,2.8959584E0,3.4310925E0,-1.8458605E-1,1.9704443E0,-1.2176509E0,-9.4219756E-1,3.637172E-3,-2.1662897E-1,-1.0567995E0,1.1282661E0,7.409027E-2,-2.2241876E0,-7.348947E-1,5.396678E-1,-3.2884938E-1,4.0421647E-1,2.5770085E0,-5.477702E-1,3.2811208E0,1.478066E0,4.0382476E0,-7.5806653E-1,-3.6009035E-1,-1.9493475E0,5.6117207E-2,1.9872873E-1,-5.182641E-1,-1.617069E0,-1.7941125E-1,6.7203933E-1,7.2239094E0,-1.3940153E0,2.5512528E-1,-2.9851964E0,5.0367606E-1,-6.2239224E-1,-5.7673246E-1,1.5817254E0,4.0089667E-2,-5.80694E-1,-2.0332086E-1,2.8099516E-1,-1.4994073E-1,1.2361593E0,-3.2960528E-1,1.7526942E0,6.1309576E-1,5.644574E-1,-1.5362221E-1,3.7696525E-1,1.6421587E0,2.9996349E-2,-1.8453792E-1,-8.1324637E-1,1.6448207E-1,7.3032275E-2,-1.2938493E-1,3.6492643E-1,-4.6655916E-2,-1.662321E-1,4.196531E-1,1.1537389E-1,-6.338544E-1,7.1887696E-1,-1.2840225E-1,3.814204E-1,-3.856686E-1,-4.500267E-1,3.3040583E0,-5.270962E-1,9.3425965E-1,4.3364093E-1,1.260122E-2,-1.028508E0,-2.728222E-1,-1.6837771E-1,7.1451247E-1,3.726428E-2,-3.3016586E-1,-3.7118948E-1,8.951249E-1,1.459979E0,-5.0200004E-2,-6.821483E-2,-2.4844994E-1,2.1833107E-1,-7.747766E-2],"categories":[],"categories_nodes":[],"categories_segments":[],"categories_sizes":[],"default_left":[0,0,0,0,0,0,0,0,0,0,0,0,0,0,0,0,0,0,0,0,0,0,0,0,0,0,0,0,0,0,0,0,0,0,0,0,0,0,0,0,0,0,0,0,0,0,0,0,0,0,0,0,0,0,0,0,0,0,0,0,0,0,0,0,0,0,0,0,0,0,0,0,0,0,0,0,0,0,0,0,0,0,0,0,0,0,0,0,0,0,0,0,0,0,0,0,0,0,0,0,0,0,0],"id":6,"left_children":[1,3,5,7,9,11,13,15,17,19,21,23,25,27,29,31,33,-1,-1,35,37,-1,39,41,43,45,47,49,51,53,55,57,59,-1,61,63,65,-1,67,69,71,73,75,77,79,81,83,85,87,89,91,-1,93,95,97,99,101,-1,-1,-1,-1,-1,-1,-1,-1,-1,-1,-1,-1,-1,-1,-1,-1,-1,-1,-1,-1,-1,-1,-1,-1,-1,-1,-1,-1,-1,-1,-1,-1,-1,-1,-1,-1,-1,-1,-1,-1,-1,-1,-1,-1,-1,-1],"loss_changes":[1.7508707E2,8.815204E1,3.6541443E1,3.1775568E2,6.0384773E1,9.452705E1,5.6480774E1,8.3661606E1,1.2761624E2,6.2043846E1,5.7495037E1,2.9872555E1,7.47532E1,2.938694E1,6.833098E1,8.832977E1,3.872728E1,0E0,0E0,2.3557312E1,8.072096E0,0E0,1.9583006E1,3.2051044E1,2.4780144E1,2.7880682E2,5.3245575E1,4.0946205E1,9.610243E0,5.459845E1,2.0841805E1,8.662629E1,1.2367099E2,0E0,4.194005E1,2.1036957E1,1.3089043E1,0E0,7.655242E-1,1.0995634E1,1.7087091E1,3.9124905E1,1.0944874E1,3.157618E1,1.4471941E1,1.142724E2,2.4794559E2,4.147143E1,4.5095684E1,1.0680939E1,1.1336666E1,0E0,1.7393703E1,1.3807132E2,7.28956E1,1.9047348E1,2.289956E1,0E0,0E0,0E0,0E0,0E0,0E0,0E0,0E0,0E0,0E0,0E0,0E0,0E0,0E0,0E0,0E0,0E0,0E0,0E0,0E0,0E0,0E0,0E0,0E0,0E0,0E0,0E0,0E0,0E0,0E0,0E0,0E0,0E0,0E0,0E0,0E0,0E0,0E0,0E0,0E0,0E0,0E0,0E0,0E0,0E0,0E0],"parents":[2147483647,0,0,1,1,2,2,3,3,4,4,5,5,6,6,7,7,8,8,9,9,10,10,11,11,12,12,13,13,14,14,15,15,16,16,19,19,20,20,22,22,23,23,24,24,25,25,26,26,27,27,28,28,29,29,30,30,31,31,32,32,34,34,35,35,36,36,38,38,39,39,40,40,41,41,42,42,43,43,44,44,45,45,46,46,47,47,48,48,49,49,50,50,52,52,53,53,54,54,55,55,56,56],"right_children":[2,4,6,8,10,12,14,16,18,20,22,24,26,28,30,32,34,-1,-1,36,38,-1,40,42,44,46,48,50,52,54,56,58,60,-1,62,64,66,-1,68,70,72,74,76,78,80,82,84,86,88,90,92,-1,94,96,98,100,102,-1,-1,-1,-1,-1,-1,-1,-1,-1,-1,-1,-1,-1,-1,-1,-1,-1,-1,-1,-1,-1,-1,-1,-1,-1,-1,-1,-1,-1,-1,-1,-1,-1,-1,-1,-1,-1,-1,-1,-1,-1,-1,-1,-1,-1,-1],"split_conditions":[1.1966954E1,1.1524166E1,1.6513002E2,1.6844994E2,8.435069E0,9.327041E1,1.1449166E1,1.1107499E1,1E-1,1.9000001E0,1.1901249E1,4.47827E1,1.2403335E1,1.4982228E1,1.4353333E1,1.1440978E1,4.2128376E1,3.4310925E0,-1.8458605E-1,8.260411E0,1.3532498E1,-9.4219756E-1,1.0899825E1,1.5856354E1,1.4492916E1,1.6161104E2,1.3267917E1,3.3650137E2,7.711666E0,1E-1,2.1099165E1,9.904906E0,9.453334E0,-5.477702E-1,6.2037926E1,8.209263E0,8.379666E1,-7.5806653E-1,1.6632502E1,2.0334585E1,8E-1,8.559584E0,4.0836323E1,5.42625E0,1.5755416E1,2.0275385E1,1.1172084E1,1.6323938E2,1.390125E1,1.0669999E1,1E-1,-6.2239224E-1,1.0515832E1,1.8207907E2,1.2483749E1,1E-1,2.1957502E1,2.8099516E-1,-1.4994073E-1,1.2361593E0,-3.2960528E-1,1.7526942E0,6.1309576E-1,5.644574E-1,-1.5362221E-1,3.7696525E-1,1.6421587E0,2.9996349E-2,-1.8453792E-1,-8.1324637E-1,1.6448207E-1,7.3032275E-2,-1.2938493E-1,3.6492643E-1,-4.6655916E-2,-1.662321E-1,4.196531E-1,1.1537389E-1,-6.338544E-1,7.1887696E-1,-1.2840225E-1,3.814204E-1,-3.856686E-1,-4.500267E-1,3.3040583E0,-5.270962E-1,9.3425965E-1,4.3364093E-1,1.260122E-2,-1.028508E0,-2.728222E-1,-1.6837771E-1,7.1451247E-1,3.726428E-2,-3.3016586E-1,-3.7118948E-1,8.951249E-1,1.459979E0,-5.0200004E-2,-6.821483E-2,-2.4844994E-1,2.1833107E-1,-7.747766E-2],"split_indices":[2,0,3,3,2,3,0,0,1,1,0,3,0,2,0,2,3,0,0,2,0,0,3,2,0,3,0,3,0,1,0,2,0,0,3,2,3,0,0,0,1,0,3,0,0,2,0,3,0,0,1,0,0,3,2,1,0,0,0,0,0,0,0,0,0,0,0,0,0,0,0,0,0,0,0,0,0,0,0,0,0,0,0,0,0,0,0,0,0,0,0,0,0,0,0,0,0,0,0,0,0,0,0],"split_type":[0,0,0,0,0,0,0,0,0,0,0,0,0,0,0,0,0,0,0,0,0,0,0,0,0,0,0,0,0,0,0,0,0,0,0,0,0,0,0,0,0,0,0,0,0,0,0,0,0,0,0,0,0,0,0,0,0,0,0,0,0,0,0,0,0,0,0,0,0,0,0,0,0,0,0,0,0,0,0,0,0,0,0,0,0,0,0,0,0,0,0,0,0,0,0,0,0,0,0,0,0,0,0],"sum_hessian":[1.885E3,4.48E2,1.437E3,2.19E2,2.29E2,6.03E2,8.34E2,2.15E2,4E0,3.5E1,1.94E2,3.04E2,2.99E2,6.8E1,7.66E2,1.98E2,1.7E1,3E0,1E0,2.8E1,7E0,5E0,1.89E2,2.54E2,5E1,1.01E2,1.98E2,1.8E1,5E1,1.04E2,6.62E2,1.78E2,2E1,1E0,1.6E1,2.4E1,4E0,2E0,5E0,4E0,1.85E2,1.07E2,1.47E2,3E1,2E1,9.5E1,6E0,2.1E1,1.77E2,1.4E1,4E0,4E0,4.6E1,3.3E1,7.1E1,2.19E2,4.43E2,1.12E2,6.6E1,1.4E1,6E0,4E0,1.2E1,2E1,4E0,2E0,2E0,2E0,3E0,3E0,1E0,1.34E2,5.1E1,2.7E1,8E1,1.45E2,2E0,6E0,2.4E1,1E0,1.9E1,7.3E1,2.2E1,2E0,4E0,2E1,1E0,2.6E1,1.51E2,1.1E1,3E0,3E0,1E0,2E1,2.6E1,1.1E1,2.2E1,2E0,6.9E1,9.1E1,1.28E2,2.4E1,4.19E2],"tree_param":{"num_deleted":"0","num_feature":"4","num_nodes":"103","size_leaf_vector":"1"}},{"base_weights":[1.7377594E-2,4.3726152E-1,-1.00281455E-1,3.7841102E-1,3.3692663E0,-1.3293655E0,-8.3317906E-2,2.7424316E0,3.240025E-1,2.1834328E0,8.533004E-1,-1.8375564E0,-5.040703E-1,1.7853121E-1,-1.777015E-1,1.8894544E0,8.2676286E-1,1.3226408E-1,8.509398E-1,-1.7744101E0,2.6107583E0,-8.615968E-1,-9.094742E-1,-7.895204E-1,3.3000326E-1,-5.074603E-2,1.7940824E0,-1.1221489E0,-1.5310591E-1,-7.419024E-1,2.6412728E0,4.4618338E-1,-5.267065E-1,2.853565E0,5.9645075E-2,-7.8777725E-1,-1.0707308E-2,1.2301065E0,-2.7870476E-1,-1.961473E0,4.8760635E-1,-3.5482138E-1,-3.9568573E-1,1.3716274E-1,1.1338735E-2,1.1777217E0,-2.1902841E-1,3.0566905E0,5.102153E-1,-1.4247177E0,4.9409705E-1,5.694934E-1,-1.8850176E-1,1.1009065E0,2.1973E-1,-2.0256866E-2,3.0621678E-1,-7.127913E-1,-2.7960153E-2,5.9074986E-1,2.064518E0,7.378004E-1,-8.823828E-2,-1.1950214E-1,-6.583294E-1,-2.655151E-2,-2.4366128E-1,8.475585E-2,9.9527526E-1,-8.0755514E-1,-4.7760967E-2,4.2690283E-1,2.3161697E0,-2.3910119E-1,2.894907E-1,-1.8982966E-1,-6.29383E-1,-6.488772E-2,2.1773025E-1,-9.813359E-2,4.551261E-1,-1.6420513E-2,-1.0976883E-1],"categories":[],"categories_nodes":[],"categories_segments":[],"categories_sizes":[],"default_left":[0,0,0,0,0,0,0,0,0,0,0,0,0,0,0,0,0,0,0,0,0,0,0,0,0,0,0,0,0,0,0,0,0,0,0,0,0,0,0,0,0,0,0,0,0,0,0,0,0,0,0,0,0,0,0,0,0,0,0,0,0,0,0,0,0,0,0,0,0,0,0,0,0,0,0,0,0,0,0,0,0,0,0],"id":7,"left_children":[1,3,5,7,9,11,13,15,17,-1,19,21,23,25,27,-1,29,31,33,35,37,39,-1,41,43,45,47,49,51,-1,53,55,57,59,61,-1,-1,-1,-1,63,-1,-1,65,-1,-1,67,69,71,73,75,77,79,81,-1,-1,-1,-1,-1,-1,-1,-1,-1,-1,-1,-1,-1,-1,-1,-1,-1,-1,-1,-1,-1,-1,-1,-1,-1,-1,-1,-1,-1,-1],"loss_changes":[9.321818E1,6.998815E1,3.062159E1,5.1332336E1,7.24657E1,7.461891E0,3.5990974E1,5.609764E1,4.0099033E1,0E0,3.23411E1,1.137183E1,2.403321E0,1.4306895E2,2.4683472E1,0E0,4.8444153E1,6.084604E1,1.6780444E2,4.347908E0,2.4900639E1,2.5070797E1,0E0,6.160469E-1,9.423092E-2,7.033926E1,7.624945E1,1.3907639E1,2.6809752E1,0E0,7.127598E0,5.880265E1,7.593695E1,9.332379E1,6.609208E1,0E0,0E0,0E0,0E0,1.3107376E0,0E0,0E0,5.678481E-1,0E0,0E0,7.76027E1,4.3804638E1,1.7187639E2,1.56306505E1,1.093523E1,9.798591E-1,4.2127514E1,2.3614513E1,0E0,0E0,0E0,0E0,0E0,0E0,0E0,0E0,0E0,0E0,0E0,0E0,0E0,0E0,0E0,0E0,0E0,0E0,0E0,0E0,0E0,0E0,0E0,0E0,0E0,0E0,0E0,0E0,0E0,0E0],"parents":[2147483647,0,0,1,1,2,2,3,3,4,4,5,5,6,6,7,7,8,8,10,10,11,11,12,12,13,13,14,14,16,16,17,17,18,18,19,19,20,20,21,21,23,23,24,24,25,25,26,26,27,27,28,28,30,30,31,31,32,32,33,33,34,34,39,39,42,42,45,45,46,46,47,47,48,48,49,49,50,50,51,51,52,52],"right_children":[2,4,6,8,10,12,14,16,18,-1,20,22,24,26,28,-1,30,32,34,36,38,40,-1,42,44,46,48,50,52,-1,54,56,58,60,62,-1,-1,-1,-1,64,-1,-1,66,-1,-1,68,70,72,74,76,78,80,82,-1,-1,-1,-1,-1,-1,-1,-1,-1,-1,-1,-1,-1,-1,-1,-1,-1,-1,-1,-1,-1,-1,-1,-1,-1,-1,-1,-1,-1,-1],"split_conditions":[1.15887E1,1.14862E1,5.05125E0,6.489992E0,2.7420084E1,1.5893093E1,1.2549167E1,7.1283336E0,9.9700294E1,2.1834328E0,1E-1,1.4494192E1,8E-1,1.2013749E1,1.291375E1,1.8894544E0,9.634583E0,1E-1,1.1240833E1,9.813748E0,1.8978333E1,1.3722565E1,-9.094742E-1,4.4054165E0,3.9970834E0,1.2594856E1,8E-1,7.3E0,1.3442917E1,-7.419024E-1,9.327041E1,9.5535755E0,3E-1,1.6844994E2,1.1096579E2,-7.8777725E-1,-1.0707308E-2,1.2301065E0,-2.7870476E-1,2.1011003E1,4.8760635E-1,-3.5482138E-1,1E-1,1.3716274E-1,1.1338735E-2,1.2387348E1,1.27279215E1,3E-1,2.1000001E0,1.2713752E1,1.9813087E1,1.3267917E1,1.8161278E1,1.1009065E0,2.1973E-1,-2.0256866E-2,3.0621678E-1,-7.127913E-1,-2.7960153E-2,5.9074986E-1,2.064518E0,7.378004E-1,-8.823828E-2,-1.1950214E-1,-6.583294E-1,-2.655151E-2,-2.4366128E-1,8.475585E-2,9.9527526E-1,-8.0755514E-1,-4.7760967E-2,4.2690283E-1,2.3161697E0,-2.3910119E-1,2.894907E-1,-1.8982966E-1,-6.29383E-1,-6.488772E-2,2.1773025E-1,-9.813359E-2,4.551261E-1,-1.6420513E-2,-1.0976883E-1],"split_indices":[2,2,0,2,3,2,0,0,3,0,1,2,1,0,0,0,0,1,0,0,0,2,0,0,0,2,1,1,0,0,3,2,1,3,3,0,0,0,0,3,0,0,1,0,0,2,2,1,1,0,2,0,2,0,0,0,0,0,0,0,0,0,0,0,0,0,0,0,0,0,0,0,0,0,0,0,0,0,0,0,0,0,0],"split_type":[0,0,0,0,0,0,0,0,0,0,0,0,0,0,0,0,0,0,0,0,0,0,0,0,0,0,0,0,0,0,0,0,0,0,0,0,0,0,0,0,0,0,0,0,0,0,0,0,0,0,0,0,0,0,0,0,0,0,0,0,0,0,0,0,0,0,0,0,0,0,0,0,0,0,0,0,0,0,0,0,0,0,0],"sum_hessian":[1.885E3,4.12E2,1.473E3,4.05E2,7E0,1.9E1,1.454E3,8E0,3.97E2,2E0,5E0,1.1E1,8E0,3.85E2,1.069E3,2E0,6E0,2.92E2,1.05E2,2E0,3E0,7E0,4E0,6E0,2E0,3.38E2,4.7E1,2.6E1,1.043E3,2E0,4E0,1.98E2,9.4E1,2.9E1,7.6E1,1E0,1E0,2E0,1E0,5E0,2E0,2E0,4E0,1E0,1E0,4E1,2.98E2,2.3E1,2.4E1,2.2E1,4E0,4.8E1,9.95E2,2E0,2E0,1.05E2,9.3E1,1.7E1,7.7E1,2.5E1,4E0,9E0,6.7E1,1E0,4E0,3E0,1E0,2.9E1,1.1E1,6E0,2.92E2,1.8E1,5E0,6E0,1.8E1,1.1E1,1.1E1,1E0,3E0,2.5E1,2.3E1,5.68E2,4.27E2],"tree_param":{"num_deleted":"0","num_feature":"4","num_nodes":"83","size_leaf_vector":"1"}},{"base_weights":[1.670349E-2,8.589074E-1,-2.4994425E-2,2.2267713E-1,2.1675675E0,9.199829E-2,-1.5298995E-1,4.793217E-1,-2.7476063E0,8.4935987E-1,5.002544E0,2.1908723E-1,-2.0682982E-1,-3.597839E-1,-2.4575265E-2,1.7224493E0,-2.936819E-1,-1.0146865E0,-1.1970559E0,-8.24842E-1,1.4241006E0,2.0767918E0,2.8887236E0,3.2255167E-1,-4.3977153E-1,4.115037E-3,-8.079345E-1,-1.1555961E0,-3.0177203E-1,1.149446E0,-7.5171135E-2,2.2992487E0,-6.9851816E-1,-1.3808945E0,2.3992747E-1,6.1118607E-3,-5.4478705E-1,-1.5722911E-1,-3.3580235E-1,1.0353422E0,6.9084984E-1,3.7626061E0,7.606392E-1,2.7353504E-1,2.2531748E0,-1.5050262E0,-2.878019E-1,-2.3960191E-1,9.50548E-1,-1.2818985E0,-3.6186597E-1,-1.6879262E0,-1.9912773E-1,7.2596323E-1,-3.7185138E-1,2.2897594E0,-4.479059E-1,1.5732416E0,-9.79166E-2,1.1668373E-1,1.3915527E0,3.903205E-1,-4.571046E-1,-5.7402396E-1,4.8748758E-2,2.4191122E-1,-2.0711233E-1,-6.303921E-2,-7.71389E-3,3.7784466E-1,-4.8732552E-1,2.7069914E-1,1.3245764E0,4.0028602E-1,-5.7998374E-2,6.0702708E-2,4.695633E-1,1.4056778E0,1.1436294E-1,-2.7099106E-1,-6.1392987E-1,-1.102544E-1,3.9558575E-1,3.0192685E-1,-1.08058564E-1,1.9346128E0,1.13090456E-1,-4.469073E-1,4.2933533E-1,1.5733847E-1,-1.8225414E-1,1.1333371E-2,-5.470736E-1,3.661596E-1,-1.5874551E-1,-3.412428E-1,2.9886153E-1,-3.530518E-2,-1.5821587E-1,9.392886E-1,-1.1570615E-1,-5.58189E-1,1.2700544E-1,2.3818446E-2,1.0615718E0,-6.31404E-2,4.165045E-2],"categories":[],"categories_nodes":[],"categories_segments":[],"categories_sizes":[],"default_left":[0,0,0,0,0,0,0,0,0,0,0,0,0,0,0,0,0,0,0,0,0,0,0,0,0,0,0,0,0,0,0,0,0,0,0,0,0,0,0,0,0,0,0,0,0,0,0,0,0,0,0,0,0,0,0,0,0,0,0,0,0,0,0,0,0,0,0,0,0,0,0,0,0,0,0,0,0,0,0,0,0,0,0,0,0,0,0,0,0,0,0,0,0,0,0,0,0,0,0,0,0,0,0,0,0,0,0],"id":8,"left_children":[1,3,5,7,9,11,13,15,17,19,21,23,25,27,29,31,33,-1,35,37,39,-1,41,43,45,47,49,51,53,55,57,59,61,63,65,-1,-1,67,-1,-1,69,71,73,75,77,79,81,83,85,87,89,91,93,95,97,99,101,103,105,-1,-1,-1,-1,-1,-1,-1,-1,-1,-1,-1,-1,-1,-1,-1,-1,-1,-1,-1,-1,-1,-1,-1,-1,-1,-1,-1,-1,-1,-1,-1,-1,-1,-1,-1,-1,-1,-1,-1,-1,-1,-1,-1,-1,-1,-1,-1,-1],"loss_changes":[6.6254295E1,7.361954E1,2.6938305E1,4.7817722E1,1.0412659E2,3.5744392E1,2.2802227E1,5.527955E1,8.7173843E-1,2.1381533E1,1.6531006E1,4.5133026E1,3.5634113E1,1.4840073E1,3.1628138E1,3.232714E1,2.1216602E1,0E0,2.2973995E0,1.0036755E0,2.1397034E1,0E0,8.296185E0,5.3418903E1,1.4136627E1,4.8436058E1,1.4969814E1,1.0865337E1,2.2453037E1,4.1098194E1,1.927595E1,7.863239E1,1.0232345E1,1.0173531E1,1.3730776E1,0E0,0E0,1.5469156E-2,0E0,0E0,1.9160898E1,3.482998E0,1.8996775E0,5.0995808E1,6.1961426E1,1.734993E0,1.0728792E1,2.5456293E1,1.3317531E2,2.1862972E1,8.80987E0,3.3462334E0,4.862541E0,1.1204745E1,1.1362648E1,3.0465271E1,1.3096161E1,2.027038E1,1.3459156E1,0E0,0E0,0E0,0E0,0E0,0E0,0E0,0E0,0E0,0E0,0E0,0E0,0E0,0E0,0E0,0E0,0E0,0E0,0E0,0E0,0E0,0E0,0E0,0E0,0E0,0E0,0E0,0E0,0E0,0E0,0E0,0E0,0E0,0E0,0E0,0E0,0E0,0E0,0E0,0E0,0E0,0E0,0E0,0E0,0E0,0E0,0E0,0E0],"parents":[2147483647,0,0,1,1,2,2,3,3,4,4,5,5,6,6,7,7,8,8,9,9,10,10,11,11,12,12,13,13,14,14,15,15,16,16,18,18,19,19,20,20,22,22,23,23,24,24,25,25,26,26,27,27,28,28,29,29,30,30,31,31,32,32,33,33,34,34,37,37,40,40,41,41,42,42,43,43,44,44,45,45,46,46,47,47,48,48,49,49,50,50,51,51,52,52,53,53,54,54,55,55,56,56,57,57,58,58],"right_children":[2,4,6,8,10,12,14,16,18,20,22,24,26,28,30,32,34,-1,36,38,40,-1,42,44,46,48,50,52,54,56,58,60,62,64,66,-1,-1,68,-1,-1,70,72,74,76,78,80,82,84,86,88,90,92,94,96,98,100,102,104,106,-1,-1,-1,-1,-1,-1,-1,-1,-1,-1,-1,-1,-1,-1,-1,-1,-1,-1,-1,-1,-1,-1,-1,-1,-1,-1,-1,-1,-1,-1,-1,-1,-1,-1,-1,-1,-1,-1,-1,-1,-1,-1,-1,-1,-1,-1,-1,-1],"split_conditions":[8.707237E0,7.570964E1,1.6572083E1,7.439782E1,8.260411E0,1.9000001E0,2.172625E1,9.922083E0,7.7879906E0,1.1328332E1,1.0449166E1,2.124305E1,1.7933379E2,1.686375E1,2.2040833E1,5.998764E1,1.3003334E1,-1.0146865E0,8.417916E0,7.5599995E0,9.327041E1,2.0767918E0,8.435069E0,1.4000001E0,2.1758419E1,1.6323938E2,2.124305E1,4.3999996E0,1.7251247E1,1E-1,1.0948973E1,4.366793E1,6.509583E0,5.998764E1,4.5605587E1,6.1118607E-3,-5.4478705E-1,9.634583E0,-3.3580235E-1,1.0353422E0,1.4265834E1,8.379666E1,1.1384583E1,1.9376562E1,1.1524166E1,1.4E0,3.2399998E1,9.779817E0,1.6389899E2,3.489927E2,1.8658186E2,1.1238113E1,5.9999995E0,9.5535755E0,1.5438084E2,2.686678E2,4E-1,1.0636766E1,2.757833E1,1.1668373E-1,1.3915527E0,3.903205E-1,-4.571046E-1,-5.7402396E-1,4.8748758E-2,2.4191122E-1,-2.0711233E-1,-6.303921E-2,-7.71389E-3,3.7784466E-1,-4.8732552E-1,2.7069914E-1,1.3245764E0,4.0028602E-1,-5.7998374E-2,6.0702708E-2,4.695633E-1,1.4056778E0,1.1436294E-1,-2.7099106E-1,-6.1392987E-1,-1.102544E-1,3.9558575E-1,3.0192685E-1,-1.08058564E-1,1.9346128E0,1.13090456E-1,-4.469073E-1,4.2933533E-1,1.5733847E-1,-1.8225414E-1,1.1333371E-2,-5.470736E-1,3.661596E-1,-1.5874551E-1,-3.412428E-1,2.9886153E-1,-3.530518E-2,-1.5821587E-1,9.392886E-1,-1.1570615E-1,-5.58189E-1,1.2700544E-1,2.3818446E-2,1.0615718E0,-6.31404E-2,4.165045E-2],"split_indices":[2,3,0,3,2,1,0,0,2,0,0,2,3,0,0,3,0,0,0,2,3,0,2,1,2,3,2,1,0,1,2,3,0,3,3,0,0,0,0,0,0,3,0,2,0,1,2,2,3,3,3,2,1,2,3,3,1,2,0,0,0,0,0,0,0,0,0,0,0,0,0,0,0,0,0,0,0,0,0,0,0,0,0,0,0,0,0,0,0,0,0,0,0,0,0,0,0,0,0,0,0,0,0,0,0,0,0],"split_type":[0,0,0,0,0,0,0,0,0,0,0,0,0,0,0,0,0,0,0,0,0,0,0,0,0,0,0,0,0,0,0,0,0,0,0,0,0,0,0,0,0,0,0,0,0,0,0,0,0,0,0,0,0,0,0,0,0,0,0,0,0,0,0,0,0,0,0,0,0,0,0,0,0,0,0,0,0,0,0,0,0,0,0,0,0,0,0,0,0,0,0,0,0,0,0,0,0,0,0,0,0,0,0,0,0,0,0],"sum_hessian":[1.885E3,8.8E1,1.797E3,6E1,2.8E1,9.39E2,8.58E2,5.6E1,4E0,2E1,8E0,6.59E2,2.8E2,3.28E2,5.3E2,2.1E1,3.5E1,2E0,2E0,5E0,1.5E1,3E0,5E0,5.7E2,8.9E1,2.08E2,7.2E1,2.1E1,3.07E2,2.1E1,5.09E2,1.7E1,4E0,1.1E1,2.4E1,1E0,1E0,2E0,3E0,3E0,1.2E1,3E0,2E0,5.57E2,1.3E1,1E1,7.9E1,1.66E2,4.2E1,3.4E1,3.8E1,1.3E1,8E0,1.9E1,2.88E2,1.2E1,9E0,6E0,5.03E2,1E1,7E0,1E0,3E0,8E0,3E0,1.5E1,9E0,1E0,1E0,1E1,2E0,1E0,2E0,1E0,1E0,5.29E2,2.8E1,5E0,8E0,6E0,4E0,7.6E1,3E0,1.4E1,1.52E2,3E0,3.9E1,3.2E1,2E0,8E0,3E1,1E0,1.2E1,1E0,7E0,2E0,1.7E1,1.1E2,1.78E2,9E0,3E0,3E0,6E0,4E0,2E0,3.41E2,1.62E2],"tree_param":{"num_deleted":"0","num_feature":"4","num_nodes":"107","size_leaf_vector":"1"}},{"base_weights":[1.6185153E-2,6.4540684E-1,-1.4969971E-2,1.4599884E-1,1.6736302E0,-7.3277813E-1,3.8743787E-3,3.52209E-1,-2.2339966E0,6.192808E-1,3.9478202E0,-3.5455266E-1,-1.1292716E0,1.2487655E0,-2.221407E-2,1.4728378E0,-1.2103244E-1,-8.1174916E-1,-1.0174975E0,9.830029E-1,-1.172289E0,1.6095136E0,2.3450334E0,-1.078909E0,1.3195682E0,-1.917383E0,-4.3616515E-1,-1.9452684E0,1.7088094E0,-3.603682E-3,-6.560331E-1,1.0122734E0,3.9939785E-1,-2.0727143E0,8.759282E-2,5.195046E-3,-4.6306896E-1,7.6284885E-2,2.3969476E0,-3.2364528E-3,-7.0191705E-1,3.0326426E0,6.465435E-1,-2.2786934E0,-5.7334965E-1,-4.6739054E-1,1.9931196E0,-6.945795E-1,2.4953307E-1,6.6423565E-1,-1.4526622E0,-1.216921E0,8.142891E-1,2.0199457E-2,3.0210505E0,-1.1432399E0,6.7212856E-3,-1.2444077E0,3.3847436E-1,-3.5762173E-1,8.5976124E-1,-7.012256E-1,-1.9179018E-1,9.981516E-2,-3.1364667E-1,3.945632E-1,-2.1227379E-1,9.3141866E-1,3.2697895E-1,-2.8101784E-1,2.7956143E-1,2.3009421E-1,1.0596609E0,3.4024316E-1,-4.9298573E-2,-8.8532984E-1,6.1639454E-2,1.4820653E-1,-2.3772402E-1,-1.7946053E-2,-1.923797E-1,7.779307E-1,-1.5101904E-1,-7.954008E-1,-6.34971E-2,3.1371504E-1,5.2715067E-2,-6.763782E-1,2.3303421E-1,1.08808E0,2.1611045E-1,-3.7855896E-1,-7.443765E-2,1.3629244E-1,-8.280294E-3,-2.1174885E-1,-5.315507E-1,4.566187E-1,-5.7886314E-2],"categories":[],"categories_nodes":[],"categories_segments":[],"categories_sizes":[],"default_left":[0,0,0,0,0,0,0,0,0,0,0,0,0,0,0,0,0,0,0,0,0,0,0,0,0,0,0,0,0,0,0,0,0,0,0,0,0,0,0,0,0,0,0,0,0,0,0,0,0,0,0,0,0,0,0,0,0,0,0,0,0,0,0,0,0,0,0,0,0,0,0,0,0,0,0,0,0,0,0,0,0,0,0,0,0,0,0,0,0,0,0,0,0,0,0,0,0,0,0],"id":9,"left_children":[1,3,5,7,9,11,13,15,17,19,21,23,25,27,29,31,33,-1,35,37,39,-1,41,43,45,47,49,51,53,55,57,-1,59,61,63,-1,-1,65,67,69,-1,71,73,75,77,79,81,-1,-1,-1,83,-1,85,87,89,91,93,95,97,-1,-1,-1,-1,-1,-1,-1,-1,-1,-1,-1,-1,-1,-1,-1,-1,-1,-1,-1,-1,-1,-1,-1,-1,-1,-1,-1,-1,-1,-1,-1,-1,-1,-1,-1,-1,-1,-1,-1,-1],"loss_changes":[3.698182E1,4.545742E1,2.4323715E1,3.072437E1,6.709112E1,6.497959E0,5.696041E1,3.0406954E1,1.1674881E-1,1.4836668E1,7.862381E0,3.17402E1,1.1181097E1,5.6222332E1,2.0262506E1,3.3350117E1,1.687553E1,0E0,1.6598706E0,2.2894033E1,5.451596E0,0E0,5.04665E0,9.611631E0,1.0560432E1,1.2864193E1,3.823844E1,3.2432076E1,7.084661E1,1.9658083E1,2.9093197E1,0E0,5.0520145E1,2.3410797E-2,1.0902197E1,0E0,0E0,1.2584408E1,3.0916443E0,3.4916487E0,0E0,1.8182068E0,1.3725166E0,8.95816E0,3.6649814E0,1.7423844E-1,1.0292559E1,0E0,0E0,0E0,1.4314428E1,0E0,2.595997E-1,2.7567312E1,2.2478256E1,1.2796211E0,2.5452333E1,7.5552826E0,1.2244549E1,0E0,0E0,0E0,0E0,0E0,0E0,0E0,0E0,0E0,0E0,0E0,0E0,0E0,0E0,0E0,0E0,0E0,0E0,0E0,0E0,0E0,0E0,0E0,0E0,0E0,0E0,0E0,0E0,0E0,0E0,0E0,0E0,0E0,0E0,0E0,0E0,0E0,0E0,0E0,0E0],"parents":[2147483647,0,0,1,1,2,2,3,3,4,4,5,5,6,6,7,7,8,8,9,9,10,10,11,11,12,12,13,13,14,14,15,15,16,16,18,18,19,19,20,20,22,22,23,23,24,24,25,25,26,26,27,27,28,28,29,29,30,30,32,32,33,33,34,34,37,37,38,38,39,39,41,41,42,42,43,43,44,44,45,45,46,46,50,50,52,52,53,53,54,54,55,55,56,56,57,57,58,58],"right_children":[2,4,6,8,10,12,14,16,18,20,22,24,26,28,30,32,34,-1,36,38,40,-1,42,44,46,48,50,52,54,56,58,-1,60,62,64,-1,-1,66,68,70,-1,72,74,76,78,80,82,-1,-1,-1,84,-1,86,88,90,92,94,96,98,-1,-1,-1,-1,-1,-1,-1,-1,-1,-1,-1,-1,-1,-1,-1,-1,-1,-1,-1,-1,-1,-1,-1,-1,-1,-1,-1,-1,-1,-1,-1,-1,-1,-1,-1,-1,-1,-1,-1,-1],"split_conditions":[8.707237E0,7.570964E1,5.611667E0,7.439782E1,8.260411E0,3.454845E1,6.509583E0,9.5824995E0,7.7879906E0,8.209263E0,1.0449166E1,2.6340614E1,4.5605587E1,9.432412E0,2.17E1,7.5599995E0,2.1606638E1,-8.1174916E-1,8.417916E0,1.2403335E1,1.2109584E1,1.6095136E0,8.435069E0,1.1966954E1,9.726664E0,5.42625E0,4.8427505E1,6.3929176E0,2.5447977E1,6.840833E0,2.9099997E1,1.0122734E0,8.022083E0,1E-1,1.9000001E0,5.195046E-3,-4.6306896E-1,9.518235E1,1E-1,7.409584E0,-7.0191705E-1,8.379666E1,1.1384583E1,1E-1,1.4494192E1,5.05125E0,1.6981165E1,-6.945795E-1,2.4953307E-1,6.6423565E-1,5.4008427E1,-1.216921E0,9.1641035E0,1.4186923E1,1.3779114E1,2.9999998E0,8.705417E0,2.45E1,1.8899143E1,-3.5762173E-1,8.5976124E-1,-7.012256E-1,-1.9179018E-1,9.981516E-2,-3.1364667E-1,3.945632E-1,-2.1227379E-1,9.3141866E-1,3.2697895E-1,-2.8101784E-1,2.7956143E-1,2.3009421E-1,1.0596609E0,3.4024316E-1,-4.9298573E-2,-8.8532984E-1,6.1639454E-2,1.4820653E-1,-2.3772402E-1,-1.7946053E-2,-1.923797E-1,7.779307E-1,-1.5101904E-1,-7.954008E-1,-6.34971E-2,3.1371504E-1,5.2715067E-2,-6.763782E-1,2.3303421E-1,1.08808E0,2.1611045E-1,-3.7855896E-1,-7.443765E-2,1.3629244E-1,-8.280294E-3,-2.1174885E-1,-5.315507E-1,4.566187E-1,-5.7886314E-2],"split_indices":[2,3,0,3,2,3,0,0,2,2,0,3,3,2,1,2,3,0,0,0,0,0,2,2,2,0,3,0,3,0,1,0,0,1,1,0,0,3,1,0,0,3,0,1,2,0,2,0,0,0,3,0,2,2,2,1,0,1,2,0,0,0,0,0,0,0,0,0,0,0,0,0,0,0,0,0,0,0,0,0,0,0,0,0,0,0,0,0,0,0,0,0,0,0,0,0,0,0,0],"split_type":[0,0,0,0,0,0,0,0,0,0,0,0,0,0,0,0,0,0,0,0,0,0,0,0,0,0,0,0,0,0,0,0,0,0,0,0,0,0,0,0,0,0,0,0,0,0,0,0,0,0,0,0,0,0,0,0,0,0,0,0,0,0,0,0,0,0,0,0,0,0,0,0,0,0,0,0,0,0,0,0,0,0,0,0,0,0,0,0,0,0,0,0,0,0,0,0,0,0,0],"sum_hessian":[1.885E3,8.8E1,1.797E3,6E1,2.8E1,4.5E1,1.752E3,5.6E1,4E0,2E1,8E0,2.4E1,2.1E1,3.5E1,1.717E3,1.6E1,4E1,2E0,2E0,1.7E1,3E0,3E0,5E0,1.7E1,7E0,9E0,1.2E1,4E0,3.1E1,1.669E3,4.8E1,5E0,1.1E1,3E0,3.7E1,1E0,1E0,1.1E1,6E0,2E0,1E0,3E0,2E0,4E0,1.3E1,2E0,5E0,8E0,1E0,3E0,9E0,2E0,2E0,1.4E1,1.7E1,1.4E1,1.655E3,3E1,1.8E1,7E0,4E0,2E0,1E0,3.1E1,6E0,4E0,7E0,3E0,3E0,1E0,1E0,1E0,2E0,1E0,1E0,3E0,1E0,2E0,1.1E1,1E0,1E0,4E0,1E0,4E0,5E0,1E0,1E0,3E0,1.1E1,1.3E1,4E0,1.2E1,2E0,1.17E2,1.538E3,1.6E1,1.4E1,5E0,1.3E1],"tree_param":{"num_deleted":"0","num_feature":"4","num_nodes":"99","size_leaf_vector":"1"}},{"base_weights":[1.2003012E-2,2.7974826E-1,-3.7618127E-2,-1.2682384E0,3.6720553E-1,-1.8119078E-2,-6.0348445E-1,-7.6388633E-1,-7.770969E-1,6.6193366E-1,5.9137978E-2,-3.2043555E-1,2.3393089E-2,9.485584E-1,-8.602857E-1,3.3163422E-1,-2.097266E0,5.434657E-1,1.392849E0,-7.214746E-1,2.3822461E-1,-1.7911948E0,-1.7147473E-1,2.4787872E-1,-6.6936076E-2,-2.8613216E-1,6.7643464E-1,-1.1581745E0,6.994578E-1,-5.4547554E-1,5.925927E-1,9.4996266E-2,-2.6433809E0,1.5786822E0,4.716593E-1,-1.699034E0,5.605976E-1,-7.7521944E-1,4.01254E-1,-2.5387788E0,2.5058587E-3,1.0593843E0,-3.5206148E-1,1.2113646E-1,1.611488E0,1.6151291E0,-7.8151874E-2,1.9874191E-1,-3.41808E-1,-1.5822685E0,-8.271879E-1,5.9645694E-1,-6.1484497E-2,1.8442613E-1,-3.837836E-1,-8.94333E-1,-1.9386978E-1,7.7368334E-2,4.790332E-1,3.9629248E-1,-7.6923525E-1,7.8985023E-1,-3.8870713E-1,-4.6222478E-1,5.487122E-2,7.014259E-1,7.485746E-2,-2.7875143E-1,-8.3033496E-1,5.2939314E-1,-3.959172E-1,5.3540967E-2,1.0136235E0,-4.790095E-1,-6.334819E-2,-7.987831E-1,5.2892298E-2,7.624449E-1,-4.4315816E-3,-4.9015576E-1,-1.7556593E-2,-7.214162E-1,-3.6224803E-1,-1.3155757E-1,-3.366971E-1,-9.389266E-2,8.829951E-2],"categories":[],"categories_nodes":[],"categories_segments":[],"categories_sizes":[],"default_left":[0,0,0,0,0,0,0,0,0,0,0,0,0,0,0,0,0,0,0,0,0,0,0,0,0,0,0,0,0,0,0,0,0,0,0,0,0,0,0,0,0,0,0,0,0,0,0,0,0,0,0,0,0,0,0,0,0,0,0,0,0,0,0,0,0,0,0,0,0,0,0,0,0,0,0,0,0,0,0,0,0,0,0,0,0,0,0],"id":10,"left_children":[1,3,5,7,9,11,13,15,-1,17,19,21,23,25,27,29,31,33,-1,35,37,39,41,43,45,47,-1,49,51,53,-1,-1,55,-1,57,59,61,63,65,67,69,71,73,75,77,-1,79,-1,-1,81,83,-1,85,-1,-1,-1,-1,-1,-1,-1,-1,-1,-1,-1,-1,-1,-1,-1,-1,-1,-1,-1,-1,-1,-1,-1,-1,-1,-1,-1,-1,-1,-1,-1,-1,-1,-1],"loss_changes":[2.5067587E1,4.0403603E1,1.7554962E1,8.690025E0,2.5383781E1,1.9334208E1,2.1940062E1,1.968521E1,0E0,6.491684E1,1.9463896E1,4.044276E1,2.7492737E1,1.35474205E1,2.2183079E1,1.2610948E1,8.746702E0,4.4955647E1,0E0,3.353832E1,1.898105E1,2.280238E1,3.8160034E1,6.703446E1,5.953728E1,4.8016768E0,0E0,4.165573E0,7.967449E0,5.8947206E0,0E0,0E0,1.4459839E0,0E0,3.3019188E1,4.2575535E1,4.9571346E1,1.2017363E1,2.8216234E1,1.8515396E0,1.6308548E1,4.4346466E1,2.5793028E1,5.5298447E1,4.994718E1,0E0,2.9404337E1,0E0,0E0,2.0280685E0,2.26083E0,0E0,6.2902606E-1,0E0,0E0,0E0,0E0,0E0,0E0,0E0,0E0,0E0,0E0,0E0,0E0,0E0,0E0,0E0,0E0,0E0,0E0,0E0,0E0,0E0,0E0,0E0,0E0,0E0,0E0,0E0,0E0,0E0,0E0,0E0,0E0,0E0,0E0],"parents":[2147483647,0,0,1,1,2,2,3,3,4,4,5,5,6,6,7,7,9,9,10,10,11,11,12,12,13,13,14,14,15,15,16,16,17,17,19,19,20,20,21,21,22,22,23,23,24,24,25,25,27,27,28,28,29,29,32,32,34,34,35,35,36,36,37,37,38,38,39,39,40,40,41,41,42,42,43,43,44,44,46,46,49,49,50,50,52,52],"right_children":[2,4,6,8,10,12,14,16,-1,18,20,22,24,26,28,30,32,34,-1,36,38,40,42,44,46,48,-1,50,52,54,-1,-1,56,-1,58,60,62,64,66,68,70,72,74,76,78,-1,80,-1,-1,82,84,-1,86,-1,-1,-1,-1,-1,-1,-1,-1,-1,-1,-1,-1,-1,-1,-1,-1,-1,-1,-1,-1,-1,-1,-1,-1,-1,-1,-1,-1,-1,-1,-1,-1,-1,-1],"split_conditions":[1.0464797E1,6.222084E0,3.3291144E2,9.904906E0,1.1853333E1,2.5447977E1,1.2783802E1,4.9635548E1,-7.770969E-1,1.5216905E2,1.3190833E1,1.1966954E1,1.5216905E2,1.2031756E1,2.636792E1,4.044061E1,4.4054165E0,9.313527E0,1.392849E0,8.21467E1,3.0682018E1,1.686375E1,1.3044722E1,1.4912967E2,1.0495713E1,1.1440978E1,6.7643464E-1,1.6263872E1,2.7678335E1,3.1419174E1,5.925927E-1,9.4996266E-2,1E-1,1.5786822E0,1.1107499E1,2.3591326E1,1E-1,9.102021E0,1.3442917E1,4.832499E0,1.1200571E1,1.2768586E1,1.4336861E1,1.0495713E1,2.0188908E1,1.6151291E0,8.784583E0,1.9874191E-1,-3.41808E-1,1.0849167E1,1.2482498E1,5.9645694E-1,1.8899143E1,1.8442613E-1,-3.837836E-1,-8.94333E-1,-1.9386978E-1,7.7368334E-2,4.790332E-1,3.9629248E-1,-7.6923525E-1,7.8985023E-1,-3.8870713E-1,-4.6222478E-1,5.487122E-2,7.014259E-1,7.485746E-2,-2.7875143E-1,-8.3033496E-1,5.2939314E-1,-3.959172E-1,5.3540967E-2,1.0136235E0,-4.790095E-1,-6.334819E-2,-7.987831E-1,5.2892298E-2,7.624449E-1,-4.4315816E-3,-4.9015576E-1,-1.7556593E-2,-7.214162E-1,-3.6224803E-1,-1.3155757E-1,-3.366971E-1,-9.389266E-2,8.829951E-2],"split_indices":[2,0,3,2,0,3,2,3,0,3,0,2,3,2,0,3,0,3,0,3,3,0,2,3,2,2,0,2,0,3,0,0,1,0,0,3,1,2,0,0,2,2,2,2,2,0,0,0,0,0,0,0,2,0,0,0,0,0,0,0,0,0,0,0,0,0,0,0,0,0,0,0,0,0,0,0,0,0,0,0,0,0,0,0,0,0,0],"split_type":[0,0,0,0,0,0,0,0,0,0,0,0,0,0,0,0,0,0,0,0,0,0,0,0,0,0,0,0,0,0,0,0,0,0,0,0,0,0,0,0,0,0,0,0,0,0,0,0,0,0,0,0,0,0,0,0,0,0,0,0,0,0,0,0,0,0,0,0,0,0,0,0,0,0,0,0,0,0,0,0,0,0,0,0,0,0,0],"sum_hessian":[1.885E3,2.94E2,1.591E3,1.5E1,2.79E2,1.539E3,5.2E1,1.2E1,3E0,1.42E2,1.37E2,1.85E2,1.354E3,7E0,4.5E1,7E0,5E0,1.39E2,3E0,2.5E1,1.12E2,1.6E1,1.69E2,3.88E2,9.66E2,4E0,3E0,3.8E1,7E0,5E0,2E0,1E0,4E0,1E0,1.38E2,1.4E1,1.1E1,1.5E1,9.7E1,1.1E1,5E0,2.1E1,1.48E2,3.56E2,3.2E1,1E0,9.65E2,2E0,2E0,1.5E1,2.3E1,2E0,5E0,2E0,3E0,3E0,1E0,1.17E2,2.1E1,3E0,1.1E1,5E0,6E0,8E0,7E0,6E0,9.1E1,2E0,9E0,2E0,3E0,1.6E1,5E0,1.4E1,1.34E2,6E0,3.5E2,2E1,1.2E1,1.1E1,9.54E2,3E0,1.2E1,1.1E1,1.2E1,3E0,2E0],"tree_param":{"num_deleted":"0","num_feature":"4","num_nodes":"87","size_leaf_vector":"1"}},{"base_weights":[9.8809255E-3,7.184419E-2,-1.18913665E-1,2.4496704E-2,6.042679E-1,2.3656874E0,-1.350112E-1,8.158657E-2,-3.5024452E-1,1.1044302E0,-2.9349905E-1,1.3188747E0,2.2341728E-1,-1.520434E-1,9.021263E-1,-5.6808654E-2,2.9608548E-1,-1.1760725E0,3.1211685E-2,3.643177E0,4.2578423E-1,-3.9380616E-1,5.126796E-1,-9.225455E-2,1.9279233E-1,-7.201803E-1,-1.1456888E-1,1.542294E0,-4.4369876E-1,-3.447797E-3,-1.4394009E0,1.4350675E0,1.5087342E-1,-2.133067E0,9.5378235E-2,5.7333195E-1,-2.1829239E-1,1.5655262E0,-2.3594484E-1,1.2108334E-1,1.2877094E0,-6.8685293E-1,3.374598E-2,-1.6835762E0,-3.010123E-1,-6.875865E-2,-5.13828E-1,3.8981533E-1,6.927598E-1,7.5730175E-2,-2.279663E-1,-8.737811E-3,5.67226E-1,3.6719978E-1,-6.741703E-1,1.4768472E-1,6.9463754E-1,-2.0701581E-1,8.3487906E-2,-1.0055095E0,-3.4421465E-1,1.065377E0,-7.148846E-2,-2.2872958E-2,5.8153975E-1,2.0063717E-2,-1.7238688E-1,1.9136904E-1,-1.8416384E-1,-2.9621732E-1,1.1350187E-1,6.5413535E-1,2.1377026E-1,2.8668344E-3,-3.0374426E-1,3.2391167E-1,-8.7205075E-2,-8.536324E-1,-2.6765904E-1,1.0699946E-1,-1.194249E-1,4.7209746E-1,-2.6464023E-2,-2.1162802E-1,1.4291656E-1,2.1762379E-1,1.0843611E-2],"categories":[],"categories_nodes":[],"categories_segments":[],"categories_sizes":[],"default_left":[0,0,0,0,0,0,0,0,0,0,0,0,0,0,0,0,0,0,0,0,0,0,0,0,0,0,0,0,0,0,0,0,0,0,0,0,0,0,0,0,0,0,0,0,0,0,0,0,0,0,0,0,0,0,0,0,0,0,0,0,0,0,0,0,0,0,0,0,0,0,0,0,0,0,0,0,0,0,0,0,0,0,0,0,0,0,0],"id":11,"left_children":[1,3,5,7,9,11,13,15,17,19,21,-1,23,25,27,29,31,33,35,37,39,41,-1,-1,-1,43,45,47,49,51,53,55,57,59,61,63,65,-1,67,69,71,73,75,77,79,81,83,85,-1,-1,-1,-1,-1,-1,-1,-1,-1,-1,-1,-1,-1,-1,-1,-1,-1,-1,-1,-1,-1,-1,-1,-1,-1,-1,-1,-1,-1,-1,-1,-1,-1,-1,-1,-1,-1,-1,-1],"loss_changes":[1.5059829E1,3.210137E1,2.4836895E1,2.5080866E1,4.702319E1,1.6417847E1,1.09126625E1,3.0207096E1,4.886437E1,1.1388379E2,8.3055935E0,0E0,8.653604E-1,1.2713177E1,9.29985E0,4.566257E1,6.577565E1,5.982525E1,1.45981045E1,8.677913E1,1.4026065E1,4.659011E0,0E0,0E0,0E0,1.4434738E1,1.0298603E1,5.2867317E0,1.0722588E0,2.9092999E1,5.2237034E1,3.6211006E1,3.8230453E1,2.9787537E1,2.6215185E1,3.0297527E1,7.5579615E0,0E0,2.0428667E0,1.2065208E1,5.6346245E0,4.998622E0,5.7432957E0,7.5755444E0,1.8656936E0,1.6370848E1,1.1340062E1,4.4854236E-1,0E0,0E0,0E0,0E0,0E0,0E0,0E0,0E0,0E0,0E0,0E0,0E0,0E0,0E0,0E0,0E0,0E0,0E0,0E0,0E0,0E0,0E0,0E0,0E0,0E0,0E0,0E0,0E0,0E0,0E0,0E0,0E0,0E0,0E0,0E0,0E0,0E0,0E0,0E0],"parents":[2147483647,0,0,1,1,2,2,3,3,4,4,5,5,6,6,7,7,8,8,9,9,10,10,12,12,13,13,14,14,15,15,16,16,17,17,18,18,19,19,20,20,21,21,25,25,26,26,27,27,28,28,29,29,30,30,31,31,32,32,33,33,34,34,35,35,36,36,38,38,39,39,40,40,41,41,42,42,43,43,44,44,45,45,46,46,47,47],"right_children":[2,4,6,8,10,12,14,16,18,20,22,-1,24,26,28,30,32,34,36,38,40,42,-1,-1,-1,44,46,48,50,52,54,56,58,60,62,64,66,-1,68,70,72,74,76,78,80,82,84,86,-1,-1,-1,-1,-1,-1,-1,-1,-1,-1,-1,-1,-1,-1,-1,-1,-1,-1,-1,-1,-1,-1,-1,-1,-1,-1,-1,-1,-1,-1,-1,-1,-1,-1,-1,-1,-1,-1,-1],"split_conditions":[1.9502032E2,1.8282208E2,9.292254E0,1.6721094E2,6E-1,1.0774167E1,3.2399998E1,9.518235E1,1.6171976E1,1.5136666E1,2.9099997E1,1.3188747E0,1.2403335E1,2.0033931E2,3.7191677E1,8.6847824E1,1.13507965E2,1.1000001E0,1.8374111E1,1.7651016E1,1E-1,8.1E0,5.126796E-1,-9.225455E-2,1.9279233E-1,1.4336861E1,3.3291144E2,3.305145E1,2E0,8.379666E1,8.435069E0,1.0601208E2,1.0238751E1,1.7307227E2,1.2E0,1.7581125E1,1.5000001E0,1.5655262E0,1.36325E1,1.3584932E1,1.5629971E1,1.5E0,1.1200001E1,1.2832501E1,1.4542918E1,9.072083E0,2.57575E1,1.0774167E1,6.927598E-1,7.5730175E-2,-2.279663E-1,-8.737811E-3,5.67226E-1,3.6719978E-1,-6.741703E-1,1.4768472E-1,6.9463754E-1,-2.0701581E-1,8.3487906E-2,-1.0055095E0,-3.4421465E-1,1.065377E0,-7.148846E-2,-2.2872958E-2,5.8153975E-1,2.0063717E-2,-1.7238688E-1,1.9136904E-1,-1.8416384E-1,-2.9621732E-1,1.1350187E-1,6.5413535E-1,2.1377026E-1,2.8668344E-3,-3.0374426E-1,3.2391167E-1,-8.7205075E-2,-8.536324E-1,-2.6765904E-1,1.0699946E-1,-1.194249E-1,4.7209746E-1,-2.6464023E-2,-2.1162802E-1,1.4291656E-1,2.1762379E-1,1.0843611E-2],"split_indices":[3,3,2,3,1,0,2,3,2,0,1,0,0,3,2,3,3,1,2,2,1,1,0,0,0,2,3,2,1,3,2,3,0,3,1,2,1,0,0,2,2,1,1,0,0,0,0,0,0,0,0,0,0,0,0,0,0,0,0,0,0,0,0,0,0,0,0,0,0,0,0,0,0,0,0,0,0,0,0,0,0,0,0,0,0,0,0],"split_type":[0,0,0,0,0,0,0,0,0,0,0,0,0,0,0,0,0,0,0,0,0,0,0,0,0,0,0,0,0,0,0,0,0,0,0,0,0,0,0,0,0,0,0,0,0,0,0,0,0,0,0,0,0,0,0,0,0,0,0,0,0,0,0,0,0,0,0,0,0,0,0,0,0,0,0,0,0,0,0,0,0,0,0,0,0,0,0],"sum_hessian":[1.885E3,1.273E3,6.12E2,1.17E3,1.03E2,3E0,6.09E2,1.016E3,1.54E2,6.6E1,3.7E1,1E0,2E0,6E2,9E0,6.18E2,3.98E2,4.8E1,1.06E2,1.3E1,5.3E1,3.6E1,1E0,1E0,1E0,3.6E1,5.64E2,6E0,3E0,5.96E2,2.2E1,4.4E1,3.54E2,2.7E1,2.1E1,3.3E1,7.3E1,9E0,4E0,4E1,1.3E1,2.1E1,1.5E1,1E1,2.6E1,5.07E2,5.7E1,3E0,3E0,1E0,2E0,5.89E2,7E0,5E0,1.7E1,2.2E1,2.2E1,4.6E1,3.08E2,1.1E1,1.6E1,1E0,2E1,2.3E1,1E1,4.1E1,3.2E1,1E0,3E0,7E0,3.3E1,4E0,9E0,7E0,1.4E1,3E0,1.2E1,3E0,7E0,3E0,2.3E1,5E0,5.02E2,4.8E1,9E0,1E0,2E0],"tree_param":{"num_deleted":"0","num_feature":"4","num_nodes":"87","size_leaf_vector":"1"}},{"base_weights":[9.651984E-3,7.158896E-2,-1.2129014E-1,-5.444399E-1,8.93301E-2,-2.8421327E-1,9.661608E-2,-3.3272308E-1,-1.3740207E0,1.2410091E0,6.37689E-2,-1.5933794E-1,-6.1861885E-1,3.9551026E-1,-1.8306749E-1,-6.02361E-1,1.1359388E0,-5.884003E-1,-4.432019E-1,-9.718068E-1,1.7880949E0,-1.0701773E0,7.497121E-2,-2.77936E-1,5.665598E-1,1.8302929E0,-7.194653E-1,4.9556628E-1,-1.142262E0,-2.2724539E-1,1.3205702E0,-1.5670216E-1,-1.299745E0,1.5479004E0,-7.678621E-2,8.205743E-2,-2.3198572E-1,-8.900929E-1,7.6752186E-1,1.2849557E-1,2.5540082E0,-4.887796E-1,-1.5701116E0,5.289179E-1,3.266634E-2,-3.5690132E-1,3.7852794E-1,2.279202E0,-8.873585E-2,-3.2288542E-1,1.2434742E0,-8.5241747E-1,5.865899E-1,2.3740563E-1,1.0396086E0,-3.820996E-1,-3.336586E-2,-1.4431262E-1,-1.344625E0,6.3710576E-1,-1.6331649E-1,-3.1003895E-1,2.8765106E-1,-4.789105E-1,2.0547982E-1,1.276663E-1,5.3404933E-1,2.8400004E-1,3.4513094E-2,-3.0421844E-1,4.573704E-1,2.3518595E-1,1.3394805E0,-5.009291E-1,2.4431978E-1,-6.900501E-2,-5.376382E-1,-5.118785E-3,5.768094E-1,-5.87315E-1,2.357467E-2,4.230497E-3,-1.494259E-1,-1.1060739E-1,1.9442517E-1,2.4062084E-1,1.6375467E0,-1.2527797E-1,2.7315384E-1,1.3569847E-1,-2.8099692E-1,-2.9233968E-1,1.8356569E-1,3.782446E-1,-6.148603E-2,-1.4998856E-2,2.3803985E-1,3.871774E0,1.1102677E-1,-1.6241702E-1,9.234675E-3,-7.657243E-1,-1.9047353E-1],"categories":[],"categories_nodes":[],"categories_segments":[],"categories_sizes":[],"default_left":[0,0,0,0,0,0,0,0,0,0,0,0,0,0,0,0,0,0,0,0,0,0,0,0,0,0,0,0,0,0,0,0,0,0,0,0,0,0,0,0,0,0,0,0,0,0,0,0,0,0,0,0,0,0,0,0,0,0,0,0,0,0,0,0,0,0,0,0,0,0,0,0,0,0,0,0,0,0,0,0,0,0,0,0,0,0,0,0,0,0,0,0,0,0,0,0,0,0,0,0,0,0,0],"id":12,"left_children":[1,3,5,7,9,11,13,15,17,19,21,23,25,27,29,31,33,-1,35,37,39,41,43,45,47,49,51,53,55,57,59,61,63,65,-1,-1,-1,-1,67,69,71,73,75,77,79,81,83,85,87,89,-1,91,93,95,97,-1,-1,99,101,-1,-1,-1,-1,-1,-1,-1,-1,-1,-1,-1,-1,-1,-1,-1,-1,-1,-1,-1,-1,-1,-1,-1,-1,-1,-1,-1,-1,-1,-1,-1,-1,-1,-1,-1,-1,-1,-1,-1,-1,-1,-1,-1,-1],"loss_changes":[1.5304445E1,1.4048746E1,2.1541649E1,5.865735E0,3.6600983E1,1.4391808E1,2.1807308E1,1.2564451E1,2.957511E0,3.4423885E1,1.557766E1,2.2024347E1,2.453146E1,1.9952854E1,9.267815E0,7.8770056E0,3.263225E0,0E0,1.1578324E0,2.3098751E1,2.7636223E1,2.7204905E0,2.3200542E1,1.1487593E1,4.060458E1,2.1273499E1,1.6301525E1,1.646678E1,9.422016E-1,1.2038048E1,7.1472187E0,1.761796E1,6.980423E0,2.851658E-1,0E0,0E0,0E0,0E0,3.586445E-1,1.4306745E1,4.7236397E1,1.2133087E1,1.3729143E0,7.841341E1,1.0132281E2,1.0273512E1,5.07296E0,4.2584187E1,9.252702E0,1.8510867E0,0E0,1.5429638E1,5.061515E0,1.314432E1,2.9712305E2,0E0,0E0,8.637917E0,6.094097E0,0E0,0E0,0E0,0E0,0E0,0E0,0E0,0E0,0E0,0E0,0E0,0E0,0E0,0E0,0E0,0E0,0E0,0E0,0E0,0E0,0E0,0E0,0E0,0E0,0E0,0E0,0E0,0E0,0E0,0E0,0E0,0E0,0E0,0E0,0E0,0E0,0E0,0E0,0E0,0E0,0E0,0E0,0E0,0E0],"parents":[2147483647,0,0,1,1,2,2,3,3,4,4,5,5,6,6,7,7,8,8,9,9,10,10,11,11,12,12,13,13,14,14,15,15,16,16,18,18,19,19,20,20,21,21,22,22,23,23,24,24,25,25,26,26,27,27,28,28,29,29,30,30,31,31,32,32,33,33,38,38,39,39,40,40,41,41,42,42,43,43,44,44,45,45,46,46,47,47,48,48,49,49,51,51,52,52,53,53,54,54,57,57,58,58],"right_children":[2,4,6,8,10,12,14,16,18,20,22,24,26,28,30,32,34,-1,36,38,40,42,44,46,48,50,52,54,56,58,60,62,64,66,-1,-1,-1,-1,68,70,72,74,76,78,80,82,84,86,88,90,-1,92,94,96,98,-1,-1,100,102,-1,-1,-1,-1,-1,-1,-1,-1,-1,-1,-1,-1,-1,-1,-1,-1,-1,-1,-1,-1,-1,-1,-1,-1,-1,-1,-1,-1,-1,-1,-1,-1,-1,-1,-1,-1,-1,-1,-1,-1,-1,-1,-1,-1],"split_conditions":[1.8374111E1,5.611667E0,2.2728518E1,4.9635548E1,6.509583E0,1.4000001E0,2.6302181E1,4.5605587E1,5.4008427E1,9.432412E0,6.840833E0,4E-1,7.409584E0,2.4300001E1,4.08E1,3.454845E1,1.3905509E1,-5.884003E-1,1E-1,6.3929176E0,2.5447977E1,1.0495713E1,8.705417E0,2.9426249E1,1.237625E1,6.3929176E0,2.2567915E1,3.4E0,1.628875E1,2.59E1,1.3038751E1,2.6340614E1,5.42625E0,4.4054165E0,-7.678621E-2,8.205743E-2,-2.3198572E-1,-8.900929E-1,9.1641035E0,1.4386494E1,6.067917E0,9.1641035E0,3.3012043E1,8.322083E0,9.072083E0,1.6992918E1,2.262187E2,1.1901249E1,2.0570463E1,3.9970834E0,1.2434742E0,2.59E1,1.26E1,1.9961668E1,3.6000001E0,-3.820996E-1,-3.336586E-2,2.8291512E1,1.3680417E1,6.3710576E-1,-1.6331649E-1,-3.1003895E-1,2.8765106E-1,-4.789105E-1,2.0547982E-1,1.276663E-1,5.3404933E-1,2.8400004E-1,3.4513094E-2,-3.0421844E-1,4.573704E-1,2.3518595E-1,1.3394805E0,-5.009291E-1,2.4431978E-1,-6.900501E-2,-5.376382E-1,-5.118785E-3,5.768094E-1,-5.87315E-1,2.357467E-2,4.230497E-3,-1.494259E-1,-1.1060739E-1,1.9442517E-1,2.4062084E-1,1.6375467E0,-1.2527797E-1,2.7315384E-1,1.3569847E-1,-2.8099692E-1,-2.9233968E-1,1.8356569E-1,3.782446E-1,-6.148603E-2,-1.4998856E-2,2.3803985E-1,3.871774E0,1.1102677E-1,-1.6241702E-1,9.234675E-3,-7.657243E-1,-1.9047353E-1],"split_indices":[2,0,2,3,0,1,2,3,3,2,0,1,0,1,1,3,2,0,1,0,3,2,0,0,0,0,0,1,0,1,0,3,0,0,0,0,0,0,2,2,0,2,3,0,0,0,3,0,2,0,0,1,1,0,1,0,0,2,0,0,0,0,0,0,0,0,0,0,0,0,0,0,0,0,0,0,0,0,0,0,0,0,0,0,0,0,0,0,0,0,0,0,0,0,0,0,0,0,0,0,0,0,0],"split_type":[0,0,0,0,0,0,0,0,0,0,0,0,0,0,0,0,0,0,0,0,0,0,0,0,0,0,0,0,0,0,0,0,0,0,0,0,0,0,0,0,0,0,0,0,0,0,0,0,0,0,0,0,0,0,0,0,0,0,0,0,0,0,0,0,0,0,0,0,0,0,0,0,0,0,0,0,0,0,0,0,0,0,0,0,0,0,0,0,0,0,0,0,0,0,0,0,0,0,0,0,0,0,0],"sum_hessian":[1.885E3,1.28E3,6.05E2,3.5E1,1.245E3,3.46E2,2.59E2,2.9E1,6E0,2.6E1,1.219E3,2.53E2,9.3E1,1.25E2,1.34E2,2.5E1,4E0,3E0,3E0,5E0,2.1E1,1.1E1,1.208E3,2.18E2,3.5E1,3E0,9E1,1.18E2,7E0,1.31E2,3E0,1.6E1,9E0,3E0,1E0,1E0,2E0,2E0,3E0,7E0,1.4E1,6E0,5E0,1.02E2,1.106E3,1.95E2,2.3E1,9E0,2.6E1,2E0,1E0,8.2E1,8E0,8.1E1,3.7E1,6E0,1E0,1.23E2,8E0,2E0,1E0,9E0,7E0,8E0,1E0,1E0,2E0,2E0,1E0,4E0,3E0,8E0,6E0,3E0,3E0,1E0,4E0,7.4E1,2.8E1,2.4E1,1.082E3,5.4E1,1.41E2,6E0,1.7E1,7E0,2E0,2E1,6E0,1E0,1E0,7.6E1,6E0,4E0,4E0,5.4E1,2.7E1,1E0,3.6E1,3.7E1,8.6E1,2E0,6E0],"tree_param":{"num_deleted":"0","num_feature":"4","num_nodes":"103","size_leaf_vector":"1"}},{"base_weights":[1.0084685E-2,1.1910942E0,4.419525E-3,1.0180962E0,7.698373E-2,3.322387E-2,-1.9044468E-1,-3.9072123E-1,8.8921964E-1,2.1474317E-2,1.2222586E0,-7.698492E-1,-7.533814E-2,5.0174314E-1,-1.904443E-1,3.4346916E-2,-1.0663743E0,1.4548066E0,-3.3989406E-1,-1.3332238E0,1.5853925E-1,1.8990536E0,-1.347877E-1,-7.779522E-2,-7.9047205E-3,1.6161521E-1,-3.0396026E-2,-6.64472E-1,-2.9722886E-2,2.6159227E-1,1.8649215E0,6.479573E-2,-1.5268081E0,-5.5599654E-1,1.4420984E0,3.3963802E0,-2.1911995E-1,-1.0118262E0,-6.7688644E-2,1.9341122E-2,3.7723342E-1,-3.8230667E-1,2.0784284E-3,-2.2961442E-1,6.563976E-2,-7.371778E-2,2.0451392E-1,6.0320236E-2,6.0336006E-1,1.595144E-1,-2.0039414E-1,-1.9269805E-1,-6.269195E-1,2.1919733E-1,-2.769312E-1,8.198522E-1,-2.2787721E-1,3.1375766E-1,1.1493803E0,-4.7759068E-1,-1.13316886E-1,2.2723465E-1,-4.3485142E-2],"categories":[],"categories_nodes":[],"categories_segments":[],"categories_sizes":[],"default_left":[0,0,0,0,0,0,0,0,0,0,0,0,0,0,0,0,0,0,0,0,0,0,0,0,0,0,0,0,0,0,0,0,0,0,0,0,0,0,0,0,0,0,0,0,0,0,0,0,0,0,0,0,0,0,0,0,0,0,0,0,0,0,0],"id":13,"left_children":[1,3,5,-1,7,9,11,-1,13,15,17,19,21,-1,23,25,27,29,-1,31,33,35,37,-1,-1,39,41,-1,43,45,47,49,51,53,55,57,-1,59,61,-1,-1,-1,-1,-1,-1,-1,-1,-1,-1,-1,-1,-1,-1,-1,-1,-1,-1,-1,-1,-1,-1,-1,-1],"loss_changes":[1.2613221E1,2.1823795E1,1.0547421E1,0E0,9.000842E0,2.2843674E1,1.6081768E1,0E0,4.546788E0,2.2750202E1,1.041156E1,2.1132593E1,2.4083443E1,0E0,2.7072467E-2,1.3221429E1,2.2556091E1,6.852478E0,0E0,6.8647957E0,1.5476185E1,2.6103619E1,1.1583505E1,0E0,0E0,5.7510616E1,4.941002E1,0E0,2.178566E0,1.233189E0,2.2728615E0,1.723763E0,9.611401E0,5.8702164E0,1.9126719E1,8.188629E-2,0E0,4.5488625E0,1.1903845E1,0E0,0E0,0E0,0E0,0E0,0E0,0E0,0E0,0E0,0E0,0E0,0E0,0E0,0E0,0E0,0E0,0E0,0E0,0E0,0E0,0E0,0E0,0E0,0E0],"parents":[2147483647,0,0,1,1,2,2,4,4,5,5,6,6,8,8,9,9,10,10,11,11,12,12,14,14,15,15,16,16,17,17,19,19,20,20,21,21,22,22,25,25,26,26,28,28,29,29,30,30,31,31,32,32,33,33,34,34,35,35,37,37,38,38],"right_children":[2,4,6,-1,8,10,12,-1,14,16,18,20,22,-1,24,26,28,30,-1,32,34,36,38,-1,-1,40,42,-1,44,46,48,50,52,54,56,58,-1,60,62,-1,-1,-1,-1,-1,-1,-1,-1,-1,-1,-1,-1,-1,-1,-1,-1,-1,-1,-1,-1,-1,-1,-1,-1],"split_conditions":[6.489992E0,7.1283336E0,6.1E0,1.0180962E0,9.634583E0,5.8E0,5.4008427E1,-3.9072123E-1,9.327041E1,5E0,2.7267473E1,1.35E1,8.559584E0,5.0174314E-1,1.1690833E1,1.2713752E1,1.6513002E2,1.8224382E1,-3.3989406E-1,9.039514E0,1.5905417E1,1.1299999E1,6.7E0,-7.779522E-2,-7.9047205E-3,1.216375E1,1.3124167E1,-6.64472E-1,5.4E0,2.233161E1,7.5599995E0,1.6632502E1,2.9123999E1,1.44E1,1.7922085E1,6.5E0,-2.1911995E-1,1.6904673E1,7.6000004E0,1.9341122E-2,3.7723342E-1,-3.8230667E-1,2.0784284E-3,-2.2961442E-1,6.563976E-2,-7.371778E-2,2.0451392E-1,6.0320236E-2,6.0336006E-1,1.595144E-1,-2.0039414E-1,-1.9269805E-1,-6.269195E-1,2.1919733E-1,-2.769312E-1,8.198522E-1,-2.2787721E-1,3.1375766E-1,1.1493803E0,-4.7759068E-1,-1.13316886E-1,2.2723465E-1,-4.3485142E-2],"split_indices":[2,0,1,0,0,1,3,0,3,1,2,1,0,0,0,0,3,3,0,2,0,1,1,0,0,0,0,0,1,2,2,0,3,1,0,1,0,2,1,0,0,0,0,0,0,0,0,0,0,0,0,0,0,0,0,0,0,0,0,0,0,0,0],"split_type":[0,0,0,0,0,0,0,0,0,0,0,0,0,0,0,0,0,0,0,0,0,0,0,0,0,0,0,0,0,0,0,0,0,0,0,0,0,0,0,0,0,0,0,0,0,0,0,0,0,0,0,0,0,0,0,0,0,0,0,0,0,0,0],"sum_hessian":[1.885E3,8E0,1.877E3,2E0,6E0,1.636E3,2.41E2,2E0,4E0,1.621E3,1.5E1,3.9E1,2.02E2,2E0,2E0,1.603E3,1.8E1,1.4E1,1E0,2.4E1,1.5E1,5E0,1.97E2,1E0,1E0,5.4E2,1.063E3,8E0,1E1,4E0,1E1,3E0,2.1E1,1E1,5E0,3E0,2E0,1.3E1,1.84E2,4.97E2,4.3E1,3E1,1.033E3,2E0,8E0,2E0,2E0,1E0,9E0,2E0,1E0,9E0,1.2E1,2E0,8E0,3E0,2E0,1E0,2E0,6E0,7E0,1.5E1,1.69E2],"tree_param":{"num_deleted":"0","num_feature":"4","num_nodes":"63","size_leaf_vector":"1"}},{"base_weights":[7.69363E-3,9.49701E-1,3.1751213E-3,8.1447685E-1,5.750588E-2,-1.0824912E-1,4.129586E-2,-3.1257695E-1,7.0566213E-1,-6.943656E-2,-1.2270479E0,2.369392E0,2.4079771E-3,1.3379816E0,-1.6187795E-1,3.393823E-1,-1.4293072E-1,-4.359762E-1,-2.8802104E0,7.6475096E-1,4.7805276E0,-3.8971594E-1,3.7406076E-2,1.1004553E-1,4.9204618E-1,-6.612597E-2,-6.719113E-3,7.0502475E-2,3.2404966E0,-1.1449275E0,-9.47109E-2,-1.6541629E0,1.6003177E0,-9.919311E-1,-1.7629582E-1,3.0497081E0,-6.826985E-1,5.3239193E0,6.500917E-2,3.6633846E-1,-6.43079E-1,6.7089427E-1,-1.0486841E-2,-1.1223068E-1,3.3353958E-1,1.5650306E0,2.844506E-1,2.7356088E-1,-5.393153E-1,6.47117E-1,-4.108254E-2,-1.6705994E-1,-7.8367287E-1,7.7747965E-1,2.2679234E-2,-3.381322E-1,1.6259679E0,-2.8607583E-1,2.632934E-1,1.4507161E-1,1.7838948E0,-4.1662123E-2,8.457396E-1,-3.446497E-1,9.672892E-2,9.2012876E-1,1.3821658E-1,-2.746817E-1,4.189096E-3],"categories":[],"categories_nodes":[],"categories_segments":[],"categories_sizes":[],"default_left":[0,0,0,0,0,0,0,0,0,0,0,0,0,0,0,0,0,0,0,0,0,0,0,0,0,0,0,0,0,0,0,0,0,0,0,0,0,0,0,0,0,0,0,0,0,0,0,0,0,0,0,0,0,0,0,0,0,0,0,0,0,0,0,0,0,0,0,0,0],"id":14,"left_children":[1,3,5,-1,7,9,11,-1,13,15,17,19,21,23,25,27,29,31,33,35,37,39,41,-1,-1,-1,-1,43,45,47,49,51,53,-1,-1,55,57,59,-1,61,63,65,67,-1,-1,-1,-1,-1,-1,-1,-1,-1,-1,-1,-1,-1,-1,-1,-1,-1,-1,-1,-1,-1,-1,-1,-1,-1,-1],"loss_changes":[8.024685E0,1.4018173E1,7.9814153E0,0E0,5.7234583E0,2.071463E1,1.2674291E2,0E0,2.959402E0,1.3989759E1,1.9668623E1,8.533127E1,1.8925686E1,2.7873707E-1,1.9559704E-2,5.5155167E1,1.8928112E1,3.241422E1,2.9426994E0,5.1692436E1,2.1165848E1,2.1881447E1,3.841697E1,0E0,0E0,0E0,0E0,3.0971622E1,2.2235195E1,2.5807096E1,3.614588E1,6.9557095E0,7.3612137E0,0E0,0E0,6.5507744E1,5.063684E0,2.1225449E1,0E0,3.632776E1,4.18767E1,4.3408684E1,2.6082632E1,0E0,0E0,0E0,0E0,0E0,0E0,0E0,0E0,0E0,0E0,0E0,0E0,0E0,0E0,0E0,0E0,0E0,0E0,0E0,0E0,0E0,0E0,0E0,0E0,0E0,0E0],"parents":[2147483647,0,0,1,1,2,2,4,4,5,5,6,6,8,8,9,9,10,10,11,11,12,12,13,13,14,14,15,15,16,16,17,17,18,18,19,19,20,20,21,21,22,22,27,27,28,28,29,29,30,30,31,31,32,32,35,35,36,36,37,37,39,39,40,40,41,41,42,42],"right_children":[2,4,6,-1,8,10,12,-1,14,16,18,20,22,24,26,28,30,32,34,36,38,40,42,-1,-1,-1,-1,44,46,48,50,52,54,-1,-1,56,58,60,-1,62,64,66,68,-1,-1,-1,-1,-1,-1,-1,-1,-1,-1,-1,-1,-1,-1,-1,-1,-1,-1,-1,-1,-1,-1,-1,-1,-1,-1],"split_conditions":[6.489992E0,7.1283336E0,5.4008427E1,8.1447685E-1,9.634583E0,5.1855072E1,5.6309925E1,-3.1257695E-1,9.327041E1,9.360001E0,1.0636766E1,5.578425E1,9.518235E1,1.1384583E1,1.1690833E1,9.220499E0,9.5535755E0,9.885262E0,1.6572083E1,1.00199995E1,1.390125E1,8.62E0,1.2921274E2,1.1004553E-1,4.9204618E-1,-6.612597E-2,-6.719113E-3,4.366793E1,3.3012043E1,3.454845E1,9.6228485E0,1E-1,8.417916E0,-9.919311E-1,-1.7629582E-1,6.840833E0,2.0384583E1,6.840833E0,6.500917E-2,7.846537E1,1.1238113E1,7.9658318E0,8.997085E0,-1.1223068E-1,3.3353958E-1,1.5650306E0,2.844506E-1,2.7356088E-1,-5.393153E-1,6.47117E-1,-4.108254E-2,-1.6705994E-1,-7.8367287E-1,7.7747965E-1,2.2679234E-2,-3.381322E-1,1.6259679E0,-2.8607583E-1,2.632934E-1,1.4507161E-1,1.7838948E0,-4.1662123E-2,8.457396E-1,-3.446497E-1,9.672892E-2,9.2012876E-1,1.3821658E-1,-2.746817E-1,4.189096E-3],"split_indices":[2,0,3,0,0,3,3,0,3,2,2,3,3,0,0,2,2,2,0,0,0,0,3,0,0,0,0,3,3,3,2,1,0,0,0,0,0,0,0,3,2,0,0,0,0,0,0,0,0,0,0,0,0,0,0,0,0,0,0,0,0,0,0,0,0,0,0,0,0],"split_type":[0,0,0,0,0,0,0,0,0,0,0,0,0,0,0,0,0,0,0,0,0,0,0,0,0,0,0,0,0,0,0,0,0,0,0,0,0,0,0,0,0,0,0,0,0,0,0,0,0,0,0,0,0,0,0,0,0,0,0,0,0,0,0,0,0,0,0,0,0],"sum_hessian":[1.885E3,8E0,1.877E3,2E0,6E0,4.78E2,1.399E3,2E0,4E0,4.63E2,1.5E1,2.2E1,1.377E3,2E0,2E0,7E1,3.93E2,1.1E1,4E0,1.4E1,8E0,1.12E2,1.265E3,1E0,1E0,1E0,1E0,6.5E1,5E0,1.7E1,3.76E2,7E0,4E0,3E0,1E0,5E0,9E0,7E0,1E0,2.8E1,8.4E1,8.8E1,1.177E3,4.6E1,1.9E1,2E0,3E0,4E0,1.3E1,6E0,3.7E2,4E0,3E0,2E0,2E0,2E0,3E0,8E0,1E0,1E0,6E0,2.4E1,4E0,5.5E1,2.9E1,6E0,8.2E1,3E1,1.147E3],"tree_param":{"num_deleted":"0","num_feature":"4","num_nodes":"69","size_leaf_vector":"1"}},{"base_weights":[8.952057E-3,3.4558982E-1,-7.7163037E-3,5.4591432E-2,9.45773E-1,-8.981201E-1,2.7818687E-4,2.0395061E-1,-1.6590215E0,9.992908E-2,2.814323E0,-1.2625659E0,1.1020001E0,-1.1784221E-1,3.40875E-2,7.6508254E-1,-1.4462864E-1,-6.1743397E-1,-2.1207683E-1,3.9465886E-1,-1.2513372E0,1.1249485E0,1.7215987E0,3.8254952E-1,-1.7460109E0,3.9366812E-1,1.02231935E-1,7.913178E-2,-6.3901323E-1,7.7869046E-1,-1.9412238E-2,-2.7138075E-2,1.5597702E0,-3.1209132E-1,5.404474E-1,1.3956621E0,-2.221479E-1,-3.0158582E-1,-6.150887E-1,6.9760084E-1,3.427496E-1,-1.8166561E-1,5.0202817E-1,-1.0707003E0,-9.443464E-1,-3.231368E-2,1.1617624E0,5.414135E-1,-8.1867E-1,2.3476386E0,3.708411E-1,-1.1732721E0,1.1689704E-2,6.5158165E-1,-2.0524418E-1,-1.03680514E-1,6.0647595E-1,6.0701393E-2,-3.8162196E-1,7.60942E-2,6.566284E-1,-2.480429E-1,3.581634E-1,-2.450439E-1,1.09330274E-1,1.775282E-1,-2.3290873E-2,9.218259E-2,-4.8641098E-1,-8.6608484E-2,1.22825444E-1,5.3689206E-1,-2.537817E-2,-1.4120966E-1,1.0327191E0,1.3303421E-1,-3.1825802E-1,8.6015385E-1,-4.1369173E-1,4.2486407E-2,7.7319473E-1,-4.2501888E-1,-1.826618E-1,4.232021E-1,-9.868595E-3],"categories":[],"categories_nodes":[],"categories_segments":[],"categories_sizes":[],"default_left":[0,0,0,0,0,0,0,0,0,0,0,0,0,0,0,0,0,0,0,0,0,0,0,0,0,0,0,0,0,0,0,0,0,0,0,0,0,0,0,0,0,0,0,0,0,0,0,0,0,0,0,0,0,0,0,0,0,0,0,0,0,0,0,0,0,0,0,0,0,0,0,0,0,0,0,0,0,0,0,0,0,0,0,0,0],"id":15,"left_children":[1,3,5,7,9,11,13,15,17,19,21,23,25,27,29,31,33,-1,-1,35,37,-1,39,41,43,-1,-1,45,47,49,51,53,55,57,-1,59,61,63,-1,-1,65,-1,-1,-1,67,69,71,73,75,77,79,81,83,-1,-1,-1,-1,-1,-1,-1,-1,-1,-1,-1,-1,-1,-1,-1,-1,-1,-1,-1,-1,-1,-1,-1,-1,-1,-1,-1,-1,-1,-1,-1,-1],"loss_changes":[1.0585389E1,1.5492426E1,1.2798998E1,1.5950931E1,4.5553314E1,1.3054313E1,7.1245522E0,1.1259792E1,4.449463E-1,8.857277E0,2.744545E0,1.1802454E1,3.2919407E-2,4.0805454E1,5.5267735E1,1.3892827E1,1.2294719E1,0E0,0E0,1.1423703E1,2.4169078E0,0E0,4.1977673E0,6.1154194E0,1.2705318E1,0E0,0E0,3.490662E1,2.3559044E1,5.863959E1,4.6487747E1,1.8823689E1,1.0377909E1,1.7048042E1,0E0,5.7849417E0,1.1261708E1,1.3271295E0,0E0,0E0,3.5998425E-1,0E0,0E0,0E0,8.124601E0,2.990341E1,2.128049E1,4.566215E1,2.9509304E1,4.0740166E1,3.7567566E1,3.8092346E0,7.876204E1,0E0,0E0,0E0,0E0,0E0,0E0,0E0,0E0,0E0,0E0,0E0,0E0,0E0,0E0,0E0,0E0,0E0,0E0,0E0,0E0,0E0,0E0,0E0,0E0,0E0,0E0,0E0,0E0,0E0,0E0,0E0,0E0],"parents":[2147483647,0,0,1,1,2,2,3,3,4,4,5,5,6,6,7,7,8,8,9,9,10,10,11,11,12,12,13,13,14,14,15,15,16,16,19,19,20,20,22,22,23,23,24,24,27,27,28,28,29,29,30,30,31,31,32,32,33,33,35,35,36,36,37,37,40,40,44,44,45,45,46,46,47,47,48,48,49,49,50,50,51,51,52,52],"right_children":[2,4,6,8,10,12,14,16,18,20,22,24,26,28,30,32,34,-1,-1,36,38,-1,40,42,44,-1,-1,46,48,50,52,54,56,58,-1,60,62,64,-1,-1,66,-1,-1,-1,68,70,72,74,76,78,80,82,84,-1,-1,-1,-1,-1,-1,-1,-1,-1,-1,-1,-1,-1,-1,-1,-1,-1,-1,-1,-1,-1,-1,-1,-1,-1,-1,-1,-1,-1,-1,-1,-1],"split_conditions":[8.707237E0,7.570964E1,8.891343E0,7.439782E1,8.260411E0,1.5215835E1,1.0669999E1,9.922083E0,7.7879906E0,8.209263E0,1.0449166E1,7.5283337E0,1.5563748E1,9.634583E0,1.1690833E1,8.022083E0,6.4397964E1,-6.1743397E-1,-2.1207683E-1,9.518235E1,1.2109584E1,1.1249485E0,8.435069E0,5.611667E0,8.884583E0,3.9366812E-1,1.02231935E-1,9.365833E0,9.686609E0,1.1159999E1,1.2013749E1,6.489992E0,7.0911775E0,4.8427505E1,5.404474E-1,1.1524166E1,7.9077177E0,7.409584E0,-6.150887E-1,6.9760084E-1,1.1384583E1,-1.8166561E-1,5.0202817E-1,-1.0707003E0,8.78872E0,5.4008427E1,1.6641972E1,9.360001E0,3.035499E1,1.1449166E1,1.165125E1,1.722742E1,1.2403335E1,6.5158165E-1,-2.0524418E-1,-1.03680514E-1,6.0647595E-1,6.0701393E-2,-3.8162196E-1,7.60942E-2,6.566284E-1,-2.480429E-1,3.581634E-1,-2.450439E-1,1.09330274E-1,1.775282E-1,-2.3290873E-2,9.218259E-2,-4.8641098E-1,-8.6608484E-2,1.22825444E-1,5.3689206E-1,-2.537817E-2,-1.4120966E-1,1.0327191E0,1.3303421E-1,-3.1825802E-1,8.6015385E-1,-4.1369173E-1,4.2486407E-2,7.7319473E-1,-4.2501888E-1,-1.826618E-1,4.232021E-1,-9.868595E-3],"split_indices":[2,3,2,3,2,0,0,0,2,2,0,0,0,0,0,0,3,0,0,3,0,0,2,0,0,0,0,0,2,2,0,2,2,3,0,0,2,0,0,0,0,0,0,0,2,3,2,2,3,0,0,2,0,0,0,0,0,0,0,0,0,0,0,0,0,0,0,0,0,0,0,0,0,0,0,0,0,0,0,0,0,0,0,0,0],"split_type":[0,0,0,0,0,0,0,0,0,0,0,0,0,0,0,0,0,0,0,0,0,0,0,0,0,0,0,0,0,0,0,0,0,0,0,0,0,0,0,0,0,0,0,0,0,0,0,0,0,0,0,0,0,0,0,0,0,0,0,0,0,0,0,0,0,0,0,0,0,0,0,0,0,0,0,0,0,0,0,0,0,0,0,0,0],"sum_hessian":[1.885E3,8.8E1,1.797E3,6E1,2.8E1,1.5E1,1.782E3,5.6E1,4E0,2E1,8E0,1.3E1,2E0,3.96E2,1.386E3,2.1E1,3.5E1,2E0,2E0,1.7E1,3E0,3E0,5E0,3E0,1E1,1E0,1E0,2.88E2,1.08E2,9.2E1,1.294E3,1.1E1,1E1,3.3E1,2E0,6E0,1.1E1,2E0,1E0,3E0,2E0,2E0,1E0,2E0,8E0,2.62E2,2.6E1,1.4E1,9.4E1,1.8E1,7.4E1,3.3E1,1.261E3,2E0,9E0,2E0,8E0,2.2E1,1.1E1,3E0,3E0,8E0,3E0,1E0,1E0,1E0,1E0,3E0,5E0,1.66E2,9.6E1,1.7E1,9E0,1.1E1,3E0,1.5E1,7.9E1,1.6E1,2E0,6.8E1,6E0,2.2E1,1.1E1,3.8E1,1.223E3],"tree_param":{"num_deleted":"0","num_feature":"4","num_nodes":"85","size_leaf_vector":"1"}},{"base_weights":[8.430372E-3,3.8022727E-2,-1.0704014E-1,1.5002412E-2,1.1670527E0,2.546294E0,-1.2754396E-1,3.075638E-2,-3.323116E-1,2.9137423E0,5.0876707E-1,9.8495495E-1,1.608774E-1,-3.0956012E-1,5.513651E-2,2.2918282E-2,7.581716E-1,-6.011884E-1,-7.544955E-3,1.6269825E0,1.1733524E0,7.628978E-1,-2.6672348E-1,1.3226901E0,-3.5734805E-1,1.3129114E0,-5.1165506E-2,5.2252233E-2,-1.6355012E-1,1.2933199E-1,1.1630279E0,-9.227474E-1,9.2028596E-2,1.522865E0,-6.332788E-1,-1.3473423E-1,4.7630057E-1,1.5818526E-1,9.4266045E-1,-4.5122415E-1,3.1467405E-1,2.5968034E0,-1.0457273E0,-2.0932278E-1,2.6336583E-1,4.316368E-3,1.4561906E-1,-7.173231E-2,3.6611912E-1,1.2568168E-1,-5.7782385E-2,4.6449706E-1,8.82982E-2,-3.0903846E-1,-3.849344E-2,-1.0814772E-1,1.8138948E-1,6.656966E-1,2.9389001E-2,-2.8646675E-1,-1.8789545E-2,-1.8404508E-1,2.736834E-1,-1.1736838E-1,-3.4094083E-1,-1.6538912E-1,5.457644E-1,1.3916004E0,1.3873483E-1,6.514564E-2,-4.025201E-1,1.5515926E-1,-1.0064402E-1,3.1316933E-1,3.1546902E-2],"categories":[],"categories_nodes":[],"categories_segments":[],"categories_sizes":[],"default_left":[0,0,0,0,0,0,0,0,0,0,0,0,0,0,0,0,0,0,0,0,0,0,0,0,0,0,0,0,0,0,0,0,0,0,0,0,0,0,0,0,0,0,0,0,0,0,0,0,0,0,0,0,0,0,0,0,0,0,0,0,0,0,0,0,0,0,0,0,0,0,0,0,0,0,0],"id":16,"left_children":[1,3,5,7,9,11,13,15,17,19,21,-1,-1,23,25,27,29,31,33,-1,35,37,-1,-1,39,41,43,45,47,49,51,53,55,57,59,-1,-1,61,-1,63,65,67,69,71,73,-1,-1,-1,-1,-1,-1,-1,-1,-1,-1,-1,-1,-1,-1,-1,-1,-1,-1,-1,-1,-1,-1,-1,-1,-1,-1,-1,-1,-1,-1],"loss_changes":[6.448615E0,3.902041E1,2.1270105E1,8.069849E0,3.30122E1,2.682888E0,1.2752124E1,8.021812E0,5.584086E0,2.857711E1,8.848691E0,0E0,0E0,4.4869354E1,2.5738344E1,7.6444635E0,3.6684275E0,7.886775E0,2.9693281E1,0E0,4.7463284E0,2.8278845E1,0E0,0E0,1.2191566E1,4.8139114E1,8.909813E0,1.9788706E1,2.0159666E1,7.3334324E-1,2.5566463E0,1.9151936E0,3.0015285E0,8.709789E0,3.977765E0,0E0,0E0,1.0452134E1,0E0,6.4622154E0,3.2272255E1,4.1435455E1,2.5342822E0,1.1080551E1,7.299481E0,0E0,0E0,0E0,0E0,0E0,0E0,0E0,0E0,0E0,0E0,0E0,0E0,0E0,0E0,0E0,0E0,0E0,0E0,0E0,0E0,0E0,0E0,0E0,0E0,0E0,0E0,0E0,0E0,0E0,0E0],"parents":[2147483647,0,0,1,1,2,2,3,3,4,4,5,5,6,6,7,7,8,8,9,9,10,10,13,13,14,14,15,15,16,16,17,17,18,18,20,20,21,21,24,24,25,25,26,26,27,27,28,28,29,29,30,30,31,31,32,32,33,33,34,34,37,37,39,39,40,40,41,41,42,42,43,43,44,44],"right_children":[2,4,6,8,10,12,14,16,18,20,22,-1,-1,24,26,28,30,32,34,-1,36,38,-1,-1,40,42,44,46,48,50,52,54,56,58,60,-1,-1,62,-1,64,66,68,70,72,74,-1,-1,-1,-1,-1,-1,-1,-1,-1,-1,-1,-1,-1,-1,-1,-1,-1,-1,-1,-1,-1,-1,-1,-1,-1,-1,-1,-1,-1,-1],"split_conditions":[2.2499988E2,2.216447E2,9.292254E0,1.8800003E1,1.5399167E1,1.0774167E1,2.6248996E2,1.6400002E1,1.5399167E1,1.609969E1,2.8551249E1,9.8495495E-1,1.608774E-1,8.022083E0,2.686678E2,1.9502032E2,1.6199999E1,2.9099997E1,1.628875E1,1.6269825E0,1.1853333E1,2.8134583E1,-2.6672348E-1,1.3226901E0,1E0,3E-1,2.3978334E1,1.8282208E2,2.7959742E1,1.2403335E1,1.8407889E2,2.9853966E1,1.437558E2,2.30653E1,1.552584E2,-1.3473423E-1,4.7630057E-1,1.7811815E1,9.4266045E-1,2.5517958E2,1.8342916E1,1.7447933E1,9.072083E0,2.7802396E2,1.3044722E1,4.316368E-3,1.4561906E-1,-7.173231E-2,3.6611912E-1,1.2568168E-1,-5.7782385E-2,4.6449706E-1,8.82982E-2,-3.0903846E-1,-3.849344E-2,-1.0814772E-1,1.8138948E-1,6.656966E-1,2.9389001E-2,-2.8646675E-1,-1.8789545E-2,-1.8404508E-1,2.736834E-1,-1.1736838E-1,-3.4094083E-1,-1.6538912E-1,5.457644E-1,1.3916004E0,1.3873483E-1,6.514564E-2,-4.025201E-1,1.5515926E-1,-1.0064402E-1,3.1316933E-1,3.1546902E-2],"split_indices":[3,3,2,1,0,0,3,1,0,2,0,0,0,0,3,3,2,1,0,0,0,0,0,0,1,1,0,3,2,0,3,2,3,2,3,0,0,2,0,3,0,2,0,3,2,0,0,0,0,0,0,0,0,0,0,0,0,0,0,0,0,0,0,0,0,0,0,0,0,0,0,0,0,0,0],"split_type":[0,0,0,0,0,0,0,0,0,0,0,0,0,0,0,0,0,0,0,0,0,0,0,0,0,0,0,0,0,0,0,0,0,0,0,0,0,0,0,0,0,0,0,0,0,0,0,0,0,0,0,0,0,0,0,0,0,0,0,0,0,0,0,0,0,0,0,0,0,0,0,0,0,0,0],"sum_hessian":[1.885E3,1.501E3,3.84E2,1.472E3,2.9E1,2E0,3.82E2,1.409E3,6.3E1,7E0,2.2E1,1E0,1E0,1.91E2,1.91E2,1.395E3,1.4E1,3.4E1,2.9E1,2E0,5E0,1.9E1,3E0,1E0,1.9E2,1.4E1,1.77E2,1.206E3,1.89E2,6E0,8E0,2.3E1,1.1E1,8E0,2.1E1,1E0,4E0,1.6E1,3E0,1.67E2,2.3E1,9E0,5E0,1.18E2,5.9E1,1.11E3,9.6E1,1.8E2,9E0,3E0,3E0,5E0,3E0,2E1,3E0,6E0,5E0,5E0,3E0,1.3E1,8E0,8E0,8E0,1.55E2,1.2E1,1.5E1,8E0,4E0,5E0,1E0,4E0,1.7E1,1.01E2,9E0,5E1],"tree_param":{"num_deleted":"0","num_feature":"4","num_nodes":"75","size_leaf_vector":"1"}},{"base_weights":[1.008871E-2,2.974693E-1,-6.6003535E-4,1.2575145E-1,1.4092026E0,-1.5730463E0,4.541165E-3,6.023374E-1,-1.0979661E-1,-1.1363229E0,2.2988274E0,-5.581188E-1,-2.0444728E-2,7.166719E-1,-2.1945203E-3,1.8454707E-1,8.7249017E-1,1.7882432E-1,-5.7194334E-1,-5.5481523E-1,4.3469954E-2,7.390464E-1,1.9662967E-1,-3.3207813E-1,2.6947265E0,-6.7327213E-1,3.828719E-3,5.0496393E-1,-4.7575757E-1,1.1108437E0,-2.230167E-1,-1.9844342E0,6.425651E-2,1.9805193E-1,-3.341612E-1,1.0373443E0,4.3461874E-1,-1.270472E0,2.7605242E-1,2.8867094E-2,-1.318246E-1,-2.5994E-1,2.6642975E-1,-1.5552922E-1,4.2529762E-1,-2.3588935E-1,2.564809E-1,-7.399072E-1,-8.511401E-3,3.1844628E-1,-1.701135E-1,-1.1331726E-1,1.8571873E-1,1.03391364E-1,-6.0356885E-1,-5.7026637E-1,4.5810184E-1,3.292316E-3,1.2212515E-1,-2.8250748E-1,-2.1640496E-2],"categories":[],"categories_nodes":[],"categories_segments":[],"categories_sizes":[],"default_left":[0,0,0,0,0,0,0,0,0,0,0,0,0,0,0,0,0,0,0,0,0,0,0,0,0,0,0,0,0,0,0,0,0,0,0,0,0,0,0,0,0,0,0,0,0,0,0,0,0,0,0,0,0,0,0,0,0,0,0,0,0],"id":17,"left_children":[1,3,5,7,9,11,13,15,17,19,21,-1,-1,23,25,27,-1,29,31,-1,-1,-1,-1,33,35,37,39,41,-1,43,45,47,49,51,-1,-1,-1,53,55,57,59,-1,-1,-1,-1,-1,-1,-1,-1,-1,-1,-1,-1,-1,-1,-1,-1,-1,-1,-1,-1],"loss_changes":[5.826014E0,1.2804292E1,1.4883465E1,6.8016686E0,2.299327E1,2.4678068E0,8.702765E0,1.8731464E1,5.571071E0,3.0087457E0,2.7956772E-1,0E0,0E0,3.6161102E1,7.270204E0,1.1011621E1,0E0,9.98535E0,1.4505538E1,0E0,0E0,0E0,0E0,5.1940246E0,6.9540024E-1,9.421701E0,6.059833E0,9.176602E0,0E0,4.734044E0,1.2208857E1,4.643383E0,8.156552E0,2.1730971E0,0E0,0E0,0E0,1.2668188E1,2.1965425E1,1.0187118E1,1.3370771E1,0E0,0E0,0E0,0E0,0E0,0E0,0E0,0E0,0E0,0E0,0E0,0E0,0E0,0E0,0E0,0E0,0E0,0E0,0E0,0E0],"parents":[2147483647,0,0,1,1,2,2,3,3,4,4,5,5,6,6,7,7,8,8,9,9,10,10,13,13,14,14,15,15,17,17,18,18,23,23,24,24,25,25,26,26,27,27,29,29,30,30,31,31,32,32,33,33,37,37,38,38,39,39,40,40],"right_children":[2,4,6,8,10,12,14,16,18,20,22,-1,-1,24,26,28,-1,30,32,-1,-1,-1,-1,34,36,38,40,42,-1,44,46,48,50,52,-1,-1,-1,54,56,58,60,-1,-1,-1,-1,-1,-1,-1,-1,-1,-1,-1,-1,-1,-1,-1,-1,-1,-1,-1,-1],"split_conditions":[8.435069E0,8.260411E0,8.534353E0,4.6190716E1,4.1430305E1,7.570964E1,8.707237E0,4.366793E1,1.2109584E1,8.022083E0,1.4199168E1,-5.581188E-1,-2.0444728E-2,6.4397964E1,8.891343E0,4.044061E1,8.7249017E-1,6.2037926E1,5.998764E1,-5.5481523E-1,4.3469954E-2,7.390464E-1,1.9662967E-1,4.5605587E1,7.846537E1,1.3124167E1,4.7E0,2.056931E1,-4.7575757E-1,4.7680855E1,1.1328332E1,3.3999999E0,1E-1,1.291375E1,-3.341612E-1,1.0373443E0,4.3461874E-1,7.5283337E0,4.366793E1,3.2E0,5.6E0,-2.5994E-1,2.6642975E-1,-1.5552922E-1,4.2529762E-1,-2.3588935E-1,2.564809E-1,-7.399072E-1,-8.511401E-3,3.1844628E-1,-1.701135E-1,-1.1331726E-1,1.8571873E-1,1.03391364E-1,-6.0356885E-1,-5.7026637E-1,4.5810184E-1,3.292316E-3,1.2212515E-1,-2.8250748E-1,-2.1640496E-2],"split_indices":[2,2,2,3,3,3,2,3,0,0,0,0,0,3,2,3,0,3,3,0,0,0,0,3,3,0,1,3,0,3,0,1,1,0,0,0,0,0,3,1,1,0,0,0,0,0,0,0,0,0,0,0,0,0,0,0,0,0,0,0,0],"split_type":[0,0,0,0,0,0,0,0,0,0,0,0,0,0,0,0,0,0,0,0,0,0,0,0,0,0,0,0,0,0,0,0,0,0,0,0,0,0,0,0,0,0,0,0,0,0,0,0,0,0,0,0,0,0,0,0,0,0,0,0,0],"sum_hessian":[1.885E3,6.7E1,1.818E3,5.9E1,8E0,5E0,1.813E3,1.9E1,4E1,2E0,6E0,4E0,1E0,1.6E1,1.797E3,1.7E1,2E0,2.5E1,1.5E1,1E0,1E0,5E0,1E0,1.1E1,5E0,1.5E1,1.782E3,1.5E1,2E0,7E0,1.8E1,4E0,1.1E1,7E0,4E0,2E0,3E0,9E0,6E0,1.505E3,2.77E2,3E0,1.2E1,1E0,6E0,1.2E1,6E0,3E0,1E0,4E0,7E0,3E0,4E0,3E0,6E0,2E0,4E0,1.438E3,6.7E1,1.8E1,2.59E2],"tree_param":{"num_deleted":"0","num_feature":"4","num_nodes":"61","size_leaf_vector":"1"}},{"base_weights":[7.2522615E-3,3.229175E-3,7.6166046E-1,-5.876669E-1,8.304958E-3,3.741332E-1,2.3017526E-1,-1.2613505E0,-5.732168E-2,8.1834227E-1,4.3682586E-3,-1.5249217E-1,4.795332E-1,-5.5208766E-1,1.2400246E-1,-2.9760277E-1,6.0253507E-1,2.2209148E0,-2.530965E-1,2.76825E-1,-7.913943E-3,2.0768376E-1,1.0694281E-1,1.9664863E-1,-1.4084752E-1,1.4363842E-1,-4.7691593E-1,-1.267414E-1,3.978822E-1,9.170073E-1,-4.2961944E-2,-1.6313338E-1,2.1884425E-1,-1.9010463E-1,8.527975E-1,-4.2786285E-1,6.774197E-3,1.12116486E-1,-6.399222E-2,-2.5304819E-2,-1.5848564E-1,-6.2363152E-3,1.04716234E-1,-9.070911E-2,1.100667E-1,-5.4762878E-2,3.9469472E-1,8.320293E-2,-2.4441016E-1,1.2796746E-1,-2.8448645E-3],"categories":[],"categories_nodes":[],"categories_segments":[],"categories_sizes":[],"default_left":[0,0,0,0,0,0,0,0,0,0,0,0,0,0,0,0,0,0,0,0,0,0,0,0,0,0,0,0,0,0,0,0,0,0,0,0,0,0,0,0,0,0,0,0,0,0,0,0,0,0,0],"id":18,"left_children":[1,3,5,7,9,-1,11,13,15,17,19,-1,21,-1,23,25,27,29,31,33,35,-1,37,-1,-1,-1,39,-1,-1,-1,-1,-1,41,43,45,47,49,-1,-1,-1,-1,-1,-1,-1,-1,-1,-1,-1,-1,-1,-1],"loss_changes":[5.7216444E0,5.6344924E0,2.2930408E0,5.6442566E0,5.934108E0,0E0,1.3486291E0,5.84247E0,1.7648269E0,1.4087044E1,6.206359E0,0E0,3.2230127E-1,0E0,1.2540636E0,1.3420911E0,2.7858233E0,8.34124E0,9.421091E-1,2.167721E1,1.0951575E1,0E0,3.3602548E-1,0E0,0E0,0E0,9.660113E-2,0E0,0E0,0E0,0E0,0E0,1.0086335E-1,2.924675E0,1.749168E1,1.6593964E1,1.171482E1,0E0,0E0,0E0,0E0,0E0,0E0,0E0,0E0,0E0,0E0,0E0,0E0,0E0,0E0],"parents":[2147483647,0,0,1,1,2,2,3,3,4,4,6,6,7,7,8,8,9,9,10,10,12,12,14,14,15,15,16,16,17,17,18,18,19,19,20,20,22,22,26,26,32,32,33,33,34,34,35,35,36,36],"right_children":[2,4,6,8,10,-1,12,14,16,18,20,-1,22,-1,24,26,28,30,32,34,36,-1,38,-1,-1,-1,40,-1,-1,-1,-1,-1,42,44,46,48,50,-1,-1,-1,-1,-1,-1,-1,-1,-1,-1,-1,-1,-1,-1],"split_conditions":[3.076792E1,2.5168748E0,2.1546997E2,1.98E1,3.4584436E0,3.741332E-1,2.262187E2,1.4884585E1,1E-1,1.731746E1,6.509583E0,-1.5249217E-1,2.3439238E2,-5.5208766E-1,1.9305416E1,7.767916E0,5.05125E0,2.1828333E1,1.4753334E1,5.611667E0,7.5283337E0,2.0768376E-1,1.5856354E1,1.9664863E-1,-1.4084752E-1,1.4363842E-1,8.322083E0,-1.267414E-1,3.978822E-1,9.170073E-1,-4.2961944E-2,-1.6313338E-1,1.6992918E1,1.9228851E1,1.0495713E1,1.0495713E1,8.417916E0,1.12116486E-1,-6.399222E-2,-2.5304819E-2,-1.5848564E-1,-6.2363152E-3,1.04716234E-1,-9.070911E-2,1.100667E-1,-5.4762878E-2,3.9469472E-1,8.320293E-2,-2.4441016E-1,1.2796746E-1,-2.8448645E-3],"split_indices":[0,3,3,2,3,0,3,0,1,2,0,0,3,0,0,0,0,0,0,0,0,0,2,0,0,0,0,0,0,0,0,0,0,2,2,2,0,0,0,0,0,0,0,0,0,0,0,0,0,0,0],"split_type":[0,0,0,0,0,0,0,0,0,0,0,0,0,0,0,0,0,0,0,0,0,0,0,0,0,0,0,0,0,0,0,0,0,0,0,0,0,0,0,0,0,0,0,0,0,0,0,0,0,0,0],"sum_hessian":[1.885E3,1.876E3,9E0,1.5E1,1.861E3,4E0,5E0,6E0,9E0,8E0,1.853E3,1E0,4E0,4E0,2E0,7E0,2E0,3E0,5E0,7.9E1,1.774E3,2E0,2E0,1E0,1E0,1E0,6E0,1E0,1E0,2E0,1E0,3E0,2E0,4.4E1,3.5E1,5.9E1,1.715E3,1E0,1E0,1E0,5E0,1E0,1E0,3.7E1,7E0,1.1E1,2.4E1,2.1E1,3.8E1,6.3E1,1.652E3],"tree_param":{"num_deleted":"0","num_feature":"4","num_nodes":"51","size_leaf_vector":"1"}},{"base_weights":[5.789568E-3,-1.4645587E-1,2.3131704E-2,5.926308E-2,-6.909826E-1,5.5405736E-1,8.637894E-3,-8.953753E-2,1.3151574E0,-8.9456046E-1,4.0368277E-1,1.8758453E0,-2.3988926E-1,-1.2223693E-1,4.0585753E-2,2.3039782E-1,-5.263094E-1,2.0170279E0,-1.4759672E-1,-1.3498358E0,-2.005082E-1,3.7060347E-1,-1.0412812E-2,1.1549548E0,1.456505E0,-3.9755452E-1,8.449072E-1,9.380036E-3,-4.3034446E-1,2.6842916E-1,-3.6014136E-2,1.6978648E0,-8.101297E-2,-1.541556E0,-9.630277E-2,3.87174E-1,7.739479E-1,4.8487127E-2,-1.8416731E0,-7.1416354E-1,1.5863772E-1,-5.02118E-1,4.4097278E-1,1.6753031E0,-4.4546187E-1,-7.349264E-1,-3.6498676E-3,5.0441384E-1,5.6234202E-3,-5.84929E-1,2.656172E-1,6.6727096E-1,-7.2410524E-1,1.997879E-1,3.4464161E0,-4.1717762E-1,1.0436452E-2,1.0463022E0,4.298249E-2,-4.8136255E-1,1.551675E-2,-6.7525375E-1,-9.241885E-2,4.0335786E-1,-6.315719E-2,2.0518108E-1,-7.546721E-2,-2.7410653E-1,3.7172544E-1,-7.0132107E-1,-2.416081E-1,-2.7956572E-1,-7.904103E-2,1.4744972E-1,-7.684205E-2,2.565086E-2,-1.9102284E-1,8.209833E-2,6.803545E-1,1.5710144E-1,-2.964996E-1,2.4807931E-1,-4.253276E-2,1.1596513E-2,-9.0659745E-3,-9.1565944E-2,-8.038678E-1,1.2911956E0,4.0343896E-2,4.4109285E-2,1.1219102E0,-3.710952E-1,-1.1724784E-2,5.6480616E-1,4.3921843E-2,2.2125516E0,-4.0318316E-1,-3.3378276E-1,2.4784876E-3,4.1478774E-1,-3.945791E-3],"categories":[],"categories_nodes":[],"categories_segments":[],"categories_sizes":[],"default_left":[0,0,0,0,0,0,0,0,0,0,0,0,0,0,0,0,0,0,0,0,0,0,0,0,0,0,0,0,0,0,0,0,0,0,0,0,0,0,0,0,0,0,0,0,0,0,0,0,0,0,0,0,0,0,0,0,0,0,0,0,0,0,0,0,0,0,0,0,0,0,