{"learner":{"attributes":{"scikit_learn":"{\"_estimator_type\": \"regressor\"}"},"feature_names":["lag_1","lag_2","lag_3","temperature_2m_mean","apparent_temperature_mean","dewpoint_2m_mean","precipitation_sum","rain_sum","snowfall_sum","wind_speed_10m_max","wind_direction_10m_dominant","shortwave_radiation_sum","et0_fao_evapotranspiration"],"feature_types":["float","float","float","float","float","float","float","float","float","float","float","float","float"],"gradient_booster":{"model":{"gbtree_model_param":{"num_parallel_tree":"1","num_trees":"905"},"iteration_indptr":[0,1,2,3,4,5,6,7,8,9,10,11,12,13,14,15,16,17,18,19,20,21,22,23,24,25,26,27,28,29,30,31,32,33,34,35,36,37,38,39,40,41,42,43,44,45,46,47,48,49,50,51,52,53,54,55,56,57,58,59,60,61,62,63,64,65,66,67,68,69,70,71,72,73,74,75,76,77,78,79,80,81,82,83,84,85,86,87,88,89,90,91,92,93,94,95,96,97,98,99,100,101,102,103,104,105,106,107,108,109,110,111,112,113,114,115,116,117,118,119,120,121,122,123,124,125,126,127,128,129,130,131,132,133,134,135,136,137,138,139,140,141,142,143,144,145,146,147,148,149,150,151,152,153,154,155,156,157,158,159,160,161,162,163,164,165,166,167,168,169,170,171,172,173,174,175,176,177,178,179,180,181,182,183,184,185,186,187,188,189,190,191,192,193,194,195,196,197,198,199,200,201,202,203,204,205,206,207,208,209,210,211,212,213,214,215,216,217,218,219,220,221,222,223,224,225,226,227,228,229,230,231,232,233,234,235,236,237,238,239,240,241,242,243,244,245,246,247,248,249,250,251,252,253,254,255,256,257,258,259,260,261,262,263,264,265,266,267,268,269,270,271,272,273,274,275,276,277,278,279,280,281,282,283,284,285,286,287,288,289,290,291,292,293,294,295,296,297,298,299,300,301,302,303,304,305,306,307,308,309,310,311,312,313,314,315,316,317,318,319,320,321,322,323,324,325,326,327,328,329,330,331,332,333,334,335,336,337,338,339,340,341,342,343,344,345,346,347,348,349,350,351,352,353,354,355,356,357,358,359,360,361,362,363,364,365,366,367,368,369,370,371,372,373,374,375,376,377,378,379,380,381,382,383,384,385,386,387,388,389,390,391,392,393,394,395,396,397,398,399,400,401,402,403,404,405,406,407,408,409,410,411,412,413,414,415,416,417,418,419,420,421,422,423,424,425,426,427,428,429,430,431,432,433,434,435,436,437,438,439,440,441,442,443,444,445,446,447,448,449,450,451,452,453,454,455,456,457,458,459,460,461,462,463,464,465,466,467,468,469,470,471,472,473,474,475,476,477,478,479,480,481,482,483,484,485,486,487,488,489,490,491,492,493,494,495,496,497,498,499,500,501,502,503,504,505,506,507,508,509,510,511,512,513,514,515,516,517,518,519,520,521,522,523,524,525,526,527,528,529,530,531,532,533,534,535,536,537,538,539,540,541,542,543,544,545,546,547,548,549,550,551,552,553,554,555,556,557,558,559,560,561,562,563,564,565,566,567,568,569,570,571,572,573,574,575,576,577,578,579,580,581,582,583,584,585,586,587,588,589,590,591,592,593,594,595,596,597,598,599,600,601,602,603,604,605,606,607,608,609,610,611,612,613,614,615,616,617,618,619,620,621,622,623,624,625,626,627,628,629,630,631,632,633,634,635,636,637,638,639,640,641,642,643,644,645,646,647,648,649,650,651,652,653,654,655,656,657,658,659,660,661,662,663,664,665,666,667,668,669,670,671,672,673,674,675,676,677,678,679,680,681,682,683,684,685,686,687,688,689,690,691,692,693,694,695,696,697,698,699,700,701,702,703,704,705,706,707,708,709,710,711,712,713,714,715,716,717,718,719,720,721,722,723,724,725,726,727,728,729,730,731,732,733,734,735,736,737,738,739,740,741,742,743,744,745,746,747,748,749,750,751,752,753,754,755,756,757,758,759,760,761,762,763,764,765,766,767,768,769,770,771,772,773,774,775,776,777,778,779,780,781,782,783,784,785,786,787,788,789,790,791,792,793,794,795,796,797,798,799,800,801,802,803,804,805,806,807,808,809,810,811,812,813,814,815,816,817,818,819,820,821,822,823,824,825,826,827,828,829,830,831,832,833,834,835,836,837,838,839,840,841,842,843,844,845,846,847,848,849,850,851,852,853,854,855,856,857,858,859,860,861,862,863,864,865,866,867,868,869,870,871,872,873,874,875,876,877,878,879,880,881,882,883,884,885,886,887,888,889,890,891,892,893,894,895,896,897,898,899,900,901,902,903,904,905],"tree_info":[0,0,0,0,0,0,0,0,0,0,0,0,0,0,0,0,0,0,0,0,0,0,0,0,0,0,0,0,0,0,0,0,0,0,0,0,0,0,0,0,0,0,0,0,0,0,0,0,0,0,0,0,0,0,0,0,0,0,0,0,0,0,0,0,0,0,0,0,0,0,0,0,0,0,0,0,0,0,0,0,0,0,0,0,0,0,0,0,0,0,0,0,0,0,0,0,0,0,0,0,0,0,0,0,0,0,0,0,0,0,0,0,0,0,0,0,0,0,0,0,0,0,0,0,0,0,0,0,0,0,0,0,0,0,0,0,0,0,0,0,0,0,0,0,0,0,0,0,0,0,0,0,0,0,0,0,0,0,0,0,0,0,0,0,0,0,0,0,0,0,0,0,0,0,0,0,0,0,0,0,0,0,0,0,0,0,0,0,0,0,0,0,0,0,0,0,0,0,0,0,0,0,0,0,0,0,0,0,0,0,0,0,0,0,0,0,0,0,0,0,0,0,0,0,0,0,0,0,0,0,0,0,0,0,0,0,0,0,0,0,0,0,0,0,0,0,0,0,0,0,0,0,0,0,0,0,0,0,0,0,0,0,0,0,0,0,0,0,0,0,0,0,0,0,0,0,0,0,0,0,0,0,0,0,0,0,0,0,0,0,0,0,0,0,0,0,0,0,0,0,0,0,0,0,0,0,0,0,0,0,0,0,0,0,0,0,0,0,0,0,0,0,0,0,0,0,0,0,0,0,0,0,0,0,0,0,0,0,0,0,0,0,0,0,0,0,0,0,0,0,0,0,0,0,0,0,0,0,0,0,0,0,0,0,0,0,0,0,0,0,0,0,0,0,0,0,0,0,0,0,0,0,0,0,0,0,0,0,0,0,0,0,0,0,0,0,0,0,0,0,0,0,0,0,0,0,0,0,0,0,0,0,0,0,0,0,0,0,0,0,0,0,0,0,0,0,0,0,0,0,0,0,0,0,0,0,0,0,0,0,0,0,0,0,0,0,0,0,0,0,0,0,0,0,0,0,0,0,0,0,0,0,0,0,0,0,0,0,0,0,0,0,0,0,0,0,0,0,0,0,0,0,0,0,0,0,0,0,0,0,0,0,0,0,0,0,0,0,0,0,0,0,0,0,0,0,0,0,0,0,0,0,0,0,0,0,0,0,0,0,0,0,0,0,0,0,0,0,0,0,0,0,0,0,0,0,0,0,0,0,0,0,0,0,0,0,0,0,0,0,0,0,0,0,0,0,0,0,0,0,0,0,0,0,0,0,0,0,0,0,0,0,0,0,0,0,0,0,0,0,0,0,0,0,0,0,0,0,0,0,0,0,0,0,0,0,0,0,0,0,0,0,0,0,0,0,0,0,0,0,0,0,0,0,0,0,0,0,0,0,0,0,0,0,0,0,0,0,0,0,0,0,0,0,0,0,0,0,0,0,0,0,0,0,0,0,0,0,0,0,0,0,0,0,0,0,0,0,0,0,0,0,0,0,0,0,0,0,0,0,0,0,0,0,0,0,0,0,0,0,0,0,0,0,0,0,0,0,0,0,0,0,0,0,0,0,0,0,0,0,0,0,0,0,0,0,0,0,0,0,0,0,0,0,0,0,0,0,0,0,0,0,0,0,0,0,0,0,0,0,0,0,0,0,0,0,0,0,0,0,0,0,0,0,0,0,0,0,0,0,0,0,0,0,0,0,0,0,0,0,0,0,0,0,0,0,0,0,0,0,0,0,0,0,0,0,0,0,0,0,0,0,0,0,0,0,0,0,0,0,0,0,0,0,0,0,0,0,0,0,0,0,0,0,0,0,0,0,0,0,0,0,0,0,0,0,0,0,0,0,0,0,0,0,0,0,0,0,0,0,0,0,0,0,0,0,0,0,0,0,0,0,0,0,0,0,0,0,0,0,0,0,0,0,0,0,0,0,0,0,0,0,0,0,0,0,0,0,0,0,0,0,0,0,0,0,0,0,0,0,0,0,0,0,0,0,0,0,0,0,0,0,0,0,0,0,0,0,0,0,0,0,0,0,0],"trees":[{"base_weights":[3.0495025E-2,5.1947355E0,-1.1209862E0,7.617692E0,-8.6866844E-1,9.283762E-1,-2.1016178E0,6.9075794E0,3.0567202E1,7.006415E-1,-2.078771E0,3.4719498E0,-5.696364E-1,-6.0793614E-1,-2.323953E0,6.44238E-3,8.254556E-2,4.1752297E-1,4.6946973E-2,-7.350546E-3,2.5905501E-2,-4.1334555E-2,-7.1273977E-3,6.135324E-2,9.144902E-3,4.171681E-3,-2.5010077E-2,2.021658E-2,-2.8075103E-2,-1.7737858E-2,-2.9954739E-2],"categories":[],"categories_nodes":[],"categories_segments":[],"categories_sizes":[],"default_left":[0,0,0,0,0,0,0,0,0,0,0,0,0,0,0,0,0,0,0,0,0,0,0,0,0,0,0,0,0,0,0],"id":0,"left_children":[1,3,5,7,9,11,13,15,17,19,21,23,25,27,29,-1,-1,-1,-1,-1,-1,-1,-1,-1,-1,-1,-1,-1,-1,-1,-1],"loss_changes":[6.523216E3,2.9448887E3,1.804625E3,2.119288E3,1.116E2,1.1107766E3,2.0017041E2,5.162388E2,6.113887E2,6.0325745E1,7.6686066E1,5.942942E2,2.9779288E2,3.842421E2,1.4480542E2,0E0,0E0,0E0,0E0,0E0,0E0,0E0,0E0,0E0,0E0,0E0,0E0,0E0,0E0,0E0,0E0],"parents":[2147483647,0,0,1,1,2,2,3,3,4,4,5,5,6,6,7,7,8,8,9,9,10,10,11,11,12,12,13,13,14,14],"right_children":[2,4,6,8,10,12,14,16,18,20,22,24,26,28,30,-1,-1,-1,-1,-1,-1,-1,-1,-1,-1,-1,-1,-1,-1,-1,-1],"split_conditions":[1.0630672E1,1.5078334E1,1.4773164E1,1.37773285E1,2.5270672E0,2.0195982E0,1.1369432E0,3.1880815E0,1.4855418E1,1.792625E1,1.9205706E1,4E-1,4.0168204E0,4E0,1.7731598E1,6.44238E-3,8.254556E-2,4.1752297E-1,4.6946973E-2,-7.350546E-3,2.5905501E-2,-4.1334555E-2,-7.1273977E-3,6.135324E-2,9.144902E-3,4.171681E-3,-2.5010077E-2,2.021658E-2,-2.8075103E-2,-1.7737858E-2,-2.9954739E-2],"split_indices":[9,3,9,4,12,12,12,4,3,3,4,6,12,6,9,0,0,0,0,0,0,0,0,0,0,0,0,0,0,0,0],"split_type":[0,0,0,0,0,0,0,0,0,0,0,0,0,0,0,0,0,0,0,0,0,0,0,0,0,0,0,0,0,0,0],"sum_hessian":[1.095E3,1.99E2,8.96E2,1.42E2,5.7E1,2.9E2,6.06E2,1.39E2,3E0,2.5E1,3.2E1,1.07E2,1.83E2,7.9E1,5.27E2,1.2E1,1.27E2,2E0,1E0,1.4E1,1.1E1,1.4E1,1.8E1,5.9E1,4.8E1,1.18E2,6.5E1,3.5E1,4.4E1,1.9E2,3.37E2],"tree_param":{"num_deleted":"0","num_feature":"13","num_nodes":"31","size_leaf_vector":"1"}},{"base_weights":[1.914337E-1,-1.7857497E0,7.118776E0,-3.1842842E0,2.5783676E-1,4.21822E0,1.2163994E1,-1.8495543E0,-3.6107621E0,1.9999207E0,-1.1566999E0,6.063129E0,1.5267105E0,1.5168266E1,4.592235E0,-7.4857386E-4,-2.9712562E-2,-4.5147028E-2,-2.756528E-2,4.139577E-2,-4.509306E-3,-2.1582877E-2,-3.107199E-3,9.01239E-2,5.3846516E-2,2.5680877E-2,-1.2505743E-2,1.2873143E-1,1.8680327E-1,1.2642944E-1,3.582097E-2],"categories":[],"categories_nodes":[],"categories_segments":[],"categories_sizes":[],"default_left":[0,0,0,0,0,0,0,0,0,0,0,0,0,0,0,0,0,0,0,0,0,0,0,0,0,0,0,0,0,0,0],"id":1,"left_children":[1,3,5,7,9,11,13,15,17,19,21,23,25,27,29,-1,-1,-1,-1,-1,-1,-1,-1,-1,-1,-1,-1,-1,-1,-1,-1],"loss_changes":[1.5298146E4,2.4844456E3,3.5779043E3,2.870464E2,8.7465485E2,7.802722E2,1.9776309E3,1.9181366E2,2.0094043E2,6.754492E2,1.371214E2,1.939187E2,1.4415092E2,2.0128223E2,2.1177441E2,0E0,0E0,0E0,0E0,0E0,0E0,0E0,0E0,0E0,0E0,0E0,0E0,0E0,0E0,0E0,0E0],"parents":[2147483647,0,0,1,1,2,2,3,3,4,4,5,5,6,6,7,7,8,8,9,9,10,10,11,11,12,12,13,13,14,14],"right_children":[2,4,6,8,10,12,14,16,18,20,22,24,26,28,30,-1,-1,-1,-1,-1,-1,-1,-1,-1,-1,-1,-1,-1,-1,-1,-1],"split_conditions":[1.055E1,5.82E0,1.782E1,1.2783802E1,1.5496736E1,1.4494192E1,1.288981E1,1.5427521E0,4.38E0,2.9024143E0,3.3441498E0,9.885262E0,6.0999994E0,2.192E1,1.892E1,-7.4857386E-4,-2.9712562E-2,-4.5147028E-2,-2.756528E-2,4.139577E-2,-4.509306E-3,-2.1582877E-2,-3.107199E-3,9.01239E-2,5.3846516E-2,2.5680877E-2,-1.2505743E-2,1.2873143E-1,1.8680327E-1,1.2642944E-1,3.582097E-2],"split_indices":[0,0,0,9,9,9,9,12,0,12,12,9,7,0,0,0,0,0,0,0,0,0,0,0,0,0,0,0,0,0,0],"split_type":[0,0,0,0,0,0,0,0,0,0,0,0,0,0,0,0,0,0,0,0,0,0,0,0,0,0,0,0,0,0,0],"sum_hessian":[1.115E3,8.68E2,2.47E2,5.15E2,3.53E2,1.58E2,8.9E1,1.26E2,3.89E2,1.58E2,1.95E2,9.3E1,6.5E1,6.3E1,2.6E1,4.1E1,8.5E1,2.68E2,1.21E2,9.1E1,6.7E1,1.01E2,9.4E1,3.1E1,6.2E1,5E1,1.5E1,2.4E1,3.9E1,3E0,2.3E1],"tree_param":{"num_deleted":"0","num_feature":"13","num_nodes":"31","size_leaf_vector":"1"}},{"base_weights":[-1.1845262E-1,-1.0904812E0,7.4967113E0,-2.199218E0,8.382404E-1,9.30382E0,8.39553E-1,-3.2420888E0,-1.5263655E0,2.26035E0,-4.2528495E-1,6.1204863E0,1.2987809E1,-7.1830755E-1,5.6157503E0,-2.020281E-2,-4.2037036E-2,7.6725986E-4,-2.4542538E-2,-1.7997595E-2,4.0475816E-2,2.7494184E-3,-1.8914904E-2,-2.545676E-3,7.9360664E-2,1.591793E-1,1.1498717E-2,-1.716036E-2,3.8005445E-2,1.2188913E-1,1.3445911E-2],"categories":[],"categories_nodes":[],"categories_segments":[],"categories_sizes":[],"default_left":[0,0,0,0,0,0,0,0,0,0,0,0,0,0,0,0,0,0,0,0,0,0,0,0,0,0,0,0,0,0,0],"id":2,"left_children":[1,3,5,7,9,11,13,15,17,19,21,23,25,27,29,-1,-1,-1,-1,-1,-1,-1,-1,-1,-1,-1,-1,-1,-1,-1,-1],"loss_changes":[8.239373E3,2.1124883E3,1.5079946E3,4.350161E2,6.4963184E2,1.0815176E3,2.1237201E2,1.9134619E2,4.294461E2,9.429706E2,1.6790283E2,3.8106787E2,7.7328564E2,8.242819E1,1.5422838E2,0E0,0E0,0E0,0E0,0E0,0E0,0E0,0E0,0E0,0E0,0E0,0E0,0E0,0E0,0E0,0E0],"parents":[2147483647,0,0,1,1,2,2,3,3,4,4,5,5,6,6,7,7,8,8,9,9,10,10,11,11,12,12,13,13,14,14],"right_children":[2,4,6,8,10,12,14,16,18,20,22,24,26,28,30,-1,-1,-1,-1,-1,-1,-1,-1,-1,-1,-1,-1,-1,-1,-1,-1],"split_conditions":[1.481E1,6.75E0,1.8000001E0,3.67E0,1.5273518E2,2.07E1,2.392E1,6.4741673E0,1.293E1,2.8130274E1,8.000001E-1,2.5947386E1,1.542E1,1.1351249E1,1.892E1,-2.020281E-2,-4.2037036E-2,7.6725986E-4,-2.4542538E-2,-1.7997595E-2,4.0475816E-2,2.7494184E-3,-1.8914904E-2,-2.545676E-3,7.9360664E-2,1.591793E-1,1.1498717E-2,-1.716036E-2,3.8005445E-2,1.2188913E-1,1.3445911E-2],"split_indices":[1,1,7,1,10,1,1,5,11,10,7,10,11,5,2,0,0,0,0,0,0,0,0,0,0,0,0,0,0,0,0],"split_type":[0,0,0,0,0,0,0,0,0,0,0,0,0,0,0,0,0,0,0,0,0,0,0,0,0,0,0,0,0,0,0],"sum_hessian":[1.111E3,9.86E2,1.25E2,6.26E2,3.6E2,9.8E1,2.7E1,2.44E2,3.82E2,1.69E2,1.91E2,5.4E1,4.4E1,2.1E1,6E0,7.2E1,1.72E2,1.17E2,2.65E2,4.5E1,1.24E2,1.26E2,6.5E1,8E0,4.6E1,3.9E1,5E0,1.8E1,3E0,2E0,4E0],"tree_param":{"num_deleted":"0","num_feature":"13","num_nodes":"31","size_leaf_vector":"1"}},{"base_weights":[6.7108676E-2,-1.8221362E0,6.774803E0,-3.189995E0,1.5112227E-1,3.895846E0,1.1841988E1,-3.850219E0,-2.2923527E0,7.0430654E-1,-1.0038186E0,3.6278703E0,1.8303888E-1,1.3307557E1,5.321823E0,-3.3175766E-3,-4.4177126E-2,-1.2487748E-2,-2.967937E-2,2.2034677E-2,-3.7448835E-3,-2.6466E-2,-4.9409773E-3,4.5375872E-2,-7.391222E-3,1.561219E-1,3.5334453E-2,3.0247161E-2,7.026423E-2],"categories":[],"categories_nodes":[],"categories_segments":[],"categories_sizes":[],"default_left":[0,0,0,0,0,0,0,0,0,0,0,0,0,0,0,0,0,0,0,0,0,0,0,0,0,0,0,0,0],"id":3,"left_children":[1,3,5,7,9,11,13,15,17,19,21,23,-1,25,27,-1,-1,-1,-1,-1,-1,-1,-1,-1,-1,-1,-1,-1,-1],"loss_changes":[1.4243536E4,2.367627E3,3.5571533E3,2.9816406E2,2.3070924E2,4.8190723E2,7.796416E2,1.689043E2,1.005155E2,3.3108945E2,8.9820724E1,3.3524316E2,0E0,5.867217E2,3.1548096E1,0E0,0E0,0E0,0E0,0E0,0E0,0E0,0E0,0E0,0E0,0E0,0E0,0E0,0E0],"parents":[2147483647,0,0,1,1,2,2,3,3,4,4,5,5,6,6,7,7,8,8,9,9,10,10,11,11,13,13,14,14],"right_children":[2,4,6,8,10,12,14,16,18,20,22,24,-1,26,28,-1,-1,-1,-1,-1,-1,-1,-1,-1,-1,-1,-1,-1,-1],"split_conditions":[1.055E1,5.82E0,1.782E1,4E0,8E-1,3.685E1,1.2397083E1,5.9991665E0,1.1634583E1,3.053601E0,6.88E0,6.0999994E0,1.8303888E-1,2.6999998E0,1.6938307E0,-3.3175766E-3,-4.4177126E-2,-1.2487748E-2,-2.967937E-2,2.2034677E-2,-3.7448835E-3,-2.6466E-2,-4.9409773E-3,4.5375872E-2,-7.391222E-3,1.561219E-1,3.5334453E-2,3.0247161E-2,7.026423E-2],"split_indices":[0,0,0,0,6,1,3,3,3,12,0,6,0,6,12,0,0,0,0,0,0,0,0,0,0,0,0,0,0],"split_type":[0,0,0,0,0,0,0,0,0,0,0,0,0,0,0,0,0,0,0,0,0,0,0,0,0,0,0,0,0],"sum_hessian":[1.122E3,8.76E2,2.46E2,5.17E2,3.59E2,1.58E2,8.8E1,2.96E2,2.21E2,2.43E2,1.16E2,1.56E2,2E0,7.1E1,1.7E1,1.3E1,2.83E2,5.8E1,1.63E2,1.08E2,1.35E2,3.2E1,8.4E1,1.4E2,1.6E1,6.5E1,6E0,6E0,1.1E1],"tree_param":{"num_deleted":"0","num_feature":"13","num_nodes":"29","size_leaf_vector":"1"}},{"base_weights":[-3.6929853E-2,-1.1072721E0,7.4634905E0,-2.0383747E0,1.2551086E0,9.772953E0,1.7612749E0,-1.2779175E-1,-2.4995568E0,1.4105105E1,1.0124972E0,1.26685915E1,4.8675084E0,9.9491596E-2,7.6587834E0,1.0933911E-2,-2.8352983E-2,-3.6475442E-2,-1.6155833E-2,4.1579667E-1,-1.37359705E-2,2.4791777E-2,-5.602386E-3,1.5307656E-1,5.5016145E-2,-1.27083175E-2,6.643296E-2,8.845352E-3,-3.5252325E-2,1.3856733E-1,1.3246378E-2],"categories":[],"categories_nodes":[],"categories_segments":[],"categories_sizes":[],"default_left":[0,0,0,0,0,0,0,0,0,0,0,0,0,0,0,0,0,0,0,0,0,0,0,0,0,0,0,0,0,0,0],"id":4,"left_children":[1,3,5,7,9,11,13,15,17,19,21,23,25,27,29,-1,-1,-1,-1,-1,-1,-1,-1,-1,-1,-1,-1,-1,-1,-1,-1],"loss_changes":[8.871195E3,2.1295894E3,1.8001157E3,6.1118286E2,8.399291E2,1.3303672E3,4.0105365E2,3.7548706E2,4.6418945E2,1.8626987E3,5.0995383E2,5.0712598E2,2.7355652E2,7.922308E1,2.7097382E2,0E0,0E0,0E0,0E0,0E0,0E0,0E0,0E0,0E0,0E0,0E0,0E0,0E0,0E0,0E0,0E0],"parents":[2147483647,0,0,1,1,2,2,3,3,4,4,5,5,6,6,7,7,8,8,9,9,10,10,11,11,12,12,13,13,14,14],"right_children":[2,4,6,8,10,12,14,16,18,20,22,24,26,28,30,-1,-1,-1,-1,-1,-1,-1,-1,-1,-1,-1,-1,-1,-1,-1,-1],"split_conditions":[1.36E1,7.6E0,7E-1,1.4745313E0,7.65E0,1.7760127E0,2.392E1,1.3935117E2,4.55E0,4.8427505E1,1.5772511E2,1.2109584E1,7.7554164E0,1.7604689E2,1.4972525E2,1.0933911E-2,-2.8352983E-2,-3.6475442E-2,-1.6155833E-2,4.1579667E-1,-1.37359705E-2,2.4791777E-2,-5.602386E-3,1.5307656E-1,5.5016145E-2,-1.27083175E-2,6.643296E-2,8.845352E-3,-3.5252325E-2,1.3856733E-1,1.3246378E-2],"split_indices":[1,1,7,12,1,12,1,10,1,10,10,3,3,10,10,0,0,0,0,0,0,0,0,0,0,0,0,0,0,0,0],"split_type":[0,0,0,0,0,0,0,0,0,0,0,0,0,0,0,0,0,0,0,0,0,0,0,0,0,0,0,0,0,0,0],"sum_hessian":[1.103E3,9.66E2,1.37E2,6.93E2,2.73E2,9.7E1,4E1,1.35E2,5.58E2,4E0,2.69E2,6E1,3.7E1,3.2E1,8E0,9.3E1,4.2E1,3.11E2,2.47E2,1E0,3E0,1.48E2,1.21E2,5.1E1,9E0,6E0,3.1E1,2.7E1,5E0,4E0,4E0],"tree_param":{"num_deleted":"0","num_feature":"13","num_nodes":"31","size_leaf_vector":"1"}},{"base_weights":[-1.4939255E-2,-8.225409E-1,9.0995865E0,-2.217455E0,1.307838E0,1.3281052E1,2.029783E0,-6.745762E-1,-2.9596672E0,3.8079672E0,-7.113272E-1,1.3853924E1,2.4524558E-2,4.6170163E0,-1.4149249E-1,1.0305776E-2,-2.28171E-2,-3.7407264E-2,-2.0141127E-2,6.2475815E-2,1.1795975E-2,-3.3531338E-2,-2.4607296E-3,1.2573957E-1,1.8872854E-1,7.291158E-2,1.9128791E-3,-1.7788483E-2,2.5010888E-2],"categories":[],"categories_nodes":[],"categories_segments":[],"categories_sizes":[],"default_left":[0,0,0,0,0,0,0,0,0,0,0,0,0,0,0,0,0,0,0,0,0,0,0,0,0,0,0,0,0],"id":5,"left_children":[1,3,5,7,9,11,13,15,17,19,21,23,-1,25,27,-1,-1,-1,-1,-1,-1,-1,-1,-1,-1,-1,-1,-1,-1],"loss_changes":[8.229617E3,3.0548315E3,2.6631958E3,7.0913745E2,2.0573154E3,3.3010352E2,1.9726913E2,4.5876498E2,2.0091235E2,9.230266E2,2.5661798E2,2.3628223E2,0E0,1.413129E2,7.4786064E1,0E0,0E0,0E0,0E0,0E0,0E0,0E0,0E0,0E0,0E0,0E0,0E0,0E0,0E0],"parents":[2147483647,0,0,1,1,2,2,3,3,4,4,5,5,6,6,7,7,8,8,9,9,10,10,11,11,13,13,14,14],"right_children":[2,4,6,8,10,12,14,16,18,20,22,24,-1,26,28,-1,-1,-1,-1,-1,-1,-1,-1,-1,-1,-1,-1,-1,-1],"split_conditions":[1.698E1,6.75E0,1.3246826E1,1.3708391E1,1.4494192E1,2.2451527E0,1.6923828E1,2.0195982E0,5.09E0,1.388E1,3.30707E1,2.377E1,2.4524558E-2,1.6000001E0,2.377E1,1.0305776E-2,-2.28171E-2,-3.7407264E-2,-2.0141127E-2,6.2475815E-2,1.1795975E-2,-3.3531338E-2,-2.4607296E-3,1.2573957E-1,1.8872854E-1,7.291158E-2,1.9128791E-3,-1.7788483E-2,2.5010888E-2],"split_indices":[1,1,9,9,9,12,9,12,1,11,10,1,0,6,1,0,0,0,0,0,0,0,0,0,0,0,0,0,0],"split_type":[0,0,0,0,0,0,0,0,0,0,0,0,0,0,0,0,0,0,0,0,0,0,0,0,0,0,0,0,0],"sum_hessian":[1.116E3,1.026E3,9E1,6.2E2,4.06E2,5.6E1,3.4E1,2.02E2,4.18E2,1.81E2,2.25E2,5.3E1,3E0,1.5E1,1.9E1,9.4E1,1.08E2,3E2,1.18E2,1.07E2,7.4E1,3.8E1,1.87E2,3.3E1,2E1,1E1,5E0,1.2E1,7E0],"tree_param":{"num_deleted":"0","num_feature":"13","num_nodes":"29","size_leaf_vector":"1"}},{"base_weights":[-1.06078684E-1,3.1269546E0,-1.6398888E0,5.377317E0,-9.199679E-1,-2.3980508E0,-2.1090575E-1,8.0642736E-1,6.9412527E0,-1.8184252E0,1.8041531E0,-1.6193312E0,-3.1894908E0,1.3940055E0,-1.3142154E0,2.0570831E-2,-2.6782006E-2,6.494842E-2,1.3198437E-1,-7.7605033E-3,-2.521779E-2,5.250448E-2,-2.3392646E-3,-3.6434233E-3,-2.4483187E-2,-4.2870898E-2,-2.8125143E-2,-1.1229105E-2,2.3267783E-2,-1.8212277E-2,2.7489968E-2],"categories":[],"categories_nodes":[],"categories_segments":[],"categories_sizes":[],"default_left":[0,0,0,0,0,0,0,0,0,0,0,0,0,0,0,0,0,0,0,0,0,0,0,0,0,0,0,0,0,0,0],"id":6,"left_children":[1,3,5,7,9,11,13,15,17,19,21,23,25,27,29,-1,-1,-1,-1,-1,-1,-1,-1,-1,-1,-1,-1,-1,-1,-1,-1],"loss_changes":[5.440037E3,3.2197327E3,8.0554443E2,1.6171289E3,3.14114E2,2.9436182E2,4.60447E2,2.0737192E2,8.1877686E2,4.880136E1,1.9225792E2,1.9146619E2,9.735913E1,1.8608124E2,2.0340857E2,0E0,0E0,0E0,0E0,0E0,0E0,0E0,0E0,0E0,0E0,0E0,0E0,0E0,0E0,0E0,0E0],"parents":[2147483647,0,0,1,1,2,2,3,3,4,4,5,5,6,6,7,7,8,8,9,9,10,10,11,11,12,12,13,13,14,14],"right_children":[2,4,6,8,10,12,14,16,18,20,22,24,26,28,30,-1,-1,-1,-1,-1,-1,-1,-1,-1,-1,-1,-1,-1,-1,-1,-1],"split_conditions":[1.288981E1,1.388E1,7.6E0,4.25E0,7.5E0,1.8043148E1,1.7208603E1,1.4083435E1,2.15E1,1.4353343E1,1.659E1,1.5201251E1,4.09E0,8.84E0,2.377E1,2.0570831E-2,-2.6782006E-2,6.494842E-2,1.3198437E-1,-7.7605033E-3,-2.521779E-2,5.250448E-2,-2.3392646E-3,-3.6434233E-3,-2.4483187E-2,-4.2870898E-2,-2.8125143E-2,-1.1229105E-2,2.3267783E-2,-1.8212277E-2,2.7489968E-2],"split_indices":[9,11,2,2,2,9,9,4,2,4,11,3,2,2,2,0,0,0,0,0,0,0,0,0,0,0,0,0,0,0,0],"split_type":[0,0,0,0,0,0,0,0,0,0,0,0,0,0,0,0,0,0,0,0,0,0,0,0,0,0,0,0,0,0,0],"sum_hessian":[1.095E3,3.52E2,7.43E2,2.26E2,1.26E2,4.85E2,2.58E2,5.8E1,1.68E2,9.5E1,3.1E1,2.46E2,2.39E2,1.05E2,1.53E2,4.4E1,1.4E1,1.41E2,2.7E1,2.9E1,6.6E1,1.2E1,1.9E1,7.9E1,1.67E2,1.11E2,1.28E2,2.4E1,8.1E1,1.41E2,1.2E1],"tree_param":{"num_deleted":"0","num_feature":"13","num_nodes":"31","size_leaf_vector":"1"}},{"base_weights":[-1.375553E-2,-1.8044498E0,6.3605833E0,-3.0662308E0,5.2022316E-2,3.9082084E0,1.0560105E1,-3.9058497E0,-2.330725E0,9.756919E-1,-8.5118294E-1,4.5711E0,-1.3910835E0,1.2092121E1,5.023479E0,-2.0451823E-2,-4.4647943E-2,1.6688181E-3,-2.7572889E-2,8.776896E-3,1.1997978E-1,-4.9911835E-3,-2.0188447E-2,4.6254106E-2,1.7559877E-1,8.951601E-3,-2.5342504E-2,-1.9671328E-2,1.404073E-1,6.504628E-2,-2.277503E-3],"categories":[],"categories_nodes":[],"categories_segments":[],"categories_sizes":[],"default_left":[0,0,0,0,0,0,0,0,0,0,0,0,0,0,0,0,0,0,0,0,0,0,0,0,0,0,0,0,0,0,0],"id":7,"left_children":[1,3,5,7,9,11,13,15,17,19,21,23,25,27,29,-1,-1,-1,-1,-1,-1,-1,-1,-1,-1,-1,-1,-1,-1,-1,-1],"loss_changes":[1.264732E4,2.0263887E3,2.461338E3,3.0893164E2,2.936569E2,5.5085156E2,6.941709E2,6.518823E1,1.1939929E2,2.997209E2,6.8734055E1,5.151985E2,3.7979515E1,6.52791E2,9.822949E1,0E0,0E0,0E0,0E0,0E0,0E0,0E0,0E0,0E0,0E0,0E0,0E0,0E0,0E0,0E0,0E0],"parents":[2147483647,0,0,1,1,2,2,3,3,4,4,5,5,6,6,7,7,8,8,9,9,10,10,11,11,12,12,13,13,14,14],"right_children":[2,4,6,8,10,12,14,16,18,20,22,24,26,28,30,-1,-1,-1,-1,-1,-1,-1,-1,-1,-1,-1,-1,-1,-1,-1,-1],"split_conditions":[1.055E1,5.82E0,1.782E1,3.67E0,1.6230548E2,6.0999994E0,1.2397083E1,6.4679165E0,6.8825E0,1.6132979E2,1E0,2.392E1,9.13E0,1.2501279E-3,1.2E0,-2.0451823E-2,-4.4647943E-2,1.6688181E-3,-2.7572889E-2,8.776896E-3,1.1997978E-1,-4.9911835E-3,-2.0188447E-2,4.6254106E-2,1.7559877E-1,8.951601E-3,-2.5342504E-2,-1.9671328E-2,1.404073E-1,6.504628E-2,-2.277503E-3],"split_indices":[0,0,0,0,10,6,3,3,3,10,6,1,1,5,6,0,0,0,0,0,0,0,0,0,0,0,0,0,0,0,0],"split_type":[0,0,0,0,0,0,0,0,0,0,0,0,0,0,0,0,0,0,0,0,0,0,0,0,0,0,0,0,0,0,0],"sum_hessian":[1.106E3,8.64E2,2.42E2,5.14E2,3.5E2,1.54E2,8.8E1,2.38E2,2.76E2,1.73E2,1.77E2,1.37E2,1.7E1,6.8E1,2E1,1.7E1,2.21E2,1.8E1,2.58E2,1.71E2,2E0,1.27E2,5E1,1.34E2,3E0,5E0,1.2E1,3E0,6.5E1,1.7E1,3E0],"tree_param":{"num_deleted":"0","num_feature":"13","num_nodes":"31","size_leaf_vector":"1"}},{"base_weights":[7.757861E-2,-7.4199843E-1,9.497239E0,-2.130466E0,1.1854613E0,1.3477914E1,2.661503E0,-8.7167776E-1,-3.0091274E0,3.237204E0,-1.051315E0,1.4667261E1,7.2790127E0,6.280643E0,-1.8592688E-1,8.993995E-3,-2.3280075E-2,-3.8414042E-2,-2.3569819E-2,5.288158E-2,5.7375683E-3,-6.8340665E-3,-2.5859462E-2,1.643966E-1,1.6048513E-2,-1.930192E-2,9.203506E-2,-1.5761197E-2,8.344231E-2,-2.3690587E-2,2.1964673E-2],"categories":[],"categories_nodes":[],"categories_segments":[],"categories_sizes":[],"default_left":[0,0,0,0,0,0,0,0,0,0,0,0,0,0,0,0,0,0,0,0,0,0,0,0,0,0,0,0,0,0,0],"id":8,"left_children":[1,3,5,7,9,11,13,15,17,19,21,23,25,27,29,-1,-1,-1,-1,-1,-1,-1,-1,-1,-1,-1,-1,-1,-1,-1,-1],"loss_changes":[8.58412E3,2.740294E3,2.385894E3,6.554758E2,1.9722085E3,3.0610547E2,3.515462E2,5.177218E2,1.3823706E2,9.4958545E2,1.1361882E2,1.3694531E2,1.217923E2,1.6082568E2,8.999923E1,0E0,0E0,0E0,0E0,0E0,0E0,0E0,0E0,0E0,0E0,0E0,0E0,0E0,0E0,0E0,0E0],"parents":[2147483647,0,0,1,1,2,2,3,3,4,4,5,5,6,6,7,7,8,8,9,9,10,10,11,11,12,12,13,13,14,14],"right_children":[2,4,6,8,10,12,14,16,18,20,22,24,26,28,30,-1,-1,-1,-1,-1,-1,-1,-1,-1,-1,-1,-1,-1,-1,-1,-1],"split_conditions":[1.698E1,6.55E0,1.2641076E1,1.4904173E1,1.5856354E1,1.8682011E0,1.59134655E1,2.0195982E0,4.44E0,1.599E1,2.4149532E1,1.0799999E1,9.52E0,8.991668E-1,2.355E1,8.993995E-3,-2.3280075E-2,-3.8414042E-2,-2.3569819E-2,5.288158E-2,5.7375683E-3,-6.8340665E-3,-2.5859462E-2,1.643966E-1,1.6048513E-2,-1.930192E-2,9.203506E-2,-1.5761197E-2,8.344231E-2,-2.3690587E-2,2.1964673E-2],"split_indices":[1,1,9,9,9,12,9,12,1,11,9,6,11,5,1,0,0,0,0,0,0,0,0,0,0,0,0,0,0,0,0],"split_type":[0,0,0,0,0,0,0,0,0,0,0,0,0,0,0,0,0,0,0,0,0,0,0,0,0,0,0,0,0,0,0],"sum_hessian":[1.11E3,1.022E3,8.8E1,5.94E2,4.28E2,5.5E1,3.3E1,2.45E2,3.49E2,2.23E2,2.05E2,4.5E1,1E1,1.4E1,1.9E1,1.04E2,1.41E2,2.23E2,1.26E2,1.41E2,8.2E1,1.55E2,5E1,4.4E1,1E0,1E0,9E0,2E0,1.2E1,1E1,9E0],"tree_param":{"num_deleted":"0","num_feature":"13","num_nodes":"31","size_leaf_vector":"1"}},{"base_weights":[2.7802173E-2,-1.6624483E0,6.3203893E0,-3.0761724E0,2.4502364E-1,3.5080898E0,1.0768011E1,-3.7184136E0,-2.113486E0,1.7625164E0,-1.1625221E0,4.998862E0,1.4798418E0,1.3075772E1,3.9730017E0,-2.4696305E-2,-4.4244077E-2,-6.110546E-3,-2.9108236E-2,3.9696567E-2,-1.5594232E-3,-2.8746367E-2,-3.955167E-3,7.021766E-2,4.2841747E-2,2.217201E-2,-3.3035778E-2,1.08126745E-1,1.6605362E-1,-1.0547781E-2,5.513929E-2],"categories":[],"categories_nodes":[],"categories_segments":[],"categories_sizes":[],"default_left":[0,0,0,0,0,0,0,0,0,0,0,0,0,0,0,0,0,0,0,0,0,0,0,0,0,0,0,0,0,0,0],"id":9,"left_children":[1,3,5,7,9,11,13,15,17,19,21,23,25,27,29,-1,-1,-1,-1,-1,-1,-1,-1,-1,-1,-1,-1,-1,-1,-1,-1],"loss_changes":[1.1603799E4,2.3198628E3,2.851584E3,2.975703E2,7.859391E2,4.2498523E2,1.3436816E3,1.2128369E2,1.6366968E2,6.2139575E2,2.2122586E2,1.0039917E2,1.5422758E2,2.8254883E2,1.271655E2,0E0,0E0,0E0,0E0,0E0,0E0,0E0,0E0,0E0,0E0,0E0,0E0,0E0,0E0,0E0,0E0],"parents":[2147483647,0,0,1,1,2,2,3,3,4,4,5,5,6,6,7,7,8,8,9,9,10,10,11,11,12,12,13,13,14,14],"right_children":[2,4,6,8,10,12,14,16,18,20,22,24,26,28,30,-1,-1,-1,-1,-1,-1,-1,-1,-1,-1,-1,-1,-1,-1,-1,-1],"split_conditions":[1.055E1,5.7E0,1.698E1,3.97E0,1.5646544E1,1.4618837E1,1.288981E1,1.4272814E0,1.2783802E1,1.562E1,9.530416E0,1.08955765E1,2.770831E1,2.192E1,1.2501279E-3,-2.4696305E-2,-4.4244077E-2,-6.110546E-3,-2.9108236E-2,3.9696567E-2,-1.5594232E-3,-2.8746367E-2,-3.955167E-3,7.021766E-2,4.2841747E-2,2.217201E-2,-3.3035778E-2,1.08126745E-1,1.6605362E-1,-1.0547781E-2,5.513929E-2],"split_indices":[0,0,0,0,9,9,9,12,9,11,5,9,9,0,5,0,0,0,0,0,0,0,0,0,0,0,0,0,0,0,0],"split_type":[0,0,0,0,0,0,0,0,0,0,0,0,0,0,0,0,0,0,0,0,0,0,0,0,0,0,0,0,0,0,0],"sum_hessian":[1.089E3,8.59E2,2.3E2,4.93E2,3.66E2,1.42E2,8.8E1,2.94E2,1.99E2,1.76E2,1.9E2,8.1E1,6.1E1,6.5E1,2.3E1,5.1E1,2.43E2,5.1E1,1.48E2,8.9E1,8.7E1,6.7E1,1.23E2,3.4E1,4.7E1,5.5E1,6E0,2.7E1,3.8E1,4E0,1.9E1],"tree_param":{"num_deleted":"0","num_feature":"13","num_nodes":"31","size_leaf_vector":"1"}},{"base_weights":[1.0214618E-1,-1.792136E0,6.024931E0,-2.961434E0,1.0991931E-1,3.490717E0,1.1257138E1,-3.6261356E0,-2.0343258E0,3.2838197E0,-4.079627E-1,5.3748507E0,9.6615237E-1,1.323876E1,5.167461E0,1.1429964E-2,-4.0838372E-2,-3.8316757E-3,-2.8759344E-2,1.7883518E-1,1.7881338E-2,7.9117175E-3,-1.1585482E-2,8.540713E-2,4.791333E-2,1.4889132E-2,-2.893638E-2,1.5904456E-1,6.6260114E-2,6.973319E-2,-2.145807E-2],"categories":[],"categories_nodes":[],"categories_segments":[],"categories_sizes":[],"default_left":[0,0,0,0,0,0,0,0,0,0,0,0,0,0,0,0,0,0,0,0,0,0,0,0,0,0,0,0,0,0,0],"id":10,"left_children":[1,3,5,7,9,11,13,15,17,19,21,23,25,27,29,-1,-1,-1,-1,-1,-1,-1,-1,-1,-1,-1,-1,-1,-1,-1,-1],"loss_changes":[1.2408262E4,1.8640952E3,3.5142598E3,3.1245703E2,5.273255E2,8.605117E2,9.8145703E2,1.19376465E2,2.122746E2,9.414608E2,2.0099406E2,2.197876E2,1.13110855E2,4.7812695E2,2.0298444E2,0E0,0E0,0E0,0E0,0E0,0E0,0E0,0E0,0E0,0E0,0E0,0E0,0E0,0E0,0E0,0E0],"parents":[2147483647,0,0,1,1,2,2,3,3,4,4,5,5,6,6,7,7,8,8,9,9,10,10,11,11,12,12,13,13,14,14],"right_children":[2,4,6,8,10,12,14,16,18,20,22,24,26,28,30,-1,-1,-1,-1,-1,-1,-1,-1,-1,-1,-1,-1,-1,-1,-1,-1],"split_conditions":[9.69E0,5.82E0,1.782E1,3.97E0,1.0315115E1,1.4618837E1,1.288981E1,6.7973554E-1,1.2783802E1,6.05E0,1.5496736E1,9.885262E0,2.770831E1,1.1212113E1,1.2940103E1,1.1429964E-2,-4.0838372E-2,-3.8316757E-3,-2.8759344E-2,1.7883518E-1,1.7881338E-2,7.9117175E-3,-1.1585482E-2,8.540713E-2,4.791333E-2,1.4889132E-2,-2.893638E-2,1.5904456E-1,6.6260114E-2,6.973319E-2,-2.145807E-2],"split_indices":[0,0,0,0,9,9,9,12,9,0,9,9,9,4,4,0,0,0,0,0,0,0,0,0,0,0,0,0,0,0,0],"split_type":[0,0,0,0,0,0,0,0,0,0,0,0,0,0,0,0,0,0,0,0,0,0,0,0,0,0,0,0,0,0,0],"sum_hessian":[1.104E3,8.37E2,2.67E2,5.18E2,3.19E2,1.81E2,8.6E1,3E2,2.18E2,4.4E1,2.75E2,1.03E2,7.8E1,6.4E1,2.2E1,5E0,2.95E2,5.6E1,1.62E2,4E0,4E1,1E2,1.75E2,2.9E1,7.4E1,7.1E1,7E0,5.4E1,1E1,1.9E1,3E0],"tree_param":{"num_deleted":"0","num_feature":"13","num_nodes":"31","size_leaf_vector":"1"}},{"base_weights":[-5.768956E-2,-1.87489E0,5.6102986E0,-2.970745E0,3.3792846E-2,3.409024E0,1.0588705E1,-3.605147E0,-2.079516E0,3.77607E0,-2.2620486E-1,3.1882114E0,1.7579018E-1,1.1841619E1,3.0277367E0,-3.0198535E-2,-4.3214478E-2,4.2967666E-2,-2.3687242E-2,-1.4420381E-3,2.858741E-1,2.860074E-3,-1.4685162E-2,3.8965948E-2,4.5910655E-3,-4.6406593E-3,1.3865846E-1,-3.310371E-2,4.843293E-2],"categories":[],"categories_nodes":[],"categories_segments":[],"categories_sizes":[],"default_left":[0,0,0,0,0,0,0,0,0,0,0,0,0,0,0,0,0,0,0,0,0,0,0,0,0,0,0,0,0],"id":11,"left_children":[1,3,5,7,9,11,13,15,17,19,21,23,-1,25,27,-1,-1,-1,-1,-1,-1,-1,-1,-1,-1,-1,-1,-1,-1],"loss_changes":[1.1412474E4,1.7549863E3,2.911831E3,2.9385938E2,2.9956012E2,4.702583E2,7.4095215E2,7.458325E1,1.04137146E2,1.7368196E3,1.5530997E2,1.7903235E2,0E0,6.487705E2,1.20708916E2,0E0,0E0,0E0,0E0,0E0,0E0,0E0,0E0,0E0,0E0,0E0,0E0,0E0,0E0],"parents":[2147483647,0,0,1,1,2,2,3,3,4,4,5,5,6,6,7,7,8,8,9,9,10,10,11,11,13,13,14,14],"right_children":[2,4,6,8,10,12,14,16,18,20,22,24,-1,26,28,-1,-1,-1,-1,-1,-1,-1,-1,-1,-1,-1,-1,-1,-1],"split_conditions":[9.69E0,5.82E0,1.782E1,3.97E0,6.05E0,3.685E1,1.0340835E1,8.725158E0,1.7E0,6E0,8.000001E-1,6.0999994E0,1.7579018E-1,1.8554167E0,1.077625E1,-3.0198535E-2,-4.3214478E-2,4.2967666E-2,-2.3687242E-2,-1.4420381E-3,2.858741E-1,2.860074E-3,-1.4685162E-2,3.8965948E-2,4.5910655E-3,-4.6406593E-3,1.3865846E-1,-3.310371E-2,4.843293E-2],"split_indices":[0,0,0,0,0,1,5,4,2,0,7,7,0,5,5,0,0,0,0,0,0,0,0,0,0,0,0,0,0],"split_type":[0,0,0,0,0,0,0,0,0,0,0,0,0,0,0,0,0,0,0,0,0,0,0,0,0,0,0,0,0],"sum_hessian":[1.106E3,8.38E2,2.68E2,5.32E2,3.06E2,1.87E2,8.1E1,3.09E2,2.23E2,1.9E1,2.87E2,1.85E2,2E0,6.9E1,1.2E1,8.6E1,2.23E2,2E0,2.21E2,1.7E1,2E0,2E2,8.7E1,1.64E2,2.1E1,4E0,6.5E1,2E0,1E1],"tree_param":{"num_deleted":"0","num_feature":"13","num_nodes":"29","size_leaf_vector":"1"}},{"base_weights":[-1.23402335E-1,-1.5482106E0,7.2816033E0,-2.966444E0,2.9854733E-1,4.2917824E0,1.06782E1,-3.580992E0,-2.1151683E0,-5.601972E-1,1.8955299E0,5.521469E0,2.6291857E0,1.226557E1,5.256427E0,-2.4985299E-2,-4.2579304E-2,2.0604131E-3,-2.508802E-2,1.1003859E-2,-9.116029E-3,3.292232E-2,5.1113274E-3,8.230314E-2,3.7949853E-2,1.5408487E-2,4.4436928E-2,1.4574541E-1,2.5817454E-2,-1.9889385E-2,7.195287E-2],"categories":[],"categories_nodes":[],"categories_segments":[],"categories_sizes":[],"default_left":[0,0,0,0,0,0,0,0,0,0,0,0,0,0,0,0,0,0,0,0,0,0,0,0,0,0,0,0,0,0,0],"id":12,"left_children":[1,3,5,7,9,11,13,15,17,19,21,23,25,27,29,-1,-1,-1,-1,-1,-1,-1,-1,-1,-1,-1,-1,-1,-1,-1,-1],"loss_changes":[1.1965232E4,2.4916816E3,1.8125762E3,2.7387988E2,5.688214E2,1.8788599E2,6.670674E2,1.0774341E2,8.599298E1,1.13501526E2,2.2568549E2,2.0113501E2,7.044638E1,5.9398047E2,2.0126013E2,0E0,0E0,0E0,0E0,0E0,0E0,0E0,0E0,0E0,0E0,0E0,0E0,0E0,0E0,0E0,0E0],"parents":[2147483647,0,0,1,1,2,2,3,3,4,4,5,5,6,6,7,7,8,8,9,9,10,10,11,11,12,12,13,13,14,14],"right_children":[2,4,6,8,10,12,14,16,18,20,22,24,26,28,30,-1,-1,-1,-1,-1,-1,-1,-1,-1,-1,-1,-1,-1,-1,-1,-1],"split_conditions":[1.175E1,5.82E0,1.782E1,3.97E0,8.69E0,1E-1,1.8682011E0,1.4272814E0,6.8825E0,1.1991363E0,3E-1,2.083636E0,1.4261666E1,1.2109584E1,7.7554164E0,-2.4985299E-2,-4.2579304E-2,2.0604131E-3,-2.508802E-2,1.1003859E-2,-9.116029E-3,3.292232E-2,5.1113274E-3,8.230314E-2,3.7949853E-2,1.5408487E-2,4.4436928E-2,1.4574541E-1,2.5817454E-2,-1.9889385E-2,7.195287E-2],"split_indices":[0,0,0,0,0,6,12,12,3,12,6,12,3,3,3,0,0,0,0,0,0,0,0,0,0,0,0,0,0,0,0],"split_type":[0,0,0,0,0,0,0,0,0,0,0,0,0,0,0,0,0,0,0,0,0,0,0,0,0,0,0,0,0,0,0],"sum_hessian":[1.132E3,9.5E2,1.82E2,5.37E2,4.13E2,9.8E1,8.4E1,3.1E2,2.27E2,2.69E2,1.44E2,5.5E1,4.3E1,6.4E1,2E1,5.7E1,2.53E2,1.5E1,2.12E2,3.9E1,2.3E2,8.1E1,6.3E1,2.7E1,2.8E1,2.4E1,1.9E1,5.8E1,6E0,3E0,1.7E1],"tree_param":{"num_deleted":"0","num_feature":"13","num_nodes":"31","size_leaf_vector":"1"}},{"base_weights":[-4.1912396E-2,4.2405457E0,-1.1280309E0,-6.496852E-1,6.1646223E0,5.6636256E-1,-1.9084312E0,1.3639115E0,-2.9021435E0,2.2492006E0,8.484147E0,-6.263394E-1,3.600673E0,-3.1901894E0,-1.3251586E0,-3.5202715E-3,3.4857593E-2,-3.354181E-2,7.7576675E-3,6.43743E-2,1.1876206E-2,1.0860856E-1,-1.8838316E-2,4.9070343E-3,-2.1609684E-2,2.9205238E-2,9.124492E-2,-2.7269533E-2,-4.00899E-2,1.15619734E-1,-1.5486286E-2],"categories":[],"categories_nodes":[],"categories_segments":[],"categories_sizes":[],"default_left":[0,0,0,0,0,0,0,0,0,0,0,0,0,0,0,0,0,0,0,0,0,0,0,0,0,0,0,0,0,0,0],"id":13,"left_children":[1,3,5,7,9,11,13,15,17,19,21,23,25,27,29,-1,-1,-1,-1,-1,-1,-1,-1,-1,-1,-1,-1,-1,-1,-1,-1],"loss_changes":[5.218843E3,2.1398892E3,1.1845437E3,2.9876852E2,1.4612695E3,1.0264402E3,4.5406006E2,1.0716072E2,1.8212158E1,2.5475113E2,1.4501401E3,2.9301938E2,3.3357202E2,5.2382935E1,4.2045496E2,0E0,0E0,0E0,0E0,0E0,0E0,0E0,0E0,0E0,0E0,0E0,0E0,0E0,0E0,0E0,0E0],"parents":[2147483647,0,0,1,1,2,2,3,3,4,4,5,5,6,6,7,7,8,8,9,9,10,10,11,11,12,12,13,13,14,14],"right_children":[2,4,6,8,10,12,14,16,18,20,22,24,26,28,30,-1,-1,-1,-1,-1,-1,-1,-1,-1,-1,-1,-1,-1,-1,-1,-1],"split_conditions":[1.08955765E1,4.3E0,1.4904173E1,9.12E0,4.7717724E1,8.84E0,4.25E0,4.5412197E1,3.5823752E2,4.7345834E0,1.536E1,1.86E1,2.07E1,1.8129137E1,4.3E0,-3.5202715E-3,3.4857593E-2,-3.354181E-2,7.7576675E-3,6.43743E-2,1.1876206E-2,1.0860856E-1,-1.8838316E-2,4.9070343E-3,-2.1609684E-2,2.9205238E-2,9.124492E-2,-2.7269533E-2,-4.00899E-2,1.15619734E-1,-1.5486286E-2],"split_indices":[9,2,9,5,10,2,2,10,10,5,11,11,2,9,2,0,0,0,0,0,0,0,0,0,0,0,0,0,0,0,0],"split_type":[0,0,0,0,0,0,0,0,0,0,0,0,0,0,0,0,0,0,0,0,0,0,0,0,0,0,0,0,0,0,0],"sum_hessian":[1.12E3,2.26E2,8.94E2,6.4E1,1.62E2,2.82E2,6.12E2,3.4E1,3E1,6.1E1,1.01E2,2.03E2,7.9E1,1.9E2,4.22E2,1.8E1,1.6E1,2.9E1,1E0,1.4E1,4.7E1,8.9E1,1.2E1,1.13E2,9E1,6.7E1,1.2E1,7.6E1,1.14E2,2E0,4.2E2],"tree_param":{"num_deleted":"0","num_feature":"13","num_nodes":"31","size_leaf_vector":"1"}},{"base_weights":[1.0090129E-1,-9.076038E-1,6.9179807E0,-2.018079E0,8.791692E-1,1.1818525E1,1.9901735E0,6.8898433E-1,-2.4053693E0,2.9258137E0,-6.9560057E-1,1.3129049E1,3.2383893E0,5.0545692E0,-8.895297E-1,3.0118667E-2,-1.6329568E-2,-3.2734647E-2,-1.6571999E-2,5.5022575E-2,6.0809175E-3,-3.8465895E-2,-3.5879058E-3,1.1415665E-1,1.6565931E-1,4.303501E-2,-1.903314E-2,-1.3904593E-2,7.003943E-2,-1.9590558E-2,2.0568123E-2],"categories":[],"categories_nodes":[],"categories_segments":[],"categories_sizes":[],"default_left":[0,0,0,0,0,0,0,0,0,0,0,0,0,0,0,0,0,0,0,0,0,0,0,0,0,0,0,0,0,0,0],"id":14,"left_children":[1,3,5,7,9,11,13,15,17,19,21,23,25,27,29,-1,-1,-1,-1,-1,-1,-1,-1,-1,-1,-1,-1,-1,-1,-1,-1],"loss_changes":[7.788846E3,1.960147E3,3.5022246E3,6.401448E2,1.2235499E3,7.783291E2,6.5751294E2,3.4621237E2,2.677566E2,8.082035E2,2.2126917E2,1.7720801E2,4.3332275E1,3.0493347E2,9.8967E1,0E0,0E0,0E0,0E0,0E0,0E0,0E0,0E0,0E0,0E0,0E0,0E0,0E0,0E0,0E0,0E0],"parents":[2147483647,0,0,1,1,2,2,3,3,4,4,5,5,6,6,7,7,8,8,9,9,10,10,11,11,12,12,13,13,14,14],"right_children":[2,4,6,8,10,12,14,16,18,20,22,24,26,28,30,-1,-1,-1,-1,-1,-1,-1,-1,-1,-1,-1,-1,-1,-1,-1,-1],"split_conditions":[1.36E1,6.55E0,1.224E1,1.0210936E1,1.4494192E1,1.41575E1,1.6923828E1,1.1634583E1,4.44E0,1.365E1,1.9769207E1,1.985E1,1.0630672E1,7.711666E0,2.377E1,3.0118667E-2,-1.6329568E-2,-3.2734647E-2,-1.6571999E-2,5.5022575E-2,6.0809175E-3,-3.8465895E-2,-3.5879058E-3,1.1415665E-1,1.6565931E-1,4.303501E-2,-1.903314E-2,-1.3904593E-2,7.003943E-2,-1.9590558E-2,2.0568123E-2],"split_indices":[1,1,9,9,9,3,9,3,1,11,10,1,9,3,1,0,0,0,0,0,0,0,0,0,0,0,0,0,0,0,0],"split_type":[0,0,0,0,0,0,0,0,0,0,0,0,0,0,0,0,0,0,0,0,0,0,0,0,0,0,0,0,0,0,0],"sum_hessian":[1.131E3,9.86E2,1.45E2,6.08E2,3.78E2,7.2E1,7.3E1,7.6E1,5.32E2,1.64E2,2.14E2,6.2E1,1E1,3.5E1,3.8E1,3.9E1,3.7E1,3.25E2,2.07E2,8.7E1,7.7E1,2.4E1,1.9E2,2.8E1,3.4E1,9E0,1E0,6E0,2.9E1,2.9E1,9E0],"tree_param":{"num_deleted":"0","num_feature":"13","num_nodes":"31","size_leaf_vector":"1"}},{"base_weights":[7.3325634E-2,-1.5775105E0,6.039321E0,-2.8158476E0,2.5633296E-1,3.5916934E0,1.033062E1,-3.5492563E0,-2.1183205E0,1.3692076E0,-8.770843E-1,3.3313239E0,1.7259943E-1,1.1910838E1,5.1203904E0,-2.1572838E-2,-4.3641314E-2,9.880415E-3,-2.4916632E-2,1.4397125E-1,9.744835E-3,-1.5991399E-2,-1.5784708E-3,4.12355E-2,2.7043044E-4,1.4286533E-1,4.119573E-2,-1.683529E-2,7.891375E-2],"categories":[],"categories_nodes":[],"categories_segments":[],"categories_sizes":[],"default_left":[0,0,0,0,0,0,0,0,0,0,0,0,0,0,0,0,0,0,0,0,0,0,0,0,0,0,0,0,0],"id":15,"left_children":[1,3,5,7,9,11,13,15,17,19,21,23,-1,25,27,-1,-1,-1,-1,-1,-1,-1,-1,-1,-1,-1,-1,-1,-1],"loss_changes":[1.0951633E4,1.97869E3,2.4942393E3,2.584995E2,4.451966E2,4.3536816E2,6.553086E2,1.5802686E2,1.1907861E2,9.974269E2,7.363202E1,2.08943E2,0E0,5.243301E2,3.101831E2,0E0,0E0,0E0,0E0,0E0,0E0,0E0,0E0,0E0,0E0,0E0,0E0,0E0,0E0],"parents":[2147483647,0,0,1,1,2,2,3,3,4,4,5,5,6,6,7,7,8,8,9,9,10,10,11,11,13,13,14,14],"right_children":[2,4,6,8,10,12,14,16,18,20,22,24,-1,26,28,-1,-1,-1,-1,-1,-1,-1,-1,-1,-1,-1,-1,-1,-1],"split_conditions":[1.055E1,5.82E0,1.782E1,3.67E0,1.6230548E2,3.685E1,1.8682011E0,1.4272814E0,6.3158336E0,6.05E0,2.2644999E1,6.0999994E0,1.7259943E-1,2.6999996E0,1.22E1,-2.1572838E-2,-4.3641314E-2,9.880415E-3,-2.4916632E-2,1.4397125E-1,9.744835E-3,-1.5991399E-2,-1.5784708E-3,4.12355E-2,2.7043044E-4,1.4286533E-1,4.119573E-2,-1.683529E-2,7.891375E-2],"split_indices":[0,0,0,0,10,1,12,12,3,0,3,7,0,7,11,0,0,0,0,0,0,0,0,0,0,0,0,0,0],"split_type":[0,0,0,0,0,0,0,0,0,0,0,0,0,0,0,0,0,0,0,0,0,0,0,0,0,0,0,0,0],"sum_hessian":[1.11E3,8.7E2,2.4E2,5.19E2,3.51E2,1.54E2,8.6E1,2.51E2,2.68E2,1.77E2,1.74E2,1.52E2,2E0,6.5E1,2.1E1,5.3E1,1.98E2,1.2E1,2.56E2,6E0,1.71E2,9.7E1,7.7E1,1.35E2,1.7E1,5.7E1,8E0,5E0,1.6E1],"tree_param":{"num_deleted":"0","num_feature":"13","num_nodes":"29","size_leaf_vector":"1"}},{"base_weights":[-1.9254066E-1,-1.5761373E0,3.499201E0,-2.9236037E-1,-2.301725E0,7.122287E0,3.2142553E-1,7.909223E-1,-1.665047E0,-3.206872E0,-1.4839774E0,5.3256974E0,1.3131636E1,1.068232E0,-2.342815E0,-1.2916372E-2,2.2896118E-2,-2.171756E-2,1.6725516E-2,-2.6924953E-2,-4.018416E-2,-2.2187013E-2,-8.986101E-3,9.245602E-2,4.4985447E-2,1.5466891E-1,5.9356328E-2,2.664878E-2,-1.3503183E-3,-3.1752035E-3,-3.0218905E-2],"categories":[],"categories_nodes":[],"categories_segments":[],"categories_sizes":[],"default_left":[0,0,0,0,0,0,0,0,0,0,0,0,0,0,0,0,0,0,0,0,0,0,0,0,0,0,0,0,0,0,0],"id":16,"left_children":[1,3,5,7,9,11,13,15,17,19,21,23,25,27,29,-1,-1,-1,-1,-1,-1,-1,-1,-1,-1,-1,-1,-1,-1,-1,-1],"loss_changes":[5.695695E3,7.5476746E2,3.4977705E3,4.384972E2,3.7865503E2,1.463144E3,3.2681924E2,4.1986032E2,1.3009088E2,7.3610596E1,9.549957E1,3.8849097E2,1.5058789E2,2.0633105E2,2.8888443E1,0E0,0E0,0E0,0E0,0E0,0E0,0E0,0E0,0E0,0E0,0E0,0E0,0E0,0E0,0E0,0E0],"parents":[2147483647,0,0,1,1,2,2,3,3,4,4,5,5,6,6,7,7,8,8,9,9,10,10,11,11,12,12,13,13,14,14],"right_children":[2,4,6,8,10,12,14,16,18,20,22,24,26,28,30,-1,-1,-1,-1,-1,-1,-1,-1,-1,-1,-1,-1,-1,-1,-1,-1],"split_conditions":[8.9E0,1.4255272E1,1.3708391E1,1.575E1,4.44E0,2.192E1,6.2E0,3.97E0,1.3783817E1,1.725373E1,6.68E0,9.565834E0,1.2109584E1,1.7698677E1,9.5E0,-1.2916372E-2,2.2896118E-2,-2.171756E-2,1.6725516E-2,-2.6924953E-2,-4.018416E-2,-2.2187013E-2,-8.986101E-3,9.245602E-2,4.4985447E-2,1.5466891E-1,5.9356328E-2,2.664878E-2,-1.3503183E-3,-3.1752035E-3,-3.0218905E-2],"split_indices":[1,9,9,11,1,1,6,1,9,9,1,3,3,9,1,0,0,0,0,0,0,0,0,0,0,0,0,0,0,0,0],"split_type":[0,0,0,0,0,0,0,0,0,0,0,0,0,0,0,0,0,0,0,0,0,0,0,0,0,0,0,0,0,0,0],"sum_hessian":[1.113E3,8.1E2,3.03E2,2.93E2,5.17E2,1.41E2,1.62E2,1.64E2,1.29E2,2.44E2,2.73E2,1.1E2,3.1E1,1.27E2,3.5E1,6.5E1,9.9E1,1.18E2,1.1E1,9.2E1,1.52E2,1.51E2,1.22E2,3E1,8E1,2.7E1,4E0,5.9E1,6.8E1,6E0,2.9E1],"tree_param":{"num_deleted":"0","num_feature":"13","num_nodes":"31","size_leaf_vector":"1"}},{"base_weights":[3.414773E-2,2.8481448E0,-1.4515972E0,4.686634E0,-1.281549E0,-6.4019877E-1,-2.144287E0,2.2228673E0,6.4684587E0,8.358803E-2,-1.6237038E0,6.585017E-2,-1.7900912E0,-3.947223E0,-1.7163603E0,1.0142509E-1,2.0758828E-2,9.5338576E-2,1.3812033E-2,3.233177E-2,-1.0700523E-2,-2.3233425E-2,-1.0742934E-2,1.2086934E-2,-1.2752455E-2,-2.4096835E-2,-5.0773174E-3,-2.40458E-2,-4.678587E-2,-4.9340404E-3,-2.8755814E-2],"categories":[],"categories_nodes":[],"categories_segments":[],"categories_sizes":[],"default_left":[0,0,0,0,0,0,0,0,0,0,0,0,0,0,0,0,0,0,0,0,0,0,0,0,0,0,0,0,0,0,0],"id":17,"left_children":[1,3,5,7,9,11,13,15,17,19,21,23,25,27,29,-1,-1,-1,-1,-1,-1,-1,-1,-1,-1,-1,-1,-1,-1,-1,-1],"loss_changes":[4.6825415E3,2.944264E3,4.1060815E2,1.1621411E3,5.618631E1,2.7534534E2,2.979773E2,2.5172229E2,1.7582944E3,7.810386E1,2.8186615E1,2.6770172E2,6.724008E1,3.0575562E1,3.6316138E2,0E0,0E0,0E0,0E0,0E0,0E0,0E0,0E0,0E0,0E0,0E0,0E0,0E0,0E0,0E0,0E0],"parents":[2147483647,0,0,1,1,2,2,3,3,4,4,5,5,6,6,7,7,8,8,9,9,10,10,11,11,12,12,13,13,14,14],"right_children":[2,4,6,8,10,12,14,16,18,20,22,24,26,28,30,-1,-1,-1,-1,-1,-1,-1,-1,-1,-1,-1,-1,-1,-1,-1,-1],"split_conditions":[1.3104198E1,1.503E1,1.7698677E1,4.7717724E1,3.395913E1,2.127E1,3.9259396E1,1.5081512E1,6E-1,1.668E1,1.1753876E1,6E-1,1.8178333E1,-6.7375E-1,1.7114641E2,1.0142509E-1,2.0758828E-2,9.5338576E-2,1.3812033E-2,3.233177E-2,-1.0700523E-2,-2.3233425E-2,-1.0742934E-2,1.2086934E-2,-1.2752455E-2,-2.4096835E-2,-5.0773174E-3,-2.40458E-2,-4.678587E-2,-4.9340404E-3,-2.8755814E-2],"split_indices":[9,11,9,10,10,11,10,10,6,11,9,6,5,5,10,0,0,0,0,0,0,0,0,0,0,0,0,0,0,0,0],"split_type":[0,0,0,0,0,0,0,0,0,0,0,0,0,0,0,0,0,0,0,0,0,0,0,0,0,0,0,0,0,0,0],"sum_hessian":[1.118E3,3.86E2,7.32E2,2.67E2,1.19E2,3.38E2,3.94E2,1.13E2,1.54E2,2.4E1,9.5E1,2.1E2,1.28E2,7.4E1,3.2E2,4E0,1.09E2,1.08E2,4.6E1,6E0,1.8E1,5.3E1,4.2E1,1.14E2,9.6E1,9.8E1,3E1,1.2E1,6.2E1,1.33E2,1.87E2],"tree_param":{"num_deleted":"0","num_feature":"13","num_nodes":"31","size_leaf_vector":"1"}},{"base_weights":[-8.4519506E-2,-8.8318646E-1,6.9840775E0,-1.9148152E0,8.560789E-1,8.34417E0,9.7896385E-1,-2.725632E-1,-2.355516E0,1.5585766E0,-5.169368E-1,1.11108055E1,3.0610685E0,-7.890184E-1,7.1479073E0,1.0538424E-2,-2.4555715E-2,-3.169691E-2,-1.676675E-2,3.481792E-2,1.7694249E-3,1.3429487E-2,-1.1745189E-2,-1.1943789E-2,1.2719265E-1,-9.081115E-3,6.1977383E-2,-2.1967582E-2,2.1529665E-2,1.08183175E-1,2.3008516E-2],"categories":[],"categories_nodes":[],"categories_segments":[],"categories_sizes":[],"default_left":[0,0,0,0,0,0,0,0,0,0,0,0,0,0,0,0,0,0,0,0,0,0,0,0,0,0,0,0,0,0,0],"id":18,"left_children":[1,3,5,7,9,11,13,15,17,19,21,23,25,27,29,-1,-1,-1,-1,-1,-1,-1,-1,-1,-1,-1,-1,-1,-1,-1,-1],"loss_changes":[6.2839146E3,1.7959153E3,9.147593E2,4.5386768E2,3.6057925E2,1.3106992E3,2.4558466E2,3.246092E2,2.1117822E2,5.5302905E2,1.2250533E2,3.3392188E2,3.3379465E2,6.345845E1,4.7156372E1,0E0,0E0,0E0,0E0,0E0,0E0,0E0,0E0,0E0,0E0,0E0,0E0,0E0,0E0,0E0,0E0],"parents":[2147483647,0,0,1,1,2,2,3,3,4,4,5,5,6,6,7,7,8,8,9,9,10,10,11,11,12,12,13,13,14,14],"right_children":[2,4,6,8,10,12,14,16,18,20,22,24,26,28,30,-1,-1,-1,-1,-1,-1,-1,-1,-1,-1,-1,-1,-1,-1,-1,-1],"split_conditions":[1.481E1,6.75E0,1.8000001E0,1.4745313E0,7.0000005E-1,1.7760127E0,2.377E1,3.3E0,4.44E0,2.5873022E0,1.0426624E0,4.15E0,1.27E1,1.1135292E1,1.892E1,1.0538424E-2,-2.4555715E-2,-3.169691E-2,-1.676675E-2,3.481792E-2,1.7694249E-3,1.3429487E-2,-1.1745189E-2,-1.1943789E-2,1.2719265E-1,-9.081115E-3,6.1977383E-2,-2.1967582E-2,2.1529665E-2,1.08183175E-1,2.3008516E-2],"split_indices":[1,1,7,12,7,12,1,7,1,12,12,11,11,4,2,0,0,0,0,0,0,0,0,0,0,0,0,0,0,0,0],"split_type":[0,0,0,0,0,0,0,0,0,0,0,0,0,0,0,0,0,0,0,0,0,0,0,0,0,0,0,0,0,0,0],"sum_hessian":[1.111E3,9.99E2,1.12E2,6.27E2,3.72E2,9.1E1,2.1E1,1.33E2,4.94E2,2.46E2,1.26E2,5.9E1,3.2E1,1.7E1,4E0,8.2E1,5.1E1,3.02E2,1.92E2,1.14E2,1.32E2,3E1,9.6E1,2E0,5.7E1,1.3E1,1.9E1,1.2E1,5E0,2E0,2E0],"tree_param":{"num_deleted":"0","num_feature":"13","num_nodes":"31","size_leaf_vector":"1"}},{"base_weights":[1.437541E-1,-1.5422655E0,6.3657002E0,-2.800092E0,2.594261E-1,9.605567E0,3.2071037E0,-3.318125E0,-1.7353661E0,1.5763615E0,-9.6030253E-1,7.3268647E0,1.4090091E1,3.7136807E0,-6.202867E-1,-1.9049667E-2,-3.9312195E-2,6.6992724E-3,-2.1835428E-2,9.316255E-2,1.2631399E-2,-1.8303808E-2,-3.215543E-3,9.190353E-2,3.436775E-2,1.5898888E-1,6.832109E-3,3.1017208E-2,6.639783E-2,-1.4631029E-2,5.1186252E-2],"categories":[],"categories_nodes":[],"categories_segments":[],"categories_sizes":[],"default_left":[0,0,0,0,0,0,0,0,0,0,0,0,0,0,0,0,0,0,0,0,0,0,0,0,0,0,0,0,0,0,0],"id":19,"left_children":[1,3,5,7,9,11,13,15,17,19,21,23,25,27,29,-1,-1,-1,-1,-1,-1,-1,-1,-1,-1,-1,-1,-1,-1,-1,-1],"loss_changes":[1.1612115E4,1.9746003E3,2.3842832E3,2.7719385E2,5.781769E2,1.0821562E3,2.3690674E2,1.3135278E2,9.979889E1,5.0156937E2,8.722342E1,3.124297E2,1.6879639E2,2.0530139E2,6.2150887E1,0E0,0E0,0E0,0E0,0E0,0E0,0E0,0E0,0E0,0E0,0E0,0E0,0E0,0E0,0E0,0E0],"parents":[2147483647,0,0,1,1,2,2,3,3,4,4,5,5,6,6,7,7,8,8,9,9,10,10,11,11,12,12,13,13,14,14],"right_children":[2,4,6,8,10,12,14,16,18,20,22,24,26,28,30,-1,-1,-1,-1,-1,-1,-1,-1,-1,-1,-1,-1,-1,-1,-1,-1],"split_conditions":[1.055E1,5.82E0,1.2303366E1,4.25E0,1.5646544E1,2.192E1,6.0999994E0,1.098E1,1.0210936E1,6.05E0,3.281923E0,2.198903E0,8.39E1,1.782E1,3.2399998E1,-1.9049667E-2,-3.9312195E-2,6.6992724E-3,-2.1835428E-2,9.316255E-2,1.2631399E-2,-1.8303808E-2,-3.215543E-3,9.190353E-2,3.436775E-2,1.5898888E-1,6.832109E-3,3.1017208E-2,6.639783E-2,-1.4631029E-2,5.1186252E-2],"split_indices":[0,0,9,0,9,0,6,9,9,0,12,12,2,0,9,0,0,0,0,0,0,0,0,0,0,0,0,0,0,0,0],"split_type":[0,0,0,0,0,0,0,0,0,0,0,0,0,0,0,0,0,0,0,0,0,0,0,0,0,0,0,0,0,0,0],"sum_hessian":[1.105E3,8.7E2,2.35E2,5.12E2,3.58E2,1.15E2,1.2E2,3.43E2,1.69E2,1.72E2,1.86E2,7.8E1,3.7E1,1.06E2,1.4E1,4.8E1,2.95E2,1.6E1,1.53E2,9E0,1.63E2,9E1,9.6E1,6.2E1,1.6E1,3.6E1,1E0,7.8E1,2.8E1,1.3E1,1E0],"tree_param":{"num_deleted":"0","num_feature":"13","num_nodes":"31","size_leaf_vector":"1"}},{"base_weights":[8.10697E-2,3.2500148E0,-1.426472E0,5.9642167E0,-1.00233E-1,-4.2636633E-1,-2.34721E0,7.2068477E0,6.4959055E-1,1.6343877E0,-1.2093879E0,4.6236634E-1,-1.6257012E0,-3.7342668E0,-1.9952453E0,3.892648E-2,1.0276929E-1,3.1242007E-2,-1.0962076E-2,3.4291865E-3,5.2323934E-2,-2.145306E-2,3.8482365E-3,1.5834915E-2,-8.448575E-3,-2.4732923E-2,-1.3376233E-2,-2.2620002E-2,-4.409927E-2,-1.170357E-2,-2.9581284E-2],"categories":[],"categories_nodes":[],"categories_segments":[],"categories_sizes":[],"default_left":[0,0,0,0,0,0,0,0,0,0,0,0,0,0,0,0,0,0,0,0,0,0,0,0,0,0,0,0,0,0,0],"id":20,"left_children":[1,3,5,7,9,11,13,15,17,19,21,23,25,27,29,-1,-1,-1,-1,-1,-1,-1,-1,-1,-1,-1,-1,-1,-1,-1,-1],"loss_changes":[5.3647856E3,3.2923542E3,6.9975476E2,1.3161421E3,3.155826E2,3.9086667E2,1.8587451E2,1.2313281E3,1.4316013E2,2.624426E2,1.1583339E2,2.5419994E2,3.7042633E1,2.7649536E1,2.0203174E2,0E0,0E0,0E0,0E0,0E0,0E0,0E0,0E0,0E0,0E0,0E0,0E0,0E0,0E0,0E0,0E0],"parents":[2147483647,0,0,1,1,2,2,3,3,4,4,5,5,6,6,7,7,8,8,9,9,10,10,11,11,12,12,13,13,14,14],"right_children":[2,4,6,8,10,12,14,16,18,20,22,24,26,28,30,-1,-1,-1,-1,-1,-1,-1,-1,-1,-1,-1,-1,-1,-1,-1,-1],"split_conditions":[1.288981E1,1.8866856E0,1.7698677E1,2.7000003E0,2.5958762E0,3.897355E0,3.9259396E1,4.7717724E1,8.225016E-1,7.4735916E1,2.1147087E1,6E-1,2.3305418E1,1.8723461E1,1.7264012E2,3.892648E-2,1.0276929E-1,3.1242007E-2,-1.0962076E-2,3.4291865E-3,5.2323934E-2,-2.145306E-2,3.8482365E-3,1.5834915E-2,-8.448575E-3,-2.4732923E-2,-1.3376233E-2,-2.2620002E-2,-4.409927E-2,-1.170357E-2,-2.9581284E-2],"split_indices":[9,12,9,6,12,12,10,10,12,10,3,6,3,9,10,0,0,0,0,0,0,0,0,0,0,0,0,0,0,0,0],"split_type":[0,0,0,0,0,0,0,0,0,0,0,0,0,0,0,0,0,0,0,0,0,0,0,0,0,0,0,0,0,0,0],"sum_hessian":[1.121E3,3.61E2,7.6E2,1.99E2,1.62E2,3.65E2,3.95E2,1.61E2,3.8E1,6.3E1,9.9E1,2.1E2,1.55E2,7.8E1,3.17E2,6E1,1.01E2,1.6E1,2.2E1,4.5E1,1.8E1,6.7E1,3.2E1,1.17E2,9.3E1,6E1,9.5E1,1.2E1,6.6E1,1.36E2,1.81E2],"tree_param":{"num_deleted":"0","num_feature":"13","num_nodes":"31","size_leaf_vector":"1"}},{"base_weights":[1.096274E-1,3.0450037E0,-1.2940552E0,5.682795E0,-1.22814156E-1,2.0261782E-1,-1.7801731E0,4.596564E0,1.1816943E1,2.0061338E0,-1.2349905E0,1.1824977E0,-2.152778E0,-4.5024157E-1,-1.9715482E0,6.96427E-2,3.0539379E-2,1.0577065E-1,4.061237E-1,-1.5852988E-3,3.3060897E-2,-2.2765897E-2,-5.735281E-3,2.408403E-2,-3.402388E-3,-2.8766844E-2,-1.4809832E-2,1.56244105E-2,-1.811237E-2,-2.4232985E-2,-1.0469268E-2],"categories":[],"categories_nodes":[],"categories_segments":[],"categories_sizes":[],"default_left":[0,0,0,0,0,0,0,0,0,0,0,0,0,0,0,0,0,0,0,0,0,0,0,0,0,0,0,0,0,0,0],"id":21,"left_children":[1,3,5,7,9,11,13,15,17,19,21,23,25,27,29,-1,-1,-1,-1,-1,-1,-1,-1,-1,-1,-1,-1,-1,-1,-1,-1],"loss_changes":[4.5981157E3,3.0172292E3,5.4966785E2,1.258314E3,3.931589E2,4.318346E2,1.441864E2,5.14791E2,1.253603E3,1.2250212E2,6.371634E1,1.9843639E2,1.690393E1,1.6531174E2,1.1432214E2,0E0,0E0,0E0,0E0,0E0,0E0,0E0,0E0,0E0,0E0,0E0,0E0,0E0,0E0,0E0,0E0],"parents":[2147483647,0,0,1,1,2,2,3,3,4,4,5,5,6,6,7,7,8,8,9,9,10,10,11,11,12,12,13,13,14,14],"right_children":[2,4,6,8,10,12,14,16,18,20,22,24,26,28,30,-1,-1,-1,-1,-1,-1,-1,-1,-1,-1,-1,-1,-1,-1,-1,-1],"split_conditions":[1.288981E1,1.8866856E0,1.5496736E1,1.125E1,1.542E1,2.147E1,1.1369432E0,9.901636E0,1.1415824E1,1.237E1,1.1236671E1,6E-1,1.6880415E1,3.2E0,2.757863E1,6.96427E-2,3.0539379E-2,1.0577065E-1,4.061237E-1,-1.5852988E-3,3.3060897E-2,-2.2765897E-2,-5.735281E-3,2.408403E-2,-3.402388E-3,-2.8766844E-2,-1.4809832E-2,1.56244105E-2,-1.811237E-2,-2.4232985E-2,-1.0469268E-2],"split_indices":[9,12,9,11,11,11,12,9,4,11,9,6,5,6,4,0,0,0,0,0,0,0,0,0,0,0,0,0,0,0,0],"split_type":[0,0,0,0,0,0,0,0,0,0,0,0,0,0,0,0,0,0,0,0,0,0,0,0,0,0,0,0,0,0,0],"sum_hessian":[1.114E3,3.6E2,7.54E2,1.96E2,1.64E2,1.85E2,5.69E2,1.68E2,2.8E1,5.6E1,1.08E2,1.31E2,5.4E1,7.2E1,4.97E2,8.5E1,8.3E1,2.7E1,1E0,1.8E1,3.8E1,4.9E1,5.9E1,7.8E1,5.3E1,3.3E1,2.1E1,2.8E1,4.4E1,4.05E2,9.2E1],"tree_param":{"num_deleted":"0","num_feature":"13","num_nodes":"31","size_leaf_vector":"1"}},{"base_weights":[-4.1918382E-2,-8.946274E-1,6.209417E0,-1.9227196E0,8.5828507E-1,1.07363825E1,2.4135783E0,-8.6798304E-1,-2.6215253E0,2.7703786E0,-6.0145915E-1,1.206803E1,3.8284588E0,4.5943832E0,-6.1891836E-1,-2.4235962E-2,2.542258E-3,-3.400027E-2,-2.1424502E-2,5.293295E-2,1.2888042E-2,-2.7056254E-2,-2.0014169E-3,8.784963E-2,1.5018699E-1,-6.2057995E-3,4.7617383E-2,6.9568135E-2,-9.199877E-3,3.8380236E-3,-2.6535086E-2],"categories":[],"categories_nodes":[],"categories_segments":[],"categories_sizes":[],"default_left":[0,0,0,0,0,0,0,0,0,0,0,0,0,0,0,0,0,0,0,0,0,0,0,0,0,0,0,0,0,0,0],"id":22,"left_children":[1,3,5,7,9,11,13,15,17,19,21,23,25,27,29,-1,-1,-1,-1,-1,-1,-1,-1,-1,-1,-1,-1,-1,-1,-1,-1],"loss_changes":[5.773231E3,1.7191047E3,2.207959E3,4.4069507E2,9.869485E2,4.9653467E2,4.7900006E2,3.5346625E2,1.07706055E2,4.9288232E2,1.5608447E2,2.0590869E2,2.6377808E1,3.9819208E2,5.454293E1,0E0,0E0,0E0,0E0,0E0,0E0,0E0,0E0,0E0,0E0,0E0,0E0,0E0,0E0,0E0,0E0],"parents":[2147483647,0,0,1,1,2,2,3,3,4,4,5,5,6,6,7,7,8,8,9,9,10,10,11,11,12,12,13,13,14,14],"right_children":[2,4,6,8,10,12,14,16,18,20,22,24,26,28,30,-1,-1,-1,-1,-1,-1,-1,-1,-1,-1,-1,-1,-1,-1,-1,-1],"split_conditions":[1.36E1,6.75E0,1.1570515E1,1.4904173E1,1.4494192E1,1.1720001E1,1.7462782E1,3.67E0,4.55E0,1.8682011E0,9.073585E1,4.6488823E1,1.392E1,1.6000001E0,2.4798225E1,-2.4235962E-2,2.542258E-3,-3.400027E-2,-2.1424502E-2,5.293295E-2,1.2888042E-2,-2.7056254E-2,-2.0014169E-3,8.784963E-2,1.5018699E-1,-6.2057995E-3,4.7617383E-2,6.9568135E-2,-9.199877E-3,3.8380236E-3,-2.6535086E-2],"split_indices":[1,1,9,9,9,5,9,1,1,12,10,10,1,6,9,0,0,0,0,0,0,0,0,0,0,0,0,0,0,0,0],"split_type":[0,0,0,0,0,0,0,0,0,0,0,0,0,0,0,0,0,0,0,0,0,0,0,0,0,0,0,0,0,0,0],"sum_hessian":[1.081E3,9.52E2,1.29E2,6E2,3.52E2,5.8E1,7.1E1,2.4E2,3.6E2,1.52E2,2E2,4.8E1,1E1,4.1E1,3E1,1.08E2,1.32E2,2.11E2,1.49E2,6.6E1,8.6E1,3.6E1,1.64E2,1.5E1,3.3E1,1E0,9E0,3.1E1,1E1,2E1,1E1],"tree_param":{"num_deleted":"0","num_feature":"13","num_nodes":"31","size_leaf_vector":"1"}},{"base_weights":[3.4807317E-2,-1.541348E0,5.6959577E0,-2.7565079E0,2.2153993E-1,8.823872E0,2.5725594E0,-3.3324468E0,-1.9596113E0,1.6715415E0,-9.3379235E-1,5.5360856E0,1.2128982E1,3.0960665E0,-9.0457755E-1,-2.2624582E-2,-4.0035583E-2,2.6514933E-3,-2.3872174E-2,1.2994963E-1,1.32179195E-2,-2.4315089E-2,-4.2818403E-3,7.720541E-2,3.790744E-2,1.4354795E-1,6.106644E-2,4.364364E-2,1.6770856E-2,-1.697325E-2,5.1113304E-2],"categories":[],"categories_nodes":[],"categories_segments":[],"categories_sizes":[],"default_left":[0,0,0,0,0,0,0,0,0,0,0,0,0,0,0,0,0,0,0,0,0,0,0,0,0,0,0,0,0,0,0],"id":23,"left_children":[1,3,5,7,9,11,13,15,17,19,21,23,25,27,29,-1,-1,-1,-1,-1,-1,-1,-1,-1,-1,-1,-1,-1,-1,-1,-1],"loss_changes":[1.0038066E4,1.8857383E3,2.3708813E3,2.3258984E2,6.04645E2,1.2585664E3,2.2851862E2,1.09116455E2,1.01746765E2,7.495617E2,1.3871568E2,1.7039954E2,2.8569824E2,1.4128467E2,6.718555E1,0E0,0E0,0E0,0E0,0E0,0E0,0E0,0E0,0E0,0E0,0E0,0E0,0E0,0E0,0E0,0E0],"parents":[2147483647,0,0,1,1,2,2,3,3,4,4,5,5,6,6,7,7,8,8,9,9,10,10,11,11,12,12,13,13,14,14],"right_children":[2,4,6,8,10,12,14,16,18,20,22,24,26,28,30,-1,-1,-1,-1,-1,-1,-1,-1,-1,-1,-1,-1,-1,-1,-1,-1],"split_conditions":[1.055E1,5.88E0,1.2641076E1,3.97E0,1.5564537E1,1.782E1,5.8999996E0,1.4272814E0,1.0210936E1,6.05E0,1.3174167E1,1E-1,1.2109584E1,1.7462782E1,2.8883131E1,-2.2624582E-2,-4.0035583E-2,2.6514933E-3,-2.3872174E-2,1.2994963E-1,1.32179195E-2,-2.4315089E-2,-4.2818403E-3,7.720541E-2,3.790744E-2,1.4354795E-1,6.106644E-2,4.364364E-2,1.6770856E-2,-1.697325E-2,5.1113304E-2],"split_indices":[0,0,9,0,9,0,6,12,9,0,3,6,3,9,9,0,0,0,0,0,0,0,0,0,0,0,0,0,0,0,0],"split_type":[0,0,0,0,0,0,0,0,0,0,0,0,0,0,0,0,0,0,0,0,0,0,0,0,0,0,0,0,0,0,0],"sum_hessian":[1.123E3,8.79E2,2.44E2,5.2E2,3.59E2,1.21E2,1.23E2,3E2,2.2E2,1.59E2,2E2,6.2E1,5.9E1,1.07E2,1.6E1,5.9E1,2.41E2,1.9E1,2.01E2,6E0,1.53E2,5.9E1,1.41E2,3.5E1,2.7E1,5.1E1,8E0,6.8E1,3.9E1,1.5E1,1E0],"tree_param":{"num_deleted":"0","num_feature":"13","num_nodes":"31","size_leaf_vector":"1"}},{"base_weights":[-8.094306E-3,-1.5883812E0,5.6913342E0,-2.7503355E0,2.3010086E-1,3.43406E0,9.950023E0,-3.3143022E0,-1.9655604E0,-2.0174167E-1,1.4329349E0,3.1921723E0,1.6638985E-1,1.1629753E1,5.266122E0,-1.0940825E-2,-3.7938736E-2,2.1928018E-2,-2.2927582E-2,2.8816175E-2,-5.1427176E-3,5.1991645E-2,1.1171432E-2,3.9857987E-2,-1.6113422E-3,-1.21513E-2,1.3812384E-1,8.248957E-2,7.997737E-3],"categories":[],"categories_nodes":[],"categories_segments":[],"categories_sizes":[],"default_left":[0,0,0,0,0,0,0,0,0,0,0,0,0,0,0,0,0,0,0,0,0,0,0,0,0,0,0,0,0],"id":24,"left_children":[1,3,5,7,9,11,13,15,17,19,21,23,-1,25,27,-1,-1,-1,-1,-1,-1,-1,-1,-1,-1,-1,-1,-1,-1],"loss_changes":[1.0123601E4,1.8600669E3,2.3114102E3,2.3115503E2,1.7897467E2,4.0645325E2,5.996426E2,9.099609E1,1.0872577E2,1.9111551E2,1.2043605E2,2.2731116E2,0E0,7.2292285E2,2.3693903E2,0E0,0E0,0E0,0E0,0E0,0E0,0E0,0E0,0E0,0E0,0E0,0E0,0E0,0E0],"parents":[2147483647,0,0,1,1,2,2,3,3,4,4,5,5,6,6,7,7,8,8,9,9,10,10,11,11,13,13,14,14],"right_children":[2,4,6,8,10,12,14,16,18,20,22,24,-1,26,28,-1,-1,-1,-1,-1,-1,-1,-1,-1,-1,-1,-1,-1,-1],"split_conditions":[1.055E1,5.82E0,1.782E1,3.97E0,8.69E0,3.685E1,1.1824168E1,6.4679165E0,2.15E0,6.05E0,4.94E0,6.0999994E0,1.6638985E-1,2.935064E0,2E-1,-1.0940825E-2,-3.7938736E-2,2.1928018E-2,-2.2927582E-2,2.8816175E-2,-5.1427176E-3,5.1991645E-2,1.1171432E-2,3.9857987E-2,-1.6113422E-3,-1.21513E-2,1.3812384E-1,8.248957E-2,7.997737E-3],"split_indices":[0,0,0,0,0,1,3,3,2,0,1,6,0,4,6,0,0,0,0,0,0,0,0,0,0,0,0,0,0],"split_type":[0,0,0,0,0,0,0,0,0,0,0,0,0,0,0,0,0,0,0,0,0,0,0,0,0,0,0,0,0],"sum_hessian":[1.122E3,8.79E2,2.43E2,5.36E2,3.43E2,1.6E2,8.3E1,3.1E2,2.26E2,2.53E2,9E1,1.58E2,2E0,6E1,2.3E1,1.7E1,2.93E2,6E0,2.2E2,2.1E1,2.32E2,9E0,8.1E1,1.4E2,1.8E1,4E0,5.6E1,1.5E1,8E0],"tree_param":{"num_deleted":"0","num_feature":"13","num_nodes":"29","size_leaf_vector":"1"}},{"base_weights":[7.8196935E-2,-7.7589715E-1,6.24892E0,-1.7658828E0,9.190246E-1,8.19687E0,9.732436E-1,-1.7718302E-1,-2.1651492E0,1.7436336E0,-2.596306E-1,1.0661461E1,3.9120874E0,-2.759844E-1,5.536193E0,1.1268614E-2,-2.4324978E-2,-2.9530726E-2,-1.3868205E-2,3.6036327E-2,-1.7777873E-3,-9.284182E-3,8.378156E-3,-1.3261197E-2,1.22061595E-1,-3.3393186E-2,5.895983E-2,-1.2114478E-2,2.8510096E-2,9.3526505E-3,1.1024181E-1],"categories":[],"categories_nodes":[],"categories_segments":[],"categories_sizes":[],"default_left":[0,0,0,0,0,0,0,0,0,0,0,0,0,0,0,0,0,0,0,0,0,0,0,0,0,0,0,0,0,0,0],"id":25,"left_children":[1,3,5,7,9,11,13,15,17,19,21,23,25,27,29,-1,-1,-1,-1,-1,-1,-1,-1,-1,-1,-1,-1,-1,-1,-1,-1],"loss_changes":[5.7653716E3,1.6141312E3,1.3588306E3,3.8464514E2,3.4548773E2,9.826343E2,2.1243396E2,3.022541E2,2.2351367E2,6.0920776E2,8.815953E1,3.192544E2,3.8672345E2,7.367728E1,1.5927338E2,0E0,0E0,0E0,0E0,0E0,0E0,0E0,0E0,0E0,0E0,0E0,0E0,0E0,0E0,0E0,0E0],"parents":[2147483647,0,0,1,1,2,2,3,3,4,4,5,5,6,6,7,7,8,8,9,9,10,10,11,11,12,12,13,13,14,14],"right_children":[2,4,6,8,10,12,14,16,18,20,22,24,26,28,30,-1,-1,-1,-1,-1,-1,-1,-1,-1,-1,-1,-1,-1,-1,-1,-1],"split_conditions":[1.392E1,6.75E0,7E-1,1.4745313E0,1.599E1,1.7450814E0,2.377E1,3.3E0,4.59E0,7.0000005E-1,8.84E0,-3.2583332E-1,1.22E1,1.166375E1,6.17E0,1.1268614E-2,-2.4324978E-2,-2.9530726E-2,-1.3868205E-2,3.6036327E-2,-1.7777873E-3,-9.284182E-3,8.378156E-3,-1.3261197E-2,1.22061595E-1,-3.3393186E-2,5.895983E-2,-1.2114478E-2,2.8510096E-2,9.3526505E-3,1.1024181E-1],"split_indices":[1,1,6,12,11,12,1,6,1,6,1,5,11,5,11,0,0,0,0,0,0,0,0,0,0,0,0,0,0,0,0],"split_type":[0,0,0,0,0,0,0,0,0,0,0,0,0,0,0,0,0,0,0,0,0,0,0,0,0,0,0,0,0,0,0],"sum_hessian":[1.092E3,9.6E2,1.32E2,6.06E2,3.54E2,9.6E1,3.6E1,1.22E2,4.84E2,2.08E2,1.46E2,6E1,3.6E1,2.9E1,7E0,7.7E1,4.5E1,3.07E2,1.77E2,1.15E2,9.3E1,9.3E1,5.3E1,2E0,5.8E1,6E0,3E1,2.3E1,6E0,4E0,3E0],"tree_param":{"num_deleted":"0","num_feature":"13","num_nodes":"31","size_leaf_vector":"1"}},{"base_weights":[-2.5658635E-2,-7.1282274E-1,7.6708646E0,-1.725501E0,9.6530205E-1,9.237809E0,1.7246695E0,-5.2140754E-1,-2.2415287E0,1.8512157E0,-8.1412613E-1,4.9878836E0,1.1170318E1,3.6001256E0,-2.272624E0,-3.7111264E-2,-3.1807713E-4,-3.2093715E-2,-1.4488469E-2,3.4281943E-2,1.883695E-3,-3.7241046E-4,-2.1763375E-2,1.3334713E-2,9.541037E-2,1.4097536E-1,2.9501917E-2,9.923495E-2,2.1444604E-2,-3.4540806E-2,-8.279818E-4],"categories":[],"categories_nodes":[],"categories_segments":[],"categories_sizes":[],"default_left":[0,0,0,0,0,0,0,0,0,0,0,0,0,0,0,0,0,0,0,0,0,0,0,0,0,0,0,0,0,0,0],"id":26,"left_children":[1,3,5,7,9,11,13,15,17,19,21,23,25,27,29,-1,-1,-1,-1,-1,-1,-1,-1,-1,-1,-1,-1,-1,-1,-1,-1],"loss_changes":[5.807254E3,1.7146611E3,8.226299E2,3.896577E2,6.005467E2,5.274082E2,1.5811668E2,2.6647052E2,2.7026025E2,5.379714E2,1.1510123E2,3.2273804E2,6.305913E2,1.0766136E2,1.305331E1,0E0,0E0,0E0,0E0,0E0,0E0,0E0,0E0,0E0,0E0,0E0,0E0,0E0,0E0,0E0,0E0],"parents":[2147483647,0,0,1,1,2,2,3,3,4,4,5,5,6,6,7,7,8,8,9,9,10,10,11,11,12,12,13,13,14,14],"right_children":[2,4,6,8,10,12,14,16,18,20,22,24,26,28,30,-1,-1,-1,-1,-1,-1,-1,-1,-1,-1,-1,-1,-1,-1,-1,-1],"split_conditions":[1.698E1,6.93E0,6E-1,1.17699995E1,7.0000005E-1,4.2128376E1,1.7452054E2,1.7382467E1,4.44E0,1.677E1,1.6509535E2,7.7554164E0,1.41575E1,1.0295E1,2.745E1,-3.7111264E-2,-3.1807713E-4,-3.2093715E-2,-1.4488469E-2,3.4281943E-2,1.883695E-3,-3.7241046E-4,-2.1763375E-2,1.3334713E-2,9.541037E-2,1.4097536E-1,2.9501917E-2,9.923495E-2,2.1444604E-2,-3.4540806E-2,-8.279818E-4],"split_indices":[1,1,7,3,7,10,10,10,1,11,10,3,3,3,2,0,0,0,0,0,0,0,0,0,0,0,0,0,0,0,0],"split_type":[0,0,0,0,0,0,0,0,0,0,0,0,0,0,0,0,0,0,0,0,0,0,0,0,0,0,0,0,0,0,0],"sum_hessian":[1.096E3,1.007E3,8.9E1,6.28E2,3.79E2,7E1,1.9E1,1.89E2,4.39E2,2.53E2,1.26E2,2.3E1,4.7E1,1.3E1,6E0,2.7E1,1.62E2,2.53E2,1.86E2,1.44E2,1.09E2,7.6E1,5E1,1.2E1,1.1E1,3.9E1,8E0,2E0,1.1E1,4E0,2E0],"tree_param":{"num_deleted":"0","num_feature":"13","num_nodes":"31","size_leaf_vector":"1"}},{"base_weights":[-1.4879881E-2,2.8373697E0,-1.4487141E0,5.1289835E0,-5.3537226E-1,-2.7157166E0,-9.157866E-1,1.1760924E0,6.4634433E0,-1.1385058E0,2.7036474E0,-2.092685E0,-3.3785334E0,9.524182E-1,-1.3186474E0,2.378496E-2,-2.2021616E-2,8.372561E-2,3.585525E-2,-2.2704562E-2,-2.6427826E-3,4.0758517E-2,-2.0121653E-2,-7.017272E-3,-2.9410038E-2,-4.0868107E-2,-1.9779047E-2,2.148761E-2,-1.4526893E-2,-1.7335378E-2,9.285229E-3],"categories":[],"categories_nodes":[],"categories_segments":[],"categories_sizes":[],"default_left":[0,0,0,0,0,0,0,0,0,0,0,0,0,0,0,0,0,0,0,0,0,0,0,0,0,0,0,0,0,0,0],"id":27,"left_children":[1,3,5,7,9,11,13,15,17,19,21,23,25,27,29,-1,-1,-1,-1,-1,-1,-1,-1,-1,-1,-1,-1,-1,-1,-1,-1],"loss_changes":[4.535447E3,2.8702136E3,4.958258E2,1.158167E3,2.9806586E2,8.29541E1,3.933743E2,1.8240067E2,5.782954E2,1.0568735E2,1.1523421E2,9.503696E1,4.8071045E1,2.1357968E2,2.3831378E2,0E0,0E0,0E0,0E0,0E0,0E0,0E0,0E0,0E0,0E0,0E0,0E0,0E0,0E0,0E0,0E0],"parents":[2147483647,0,0,1,1,2,2,3,3,4,4,5,5,6,6,7,7,8,8,9,9,10,10,11,11,12,12,13,13,14,14],"right_children":[2,4,6,8,10,12,14,16,18,20,22,24,26,28,30,-1,-1,-1,-1,-1,-1,-1,-1,-1,-1,-1,-1,-1,-1,-1,-1],"split_conditions":[1.3044722E1,2.0195982E0,4.15E0,4.2E0,9.32E0,1.8129137E1,1.4904173E1,2.4999998E0,4E-1,4.43E0,1E-1,1.3628333E1,2.4595E1,4.2515903E0,1.518E1,2.378496E-2,-2.2021616E-2,8.372561E-2,3.585525E-2,-2.2704562E-2,-2.6427826E-3,4.0758517E-2,-2.0121653E-2,-7.017272E-3,-2.9410038E-2,-4.0868107E-2,-1.9779047E-2,2.148761E-2,-1.4526893E-2,-1.7335378E-2,9.285229E-3],"split_indices":[9,12,2,2,2,9,9,6,6,2,6,3,3,12,2,0,0,0,0,0,0,0,0,0,0,0,0,0,0,0,0],"split_type":[0,0,0,0,0,0,0,0,0,0,0,0,0,0,0,0,0,0,0,0,0,0,0,0,0,0,0,0,0,0,0],"sum_hessian":[1.107E3,3.7E2,7.37E2,2.2E2,1.5E2,2.17E2,5.2E2,5.6E1,1.64E2,1.27E2,2.3E1,1.14E2,1.03E2,9.2E1,4.28E2,4.3E1,1.3E1,1.2E2,4.4E1,6.2E1,6.5E1,1.9E1,4E0,3.3E1,8.1E1,8.4E1,1.9E1,6.4E1,2.8E1,3.83E2,4.5E1],"tree_param":{"num_deleted":"0","num_feature":"13","num_nodes":"31","size_leaf_vector":"1"}},{"base_weights":[-7.896993E-3,-8.906802E-1,5.9098487E0,-1.833067E0,6.47563E-1,9.159665E0,1.0175799E0,3.456006E-1,-2.1337998E0,2.4643838E0,-8.267777E-1,1.0969759E1,4.490994E0,4.034338E0,-8.852042E-1,2.777227E-2,-2.0911146E-2,-2.8850157E-2,-1.4872343E-2,4.343392E-2,-1.9244844E-4,2.9121893E-3,-1.4579883E-2,9.3068905E-2,1.3953781E-1,-4.185648E-4,5.8543425E-2,4.898856E-3,8.0253676E-2,-1.6254602E-2,2.0458737E-2],"categories":[],"categories_nodes":[],"categories_segments":[],"categories_sizes":[],"default_left":[0,0,0,0,0,0,0,0,0,0,0,0,0,0,0,0,0,0,0,0,0,0,0,0,0,0,0,0,0,0,0],"id":28,"left_children":[1,3,5,7,9,11,13,15,17,19,21,23,25,27,29,-1,-1,-1,-1,-1,-1,-1,-1,-1,-1,-1,-1,-1,-1,-1,-1],"loss_changes":[5.835344E3,1.4102178E3,2.2960308E3,3.9582117E2,9.9312427E2,6.859487E2,3.422453E2,3.662596E2,1.982229E2,6.0970435E2,1.11570816E2,1.5855713E2,9.737067E1,2.6534375E2,6.2706745E1,0E0,0E0,0E0,0E0,0E0,0E0,0E0,0E0,0E0,0E0,0E0,0E0,0E0,0E0,0E0,0E0],"parents":[2147483647,0,0,1,1,2,2,3,3,4,4,5,5,6,6,7,7,8,8,9,9,10,10,11,11,12,12,13,13,14,14],"right_children":[2,4,6,8,10,12,14,16,18,20,22,24,26,28,30,-1,-1,-1,-1,-1,-1,-1,-1,-1,-1,-1,-1,-1,-1,-1,-1],"split_conditions":[1.36E1,6.55E0,1.4081478E1,1.0315115E1,1.4494192E1,1.2109584E1,1.7462782E1,1.1634583E1,4.44E0,1.575E1,1.7304358E1,2.15E1,1.0340835E1,1.07387495E1,2.377E1,2.777227E-2,-2.0911146E-2,-2.8850157E-2,-1.4872343E-2,4.343392E-2,-1.9244844E-4,2.9121893E-3,-1.4579883E-2,9.3068905E-2,1.3953781E-1,-4.185648E-4,5.8543425E-2,4.898856E-3,8.0253676E-2,-1.6254602E-2,2.0458737E-2],"split_indices":[1,1,9,9,9,3,9,3,1,11,9,1,5,3,1,0,0,0,0,0,0,0,0,0,0,0,0,0,0,0,0],"split_type":[0,0,0,0,0,0,0,0,0,0,0,0,0,0,0,0,0,0,0,0,0,0,0,0,0,0,0,0,0,0,0],"sum_hessian":[1.115E3,9.71E2,1.44E2,6.02E2,3.69E2,8.6E1,5.8E1,7.3E1,5.29E2,1.65E2,2.04E2,6.1E1,2.5E1,2.2E1,3.6E1,3.7E1,3.6E1,3.25E2,2.04E2,1.03E2,6.2E1,6.4E1,1.4E2,2.7E1,3.4E1,4E0,2.1E1,1.1E1,1.1E1,3E1,6E0],"tree_param":{"num_deleted":"0","num_feature":"13","num_nodes":"31","size_leaf_vector":"1"}},{"base_weights":[-8.260172E-2,2.6322668E0,-1.3556476E0,1.5654083E0,8.681811E0,-2.068231E0,-3.4372813E-1,3.0514307E0,-1.1074338E0,5.0325656E0,1.1311815E1,-1.4324583E0,-2.763504E0,1.7914195E0,-8.6560726E-1,5.2788593E-3,4.8053987E-2,-2.2688173E-2,-4.463187E-3,2.5966842E-2,1.0162394E-1,1.3058265E-1,-2.4909E-2,7.841654E-4,-2.1361863E-2,-3.6646288E-2,-2.2459567E-2,2.4408462E-2,-1.0548986E-2,-3.3515684E-2,-5.399088E-3],"categories":[],"categories_nodes":[],"categories_segments":[],"categories_sizes":[],"default_left":[0,0,0,0,0,0,0,0,0,0,0,0,0,0,0,0,0,0,0,0,0,0,0,0,0,0,0,0,0,0,0],"id":29,"left_children":[1,3,5,7,9,11,13,15,17,19,21,23,25,27,29,-1,-1,-1,-1,-1,-1,-1,-1,-1,-1,-1,-1,-1,-1,-1,-1],"loss_changes":[3.8433538E3,2.2775828E3,5.451444E2,1.206866E3,4.5174194E2,1.9230505E2,3.514374E2,6.560613E2,7.2087814E1,2.4755835E2,2.4918262E2,1.7865582E2,7.941138E1,7.4576965E1,2.0531474E2,0E0,0E0,0E0,0E0,0E0,0E0,0E0,0E0,0E0,0E0,0E0,0E0,0E0,0E0,0E0,0E0],"parents":[2147483647,0,0,1,1,2,2,3,3,4,4,5,5,6,6,7,7,8,8,9,9,10,10,11,11,12,12,13,13,14,14],"right_children":[2,4,6,8,10,12,14,16,18,20,22,24,26,28,30,-1,-1,-1,-1,-1,-1,-1,-1,-1,-1,-1,-1,-1,-1,-1,-1],"split_conditions":[1.288981E1,1.707E1,6.68E0,1.47E1,5.182536E1,1.8043148E1,1.4904173E1,4.25E0,4.43E0,1.116E1,1.373E1,1.0709804E1,4.3E0,2.147E1,2.5947386E1,5.2788593E-3,4.8053987E-2,-2.2688173E-2,-4.463187E-3,2.5966842E-2,1.0162394E-1,1.3058265E-1,-2.4909E-2,7.841654E-4,-2.1361863E-2,-3.6646288E-2,-2.2459567E-2,2.4408462E-2,-1.0548986E-2,-3.3515684E-2,-5.399088E-3],"split_indices":[9,2,2,11,10,9,9,2,2,11,11,4,2,11,10,0,0,0,0,0,0,0,0,0,0,0,0,0,0,0,0],"split_type":[0,0,0,0,0,0,0,0,0,0,0,0,0,0,0,0,0,0,0,0,0,0,0,0,0,0,0,0,0,0,0],"sum_hessian":[1.11E3,3.54E2,7.56E2,3.02E2,5.2E1,4.43E2,3.13E2,1.94E2,1.08E2,2.3E1,2.9E1,2.33E2,2.1E2,6.1E1,2.52E2,6.6E1,1.28E2,4.5E1,6.3E1,1.5E1,8E0,2.8E1,1E0,5.9E1,1.74E2,1.16E2,9.4E1,5.3E1,8E0,3.6E1,2.16E2],"tree_param":{"num_deleted":"0","num_feature":"13","num_nodes":"31","size_leaf_vector":"1"}},{"base_weights":[-3.936181E-2,-7.9801357E-1,5.4922957E0,-1.6516421E0,5.359147E-1,7.1328573E0,4.0105097E-2,-4.1248855E-1,-2.1825678E0,9.229716E-1,-1.4385952E0,9.652043E0,2.5697224E0,-7.7136713E-1,4.5763283E0,5.2047176E-3,-2.3642754E-2,-2.7924892E-2,-1.3942209E-2,3.203365E-2,4.13562E-3,-3.824639E-2,-9.820779E-3,1.1295276E-1,2.0851744E-2,-2.6988491E-2,3.9508317E-2,-1.4264021E-2,1.5037569E-2,1.637694E-2,6.761636E-2],"categories":[],"categories_nodes":[],"categories_segments":[],"categories_sizes":[],"default_left":[0,0,0,0,0,0,0,0,0,0,0,0,0,0,0,0,0,0,0,0,0,0,0,0,0,0,0,0,0,0,0],"id":30,"left_children":[1,3,5,7,9,11,13,15,17,19,21,23,25,27,29,-1,-1,-1,-1,-1,-1,-1,-1,-1,-1,-1,-1,-1,-1,-1,-1],"loss_changes":[4.662611E3,1.1133748E3,1.1982971E3,3.9120715E2,2.932704E2,1.1592217E3,1.2132265E2,2.7734845E2,1.3178491E2,3.4679437E2,6.69861E1,2.903291E2,2.0299039E2,3.3115906E1,1.5022163E1,0E0,0E0,0E0,0E0,0E0,0E0,0E0,0E0,0E0,0E0,0E0,0E0,0E0,0E0,0E0,0E0],"parents":[2147483647,0,0,1,1,2,2,3,3,4,4,5,5,6,6,7,7,8,8,9,9,10,10,11,11,12,12,13,13,14,14],"right_children":[2,4,6,8,10,12,14,16,18,20,22,24,26,28,30,-1,-1,-1,-1,-1,-1,-1,-1,-1,-1,-1,-1,-1,-1,-1,-1],"split_conditions":[1.36E1,6.55E0,1E0,2.0195982E0,5.8999996E0,1.7760127E0,2.392E1,3.3E0,4.87E0,1.2742338E0,7.590833E0,1.1720001E1,4.1215644E0,1.166375E1,1.0824903E0,5.2047176E-3,-2.3642754E-2,-2.7924892E-2,-1.3942209E-2,3.203365E-2,4.13562E-3,-3.824639E-2,-9.820779E-3,1.1295276E-1,2.0851744E-2,-2.6988491E-2,3.9508317E-2,-1.4264021E-2,1.5037569E-2,1.637694E-2,6.761636E-2],"split_indices":[1,1,6,12,6,12,1,6,1,12,5,5,4,5,12,0,0,0,0,0,0,0,0,0,0,0,0,0,0,0,0],"split_type":[0,0,0,0,0,0,0,0,0,0,0,0,0,0,0,0,0,0,0,0,0,0,0,0,0,0,0,0,0,0,0],"sum_hessian":[1.109E3,9.76E2,1.33E2,5.95E2,3.81E2,1.02E2,3.1E1,1.79E2,4.16E2,3.19E2,6.2E1,6.5E1,3.7E1,2.7E1,4E0,1.19E2,6E1,2.99E2,1.17E2,6.8E1,2.51E2,1.2E1,5E1,6E1,5E0,6E0,3.1E1,2.2E1,5E0,2E0,2E0],"tree_param":{"num_deleted":"0","num_feature":"13","num_nodes":"31","size_leaf_vector":"1"}},{"base_weights":[-1.6411263E-2,-7.870606E-1,6.0071154E0,-1.7032777E0,8.088999E-1,1.0583036E1,2.0157838E0,5.142958E-1,-2.0321505E0,2.6032383E0,-6.288324E-1,1.1591582E1,1.579121E0,4.132615E0,-9.734934E-1,2.5566418E-2,-1.5375972E-2,-3.021061E-2,-1.6916899E-2,4.0691346E-2,9.200164E-3,-1.9373946E-2,-1.9420555E-5,1.2975053E-1,1.026597E-2,-7.243166E-3,2.2702467E-2,6.386875E-2,-8.697819E-3,-1.8062534E-2,1.49351675E-2],"categories":[],"categories_nodes":[],"categories_segments":[],"categories_sizes":[],"default_left":[0,0,0,0,0,0,0,0,0,0,0,0,0,0,0,0,0,0,0,0,0,0,0,0,0,0,0,0,0,0,0],"id":31,"left_children":[1,3,5,7,9,11,13,15,17,19,21,23,25,27,29,-1,-1,-1,-1,-1,-1,-1,-1,-1,-1,-1,-1,-1,-1,-1,-1],"loss_changes":[5.1156E3,1.4299924E3,2.261669E3,4.539403E2,9.226178E2,5.0838574E2,4.343131E2,2.8293298E2,1.8661401E2,3.0380603E2,1.4106393E2,9.4734375E1,8.909849E0,3.3283698E2,4.7269207E1,0E0,0E0,0E0,0E0,0E0,0E0,0E0,0E0,0E0,0E0,0E0,0E0,0E0,0E0,0E0,0E0],"parents":[2147483647,0,0,1,1,2,2,3,3,4,4,5,5,6,6,7,7,8,8,9,9,10,10,11,11,12,12,13,13,14,14],"right_children":[2,4,6,8,10,12,14,16,18,20,22,24,26,28,30,-1,-1,-1,-1,-1,-1,-1,-1,-1,-1,-1,-1,-1,-1,-1,-1],"split_conditions":[1.36E1,6.75E0,1.1792404E1,1.0210936E1,1.4408997E1,1.1720001E1,1.7462782E1,1.1634583E1,3.7E0,1.4855418E1,1.3174167E1,1.0799999E1,1.392E1,1.6000001E0,1.166375E1,2.5566418E-2,-1.5375972E-2,-3.021061E-2,-1.6916899E-2,4.0691346E-2,9.200164E-3,-1.9373946E-2,-1.9420555E-5,1.2975053E-1,1.026597E-2,-7.243166E-3,2.2702467E-2,6.386875E-2,-8.697819E-3,-1.8062534E-2,1.49351675E-2],"split_indices":[1,1,9,9,9,5,9,3,1,3,3,6,1,6,5,0,0,0,0,0,0,0,0,0,0,0,0,0,0,0,0],"split_type":[0,0,0,0,0,0,0,0,0,0,0,0,0,0,0,0,0,0,0,0,0,0,0,0,0,0,0,0,0,0,0],"sum_hessian":[1.1E3,9.76E2,1.24E2,6.2E2,3.56E2,5.7E1,6.7E1,8E1,5.4E2,1.58E2,1.98E2,5.1E1,6E0,3.9E1,2.8E1,4.1E1,3.9E1,2.2E2,3.2E2,9.7E1,6.1E1,7E1,1.28E2,5E1,1E0,1E0,5E0,2.9E1,1E1,2.2E1,6E0],"tree_param":{"num_deleted":"0","num_feature":"13","num_nodes":"31","size_leaf_vector":"1"}},{"base_weights":[2.5977006E-3,-1.2396516E0,6.2138305E0,-2.5543659E0,4.9815333E-1,3.4568968E0,9.507601E0,-3.1776993E0,-1.710453E0,-2.015063E0,7.98108E-1,4.994491E0,2.2204595E0,1.1989852E1,6.0566034E0,-4.147448E-2,-3.1616423E-2,2.439698E-2,-2.0091781E-2,-4.1130643E-2,-1.3808056E-3,2.4727266E-2,-4.209011E-3,6.06972E-2,1.45934485E-2,3.0309377E-2,-1.5012887E-3,-2.0040708E-2,1.4238976E-1,8.1056576E-5,7.678814E-2],"categories":[],"categories_nodes":[],"categories_segments":[],"categories_sizes":[],"default_left":[0,0,0,0,0,0,0,0,0,0,0,0,0,0,0,0,0,0,0,0,0,0,0,0,0,0,0,0,0,0,0],"id":32,"left_children":[1,3,5,7,9,11,13,15,17,19,21,23,25,27,29,-1,-1,-1,-1,-1,-1,-1,-1,-1,-1,-1,-1,-1,-1,-1,-1],"loss_changes":[8.796112E3,2.1717534E3,1.6924673E3,2.7915186E2,3.1068713E2,1.8852954E2,6.640796E2,4.5138184E1,1.07900635E2,1.425344E2,6.277993E2,8.0003784E1,7.558365E1,6.597363E2,2.1058643E2,0E0,0E0,0E0,0E0,0E0,0E0,0E0,0E0,0E0,0E0,0E0,0E0,0E0,0E0,0E0,0E0],"parents":[2147483647,0,0,1,1,2,2,3,3,4,4,5,5,6,6,7,7,8,8,9,9,10,10,11,11,12,12,13,13,14,14],"right_children":[2,4,6,8,10,12,14,16,18,20,22,24,26,28,30,-1,-1,-1,-1,-1,-1,-1,-1,-1,-1,-1,-1,-1,-1,-1,-1],"split_conditions":[1.175E1,5.82E0,1.782E1,3.97E0,2.5947386E1,1.21475845E2,8.297082E0,2.6E0,2.15E0,1.009E1,1.6230548E2,1.7122084E1,1.56E1,1.2501279E-3,4.94E0,-4.147448E-2,-3.1616423E-2,2.439698E-2,-2.0091781E-2,-4.1130643E-2,-1.3808056E-3,2.4727266E-2,-4.209011E-3,6.06972E-2,1.45934485E-2,3.0309377E-2,-1.5012887E-3,-2.0040708E-2,1.4238976E-1,8.1056576E-5,7.678814E-2],"split_indices":[0,0,0,0,10,10,5,0,2,11,10,3,0,5,11,0,0,0,0,0,0,0,0,0,0,0,0,0,0,0,0],"split_type":[0,0,0,0,0,0,0,0,0,0,0,0,0,0,0,0,0,0,0,0,0,0,0,0,0,0,0,0,0,0,0],"sum_hessian":[1.138E3,9.49E2,1.89E2,5.4E2,4.09E2,1.04E2,8.5E1,3.09E2,2.31E2,4.3E1,3.66E2,4.5E1,5.9E1,4.8E1,3.7E1,1.02E2,2.07E2,6E0,2.25E2,2.2E1,2.1E1,1.64E2,2.02E2,3.9E1,6E0,4.8E1,1.1E1,3E0,4.5E1,5E0,3.2E1],"tree_param":{"num_deleted":"0","num_feature":"13","num_nodes":"31","size_leaf_vector":"1"}},{"base_weights":[2.5572745E-2,-5.855751E-1,6.94268E0,-1.6192993E0,1.0532702E0,8.411775E0,1.3068026E0,-1.7988981E-1,-2.002589E0,2.0477724E0,-2.4449298E-1,4.188379E0,1.0436215E1,7.395181E-2,3.327742E-1,-1.5341942E-2,9.3937805E-3,-2.6671197E-2,-1.3196747E-2,4.4191834E-2,4.711165E-3,3.800988E-3,-1.3912394E-2,-2.8074916E-2,6.1593734E-2,1.23943634E-1,1.2594277E-2,-3.405199E-3,6.1925724E-2],"categories":[],"categories_nodes":[],"categories_segments":[],"categories_sizes":[],"default_left":[0,0,0,0,0,0,0,0,0,0,0,0,0,0,0,0,0,0,0,0,0,0,0,0,0,0,0,0,0],"id":33,"left_children":[1,3,5,7,9,11,13,15,17,19,21,23,25,-1,27,-1,-1,-1,-1,-1,-1,-1,-1,-1,-1,-1,-1,-1,-1],"loss_changes":[4.7387256E3,1.746643E3,7.424546E2,3.4832117E2,5.154614E2,5.7189014E2,1.0312732E2,1.6911812E2,1.6538794E2,7.1775653E2,1.04969864E2,2.5088858E2,3.523423E2,0E0,6.28755E1,0E0,0E0,0E0,0E0,0E0,0E0,0E0,0E0,0E0,0E0,0E0,0E0,0E0,0E0],"parents":[2147483647,0,0,1,1,2,2,3,3,4,4,5,5,6,6,7,7,8,8,9,9,10,10,11,11,12,12,14,14],"right_children":[2,4,6,8,10,12,14,16,18,20,22,24,26,-1,28,-1,-1,-1,-1,-1,-1,-1,-1,-1,-1,-1,-1,-1,-1],"split_conditions":[1.698E1,6.75E0,1.6000001E0,9.972084E0,2E-1,2.07E1,1.007E1,3.7E0,4.8E0,1.365E1,5.8999996E0,7.28875E0,1.542E1,7.395181E-2,7.39E0,-1.5341942E-2,9.3937805E-3,-2.6671197E-2,-1.3196747E-2,4.4191834E-2,4.711165E-3,3.800988E-3,-1.3912394E-2,-2.8074916E-2,6.1593734E-2,1.23943634E-1,1.2594277E-2,-3.405199E-3,6.1925724E-2],"split_indices":[1,1,6,3,6,1,2,1,1,11,6,3,11,0,11,0,0,0,0,0,0,0,0,0,0,0,0,0,0],"split_type":[0,0,0,0,0,0,0,0,0,0,0,0,0,0,0,0,0,0,0,0,0,0,0,0,0,0,0,0,0],"sum_hessian":[1.119E3,1.029E3,9E1,6.31E2,3.98E2,7.1E1,1.9E1,1.33E2,4.98E2,2.25E2,1.73E2,2.4E1,4.7E1,2E0,1.7E1,6.1E1,7.2E1,3.26E2,1.72E2,1.01E2,1.24E2,1.1E2,6.3E1,4E0,2E1,4.3E1,4E0,1.6E1,1E0],"tree_param":{"num_deleted":"0","num_feature":"13","num_nodes":"29","size_leaf_vector":"1"}},{"base_weights":[-8.0825344E-2,-6.6459686E-1,6.8778567E0,8.62825E-1,-1.7093757E0,1.0209423E1,1.217783E0,-4.0691683E-1,2.989809E0,-2.3984725E0,-5.870629E-1,1.0843688E1,4.4016848E0,-1.6798786E0,2.374401E0,1.2810386E-2,-1.6500445E-2,2.1752766E-1,2.788331E-2,-3.0878907E-2,-2.1246186E-2,2.9124718E-3,-1.207277E-2,8.7256625E-2,1.3276611E-1,6.0426418E-2,2.4400884E-2,-3.8398784E-2,9.079828E-3,8.599636E-2,9.878098E-3],"categories":[],"categories_nodes":[],"categories_segments":[],"categories_sizes":[],"default_left":[0,0,0,0,0,0,0,0,0,0,0,0,0,0,0,0,0,0,0,0,0,0,0,0,0,0,0,0,0,0,0],"id":34,"left_children":[1,3,5,7,9,11,13,15,17,19,21,23,25,27,29,-1,-1,-1,-1,-1,-1,-1,-1,-1,-1,-1,-1,-1,-1,-1,-1],"loss_changes":[4.513702E3,1.6371885E3,1.6092615E3,1.1274171E3,4.6958154E2,1.5118652E2,1.1458781E2,4.5075415E2,1.1471614E3,6.632324E1,1.01326126E2,7.4418945E1,4.4509583E0,4.81298E1,1.8569635E2,0E0,0E0,0E0,0E0,0E0,0E0,0E0,0E0,0E0,0E0,0E0,0E0,0E0,0E0,0E0,0E0],"parents":[2147483647,0,0,1,1,2,2,3,3,4,4,5,5,6,6,7,7,8,8,9,9,10,10,11,11,12,12,13,13,14,14],"right_children":[2,4,6,8,10,12,14,16,18,20,22,24,26,28,30,-1,-1,-1,-1,-1,-1,-1,-1,-1,-1,-1,-1,-1,-1,-1,-1],"split_conditions":[1.698E1,1.4494192E1,1.2303366E1,7.6E0,6.68E0,1.2005416E1,1.518E1,2.0195982E0,7.65E0,4.44E0,1.8043148E1,2.15E1,1.873E1,1.22E1,1.892E1,1.2810386E-2,-1.6500445E-2,2.1752766E-1,2.788331E-2,-3.0878907E-2,-2.1246186E-2,2.9124718E-3,-1.207277E-2,8.7256625E-2,1.3276611E-1,6.0426418E-2,2.4400884E-2,-3.8398784E-2,9.079828E-3,8.599636E-2,9.878098E-3],"split_indices":[1,9,9,1,1,5,2,12,1,2,9,1,2,11,2,0,0,0,0,0,0,0,0,0,0,0,0,0,0,0,0],"split_type":[0,0,0,0,0,0,0,0,0,0,0,0,0,0,0,0,0,0,0,0,0,0,0,0,0,0,0,0,0,0,0],"sum_hessian":[1.109E3,1.024E3,8.5E1,4.16E2,6.08E2,5.3E1,3.2E1,2.61E2,1.55E2,3.76E2,2.32E2,4.7E1,6E0,9E0,2.3E1,1.07E2,1.54E2,3E0,1.52E2,1.99E2,1.77E2,8.7E1,1.45E2,1.6E1,3.1E1,3E0,3E0,5E0,4E0,4E0,1.9E1],"tree_param":{"num_deleted":"0","num_feature":"13","num_nodes":"31","size_leaf_vector":"1"}},{"base_weights":[-1.760547E-2,-8.317864E-1,5.4515657E0,-1.6393094E0,6.125954E-1,9.515525E0,8.3741534E-1,-5.804038E-1,-2.2376359E0,2.2420437E0,-5.9235704E-1,1.0815074E1,2.8950458E0,2.4200165E0,-8.6291E-1,5.740665E-3,-1.5819982E-2,-3.3488896E-2,-1.9061454E-2,4.500122E-2,1.23271905E-2,-2.9185737E-2,-9.218506E-4,8.141822E-2,1.3099594E-1,1.4811438E-2,5.2172218E-2,8.735584E-2,1.1596959E-2,-1.4922661E-2,2.4918027E-2],"categories":[],"categories_nodes":[],"categories_segments":[],"categories_sizes":[],"default_left":[0,0,0,0,0,0,0,0,0,0,0,0,0,0,0,0,0,0,0,0,0,0,0,0,0,0,0,0,0,0,0],"id":35,"left_children":[1,3,5,7,9,11,13,15,17,19,21,23,25,27,29,-1,-1,-1,-1,-1,-1,-1,-1,-1,-1,-1,-1,-1,-1,-1,-1],"loss_changes":[4.982871E3,1.1370498E3,2.7110308E3,3.9468347E2,6.8852075E2,6.3116943E2,1.8776291E2,2.148641E2,1.5716772E2,3.0394568E2,2.1122272E2,1.486333E2,3.3613373E1,2.6291498E2,5.5371056E1,0E0,0E0,0E0,0E0,0E0,0E0,0E0,0E0,0E0,0E0,0E0,0E0,0E0,0E0,0E0,0E0],"parents":[2147483647,0,0,1,1,2,2,3,3,4,4,5,5,6,6,7,7,8,8,9,9,10,10,11,11,12,12,13,13,14,14],"right_children":[2,4,6,8,10,12,14,16,18,20,22,24,26,28,30,-1,-1,-1,-1,-1,-1,-1,-1,-1,-1,-1,-1,-1,-1,-1,-1],"split_conditions":[1.36E1,6.75E0,1.2641076E1,1.4255272E1,1.4494192E1,1.41575E1,1.80036E1,1.1886665E1,3.7E0,1.5077894E0,1.0802621E2,4.6488823E1,1.8486668E1,1.56E1,2.49E1,5.740665E-3,-1.5819982E-2,-3.3488896E-2,-1.9061454E-2,4.500122E-2,1.23271905E-2,-2.9185737E-2,-9.218506E-4,8.141822E-2,1.3099594E-1,1.4811438E-2,5.2172218E-2,8.735584E-2,1.1596959E-2,-1.4922661E-2,2.4918027E-2],"split_indices":[1,1,9,9,9,3,9,3,1,12,10,10,3,1,1,0,0,0,0,0,0,0,0,0,0,0,0,0,0,0,0],"split_type":[0,0,0,0,0,0,0,0,0,0,0,0,0,0,0,0,0,0,0,0,0,0,0,0,0,0,0,0,0,0,0],"sum_hessian":[1.117E3,9.73E2,1.44E2,6.24E2,3.49E2,7.6E1,6.8E1,2.26E2,3.98E2,1.48E2,2.01E2,6.3E1,1.3E1,3.5E1,3.3E1,9.9E1,1.27E2,1.52E2,2.46E2,5.5E1,9.3E1,3.9E1,1.62E2,1.7E1,4.6E1,8E0,5E0,6E0,2.9E1,2.9E1,4E0],"tree_param":{"num_deleted":"0","num_feature":"13","num_nodes":"31","size_leaf_vector":"1"}},{"base_weights":[-1.67868E-2,-1.4415146E0,5.255378E0,-2.4835196E0,9.76689E-2,8.301535E0,2.2161958E0,-2.9474156E0,-1.5279646E0,1.2168862E0,-9.143385E-1,4.9408503E0,1.0874485E1,2.8467162E0,-1.2853459E0,1.5155856E-4,-3.331646E-2,7.950174E-3,-2.0117164E-2,2.1371888E-2,-4.9453513E-3,-2.0062398E-2,6.93982E-4,9.871091E-2,4.552291E-2,1.298725E-1,5.009835E-2,4.098326E-2,1.3316129E-2,-1.9258402E-2,1.9484917E-2],"categories":[],"categories_nodes":[],"categories_segments":[],"categories_sizes":[],"default_left":[0,0,0,0,0,0,0,0,0,0,0,0,0,0,0,0,0,0,0,0,0,0,0,0,0,0,0,0,0,0,0],"id":36,"left_children":[1,3,5,7,9,11,13,15,17,19,21,23,25,27,29,-1,-1,-1,-1,-1,-1,-1,-1,-1,-1,-1,-1,-1,-1,-1,-1],"loss_changes":[8.367763E3,1.4068076E3,2.175706E3,2.2733081E2,4.032056E2,9.6660205E2,2.6859424E2,8.107788E1,1.1763052E2,2.0466664E2,1.6597038E2,1.350133E2,3.299546E2,1.416258E2,2.999336E1,0E0,0E0,0E0,0E0,0E0,0E0,0E0,0E0,0E0,0E0,0E0,0E0,0E0,0E0,0E0,0E0],"parents":[2147483647,0,0,1,1,2,2,3,3,4,4,5,5,6,6,7,7,8,8,9,9,10,10,11,11,12,12,13,13,14,14],"right_children":[2,4,6,8,10,12,14,16,18,20,22,24,26,28,30,-1,-1,-1,-1,-1,-1,-1,-1,-1,-1,-1,-1,-1,-1,-1,-1],"split_conditions":[1.055E1,5.82E0,1.2641076E1,4.25E0,1.5646544E1,1.782E1,6.0999994E0,7.0262355E-1,1.0210936E1,2.073E1,1.5454078E1,1.095E1,1.1572647E1,1.7462782E1,3.2399998E1,1.5155856E-4,-3.331646E-2,7.950174E-3,-2.0117164E-2,2.1371888E-2,-4.9453513E-3,-2.0062398E-2,6.93982E-4,9.871091E-2,4.552291E-2,1.298725E-1,5.009835E-2,4.098326E-2,1.3316129E-2,-1.9258402E-2,1.9484917E-2],"split_indices":[0,0,9,0,9,0,7,12,9,11,4,0,4,9,9,0,0,0,0,0,0,0,0,0,0,0,0,0,0,0,0],"split_type":[0,0,0,0,0,0,0,0,0,0,0,0,0,0,0,0,0,0,0,0,0,0,0,0,0,0,0,0,0,0,0],"sum_hessian":[1.112E3,8.76E2,2.36E2,5.22E2,3.54E2,1.17E2,1.19E2,3.5E2,1.72E2,1.68E2,1.86E2,5.2E1,6.5E1,1.01E2,1.8E1,9E0,3.41E2,2E1,1.52E2,1.17E2,5.1E1,9.6E1,9E1,7E0,4.5E1,5.6E1,9E0,6.5E1,3.6E1,1.6E1,2E0],"tree_param":{"num_deleted":"0","num_feature":"13","num_nodes":"31","size_leaf_vector":"1"}},{"base_weights":[1.5591156E-2,-1.4168031E0,5.2335334E0,-2.3943968E0,-3.3374228E-2,3.1445246E0,8.956755E0,-2.9250607E0,-1.6920186E0,-3.6726868E-1,8.1478304E-1,2.9051352E0,1.5665478E-1,1.0119046E1,2.3394897E0,-2.0605093E-2,-3.511206E-2,1.11824125E-2,-2.0550273E-2,-3.9169868E-4,-1.5167925E-2,2.7266614E-2,5.7523972E-3,3.3449378E-2,-3.0283105E-2,-2.3049763E-3,1.1995653E-1,-3.613879E-2,3.9091766E-2],"categories":[],"categories_nodes":[],"categories_segments":[],"categories_sizes":[],"default_left":[0,0,0,0,0,0,0,0,0,0,0,0,0,0,0,0,0,0,0,0,0,0,0,0,0,0,0,0,0],"id":37,"left_children":[1,3,5,7,9,11,13,15,17,19,21,23,-1,25,27,-1,-1,-1,-1,-1,-1,-1,-1,-1,-1,-1,-1,-1,-1],"loss_changes":[8.258877E3,1.1724779E3,1.8229614E3,1.8439575E2,1.02249435E2,3.6718103E2,6.300781E2,7.397949E1,1.0606677E2,8.6728134E1,4.8256264E1,1.2208789E2,0E0,5.7778174E2,1.0689799E2,0E0,0E0,0E0,0E0,0E0,0E0,0E0,0E0,0E0,0E0,0E0,0E0,0E0,0E0],"parents":[2147483647,0,0,1,1,2,2,3,3,4,4,5,5,6,6,7,7,8,8,9,9,10,10,11,11,13,13,14,14],"right_children":[2,4,6,8,10,12,14,16,18,20,22,24,-1,26,28,-1,-1,-1,-1,-1,-1,-1,-1,-1,-1,-1,-1,-1,-1],"split_conditions":[1.055E1,5.82E0,1.782E1,3.97E0,8.52E0,3.685E1,1.0288751E1,1.00575E1,6.8825E0,8.39E0,4.1116667E0,2.604E1,1.5665478E-1,1.8554167E0,1.077625E1,-2.0605093E-2,-3.511206E-2,1.11824125E-2,-2.0550273E-2,-3.9169868E-4,-1.5167925E-2,2.7266614E-2,5.7523972E-3,3.3449378E-2,-3.0283105E-2,-2.3049763E-3,1.1995653E-1,-3.613879E-2,3.9091766E-2],"split_indices":[0,0,0,0,0,1,5,3,3,1,5,2,0,5,5,0,0,0,0,0,0,0,0,0,0,0,0,0,0],"split_type":[0,0,0,0,0,0,0,0,0,0,0,0,0,0,0,0,0,0,0,0,0,0,0,0,0,0,0,0,0],"sum_hessian":[1.103E3,8.66E2,2.37E2,5.07E2,3.59E2,1.53E2,8.4E1,2.87E2,2.2E2,2.58E2,1.01E2,1.51E2,2E0,7.1E1,1.3E1,5.9E1,2.28E2,1.3E1,2.07E2,1.95E2,6.3E1,1.4E1,8.7E1,1.48E2,3E0,5E0,6.6E1,2E0,1.1E1],"tree_param":{"num_deleted":"0","num_feature":"13","num_nodes":"29","size_leaf_vector":"1"}},{"base_weights":[-9.93344E-2,2.3162906E0,-1.2417718E0,4.3915415E0,-2.3442528E-1,-2.8788224E-1,-1.653381E0,5.4579334E0,-3.9621702E-1,1.1854382E0,-9.957252E-1,7.986999E-1,-1.2070009E0,-2.3103178E0,-1.3447894E0,5.452948E-2,2.242539E-1,5.458396E-2,-1.1169904E-2,1.9083178E-2,-1.1143688E-2,-1.7403845E-2,2.037708E-3,2.07988E-2,-1.4151059E-2,-2.9951336E-2,-7.237531E-3,-1.3254251E-2,-3.9673463E-2,-4.376016E-3,-1.6347177E-2],"categories":[],"categories_nodes":[],"categories_segments":[],"categories_sizes":[],"default_left":[0,0,0,0,0,0,0,0,0,0,0,0,0,0,0,0,0,0,0,0,0,0,0,0,0,0,0,0,0,0,0],"id":38,"left_children":[1,3,5,7,9,11,13,15,17,19,21,23,25,27,29,-1,-1,-1,-1,-1,-1,-1,-1,-1,-1,-1,-1,-1,-1,-1,-1],"loss_changes":[3.0854617E3,1.9013512E3,2.9753003E2,1.0130769E3,1.7629297E2,2.3066452E2,1.043374E2,1.1216465E3,1.2744416E2,7.0322395E1,7.34707E1,2.4317688E2,1.0217595E2,2.3594775E2,4.743921E1,0E0,0E0,0E0,0E0,0E0,0E0,0E0,0E0,0E0,0E0,0E0,0E0,0E0,0E0,0E0,0E0],"parents":[2147483647,0,0,1,1,2,2,3,3,4,4,5,5,6,6,7,7,8,8,9,9,10,10,11,11,12,12,13,13,14,14],"right_children":[2,4,6,8,10,12,14,16,18,20,22,24,26,28,30,-1,-1,-1,-1,-1,-1,-1,-1,-1,-1,-1,-1,-1,-1,-1,-1],"split_conditions":[1.288981E1,1.8866856E0,1.59134655E1,2.7000003E0,2.5339944E0,1.5201251E1,8.201251E0,1.8335127E0,6.1160064E-1,6E-1,2.1147087E1,6E-1,1.3549167E1,2.1897945E1,1.2497927E0,5.452948E-2,2.242539E-1,5.458396E-2,-1.1169904E-2,1.9083178E-2,-1.1143688E-2,-1.7403845E-2,2.037708E-3,2.07988E-2,-1.4151059E-2,-2.9951336E-2,-7.237531E-3,-1.3254251E-2,-3.9673463E-2,-4.376016E-3,-1.6347177E-2],"split_indices":[9,12,9,6,12,3,5,12,12,6,3,6,5,9,12,0,0,0,0,0,0,0,0,0,0,0,0,0,0,0,0],"split_type":[0,0,0,0,0,0,0,0,0,0,0,0,0,0,0,0,0,0,0,0,0,0,0,0,0,0,0,0,0,0,0],"sum_hessian":[1.116E3,3.58E2,7.58E2,1.97E2,1.61E2,2.29E2,5.29E2,1.61E2,3.6E1,5.6E1,1.05E2,1.05E2,1.24E2,1.67E2,3.62E2,1.57E2,4E0,3E0,3.3E1,4.5E1,1.1E1,7E1,3.5E1,6.9E1,3.6E1,3.2E1,9.2E1,9.1E1,7.6E1,4.7E1,3.15E2],"tree_param":{"num_deleted":"0","num_feature":"13","num_nodes":"31","size_leaf_vector":"1"}},{"base_weights":[-3.7864465E-2,-1.3145629E0,5.0344396E0,-2.3966901E0,2.5652543E-1,3.0318167E0,8.81534E0,-2.947429E0,-1.5954123E0,3.2447731E0,7.065603E-2,2.7804956E0,1.5510437E-1,1.0008514E1,3.7154055E0,-2.3209952E-2,-3.5192706E-2,4.416882E-2,-1.8359963E-2,-1.1336091E-3,1.5393065E-1,-3.0120616E-3,9.371325E-3,1.3932504E-2,3.647046E-2,-5.565568E-3,1.1630164E-1,4.6593484E-2,-2.212934E-2],"categories":[],"categories_nodes":[],"categories_segments":[],"categories_sizes":[],"default_left":[0,0,0,0,0,0,0,0,0,0,0,0,0,0,0,0,0,0,0,0,0,0,0,0,0,0,0,0,0],"id":39,"left_children":[1,3,5,7,9,11,13,15,17,19,21,23,-1,25,27,-1,-1,-1,-1,-1,-1,-1,-1,-1,-1,-1,-1,-1,-1],"loss_changes":[7.11705E3,1.493318E3,1.6466226E3,2.24771E2,1.9916792E2,3.6639722E2,4.252827E2,5.728784E1,9.283856E1,7.5600903E2,9.127761E1,1.11741455E2,0E0,3.5970605E2,5.573311E1,0E0,0E0,0E0,0E0,0E0,0E0,0E0,0E0,0E0,0E0,0E0,0E0,0E0,0E0],"parents":[2147483647,0,0,1,1,2,2,3,3,4,4,5,5,6,6,7,7,8,8,9,9,10,10,11,11,13,13,14,14],"right_children":[2,4,6,8,10,12,14,16,18,20,22,24,-1,26,28,-1,-1,-1,-1,-1,-1,-1,-1,-1,-1,-1,-1,-1,-1],"split_conditions":[1.055E1,5.82E0,1.782E1,3.97E0,6.05E0,2.392E1,1.2397083E1,1.00575E1,1.7E0,6E0,8.52E0,1.145E1,1.5510437E-1,2.935064E0,2.2792915E1,-2.3209952E-2,-3.5192706E-2,4.416882E-2,-1.8359963E-2,-1.1336091E-3,1.5393065E-1,-3.0120616E-3,9.371325E-3,1.3932504E-2,3.647046E-2,-5.565568E-3,1.1630164E-1,4.6593484E-2,-2.212934E-2],"split_indices":[0,0,0,0,0,1,3,3,2,0,0,0,0,4,3,0,0,0,0,0,0,0,0,0,0,0,0,0,0],"split_type":[0,0,0,0,0,0,0,0,0,0,0,0,0,0,0,0,0,0,0,0,0,0,0,0,0,0,0,0,0],"sum_hessian":[1.097E3,8.77E2,2.2E2,5.19E2,3.58E2,1.45E2,7.5E1,3.06E2,2.13E2,2E1,3.38E2,1.43E2,2E0,6E1,1.5E1,7.2E1,2.34E2,2E0,2.11E2,1.6E1,4E0,2.35E2,1.03E2,3.8E1,1.05E2,3E0,5.7E1,1.4E1,1E0],"tree_param":{"num_deleted":"0","num_feature":"13","num_nodes":"29","size_leaf_vector":"1"}},{"base_weights":[-3.3395868E-2,-6.643215E-1,7.5674453E0,-1.664893E0,7.7233E-1,8.636108E0,9.021742E-1,-7.911211E-2,-2.076706E0,1.5494683E0,-2.6807478E-1,1.0280359E1,2.9495316E0,-1.1698436E0,4.451371E0,1.0448841E-2,-2.1031486E-2,-2.942721E-2,-1.858264E-2,3.491095E-2,-7.781018E-4,2.5320485E-2,-7.174565E-3,-2.4001045E-2,1.18636474E-1,-2.8391011E-2,4.1864637E-2,-2.3907015E-2,1.7134968E-2,8.1523634E-2,2.051307E-2],"categories":[],"categories_nodes":[],"categories_segments":[],"categories_sizes":[],"default_left":[0,0,0,0,0,0,0,0,0,0,0,0,0,0,0,0,0,0,0,0,0,0,0,0,0,0,0,0,0,0,0],"id":40,"left_children":[1,3,5,7,9,11,13,15,17,19,21,23,25,27,29,-1,-1,-1,-1,-1,-1,-1,-1,-1,-1,-1,-1,-1,-1,-1,-1],"loss_changes":[5.3808564E3,1.4905073E3,6.0478076E2,3.9884644E2,3.4485266E2,6.6158936E2,1.00809395E2,2.408084E2,1.07917725E2,6.409058E2,1.8164339E2,3.7340918E2,9.4581726E1,2.7937122E1,2.441301E1,0E0,0E0,0E0,0E0,0E0,0E0,0E0,0E0,0E0,0E0,0E0,0E0,0E0,0E0,0E0,0E0],"parents":[2147483647,0,0,1,1,2,2,3,3,4,4,5,5,6,6,7,7,8,8,9,9,10,10,11,11,12,12,13,13,14,14],"right_children":[2,4,6,8,10,12,14,16,18,20,22,24,26,28,30,-1,-1,-1,-1,-1,-1,-1,-1,-1,-1,-1,-1,-1,-1,-1,-1],"split_conditions":[1.698E1,6.55E0,1.6000001E0,1.481888E0,2E-1,2.083636E0,2.392E1,3.1000001E0,3.63E0,2.8224409E0,7.9438925E-1,8.991668E-1,2.1280613E0,1.0956271E1,2.604E1,1.0448841E-2,-2.1031486E-2,-2.942721E-2,-1.858264E-2,3.491095E-2,-7.781018E-4,2.5320485E-2,-7.174565E-3,-2.4001045E-2,1.18636474E-1,-2.8391011E-2,4.1864637E-2,-2.3907015E-2,1.7134968E-2,8.1523634E-2,2.051307E-2],"split_indices":[1,1,6,12,6,12,1,6,1,12,12,5,12,4,1,0,0,0,0,0,0,0,0,0,0,0,0,0,0,0,0],"split_type":[0,0,0,0,0,0,0,0,0,0,0,0,0,0,0,0,0,0,0,0,0,0,0,0,0,0,0,0,0,0,0],"sum_hessian":[1.12E3,1.035E3,8.5E1,6.1E2,4.25E2,7.3E1,1.2E1,1.26E2,4.84E2,2.43E2,1.82E2,5.6E1,1.7E1,8E0,4E0,8.1E1,4.5E1,1.89E2,2.95E2,1.21E2,1.22E2,2.3E1,1.59E2,2E0,5.4E1,2E0,1.5E1,6E0,2E0,1E0,3E0],"tree_param":{"num_deleted":"0","num_feature":"13","num_nodes":"31","size_leaf_vector":"1"}},{"base_weights":[1.7325118E-2,3.8679075E0,-8.3414286E-1,5.747977E0,-1.2273299E0,6.410292E-1,-1.5193129E0,5.1163187E0,2.2663803E1,-2.4722543E0,1.7008692E0,-3.204125E-1,2.9912193E0,-2.1277301E0,-5.831984E-1,3.516922E-2,8.860873E-2,3.849959E-1,3.0972369E-2,-3.1344097E-2,-1.001307E-2,2.7584773E-2,-2.099764E-3,8.086582E-3,-1.7184893E-2,4.360732E-2,2.7533646E-3,-1.7267335E-2,-2.7868072E-2,2.624835E-3,-1.2742312E-2],"categories":[],"categories_nodes":[],"categories_segments":[],"categories_sizes":[],"default_left":[0,0,0,0,0,0,0,0,0,0,0,0,0,0,0,0,0,0,0,0,0,0,0,0,0,0,0,0,0,0,0],"id":41,"left_children":[1,3,5,7,9,11,13,15,17,19,21,23,25,27,29,-1,-1,-1,-1,-1,-1,-1,-1,-1,-1,-1,-1,-1,-1,-1,-1],"loss_changes":[3.6392468E3,1.9325137E3,9.1974E2,1.4547427E3,2.0470123E2,6.539743E2,3.5244836E2,7.7989453E2,1.1221973E3,2.0211197E1,2.633228E1,2.705896E2,2.2205127E2,8.082483E1,1.1626172E2,0E0,0E0,0E0,0E0,0E0,0E0,0E0,0E0,0E0,0E0,0E0,0E0,0E0,0E0,0E0,0E0],"parents":[2147483647,0,0,1,1,2,2,3,3,4,4,5,5,6,6,7,7,8,8,9,9,10,10,11,11,12,12,13,13,14,14],"right_children":[2,4,6,8,10,12,14,16,18,20,22,24,26,28,30,-1,-1,-1,-1,-1,-1,-1,-1,-1,-1,-1,-1,-1,-1,-1,-1],"split_conditions":[1.0630672E1,1.5078334E1,1.4773164E1,1.37773285E1,7.72E0,8.84E0,6.75E0,1.147E1,6.05E0,2.1550142E1,9.9408245E0,3.053601E0,5E-1,1.8043148E1,1.8374111E1,3.516922E-2,8.860873E-2,3.849959E-1,3.0972369E-2,-3.1344097E-2,-1.001307E-2,2.7584773E-2,-2.099764E-3,8.086582E-3,-1.7184893E-2,4.360732E-2,2.7533646E-3,-1.7267335E-2,-2.7868072E-2,2.624835E-3,-1.2742312E-2],"split_indices":[9,3,9,4,2,2,2,2,2,4,9,12,6,9,9,0,0,0,0,0,0,0,0,0,0,0,0,0,0,0,0],"split_type":[0,0,0,0,0,0,0,0,0,0,0,0,0,0,0,0,0,0,0,0,0,0,0,0,0,0,0,0,0,0,0],"sum_hessian":[1.108E3,2E2,9.08E2,1.46E2,5.4E1,2.88E2,6.2E2,1.42E2,4E0,3.8E1,1.6E1,2.05E2,8.3E1,3.75E2,2.45E2,8.7E1,5.5E1,2E0,2E0,3E1,8E0,1.1E1,5E0,1.11E2,9.4E1,6.1E1,2.2E1,1.59E2,2.16E2,1.01E2,1.44E2],"tree_param":{"num_deleted":"0","num_feature":"13","num_nodes":"31","size_leaf_vector":"1"}},{"base_weights":[1.119585E-1,-1.2670865E0,5.046426E0,-2.4208307E0,2.2181664E-1,3.0842829E0,8.384892E0,-2.8596833E0,-1.4773924E0,1.0194589E0,-1.5168348E-1,2.8532455E0,1.5155236E-1,1.103052E1,5.8952827E0,-3.629087E-4,-3.2457344E-2,4.3994576E-2,-1.7330952E-2,4.2961915E-3,2.8239077E-1,-4.614499E-3,1.6694935E-2,8.675994E-2,2.8150955E-2,7.235982E-3,1.4030986E-1,8.087409E-2,3.383877E-2],"categories":[],"categories_nodes":[],"categories_segments":[],"categories_sizes":[],"default_left":[0,0,0,0,0,0,0,0,0,0,0,0,0,0,0,0,0,0,0,0,0,0,0,0,0,0,0,0,0],"id":42,"left_children":[1,3,5,7,9,11,13,15,17,19,21,23,-1,25,27,-1,-1,-1,-1,-1,-1,-1,-1,-1,-1,-1,-1,-1,-1],"loss_changes":[7.5393657E3,1.4881633E3,1.5593716E3,1.9782202E2,1.1306613E2,3.406466E2,5.2117773E2,8.219238E1,8.909964E1,1.8650743E3,1.1611222E2,2.066643E2,0E0,7.369336E2,1.736991E2,0E0,0E0,0E0,0E0,0E0,0E0,0E0,0E0,0E0,0E0,0E0,0E0,0E0,0E0],"parents":[2147483647,0,0,1,1,2,2,3,3,4,4,5,5,6,6,7,7,8,8,9,9,10,10,11,11,13,13,14,14],"right_children":[2,4,6,8,10,12,14,16,18,20,22,24,-1,26,28,-1,-1,-1,-1,-1,-1,-1,-1,-1,-1,-1,-1,-1,-1],"split_conditions":[1.055E1,5.57E0,1.782E1,4.13E0,1.8682011E0,3.685E1,7.2866673E0,7.0262355E-1,1.7E0,1.8335127E0,9.13E0,2.2012498E0,1.5155236E-1,1.96375E0,1.2109584E1,-3.629087E-4,-3.2457344E-2,4.3994576E-2,-1.7330952E-2,4.2961915E-3,2.8239077E-1,-4.614499E-3,1.6694935E-2,8.675994E-2,2.8150955E-2,7.235982E-3,1.4030986E-1,8.087409E-2,3.383877E-2],"split_indices":[0,0,0,0,12,1,5,12,2,12,0,5,0,5,3,0,0,0,0,0,0,0,0,0,0,0,0,0,0],"split_type":[0,0,0,0,0,0,0,0,0,0,0,0,0,0,0,0,0,0,0,0,0,0,0,0,0,0,0,0,0],"sum_hessian":[1.106E3,8.65E2,2.41E2,4.87E2,3.78E2,1.53E2,8.8E1,3.31E2,1.56E2,1.2E2,2.58E2,1.51E2,2E0,4.1E1,4.7E1,1E1,3.21E2,2E0,1.54E2,1.18E2,2E0,2.23E2,3.5E1,7E0,1.44E2,6E0,3.5E1,3E1,1.7E1],"tree_param":{"num_deleted":"0","num_feature":"13","num_nodes":"29","size_leaf_vector":"1"}},{"base_weights":[3.2065805E-2,-7.182315E-1,5.2455764E0,-1.578407E0,7.133961E-1,6.5791802E0,6.6409034E-1,-5.9176352E-2,-1.9422661E0,1.5928714E0,-3.8491017E-1,8.021995E0,1.8312122E0,-6.667368E-1,5.5122924E0,-3.1102438E-2,6.0162256E-3,-2.7088493E-2,-1.2919683E-2,-2.0441642E-2,2.8141871E-2,2.6427184E-3,-1.6720055E-2,-1.4884154E-2,9.985696E-2,3.7736876E-3,4.217583E-2,-1.7625656E-2,2.3087556E-2,8.6280994E-2,1.9949442E-2],"categories":[],"categories_nodes":[],"categories_segments":[],"categories_sizes":[],"default_left":[0,0,0,0,0,0,0,0,0,0,0,0,0,0,0,0,0,0,0,0,0,0,0,0,0,0,0,0,0,0,0],"id":43,"left_children":[1,3,5,7,9,11,13,15,17,19,21,23,25,27,29,-1,-1,-1,-1,-1,-1,-1,-1,-1,-1,-1,-1,-1,-1,-1,-1],"loss_changes":[4.2596787E3,1.1734673E3,8.3268506E2,3.287926E2,3.4641724E2,7.1145654E2,2.1014305E2,1.9576012E2,1.881753E2,6.6546204E2,1.1368363E2,8.062583E2,7.603967E1,7.04444E1,4.5975418E1,0E0,0E0,0E0,0E0,0E0,0E0,0E0,0E0,0E0,0E0,0E0,0E0,0E0,0E0,0E0,0E0],"parents":[2147483647,0,0,1,1,2,2,3,3,4,4,5,5,6,6,7,7,8,8,9,9,10,10,11,11,12,12,13,13,14,14],"right_children":[2,4,6,8,10,12,14,16,18,20,22,24,26,28,30,-1,-1,-1,-1,-1,-1,-1,-1,-1,-1,-1,-1,-1,-1,-1,-1],"split_conditions":[1.36E1,6.75E0,1E0,9.972084E0,1.5884416E2,1.41575E1,2.392E1,1.9769207E1,4.44E0,2.5947386E1,7.0000005E-1,5.470834E-1,1.8486668E1,1.166375E1,1.4972525E2,-3.1102438E-2,6.0162256E-3,-2.7088493E-2,-1.2919683E-2,-2.0441642E-2,2.8141871E-2,2.6427184E-3,-1.6720055E-2,-1.4884154E-2,9.985696E-2,3.7736876E-3,4.217583E-2,-1.7625656E-2,2.3087556E-2,8.6280994E-2,1.9949442E-2],"split_indices":[1,1,7,3,10,3,1,10,1,10,7,5,3,5,10,0,0,0,0,0,0,0,0,0,0,0,0,0,0,0,0],"split_type":[0,0,0,0,0,0,0,0,0,0,0,0,0,0,0,0,0,0,0,0,0,0,0,0,0,0,0,0,0,0,0],"sum_hessian":[1.087E3,9.51E2,1.36E2,5.94E2,3.57E2,1.05E2,3.1E1,1.15E2,4.79E2,1.98E2,1.59E2,8E1,2.5E1,2.5E1,6E0,2E1,9.5E1,2.85E2,1.94E2,4.3E1,1.55E2,1.03E2,5.6E1,8E0,7.2E1,1.5E1,1E1,1.9E1,6E0,3E0,3E0],"tree_param":{"num_deleted":"0","num_feature":"13","num_nodes":"31","size_leaf_vector":"1"}},{"base_weights":[1.2534314E-2,-1.1170422E0,5.787265E0,-2.3628962E0,4.0805534E-1,3.1310256E0,8.468293E0,-2.8645768E0,-1.6482778E0,1.259574E0,-8.260346E-1,3.583253E0,-2.0087395E0,9.519092E0,2.234141E0,-2.0483883E-2,-3.479769E-2,6.527263E-2,-1.8866245E-2,2.6373504E-2,1.4586783E-3,-2.3214122E-2,-5.732623E-3,4.3372896E-2,1.2367621E-2,-3.5181213E-2,-2.6523345E-4,-5.522692E-3,1.1112193E-1,-3.723859E-2,3.8013227E-2],"categories":[],"categories_nodes":[],"categories_segments":[],"categories_sizes":[],"default_left":[0,0,0,0,0,0,0,0,0,0,0,0,0,0,0,0,0,0,0,0,0,0,0,0,0,0,0,0,0,0,0],"id":44,"left_children":[1,3,5,7,9,11,13,15,17,19,21,23,25,27,29,-1,-1,-1,-1,-1,-1,-1,-1,-1,-1,-1,-1,-1,-1,-1,-1],"loss_changes":[7.096966E3,1.730009E3,1.241104E3,1.7489185E2,4.3188928E2,2.1871295E2,5.5520605E2,8.103711E1,1.12936646E2,3.106387E2,6.469252E1,6.900708E1,1.8753063E1,4.34646E2,1.0741099E2,0E0,0E0,0E0,0E0,0E0,0E0,0E0,0E0,0E0,0E0,0E0,0E0,0E0,0E0,0E0,0E0],"parents":[2147483647,0,0,1,1,2,2,3,3,4,4,5,5,6,6,7,7,8,8,9,9,10,10,11,11,12,12,13,13,14,14],"right_children":[2,4,6,8,10,12,14,16,18,20,22,24,26,28,30,-1,-1,-1,-1,-1,-1,-1,-1,-1,-1,-1,-1,-1,-1,-1,-1],"split_conditions":[1.175E1,5.82E0,1.782E1,4E0,3E-1,6.0999994E0,1.0340835E1,1.0238751E1,1.7E0,1.5078334E1,6.6E0,1.614E1,1.614E1,1.8554167E0,1.077625E1,-2.0483883E-2,-3.479769E-2,6.527263E-2,-1.8866245E-2,2.6373504E-2,1.4586783E-3,-2.3214122E-2,-5.732623E-3,4.3372896E-2,1.2367621E-2,-3.5181213E-2,-2.6523345E-4,-5.522692E-3,1.1112193E-1,-3.723859E-2,3.8013227E-2],"split_indices":[0,0,0,0,6,6,5,3,2,3,0,0,0,5,5,0,0,0,0,0,0,0,0,0,0,0,0,0,0,0,0],"split_type":[0,0,0,0,0,0,0,0,0,0,0,0,0,0,0,0,0,0,0,0,0,0,0,0,0,0,0,0,0,0,0],"sum_hessian":[1.086E3,9.09E2,1.77E2,5E2,4.09E2,9E1,8.7E1,2.92E2,2.08E2,2.42E2,1.67E2,8.3E1,7E0,7.4E1,1.3E1,6.8E1,2.24E2,1E0,2.07E2,1.2E2,1.22E2,3.1E1,1.36E2,7.2E1,1.1E1,4E0,3E0,4E0,7E1,2E0,1.1E1],"tree_param":{"num_deleted":"0","num_feature":"13","num_nodes":"31","size_leaf_vector":"1"}},{"base_weights":[4.214869E-2,-1.2626959E0,4.708271E0,-2.293124E0,2.5726014E-1,2.9419615E0,8.01662E0,-2.8637695E0,-1.5132804E0,3.7364705E0,5.857074E-2,4.323054E0,1.1939173E0,1.0483852E1,5.2997713E0,-1.0473285E-3,-3.248261E-2,4.3391258E-2,-1.7411312E-2,-2.1532389E-4,1.9631048E-1,-3.8703538E-3,1.4568651E-2,5.2346963E-2,1.2828788E-2,2.09289E-2,-9.658916E-3,7.57914E-4,1.3052282E-1,7.024325E-2,6.996166E-3],"categories":[],"categories_nodes":[],"categories_segments":[],"categories_sizes":[],"default_left":[0,0,0,0,0,0,0,0,0,0,0,0,0,0,0,0,0,0,0,0,0,0,0,0,0,0,0,0,0,0,0],"id":45,"left_children":[1,3,5,7,9,11,13,15,17,19,21,23,25,27,29,-1,-1,-1,-1,-1,-1,-1,-1,-1,-1,-1,-1,-1,-1,-1,-1],"loss_changes":[6.7703403E3,1.3616228E3,1.3964028E3,2.2618335E2,2.4311247E2,3.8111218E2,5.0749805E2,7.058594E1,8.793948E1,1.0058718E3,1.7361954E2,1.1544641E2,1.0702774E2,6.121011E2,2.0729993E2,0E0,0E0,0E0,0E0,0E0,0E0,0E0,0E0,0E0,0E0,0E0,0E0,0E0,0E0,0E0,0E0],"parents":[2147483647,0,0,1,1,2,2,3,3,4,4,5,5,6,6,7,7,8,8,9,9,10,10,11,11,12,12,13,13,14,14],"right_children":[2,4,6,8,10,12,14,16,18,20,22,24,26,28,30,-1,-1,-1,-1,-1,-1,-1,-1,-1,-1,-1,-1,-1,-1,-1,-1],"split_conditions":[1.055E1,5.82E0,1.782E1,3.97E0,6.05E0,2E-1,8.921376E0,7.0262355E-1,1.7E0,6E0,8.84E0,4.0168204E0,6.0999994E0,1.96375E0,1.2E0,-1.0473285E-3,-3.248261E-2,4.3391258E-2,-1.7411312E-2,-2.1532389E-4,1.9631048E-1,-3.8703538E-3,1.4568651E-2,5.2346963E-2,1.2828788E-2,2.09289E-2,-9.658916E-3,7.57914E-4,1.3052282E-1,7.024325E-2,6.996166E-3],"split_indices":[0,0,0,0,0,6,4,12,2,0,0,12,6,5,6,0,0,0,0,0,0,0,0,0,0,0,0,0,0,0,0],"split_type":[0,0,0,0,0,0,0,0,0,0,0,0,0,0,0,0,0,0,0,0,0,0,0,0,0,0,0,0,0,0,0],"sum_hessian":[1.11E3,8.68E2,2.42E2,5.17E2,3.51E2,1.59E2,8.3E1,2.97E2,2.2E2,1.8E1,3.33E2,8.8E1,7.1E1,4.2E1,4.1E1,9E0,2.88E2,2E0,2.18E2,1.5E1,3E0,2.52E2,8.1E1,7.7E1,1.1E1,5.3E1,1.8E1,5E0,3.7E1,3.3E1,8E0],"tree_param":{"num_deleted":"0","num_feature":"13","num_nodes":"31","size_leaf_vector":"1"}},{"base_weights":[1.0941186E-1,1.1805325E0,-1.2449508E0,-1.8208374E0,1.9619012E0,-8.9205724E-1,-2.0436008E0,-3.020325E0,-1.1196717E0,3.1945198E0,-6.137444E-2,1.1189598E0,-1.3397512E0,-2.2355356E0,-1.940998E-2,-3.5766788E-2,1.5416347E-2,1.05821624E-1,-1.5061564E-2,1.2045652E-2,4.821867E-2,1.15100015E-2,-7.51855E-3,2.0745995E-2,-3.439764E-2,-2.4812855E-2,-1.1234677E-2,-1.037532E-2,-2.8685983E-2,8.694177E-3,-2.4657106E-2],"categories":[],"categories_nodes":[],"categories_segments":[],"categories_sizes":[],"default_left":[0,0,0,0,0,0,0,0,0,0,0,0,0,0,0,0,0,0,0,0,0,0,0,0,0,0,0,0,0,0,0],"id":46,"left_children":[1,3,5,7,9,11,13,15,17,19,21,23,25,27,29,-1,-1,-1,-1,-1,-1,-1,-1,-1,-1,-1,-1,-1,-1,-1,-1],"loss_changes":[1.6160828E3,1.4622722E3,1.3684149E2,1.05112305E2,1.232196E3,3.1030893E2,5.823346E1,5.182361E1,2.3401634E2,7.5884424E2,1.2997926E2,2.103341E2,7.972467E1,6.2994568E1,2.6904411E1,0E0,0E0,0E0,0E0,0E0,0E0,0E0,0E0,0E0,0E0,0E0,0E0,0E0,0E0,0E0,0E0],"parents":[2147483647,0,0,1,1,2,2,3,3,4,4,5,5,6,6,7,7,8,8,9,9,10,10,11,11,12,12,13,13,14,14],"right_children":[2,4,6,8,10,12,14,16,18,20,22,24,26,28,30,-1,-1,-1,-1,-1,-1,-1,-1,-1,-1,-1,-1,-1,-1,-1,-1],"split_conditions":[1.6230548E2,2.5947386E1,7.0000005E-1,9.52E0,7E-1,1.4797086E1,1.8261665E1,1.6949167E1,9.63E0,4.7717724E1,3.3E0,3.3444006E2,2.0568432E1,1.7386647E2,1.1200001E1,-3.5766788E-2,1.5416347E-2,1.05821624E-1,-1.5061564E-2,1.2045652E-2,4.821867E-2,1.15100015E-2,-7.51855E-3,2.0745995E-2,-3.439764E-2,-2.4812855E-2,-1.1234677E-2,-1.037532E-2,-2.8685983E-2,8.694177E-3,-2.4657106E-2],"split_indices":[10,10,6,11,6,3,5,3,11,10,6,10,4,10,6,0,0,0,0,0,0,0,0,0,0,0,0,0,0,0,0],"split_type":[0,0,0,0,0,0,0,0,0,0,0,0,0,0,0,0,0,0,0,0,0,0,0,0,0,0,0,0,0,0,0],"sum_hessian":[1.112E3,6.21E2,4.91E2,1.28E2,4.93E2,3.42E2,1.49E2,4.6E1,8.2E1,3.06E2,1.87E2,6.2E1,2.8E2,1.36E2,1.3E1,4.4E1,2E0,1E0,8.1E1,1.11E2,1.95E2,6.7E1,1.2E2,5.3E1,9E0,7.1E1,2.09E2,3.1E1,1.05E2,1E1,3E0],"tree_param":{"num_deleted":"0","num_feature":"13","num_nodes":"31","size_leaf_vector":"1"}},{"base_weights":[2.344749E-2,-1.5490485E0,3.9762557E0,-2.497109E0,-4.288477E-1,2.3035192E0,8.355534E0,-3.6740445E-2,-2.2378252E0,3.0526173E-1,-8.973297E-1,2.1511521E0,1.4890748E-1,1.0553699E1,4.921575E0,-9.903496E-4,-2.6420094E-2,-2.0682173E-2,1.24582555E-2,-1.6558018E-2,-2.1247545E-3,4.5162593E-3,2.7461896E-2,6.850442E-3,1.2974924E-1,6.8535656E-2,2.5747726E-2],"categories":[],"categories_nodes":[],"categories_segments":[],"categories_sizes":[],"default_left":[0,0,0,0,0,0,0,0,0,0,0,0,0,0,0,0,0,0,0,0,0,0,0,0,0,0,0],"id":47,"left_children":[1,3,5,7,9,11,13,-1,15,17,19,21,-1,23,25,-1,-1,-1,-1,-1,-1,-1,-1,-1,-1,-1,-1],"loss_changes":[7.141869E3,8.7190784E2,2.376151E3,8.936157E1,1.3027457E2,3.77729E2,6.274165E2,0E0,1.1862952E2,2.690486E2,9.835657E1,1.3974353E2,0E0,6.515215E2,1.0990314E2,0E0,0E0,0E0,0E0,0E0,0E0,0E0,0E0,0E0,0E0,0E0,0E0],"parents":[2147483647,0,0,1,1,2,2,3,3,4,4,5,5,6,6,8,8,9,9,10,10,11,11,13,13,14,14],"right_children":[2,4,6,8,10,12,14,-1,16,18,20,22,-1,24,26,-1,-1,-1,-1,-1,-1,-1,-1,-1,-1,-1,-1],"split_conditions":[8.84E0,4.84E0,1.782E1,2.6E0,1.5168033E2,2.745E1,8.297082E0,-3.6740445E-2,6.8825E0,2.5947386E1,6.93E0,3.30707E1,1.4890748E-1,1.96375E0,1.0340835E1,-9.903496E-4,-2.6420094E-2,-2.0682173E-2,1.24582555E-2,-1.6558018E-2,-2.1247545E-3,4.5162593E-3,2.7461896E-2,6.850442E-3,1.2974924E-1,6.8535656E-2,2.5747726E-2],"split_indices":[0,0,0,0,10,1,5,0,3,10,0,10,0,5,5,0,0,0,0,0,0,0,0,0,0,0,0],"split_type":[0,0,0,0,0,0,0,0,0,0,0,0,0,0,0,0,0,0,0,0,0,0,0,0,0,0,0],"sum_hessian":[1.147E3,8.21E2,3.26E2,4.44E2,3.77E2,2.37E2,8.9E1,1.02E2,3.42E2,1.47E2,2.3E2,2.35E2,2E0,5.3E1,3.6E1,2.4E1,3.18E2,4E1,1.07E2,1.23E2,1.07E2,3.9E1,1.96E2,6E0,4.7E1,2.3E1,1.3E1],"tree_param":{"num_deleted":"0","num_feature":"13","num_nodes":"27","size_leaf_vector":"1"}},{"base_weights":[-4.3328103E-2,-9.488702E-1,